{"learner":{"attributes":{"best_iteration":"137","best_score":"4881572.501080992","scikit_learn":"{\"_estimator_type\": \"regressor\"}"},"feature_names":[],"feature_types":[],"gradient_booster":{"model":{"gbtree_model_param":{"num_parallel_tree":"1","num_trees":"158"},"iteration_indptr":[0,1,2,3,4,5,6,7,8,9,10,11,12,13,14,15,16,17,18,19,20,21,22,23,24,25,26,27,28,29,30,31,32,33,34,35,36,37,38,39,40,41,42,43,44,45,46,47,48,49,50,51,52,53,54,55,56,57,58,59,60,61,62,63,64,65,66,67,68,69,70,71,72,73,74,75,76,77,78,79,80,81,82,83,84,85,86,87,88,89,90,91,92,93,94,95,96,97,98,99,100,101,102,103,104,105,106,107,108,109,110,111,112,113,114,115,116,117,118,119,120,121,122,123,124,125,126,127,128,129,130,131,132,133,134,135,136,137,138,139,140,141,142,143,144,145,146,147,148,149,150,151,152,153,154,155,156,157,158],"tree_info":[0,0,0,0,0,0,0,0,0,0,0,0,0,0,0,0,0,0,0,0,0,0,0,0,0,0,0,0,0,0,0,0,0,0,0,0,0,0,0,0,0,0,0,0,0,0,0,0,0,0,0,0,0,0,0,0,0,0,0,0,0,0,0,0,0,0,0,0,0,0,0,0,0,0,0,0,0,0,0,0,0,0,0,0,0,0,0,0,0,0,0,0,0,0,0,0,0,0,0,0,0,0,0,0,0,0,0,0,0,0,0,0,0,0,0,0,0,0,0,0,0,0,0,0,0,0,0,0,0,0,0,0,0,0,0,0,0,0,0,0,0,0,0,0,0,0,0,0,0,0,0,0,0,0,0,0,0,0],"trees":[{"base_weights":[2.9918864E-1,-8.2019185E6,1.2251518E7,-1.1171925E7,-2.9363795E6,6.567108E6,1.8122006E7,-1.2677674E7,-9.025065E6,2.8836894E5,-4.3115515E6,4.565444E6,1.0047194E7,1.5292214E7,2.1681508E7,-1.3104542E7,-1.1426452E7,-6.271395E6,-9.85472E6,-3.3960808E6,2.326089E6,-6.2691155E6,-2.2301562E6,8.381337E6,3.2314278E6,1.2123047E7,7.0102535E6,1.7612208E7,1.1942579E7,2.4071648E7,1.8211492E7,-8.0750444E5,-1.3232297E7,-9.263867E6,-1.1947799E7,-7.544458E6,-4.1149128E6,-3.574265E6,-1.0015863E7,-8.76761E6,-2.6417182E6,-7.2613825E6,3.1372368E6,-8.3378135E6,-5.209609E6,-4.948885E6,-3.8488444E5,9.808149E6,4.0045625E6,1.3085299E6,4.8593605E6,-7.1668185E6,1.2527466E7,2.345189E6,8.751958E6,-3.8177805E6,1.7843528E7,1.2853197E7,8.733164E6,2.2152432E7,1.8026072E6,1.6246134E7,2.1076318E7,-9.5174025E5,-1.2859554E7,-7.2398625E5,-7.0664575E6,-3.964472E6,-8.428343E5,-5.7499815E6,-8.224425E6,-1.0069809E7,-3.4471E6,-5.7661575E6,2.4142716E5,-1.1030105E7,-8.933992E6,-3.6400412E6,-9.684185E6,-4.2132688E5,-3.967397E6,1.21642E5,-8.538513E6,1.4593435E6,6.1637105E6,-5.77352E6,-1.0096735E7,-4.1302588E6,-6.937482E6,-1.6307472E6,-6.9450995E6,1.225206E6,-2.5573525E6,1.1229124E7,7.075826E6,2.883667E6,7.615378E6,-1.9741676E6,2.327117E6,7.5062455E6,2.4740445E6,-9.011578E6,9.90339E3,8.810848E6,1.324119E7,6.0563845E6,5.7421125E5,1.1428864E7,6.1814665E6,-5.301632E5,1.28214555E5,2.0069352E7,1.608993E7,1.0563945E7,1.3922001E7,9.723864E6,7.3620515E6,1.7356091E6,2.0199022E7,1.177076E6,1.2287437E7,1.5576181E6,1.2984778E6,-8.4805856E5,-9.192902E5,-2.172871E5,-5.1752825E5,-3.259761E5,-1.0423668E5,-6.312619E5,-3.4326328E5,-6.105822E5,-4.051518E5,-8.115002E5,-4.346979E4,-1.6846033E5,-3.3006625E5,3.4434633E4,-4.515556E5,5.9358707E4,-9.3471914E4,-7.404708E5,-8.770941E5,-7.0355706E5,-5.8342094E5,-3.4621278E5,-4.7988477E4,-7.089798E5,-2.2395823E5,-3.8437047E5,5.8315324E4,-5.0503038E5,-2.1988747E5,3.2065772E5,-2.2772072E5,-3.3581625E5,-6.2616394E5,-1.6248519E4,1.9748652E5,4.9332744E5,-2.21472E4,-4.7188922E5,1.08598234E5,-5.0766706E5,-8.150105E5,-3.5617597E5,-1.3375989E5,-5.87775E5,-3.8273897E5,1.5484922E5,-2.1724523E5,-2.2717639E5,-5.9933506E5,-6.7110756E5,1.1224506E5,-3.1437766E5,7.64282E4,1.3347284E5,8.3034525E5,-1.2783582E4,6.024426E5,9.883277E4,4.1277794E5,6.619912E5,-1.4808014E5,5.763158E5,-1.7808456E5,-4.5859306E5,1.8252616E5,-4.8678078E5,5.476287E5,-1.9631014E4,4.6257653E5,-7.0565075E5,-2.7085956E5,9.0029494E5,2.8458753E5,2.1287702E5,9.5413456E5,5.2597506E5,-3.7818703E4,4.4018534E5,-4.1713486E3,8.8717856E5,4.8095853E5,5.25128E5,2.3703439E5,3.2706022E5,1.4188341E6,1.0381201E6,1.3335681E6,8.273525E5,4.9286675E5,1.1089714E6,8.7894E5,5.674407E5,8.3322844E5,2.0648506E5,5.457483E5,1.4211472E6,5.818331E5,3.695901E5,9.169967E5],"categories":[],"categories_nodes":[],"categories_segments":[],"categories_sizes":[],"default_left":[0,0,0,0,0,0,0,0,0,0,0,0,0,0,0,0,0,0,0,0,0,0,0,0,0,0,0,0,0,0,0,0,0,0,0,0,0,0,0,0,0,0,0,0,0,0,0,0,0,0,0,0,0,0,0,0,0,0,0,0,0,0,0,0,0,0,0,0,0,0,0,0,0,0,0,0,0,0,0,0,0,0,0,0,0,0,0,0,0,0,0,0,0,0,0,0,0,0,0,0,0,0,0,0,0,0,0,0,0,0,0,0,0,0,0,0,0,0,0,0,0,0,0,0,0,0,0,0,0,0,0,0,0,0,0,0,0,0,0,0,0,0,0,0,0,0,0,0,0,0,0,0,0,0,0,0,0,0,0,0,0,0,0,0,0,0,0,0,0,0,0,0,0,0,0,0,0,0,0,0,0,0,0,0,0,0,0,0,0,0,0,0,0,0,0,0,0,0,0,0,0,0,0,0,0,0,0,0,0,0,0,0,0,0,0,0,0,0,0,0,0,0,0],"id":0,"left_children":[1,3,5,7,9,11,13,15,17,19,21,23,25,27,29,31,33,35,37,39,41,43,45,47,49,51,53,55,57,59,61,-1,63,65,67,69,71,73,75,77,79,81,83,85,87,89,91,93,95,97,99,101,103,105,107,109,111,113,115,117,-1,119,121,-1,123,-1,125,127,-1,129,131,133,135,137,139,141,143,145,147,149,151,153,155,157,159,161,163,165,167,169,171,173,175,177,179,181,183,185,187,189,191,193,-1,195,197,199,201,203,205,-1,-1,207,209,211,213,215,217,-1,219,-1,221,-1,-1,-1,-1,-1,-1,-1,-1,-1,-1,-1,-1,-1,-1,-1,-1,-1,-1,-1,-1,-1,-1,-1,-1,-1,-1,-1,-1,-1,-1,-1,-1,-1,-1,-1,-1,-1,-1,-1,-1,-1,-1,-1,-1,-1,-1,-1,-1,-1,-1,-1,-1,-1,-1,-1,-1,-1,-1,-1,-1,-1,-1,-1,-1,-1,-1,-1,-1,-1,-1,-1,-1,-1,-1,-1,-1,-1,-1,-1,-1,-1,-1,-1,-1,-1,-1,-1,-1,-1,-1,-1,-1,-1,-1,-1,-1,-1,-1,-1,-1,-1,-1],"loss_changes":[1.0404314E18,9.695834E16,1.38434355E17,1.2702967E16,9.925841E15,1.4659273E16,2.0236786E16,1.0936705E15,3.680366E15,5.0381776E15,6.378853E15,6.804321E15,4.7692777E15,8.6565066E15,7.042647E15,1.9385764E14,5.658018E14,1.0176753E15,1.2363493E15,9.4528526E14,3.3823826E15,1.7275368E15,3.8208923E15,2.1276796E15,3.1114676E15,3.6471273E15,2.5389023E15,3.3993635E15,1.2613503E15,1.1414992E15,1.7521147E15,0E0,4.1162967E13,2.1375086E14,3.0745523E14,2.4433317E14,5.3794116E14,2.7739053E14,1.2456264E15,1.0104327E14,6.194124E14,3.2162755E14,2.0171668E15,1.1685318E15,9.728412E14,2.0287788E15,1.5946642E15,9.338934E14,3.3015883E14,1.5360149E15,3.3844911E15,1.36095535E14,1.0690689E15,5.68325E14,1.5050918E15,1.8362519E14,2.2727077E15,7.43549E14,7.375694E13,8.15202E14,0E0,3.004072E14,2.6753351E13,0E0,4.587025E12,0E0,3.2731543E13,5.0619545E12,0E0,1.465961E14,1.5707984E14,1.942752E14,1.615097E14,9.314804E13,1.3565238E13,2.931401E14,3.1655197E14,1.9758133E13,3.671244E13,5.1332815E14,3.3146195E14,1.051951E14,1.2088991E12,5.949821E14,8.155021E14,8.114844E14,6.1926234E14,6.982747E14,3.9378515E14,6.690414E14,1.1207223E15,1.0870311E15,1.3738908E15,9.804852E14,1.02360345E15,2.9323245E14,3.7841856E14,6.550079E14,8.884112E14,1.2233763E15,3.2473134E15,4.9750485E12,0E0,1.3892802E15,1.4397031E15,2.7327723E14,2.1767317E14,5.4287313E14,4.1379755E14,0E0,0E0,7.939333E14,1.1236236E15,4.475023E14,4.4365724E14,1.1150272E14,7.090964E13,0E0,1.7506287E13,0E0,1.1303441E14,0E0,0E0,0E0,0E0,0E0,0E0,0E0,0E0,0E0,0E0,0E0,0E0,0E0,0E0,0E0,0E0,0E0,0E0,0E0,0E0,0E0,0E0,0E0,0E0,0E0,0E0,0E0,0E0,0E0,0E0,0E0,0E0,0E0,0E0,0E0,0E0,0E0,0E0,0E0,0E0,0E0,0E0,0E0,0E0,0E0,0E0,0E0,0E0,0E0,0E0,0E0,0E0,0E0,0E0,0E0,0E0,0E0,0E0,0E0,0E0,0E0,0E0,0E0,0E0,0E0,0E0,0E0,0E0,0E0,0E0,0E0,0E0,0E0,0E0,0E0,0E0,0E0,0E0,0E0,0E0,0E0,0E0,0E0,0E0,0E0,0E0,0E0,0E0,0E0,0E0,0E0,0E0,0E0,0E0,0E0,0E0,0E0,0E0,0E0,0E0,0E0,0E0],"parents":[2147483647,0,0,1,1,2,2,3,3,4,4,5,5,6,6,7,7,8,8,9,9,10,10,11,11,12,12,13,13,14,14,15,15,16,16,17,17,18,18,19,19,20,20,21,21,22,22,23,23,24,24,25,25,26,26,27,27,28,28,29,29,30,30,32,32,33,33,34,34,35,35,36,36,37,37,38,38,39,39,40,40,41,41,42,42,43,43,44,44,45,45,46,46,47,47,48,48,49,49,50,50,51,51,52,52,53,53,54,54,55,55,56,56,57,57,58,58,59,59,61,61,62,62,64,64,66,66,67,67,69,69,70,70,71,71,72,72,73,73,74,74,75,75,76,76,77,77,78,78,79,79,80,80,81,81,82,82,83,83,84,84,85,85,86,86,87,87,88,88,89,89,90,90,91,91,92,92,93,93,94,94,95,95,96,96,97,97,98,98,99,99,100,100,101,101,103,103,104,104,105,105,106,106,107,107,108,108,111,111,112,112,113,113,114,114,115,115,116,116,118,118,120,120],"right_children":[2,4,6,8,10,12,14,16,18,20,22,24,26,28,30,32,34,36,38,40,42,44,46,48,50,52,54,56,58,60,62,-1,64,66,68,70,72,74,76,78,80,82,84,86,88,90,92,94,96,98,100,102,104,106,108,110,112,114,116,118,-1,120,122,-1,124,-1,126,128,-1,130,132,134,136,138,140,142,144,146,148,150,152,154,156,158,160,162,164,166,168,170,172,174,176,178,180,182,184,186,188,190,192,194,-1,196,198,200,202,204,206,-1,-1,208,210,212,214,216,218,-1,220,-1,222,-1,-1,-1,-1,-1,-1,-1,-1,-1,-1,-1,-1,-1,-1,-1,-1,-1,-1,-1,-1,-1,-1,-1,-1,-1,-1,-1,-1,-1,-1,-1,-1,-1,-1,-1,-1,-1,-1,-1,-1,-1,-1,-1,-1,-1,-1,-1,-1,-1,-1,-1,-1,-1,-1,-1,-1,-1,-1,-1,-1,-1,-1,-1,-1,-1,-1,-1,-1,-1,-1,-1,-1,-1,-1,-1,-1,-1,-1,-1,-1,-1,-1,-1,-1,-1,-1,-1,-1,-1,-1,-1,-1,-1,-1,-1,-1,-1,-1,-1,-1,-1,-1],"split_conditions":[1.28E0,5.6E-1,2.15E0,2.5E-1,9E-1,1.84E0,2.78E0,1.5E-1,7E-1,7.6E-1,9.2E-1,1E0,2.1E1,2.29E1,2.53E1,1E-1,5E-1,4E-1,-3E-1,4.7E1,3.76E1,5.7E1,5.4E1,1.998E3,1.56E0,-2.3E0,4.8E1,-8E-1,2.8E0,3.1E0,3.24E0,-8.0750444E5,8E-2,1E-1,-8E-1,9.3E0,5E1,-1.5E0,8.1E1,5E-1,1.18E1,9.1E0,1E0,9.2E0,2.39E1,1.29E1,2.41E1,1.86E1,1.7E0,4E1,1.67E1,-2.8E0,3E1,9E-1,1.5E0,1.4E0,1.44E1,5.5E1,2.94E1,1.6E1,1.8026072E6,2.39E1,1.83E1,-9.5174025E5,8E-1,-7.2398625E5,-1.2E0,-2E0,-8.428343E5,6.5E1,4.8E-1,4.5E-1,1.1E1,1.1E0,-6.7E0,8E-1,3.4E-1,1.986E3,7.4E-1,1.2E0,6.9E1,1.832E3,1E-1,9.5E-1,1.99E1,8.8E-1,4E-1,7.7E-1,8.5E1,4.2E0,6E-1,-2.8E0,8.8E1,1.7E0,5.3E1,6.6E1,8.6E1,1E0,-8E-1,-1.5E0,6.7E1,-3.6E0,9.90339E3,2.05E1,7E-1,3.3E0,9E-1,2.97E1,8E-1,-5.301632E5,1.28214555E5,8E-1,2.59E0,1.49E1,2.74E1,6.4E1,7E-1,1.7356091E6,7.8E1,1.177076E6,6.8E1,1.5576181E6,1.2984778E6,-8.4805856E5,-9.192902E5,-2.172871E5,-5.1752825E5,-3.259761E5,-1.0423668E5,-6.312619E5,-3.4326328E5,-6.105822E5,-4.051518E5,-8.115002E5,-4.346979E4,-1.6846033E5,-3.3006625E5,3.4434633E4,-4.515556E5,5.9358707E4,-9.3471914E4,-7.404708E5,-8.770941E5,-7.0355706E5,-5.8342094E5,-3.4621278E5,-4.7988477E4,-7.089798E5,-2.2395823E5,-3.8437047E5,5.8315324E4,-5.0503038E5,-2.1988747E5,3.2065772E5,-2.2772072E5,-3.3581625E5,-6.2616394E5,-1.6248519E4,1.9748652E5,4.9332744E5,-2.21472E4,-4.7188922E5,1.08598234E5,-5.0766706E5,-8.150105E5,-3.5617597E5,-1.3375989E5,-5.87775E5,-3.8273897E5,1.5484922E5,-2.1724523E5,-2.2717639E5,-5.9933506E5,-6.7110756E5,1.1224506E5,-3.1437766E5,7.64282E4,1.3347284E5,8.3034525E5,-1.2783582E4,6.024426E5,9.883277E4,4.1277794E5,6.619912E5,-1.4808014E5,5.763158E5,-1.7808456E5,-4.5859306E5,1.8252616E5,-4.8678078E5,5.476287E5,-1.9631014E4,4.6257653E5,-7.0565075E5,-2.7085956E5,9.0029494E5,2.8458753E5,2.1287702E5,9.5413456E5,5.2597506E5,-3.7818703E4,4.4018534E5,-4.1713486E3,8.8717856E5,4.8095853E5,5.25128E5,2.3703439E5,3.2706022E5,1.4188341E6,1.0381201E6,1.3335681E6,8.273525E5,4.9286675E5,1.1089714E6,8.7894E5,5.674407E5,8.3322844E5,2.0648506E5,5.457483E5,1.4211472E6,5.818331E5,3.695901E5,9.169967E5],"split_indices":[7,7,7,7,0,7,7,7,0,7,7,0,1,1,1,8,0,6,8,3,3,3,3,5,7,1,3,1,0,7,7,0,7,6,8,8,3,1,3,0,8,8,6,1,1,8,1,1,7,3,1,1,3,6,0,0,1,3,1,1,0,2,2,0,0,0,8,1,0,3,7,7,1,0,2,6,7,5,7,1,3,5,6,7,1,7,6,7,3,8,6,1,3,1,3,3,3,8,1,1,3,1,0,8,8,0,0,1,6,0,0,6,7,2,1,3,6,0,3,0,3,0,0,0,0,0,0,0,0,0,0,0,0,0,0,0,0,0,0,0,0,0,0,0,0,0,0,0,0,0,0,0,0,0,0,0,0,0,0,0,0,0,0,0,0,0,0,0,0,0,0,0,0,0,0,0,0,0,0,0,0,0,0,0,0,0,0,0,0,0,0,0,0,0,0,0,0,0,0,0,0,0,0,0,0,0,0,0,0,0,0,0,0,0,0,0,0,0,0,0,0,0,0],"split_type":[0,0,0,0,0,0,0,0,0,0,0,0,0,0,0,0,0,0,0,0,0,0,0,0,0,0,0,0,0,0,0,0,0,0,0,0,0,0,0,0,0,0,0,0,0,0,0,0,0,0,0,0,0,0,0,0,0,0,0,0,0,0,0,0,0,0,0,0,0,0,0,0,0,0,0,0,0,0,0,0,0,0,0,0,0,0,0,0,0,0,0,0,0,0,0,0,0,0,0,0,0,0,0,0,0,0,0,0,0,0,0,0,0,0,0,0,0,0,0,0,0,0,0,0,0,0,0,0,0,0,0,0,0,0,0,0,0,0,0,0,0,0,0,0,0,0,0,0,0,0,0,0,0,0,0,0,0,0,0,0,0,0,0,0,0,0,0,0,0,0,0,0,0,0,0,0,0,0,0,0,0,0,0,0,0,0,0,0,0,0,0,0,0,0,0,0,0,0,0,0,0,0,0,0,0,0,0,0,0,0,0,0,0,0,0,0,0,0,0,0,0,0,0],"sum_hessian":[1.0352E4,6.201E3,4.151E3,3.964E3,2.237E3,2.11E3,2.041E3,2.327E3,1.637E3,6.69E2,1.568E3,1.341E3,7.69E2,1.14E3,9.01E2,1.728E3,5.99E2,3.81E2,1.256E3,2.38E2,4.31E2,8.07E2,7.61E2,3.46E2,9.95E2,4.55E2,3.14E2,6.71E2,4.69E2,5.3E2,3.71E2,1.37E2,1.591E3,1.2E2,4.79E2,2.38E2,1.43E2,3.2E1,1.224E3,2.8E1,2.1E2,3.3E1,3.98E2,2.71E2,5.36E2,3.07E2,4.54E2,2.6E2,8.6E1,4.57E2,5.38E2,9E0,4.46E2,8.6E1,2.28E2,7E0,6.64E2,3.63E2,1.06E2,2.54E2,2.76E2,2.24E2,1.47E2,7.87E2,8.04E2,7.8E1,4.2E1,6E0,4.73E2,6.8E1,1.7E2,1.3E1,1.3E2,2E1,1.2E1,6.27E2,5.97E2,5E0,2.3E1,7.9E1,1.31E2,5E0,2.8E1,2.57E2,1.41E2,1.12E2,1.59E2,3.32E2,2.04E2,1.16E2,1.91E2,2.61E2,1.93E2,1.69E2,9.1E1,6.7E1,1.9E1,1.08E2,3.49E2,2.54E2,2.84E2,7E0,2E0,7.4E1,3.72E2,2.7E1,5.9E1,1.1E2,1.18E2,4E0,3E0,2.88E2,3.76E2,1.19E2,2.44E2,5.8E1,4.8E1,1.03E2,1.51E2,1.93E2,3.1E1,9.5E1,5.2E1,2.28E2,5.76E2,4E0,3.8E1,4E0,2E0,1.2E1,5.6E1,1.39E2,3.1E1,1.1E1,2E0,7.3E1,5.7E1,2E0,1.8E1,9E0,3E0,4.88E2,1.39E2,2.03E2,3.94E2,3E0,2E0,2.1E1,2E0,1.5E1,6.4E1,2.5E1,1.06E2,2E0,3E0,4E0,2.4E1,1.15E2,1.42E2,1.24E2,1.7E1,9.9E1,1.3E1,5.8E1,1.01E2,2.31E2,1.01E2,1E2,1.04E2,3.2E1,8.4E1,5.9E1,1.32E2,8E0,2.53E2,1.26E2,6.7E1,1.1E1,1.58E2,1.6E1,7.5E1,4.6E1,2.1E1,1.6E1,3E0,5E0,1.03E2,1E1,3.39E2,5E0,2.49E2,1.71E2,1.13E2,5E0,2E0,3.9E1,3.5E1,1.4E1,3.58E2,2.2E1,5E0,5E0,5.4E1,8.5E1,2.5E1,7.9E1,3.9E1,4E0,2.84E2,2.68E2,1.08E2,8.6E1,3.3E1,9.7E1,1.47E2,3.6E1,2.2E1,5E0,4.3E1,1.49E2,2E0,4E0,2.7E1],"tree_param":{"num_deleted":"0","num_feature":"9","num_nodes":"223","size_leaf_vector":"1"}},{"base_weights":[7.0507104E2,-7.631071E6,1.1400579E7,-1.0393158E7,-2.7341515E6,6.523075E6,1.7326102E7,-1.1917129E7,-8.555407E6,2.6431034E5,-4.0128228E6,4.248251E6,9.77072E6,1.4784404E7,2.033155E7,-1.224642E7,-1.0991816E7,-6.028186E6,-9.319639E6,-2.8632328E6,2.3564618E6,-5.8341715E6,-2.0762574E6,7.802076E6,3.0058562E6,1.2098522E7,7.346191E6,1.7156166E7,1.1560806E7,2.253923E7,1.7152432E7,-7.5067075E5,-8.64828E5,-9.273604E6,-8.035686E5,-7.160802E6,-3.8457875E6,-3.2893055E6,-9.464826E6,-7.1174465E6,-2.2587928E6,-6.812171E6,3.222075E6,-7.7603655E6,-4.847656E6,-4.6053495E6,-3.596936E5,9.127531E6,3.7360305E6,1.2171998E6,4.5201395E6,-6.8582515E6,1.2519134E7,1.0217779E7,5.2663295E6,-3.5820518E6,1.734112E7,1.283541E7,9.15172E6,2.0703712E7,2.3955432E7,1.5314004E7,1.9620274E7,-3.2608097E5,-9.651555E6,-5.6528735E6,-7.8022735E6,-9.425992E6,-3.2294818E6,-5.382389E6,8.526936E4,-1.0315271E7,-8.599077E6,-8.199641E6,5.827686E5,-4.1452042E6,-4.7671056E5,-2.1360868E6,-8.348658E6,1.3177958E6,5.6622485E6,-5.372589E6,-9.39823E6,-3.8426118E6,-6.4565925E6,-1.5171282E6,-6.4632475E6,1.1373085E6,-2.379564E6,1.0722397E7,6.9437915E6,9.406035E6,3.042789E6,-1.2590544E6,2.3916962E6,6.9810465E6,2.3024155E6,-8.427267E6,9.44125E3,1.4595827E7,1.1177732E7,7.3178295E6,1.2294157E7,2.3959425E6,7.050211E6,-4.886945E5,1.501052E5,1.9757594E7,1.5708269E7,1.4029118E7,1.1246142E7,1.0001137E7,7.1274365E6,2.2706424E7,1.2695231E6,9.65326E5,1.6864112E6,1.5436182E7,3.656726E5,1.4460671E6,1.202108E6,-8.556082E5,-5.903113E5,-5.9343125E5,-3.4901153E5,-5.7519475E5,-3.7116166E5,-7.59429E5,-4.144119E4,-1.1381328E5,-2.731197E5,3.2827668E4,-4.2161028E5,-5.591399E4,7.5839516E4,-6.9615206E5,-8.1613606E5,-6.8337125E5,-5.426848E5,-4.2016953E5,-7.5685156E5,-2.8432414E4,9.642231E4,-3.4759197E5,-1.7379758E5,5.7094812E4,-2.2968045E5,3.056937E5,-3.015428E5,-6.1765006E5,-3.2125122E5,-1.6226767E4,1.7037242E5,4.475608E5,8.5422914E4,-4.3918728E5,1.0153937E5,-4.727327E5,-7.585192E5,-3.313511E5,-1.24488484E5,-5.304166E5,-3.326342E5,1.4433827E5,-2.0221698E5,-2.1153911E5,-5.57697E5,-6.293497E5,1.0441885E5,-2.925445E5,7.1156914E4,1.24908336E5,7.995341E5,1.5605827E5,5.78044E5,2.372818E4,8.363738E5,1.0968637E5,3.8733166E5,7.019798E5,-1.4434247E5,-4.2940984E5,1.8867353E5,-4.583852E5,5.09448E5,-1.8264836E4,4.3048016E5,-6.477884E5,-2.5821944E5,4.128188E5,1.04033156E6,5.8994125E5,8.771143E5,5.6904644E5,1.2877061E5,8.733193E5,1.11265E5,-3.953807E4,3.0110588E5,7.1281275E5,3.9557962E5,8.027223E5,1.4085141E6,2.8762797E5,1.117678E6,5.331139E5,1.015514E6,6.4028506E5,9.031494E5,7.319659E5,3.5815556E5,5.7858044E5,3.544847E5,5.5579544E5,1.6019416E6,7.225925E5,1.102986E6],"categories":[],"categories_nodes":[],"categories_segments":[],"categories_sizes":[],"default_left":[0,0,0,0,0,0,0,0,0,0,0,0,0,0,0,0,0,0,0,0,0,0,0,0,0,0,0,0,0,0,0,0,0,0,0,0,0,0,0,0,0,0,0,0,0,0,0,0,0,0,0,0,0,0,0,0,0,0,0,0,0,0,0,0,0,0,0,0,0,0,0,0,0,0,0,0,0,0,0,0,0,0,0,0,0,0,0,0,0,0,0,0,0,0,0,0,0,0,0,0,0,0,0,0,0,0,0,0,0,0,0,0,0,0,0,0,0,0,0,0,0,0,0,0,0,0,0,0,0,0,0,0,0,0,0,0,0,0,0,0,0,0,0,0,0,0,0,0,0,0,0,0,0,0,0,0,0,0,0,0,0,0,0,0,0,0,0,0,0,0,0,0,0,0,0,0,0,0,0,0,0,0,0,0,0,0,0,0,0,0,0,0,0,0,0,0,0,0,0,0,0,0,0,0,0,0,0,0,0,0,0,0,0,0,0,0,0],"id":1,"left_children":[1,3,5,7,9,11,13,15,17,19,21,23,25,27,29,31,33,35,37,39,41,43,45,47,49,51,53,55,57,59,61,-1,-1,63,-1,65,67,69,71,73,75,77,79,81,83,85,87,89,91,93,95,97,99,101,103,105,107,109,111,113,115,117,119,-1,121,123,125,127,129,131,133,135,137,139,141,143,145,147,149,151,153,155,157,159,161,163,165,167,169,171,173,175,177,179,181,183,185,187,-1,189,191,193,195,197,199,-1,-1,201,203,205,207,209,211,213,-1,-1,-1,215,-1,-1,-1,-1,-1,-1,-1,-1,-1,-1,-1,-1,-1,-1,-1,-1,-1,-1,-1,-1,-1,-1,-1,-1,-1,-1,-1,-1,-1,-1,-1,-1,-1,-1,-1,-1,-1,-1,-1,-1,-1,-1,-1,-1,-1,-1,-1,-1,-1,-1,-1,-1,-1,-1,-1,-1,-1,-1,-1,-1,-1,-1,-1,-1,-1,-1,-1,-1,-1,-1,-1,-1,-1,-1,-1,-1,-1,-1,-1,-1,-1,-1,-1,-1,-1,-1,-1,-1,-1,-1,-1,-1,-1,-1,-1,-1,-1,-1,-1],"loss_changes":[9.008113E17,8.385807E16,1.1988707E17,1.100271E16,8.581656E15,1.6795332E16,1.4014822E16,5.2508552E14,3.422247E15,4.3907534E15,5.522003E15,5.9018176E15,5.205028E15,7.59254E15,5.621219E15,1.29261336E14,3.7792276E14,1.0130969E15,1.1779635E15,6.756342E14,3.2124184E15,1.4977582E15,3.3064508E15,1.8360083E15,2.6921977E15,3.889196E15,2.7054858E15,2.3059508E15,1.2182589E15,8.089657E14,1.310154E15,0E0,0E0,1.8703938E14,0E0,2.22868E14,4.716694E14,2.4061007E14,9.0379856E14,2.7977202E14,7.947563E14,2.336324E14,1.7025505E15,1.013259E15,8.435466E14,1.7573755E15,1.3785128E15,8.3454865E14,3.133486E14,1.3350365E15,2.9255803E15,1.2183222E14,1.1377626E15,1.0721613E15,1.3656246E15,1.3176525E14,1.978176E15,3.772141E14,1.9351405E14,7.50348E14,5.116165E13,1.7578013E14,2.113983E13,0E0,2.7919435E14,1.1976167E14,1.5449212E14,1.6956665E14,1.370261E14,8.1542504E13,1.3219108E13,2.1988515E14,5.880154E14,1.0156886E14,4.489045E12,1.4450954E14,4.4846743E14,1.6003877E14,5.9255785E12,3.603023E14,5.1531286E14,7.041838E14,5.3525815E14,6.040206E14,3.5566195E14,5.8035705E14,9.695518E14,9.537977E14,1.1899285E15,9.1120845E14,6.815818E14,2.0339925E14,2.8170288E14,1.3620788E15,8.216737E14,1.07155354E15,2.8122598E15,1.1246103E12,0E0,3.289129E14,9.655559E14,3.539877E14,1.9622632E14,5.948353E14,6.700412E14,0E0,0E0,4.6336684E14,9.870694E14,3.7102504E14,3.1999654E14,1.8235143E14,7.320047E13,1.4242541E14,0E0,0E0,0E0,1.735854E14,0E0,0E0,0E0,0E0,0E0,0E0,0E0,0E0,0E0,0E0,0E0,0E0,0E0,0E0,0E0,0E0,0E0,0E0,0E0,0E0,0E0,0E0,0E0,0E0,0E0,0E0,0E0,0E0,0E0,0E0,0E0,0E0,0E0,0E0,0E0,0E0,0E0,0E0,0E0,0E0,0E0,0E0,0E0,0E0,0E0,0E0,0E0,0E0,0E0,0E0,0E0,0E0,0E0,0E0,0E0,0E0,0E0,0E0,0E0,0E0,0E0,0E0,0E0,0E0,0E0,0E0,0E0,0E0,0E0,0E0,0E0,0E0,0E0,0E0,0E0,0E0,0E0,0E0,0E0,0E0,0E0,0E0,0E0,0E0,0E0,0E0,0E0,0E0,0E0,0E0,0E0,0E0,0E0,0E0,0E0,0E0,0E0,0E0,0E0],"parents":[2147483647,0,0,1,1,2,2,3,3,4,4,5,5,6,6,7,7,8,8,9,9,10,10,11,11,12,12,13,13,14,14,15,15,16,16,17,17,18,18,19,19,20,20,21,21,22,22,23,23,24,24,25,25,26,26,27,27,28,28,29,29,30,30,33,33,35,35,36,36,37,37,38,38,39,39,40,40,41,41,42,42,43,43,44,44,45,45,46,46,47,47,48,48,49,49,50,50,51,51,52,52,53,53,54,54,55,55,56,56,57,57,58,58,59,59,60,60,61,61,62,62,64,64,65,65,66,66,67,67,68,68,69,69,70,70,71,71,72,72,73,73,74,74,75,75,76,76,77,77,78,78,79,79,80,80,81,81,82,82,83,83,84,84,85,85,86,86,87,87,88,88,89,89,90,90,91,91,92,92,93,93,94,94,95,95,96,96,97,97,99,99,100,100,101,101,102,102,103,103,104,104,107,107,108,108,109,109,110,110,111,111,112,112,113,113,117,117],"right_children":[2,4,6,8,10,12,14,16,18,20,22,24,26,28,30,32,34,36,38,40,42,44,46,48,50,52,54,56,58,60,62,-1,-1,64,-1,66,68,70,72,74,76,78,80,82,84,86,88,90,92,94,96,98,100,102,104,106,108,110,112,114,116,118,120,-1,122,124,126,128,130,132,134,136,138,140,142,144,146,148,150,152,154,156,158,160,162,164,166,168,170,172,174,176,178,180,182,184,186,188,-1,190,192,194,196,198,200,-1,-1,202,204,206,208,210,212,214,-1,-1,-1,216,-1,-1,-1,-1,-1,-1,-1,-1,-1,-1,-1,-1,-1,-1,-1,-1,-1,-1,-1,-1,-1,-1,-1,-1,-1,-1,-1,-1,-1,-1,-1,-1,-1,-1,-1,-1,-1,-1,-1,-1,-1,-1,-1,-1,-1,-1,-1,-1,-1,-1,-1,-1,-1,-1,-1,-1,-1,-1,-1,-1,-1,-1,-1,-1,-1,-1,-1,-1,-1,-1,-1,-1,-1,-1,-1,-1,-1,-1,-1,-1,-1,-1,-1,-1,-1,-1,-1,-1,-1,-1,-1,-1,-1,-1,-1,-1,-1,-1,-1],"split_conditions":[1.28E0,5.6E-1,2.23E0,2.2E-1,9E-1,1.84E0,2.81E0,1.3E-1,7E-1,8E-1,9.2E-1,1E0,1.87E1,2.29E1,2.53E1,-1E-1,6.4E0,4E-1,-3E-1,4.7E1,4.1E1,5.7E1,5.4E1,1.998E3,1.56E0,-2.3E0,1.4E0,-1.1E0,2.3E0,3.1E0,3.24E0,-7.5067075E5,-8.64828E5,-1.2E0,-8.035686E5,9.3E0,5E1,-1.5E0,8.1E1,7.6E-1,1E-1,1.832E3,8E-1,9.2E0,2.39E1,1.29E1,2.41E1,1.62E1,9.2E0,4.5E1,1.67E1,-2.8E0,1.3E0,6.1E1,5.4E1,1.4E0,1.4E1,2.83E1,3.6E0,1.9E1,1E0,2.81E1,1.86E1,-3.2608097E5,7E-1,5.9E1,4.9E-1,4.5E-1,5E0,1.1E0,4.4E-1,8E-1,3.4E-1,1.59E1,1E-1,6.9E-1,1.59E1,9.1E0,1.17E0,9.5E-1,1.99E1,8.8E-1,4E-1,7.7E-1,7.6E-1,4.2E0,6E-1,-2.8E0,8.8E1,1.7E0,5.3E1,2.1E1,6.6E1,3.7E0,-8E-1,-1.5E0,6.7E1,-3.6E0,9.44125E3,1.8E1,1.96E0,2.9E1,9.2E1,1.96E0,2.55E1,-4.886945E5,1.501052E5,1E0,6E-1,7.8E0,2.24E1,3.19E1,1E0,9.76E2,1.2695231E6,9.65326E5,1.6864112E6,9E-1,3.656726E5,1.4460671E6,1.202108E6,-8.556082E5,-5.903113E5,-5.9343125E5,-3.4901153E5,-5.7519475E5,-3.7116166E5,-7.59429E5,-4.144119E4,-1.1381328E5,-2.731197E5,3.2827668E4,-4.2161028E5,-5.591399E4,7.5839516E4,-6.9615206E5,-8.1613606E5,-6.8337125E5,-5.426848E5,-4.2016953E5,-7.5685156E5,-2.8432414E4,9.642231E4,-3.4759197E5,-1.7379758E5,5.7094812E4,-2.2968045E5,3.056937E5,-3.015428E5,-6.1765006E5,-3.2125122E5,-1.6226767E4,1.7037242E5,4.475608E5,8.5422914E4,-4.3918728E5,1.0153937E5,-4.727327E5,-7.585192E5,-3.313511E5,-1.24488484E5,-5.304166E5,-3.326342E5,1.4433827E5,-2.0221698E5,-2.1153911E5,-5.57697E5,-6.293497E5,1.0441885E5,-2.925445E5,7.1156914E4,1.24908336E5,7.995341E5,1.5605827E5,5.78044E5,2.372818E4,8.363738E5,1.0968637E5,3.8733166E5,7.019798E5,-1.4434247E5,-4.2940984E5,1.8867353E5,-4.583852E5,5.09448E5,-1.8264836E4,4.3048016E5,-6.477884E5,-2.5821944E5,4.128188E5,1.04033156E6,5.8994125E5,8.771143E5,5.6904644E5,1.2877061E5,8.733193E5,1.11265E5,-3.953807E4,3.0110588E5,7.1281275E5,3.9557962E5,8.027223E5,1.4085141E6,2.8762797E5,1.117678E6,5.331139E5,1.015514E6,6.4028506E5,9.031494E5,7.319659E5,3.5815556E5,5.7858044E5,3.544847E5,5.5579544E5,1.6019416E6,7.225925E5,1.102986E6],"split_indices":[7,7,7,7,0,7,7,7,0,7,7,0,1,1,1,8,8,6,8,3,3,3,3,5,7,1,0,1,0,7,7,0,0,8,0,8,3,1,3,7,6,5,6,1,1,8,1,1,1,3,1,1,0,3,3,0,1,1,0,1,6,2,2,0,1,3,7,7,8,0,7,6,7,1,6,7,8,8,7,7,1,7,6,7,7,8,6,1,3,1,3,3,3,8,1,1,3,1,0,3,7,1,3,7,1,0,0,6,6,2,2,1,6,5,0,0,0,6,0,0,0,0,0,0,0,0,0,0,0,0,0,0,0,0,0,0,0,0,0,0,0,0,0,0,0,0,0,0,0,0,0,0,0,0,0,0,0,0,0,0,0,0,0,0,0,0,0,0,0,0,0,0,0,0,0,0,0,0,0,0,0,0,0,0,0,0,0,0,0,0,0,0,0,0,0,0,0,0,0,0,0,0,0,0,0,0,0,0,0,0,0,0,0,0,0,0,0],"split_type":[0,0,0,0,0,0,0,0,0,0,0,0,0,0,0,0,0,0,0,0,0,0,0,0,0,0,0,0,0,0,0,0,0,0,0,0,0,0,0,0,0,0,0,0,0,0,0,0,0,0,0,0,0,0,0,0,0,0,0,0,0,0,0,0,0,0,0,0,0,0,0,0,0,0,0,0,0,0,0,0,0,0,0,0,0,0,0,0,0,0,0,0,0,0,0,0,0,0,0,0,0,0,0,0,0,0,0,0,0,0,0,0,0,0,0,0,0,0,0,0,0,0,0,0,0,0,0,0,0,0,0,0,0,0,0,0,0,0,0,0,0,0,0,0,0,0,0,0,0,0,0,0,0,0,0,0,0,0,0,0,0,0,0,0,0,0,0,0,0,0,0,0,0,0,0,0,0,0,0,0,0,0,0,0,0,0,0,0,0,0,0,0,0,0,0,0,0,0,0,0,0,0,0,0,0,0,0,0,0,0,0,0,0,0,0,0,0],"sum_hessian":[1.0352E4,6.201E3,4.151E3,3.964E3,2.237E3,2.278E3,1.873E3,2.164E3,1.8E3,6.69E2,1.568E3,1.341E3,9.37E2,1.018E3,8.55E2,1.587E3,5.77E2,4.2E2,1.38E3,2.68E2,4.01E2,8.07E2,7.61E2,3.46E2,9.95E2,4.76E2,4.61E2,5.84E2,4.34E2,5.01E2,3.54E2,1.12E2,1.475E3,1.32E2,4.45E2,2.75E2,1.45E2,3.3E1,1.347E3,3.2E1,2.36E2,3.4E1,3.67E2,2.71E2,5.36E2,3.07E2,4.54E2,2.6E2,8.6E1,4.57E2,5.38E2,1E1,4.66E2,1.92E2,2.69E2,5E0,5.79E2,2.81E2,1.53E2,2.25E2,2.76E2,2.07E2,1.47E2,1.1E1,1.21E2,8.5E1,1.9E2,1.3E1,1.32E2,2E1,1.3E1,6.74E2,6.73E2,2.8E1,4E0,1.14E2,1.22E2,9E0,2.5E1,2.07E2,1.6E2,1.12E2,1.59E2,3.32E2,2.04E2,1.16E2,1.91E2,2.61E2,1.93E2,1.48E2,1.12E2,8E0,7.8E1,1.47E2,3.1E2,2.54E2,2.84E2,8E0,2E0,1.79E2,2.87E2,8.2E1,1.1E2,1.04E2,1.65E2,3E0,2E0,2.29E2,3.5E2,1.56E2,1.25E2,1.05E2,4.8E1,1.22E2,1.03E2,5E0,2.71E2,2.04E2,3E0,9.8E1,4.9E1,3.6E1,8.5E1,1.4E1,7.1E1,1.61E2,2.9E1,1.1E1,2E0,4E1,9.2E1,2E0,1.8E1,7E0,6E0,5.35E2,1.39E2,2.79E2,3.94E2,1.7E1,1.1E1,2E0,2E0,7.5E1,3.9E1,8.4E1,3.8E1,2E0,7E0,2.1E1,4E0,8.7E1,1.2E2,1.37E2,2.3E1,9.9E1,1.3E1,5.8E1,1.01E2,2.31E2,1.01E2,1.21E2,8.3E1,3.2E1,8.4E1,5.9E1,1.32E2,8E0,2.53E2,1.26E2,6.7E1,1.1E1,1.37E2,2.5E1,8.7E1,2E0,6E0,5E1,2.8E1,9E0,1.38E2,1E1,3E2,5E0,2.49E2,1.71E2,1.13E2,6E0,2E0,6E0,1.73E2,9.7E1,1.9E2,7.1E1,1.1E1,1.08E2,2E0,4.1E1,6.3E1,4.9E1,1.16E2,1.1E1,2.18E2,8E0,3.42E2,1.2E1,1.44E2,5.8E1,6.7E1,9.5E1,1E1,2.9E1,1.9E1,2E0,1.2E2,1.4E1,1.9E2],"tree_param":{"num_deleted":"0","num_feature":"9","num_nodes":"217","size_leaf_vector":"1"}},{"base_weights":[1.7469176E3,-7.099619E6,1.0609326E7,-9.795869E6,-2.7597305E6,5.680892E6,1.5699099E7,-1.1084866E7,-8.1098515E6,-4.4683385E6,-6.055293E5,3.953702E6,8.683759E6,1.3247664E7,1.8782678E7,-1.1339765E7,-1.0050983E7,-5.9809985E6,-8.893576E6,-2.1227922E6,-5.7579635E6,-5.6745E6,4.6722488E5,6.960599E6,2.6649388E6,1.0835919E7,6.457969E6,1.5228609E7,1.031395E7,2.0850448E7,1.578061E7,-9.98219E6,-1.1450322E7,-4.198925E6,-1.016423E7,-3.7978105E6,-6.9752025E6,-3.6378182E6,-9.001206E6,-1.1133038E6,-4.714556E6,-7.1740975E6,-4.5991105E6,6.119365E6,-6.3874775E6,3.780612E6,-9.903424E5,8.181669E6,3.2890032E6,9.5999106E5,4.079438E6,-3.1459622E6,1.1364888E7,2.1651142E6,7.9779705E6,-3.483711E6,1.5428713E7,1.1107603E7,7.569575E6,1.920697E7,2.2288126E7,1.4598647E7,1.3600464E6,-7.222552E5,-5.570253E5,-8.247418E5,-1.1111398E7,-4.065384E5,-2.1495397E5,-8.53345E6,-7.380436E5,-6.2276665E6,-2.7937142E6,-7.282735E5,-6.511772E6,-5.5478245E6,-2.70253E4,-9.743367E6,-7.9761275E6,-3.5615375E6,5.483117E5,-6.970045E5,-3.7994248E6,-5.106184E6,-8.666839E6,-3.5242842E6,-6.087069E6,9.819549E6,-4.9146797E5,-3.8062955E6,-7.7471745E6,1.9978954E6,5.805998E6,1.536234E5,-2.856172E6,-2.8543375E6,8.45414E6,-1.7854847E5,4.6689695E6,-2.1738066E5,2.6148242E6,6.331133E6,2.005102E6,-8.0334095E6,2.134729E6,4.0418245E6,1.167913E7,6.4390735E6,1.0303208E6,1.0306771E7,5.9047855E6,-4.7087984E5,1.008801E5,1.7398368E7,1.3906163E7,8.83161E6,1.2112009E7,1.0044659E7,6.990452E6,2.1542756E7,1.7482438E7,9.090154E5,1.5687966E6,1.5891586E7,1.3065268E7,-7.26496E5,-7.94569E5,-6.5697625E5,-4.5747388E5,-4.9161788E5,-3.1820853E5,-6.550065E5,-1.7038028E5,-5.064813E5,-3.288693E5,-9.699205E4,-4.2072894E5,-5.8039062E4,9.683875E4,-6.513867E5,-7.3782294E5,-6.438781E5,-5.1206888E5,-3.352607E5,-1.5321914E5,-1.4979589E5,1.5606164E5,7.284369E4,-3.1412066E5,-4.5437662E5,-2.1531478E5,-1.1460756E4,-6.4382475E5,-2.909429E5,5.756405E4,-5.251961E5,-3.4933516E5,2.0546569E5,7.9570256E5,-4.4406695E4,-4.055041E5,-6.1328575E5,-3.516365E5,1.6824044E5,-1.84067E5,-3.9097878E5,4.294213E5,-1.0422118E5,1.30020734E5,-3.0975038E5,6.624918E4,4.3157206E5,-6.6494356E5,7.1624525E5,4.2927488E5,5.823526E5,-1.0016159E5,7.7263675E5,2.678385E5,1.3116561E5,-1.7357086E5,3.5791166E5,6.905407E4,2.22773E5,5.130804E5,-3.08751E4,3.998945E5,-6.267001E5,-2.4616922E5,-2.1445131E5,4.1065088E5,-1.592626E5,6.936817E5,6.158129E5,8.7956975E5,5.907155E5,1.494275E5,3.0216284E5,-2.4310146E4,7.4916706E5,3.5126147E5,7.093367E5,3.1450544E5,7.180833E5,1.2464834E6,8.955904E5,1.1591846E6,4.2527566E5,7.1810594E5,9.671726E5,7.630949E5,7.6965775E5,1.1391503E5,4.6661175E5,7.8224706E5,6.1752425E5,1.519399E6,1.2301789E6,4.9543647E5,5.592106E5,1.1315776E6,9.472005E5,5.8819256E5],"categories":[],"categories_nodes":[],"categories_segments":[],"categories_sizes":[],"default_left":[0,0,0,0,0,0,0,0,0,0,0,0,0,0,0,0,0,0,0,0,0,0,0,0,0,0,0,0,0,0,0,0,0,0,0,0,0,0,0,0,0,0,0,0,0,0,0,0,0,0,0,0,0,0,0,0,0,0,0,0,0,0,0,0,0,0,0,0,0,0,0,0,0,0,0,0,0,0,0,0,0,0,0,0,0,0,0,0,0,0,0,0,0,0,0,0,0,0,0,0,0,0,0,0,0,0,0,0,0,0,0,0,0,0,0,0,0,0,0,0,0,0,0,0,0,0,0,0,0,0,0,0,0,0,0,0,0,0,0,0,0,0,0,0,0,0,0,0,0,0,0,0,0,0,0,0,0,0,0,0,0,0,0,0,0,0,0,0,0,0,0,0,0,0,0,0,0,0,0,0,0,0,0,0,0,0,0,0,0,0,0,0,0,0,0,0,0,0,0,0,0,0,0,0,0,0,0,0,0,0,0,0,0,0,0,0,0,0,0,0,0,0,0],"id":2,"left_children":[1,3,5,7,9,11,13,15,17,19,21,23,25,27,29,31,33,35,37,39,41,43,45,47,49,51,53,55,57,59,61,63,65,67,69,71,73,75,77,79,81,83,85,87,89,91,93,95,97,99,101,103,105,107,109,111,113,115,117,119,121,123,-1,-1,-1,-1,125,-1,-1,127,-1,129,131,-1,133,135,137,139,141,143,145,-1,147,149,151,153,155,157,-1,159,161,163,165,167,169,171,173,175,177,179,181,183,185,187,189,191,193,195,197,199,201,-1,-1,203,205,207,209,211,213,215,217,-1,-1,219,221,-1,-1,-1,-1,-1,-1,-1,-1,-1,-1,-1,-1,-1,-1,-1,-1,-1,-1,-1,-1,-1,-1,-1,-1,-1,-1,-1,-1,-1,-1,-1,-1,-1,-1,-1,-1,-1,-1,-1,-1,-1,-1,-1,-1,-1,-1,-1,-1,-1,-1,-1,-1,-1,-1,-1,-1,-1,-1,-1,-1,-1,-1,-1,-1,-1,-1,-1,-1,-1,-1,-1,-1,-1,-1,-1,-1,-1,-1,-1,-1,-1,-1,-1,-1,-1,-1,-1,-1,-1,-1,-1,-1,-1,-1,-1,-1,-1,-1],"loss_changes":[7.799493E17,7.254519E16,1.0406214E17,8.2228695E15,8.749963E15,1.091441E16,1.5187004E16,4.565894E14,2.71807E15,3.9987606E15,5.7286123E15,5.1819403E15,3.6185185E15,6.47389E15,5.270234E15,1.4520425E14,2.4692626E14,9.502497E14,6.528608E14,1.229671E15,1.3701397E15,1.5862984E15,4.2053958E15,1.7753655E15,2.2654439E15,2.920187E15,2.4688084E15,2.5961875E15,9.2437145E14,8.2655787E14,1.3206251E15,1.1702712E13,4.8069274E13,3.1521033E11,1.7473645E14,3.3149457E14,4.2165305E14,1.7916255E14,8.253209E14,1.3891488E15,5.954666E14,1.1380139E15,7.350149E14,6.03781E14,5.811869E14,9.488431E14,1.2917783E15,9.292355E14,4.8891438E14,8.344638E14,2.3880818E15,4.0428574E14,8.1804954E14,4.8322174E14,1.2958174E15,1.3747053E14,1.7733233E15,7.0914205E14,8.315486E13,6.505501E14,2.6551488E13,3.574014E14,0E0,0E0,0E0,0E0,2.353642E13,0E0,0E0,8.5055385E13,0E0,2.2923851E13,2.204039E14,0E0,3.2562724E14,2.4403702E13,1.2460188E13,1.40595754E14,3.3976842E14,2.2211987E14,9.2671436E14,0E0,3.8429166E14,4.383457E14,9.9569905E14,7.6440754E14,2.6838875E14,6.2524188E13,0E0,3.8701105E14,2.681026E14,2.746741E14,4.984119E14,1.05500624E15,1.3762828E15,5.3803995E14,1.1508043E15,3.3116842E14,3.495533E14,1.1920427E15,7.1904437E14,7.501504E14,2.4422489E15,1.7384216E12,1.7316144E14,6.526964E14,8.087939E14,1.627451E14,3.6820426E14,2.2038658E14,8.5596336E14,0E0,0E0,6.6033404E14,9.212619E14,3.8213613E14,3.5501985E14,1.26111246E14,4.774366E13,2.4086177E13,2.03968E13,0E0,0E0,1.9544249E14,1.818983E14,0E0,0E0,0E0,0E0,0E0,0E0,0E0,0E0,0E0,0E0,0E0,0E0,0E0,0E0,0E0,0E0,0E0,0E0,0E0,0E0,0E0,0E0,0E0,0E0,0E0,0E0,0E0,0E0,0E0,0E0,0E0,0E0,0E0,0E0,0E0,0E0,0E0,0E0,0E0,0E0,0E0,0E0,0E0,0E0,0E0,0E0,0E0,0E0,0E0,0E0,0E0,0E0,0E0,0E0,0E0,0E0,0E0,0E0,0E0,0E0,0E0,0E0,0E0,0E0,0E0,0E0,0E0,0E0,0E0,0E0,0E0,0E0,0E0,0E0,0E0,0E0,0E0,0E0,0E0,0E0,0E0,0E0,0E0,0E0,0E0,0E0,0E0,0E0,0E0,0E0,0E0,0E0,0E0,0E0,0E0,0E0,0E0,0E0],"parents":[2147483647,0,0,1,1,2,2,3,3,4,4,5,5,6,6,7,7,8,8,9,9,10,10,11,11,12,12,13,13,14,14,15,15,16,16,17,17,18,18,19,19,20,20,21,21,22,22,23,23,24,24,25,25,26,26,27,27,28,28,29,29,30,30,31,31,32,32,33,33,34,34,35,35,36,36,37,37,38,38,39,39,40,40,41,41,42,42,43,43,44,44,45,45,46,46,47,47,48,48,49,49,50,50,51,51,52,52,53,53,54,54,55,55,56,56,57,57,58,58,59,59,60,60,61,61,66,66,69,69,71,71,72,72,74,74,75,75,76,76,77,77,78,78,79,79,80,80,82,82,83,83,84,84,85,85,86,86,87,87,89,89,90,90,91,91,92,92,93,93,94,94,95,95,96,96,97,97,98,98,99,99,100,100,101,101,102,102,103,103,104,104,105,105,106,106,107,107,108,108,109,109,110,110,113,113,114,114,115,115,116,116,117,117,118,118,119,119,120,120,123,123,124,124],"right_children":[2,4,6,8,10,12,14,16,18,20,22,24,26,28,30,32,34,36,38,40,42,44,46,48,50,52,54,56,58,60,62,64,66,68,70,72,74,76,78,80,82,84,86,88,90,92,94,96,98,100,102,104,106,108,110,112,114,116,118,120,122,124,-1,-1,-1,-1,126,-1,-1,128,-1,130,132,-1,134,136,138,140,142,144,146,-1,148,150,152,154,156,158,-1,160,162,164,166,168,170,172,174,176,178,180,182,184,186,188,190,192,194,196,198,200,202,-1,-1,204,206,208,210,212,214,216,218,-1,-1,220,222,-1,-1,-1,-1,-1,-1,-1,-1,-1,-1,-1,-1,-1,-1,-1,-1,-1,-1,-1,-1,-1,-1,-1,-1,-1,-1,-1,-1,-1,-1,-1,-1,-1,-1,-1,-1,-1,-1,-1,-1,-1,-1,-1,-1,-1,-1,-1,-1,-1,-1,-1,-1,-1,-1,-1,-1,-1,-1,-1,-1,-1,-1,-1,-1,-1,-1,-1,-1,-1,-1,-1,-1,-1,-1,-1,-1,-1,-1,-1,-1,-1,-1,-1,-1,-1,-1,-1,-1,-1,-1,-1,-1,-1,-1,-1,-1,-1,-1],"split_conditions":[1.28E0,5.2E-1,2.15E0,2.2E-1,9.2E-1,1.84E0,2.78E0,1.5E-1,8E-1,1E0,4.1E1,1.1E0,1.87E1,2.3E1,2.53E1,1E-1,-1.2E0,7.6E0,-3E-1,1.994E3,6.5E1,4.2E0,9E-1,1.998E3,1.56E0,-1.1E0,4.5E1,-8E-1,2.8E0,3.1E0,3.4E0,1E-1,8E-2,1E-1,5E-1,1E-1,5.4E1,-1.5E0,9E1,1E-1,4E1,4E-1,2.38E1,3.7E0,9E-1,8E-1,2.41E1,4E-1,3.9E1,6.1E1,1.69E1,-2.8E0,7E-1,8E-1,2.55E1,1.4E0,1.44E1,5.5E1,1.818E3,1.6E1,1E0,2.87E1,1.3600464E6,-7.222552E5,-5.570253E5,-8.247418E5,7E-1,-4.065384E5,-2.1495397E5,1E-1,-7.380436E5,4E-1,3.9E1,-7.282735E5,4.3E-1,2.8E-1,4.4E-1,2E1,3.1E-1,2.07E1,6.7E-1,-6.970045E5,9.7E0,7.4E-1,1E-1,6E-1,8.4E1,-1.5E0,-4.9146797E5,1.32E1,3.6E1,2.72E1,-1.1E0,1.09E0,8.8E1,1.921E3,1.62E1,3E0,1.04E1,1.21E1,2.48E1,3.4E1,6.7E1,-3.6E0,-1.39E1,1.798E3,3.4E1,2.5E0,1.3E0,3.86E1,1.1E0,-4.7087984E5,1.008801E5,1E0,2.59E0,2.45E0,2.74E1,2.59E1,2.72E0,3.7E0,7.8E1,9.090154E5,1.5687966E6,9E-1,7.4E1,-7.26496E5,-7.94569E5,-6.5697625E5,-4.5747388E5,-4.9161788E5,-3.1820853E5,-6.550065E5,-1.7038028E5,-5.064813E5,-3.288693E5,-9.699205E4,-4.2072894E5,-5.8039062E4,9.683875E4,-6.513867E5,-7.3782294E5,-6.438781E5,-5.1206888E5,-3.352607E5,-1.5321914E5,-1.4979589E5,1.5606164E5,7.284369E4,-3.1412066E5,-4.5437662E5,-2.1531478E5,-1.1460756E4,-6.4382475E5,-2.909429E5,5.756405E4,-5.251961E5,-3.4933516E5,2.0546569E5,7.9570256E5,-4.4406695E4,-4.055041E5,-6.1328575E5,-3.516365E5,1.6824044E5,-1.84067E5,-3.9097878E5,4.294213E5,-1.0422118E5,1.30020734E5,-3.0975038E5,6.624918E4,4.3157206E5,-6.6494356E5,7.1624525E5,4.2927488E5,5.823526E5,-1.0016159E5,7.7263675E5,2.678385E5,1.3116561E5,-1.7357086E5,3.5791166E5,6.905407E4,2.22773E5,5.130804E5,-3.08751E4,3.998945E5,-6.267001E5,-2.4616922E5,-2.1445131E5,4.1065088E5,-1.592626E5,6.936817E5,6.158129E5,8.7956975E5,5.907155E5,1.494275E5,3.0216284E5,-2.4310146E4,7.4916706E5,3.5126147E5,7.093367E5,3.1450544E5,7.180833E5,1.2464834E6,8.955904E5,1.1591846E6,4.2527566E5,7.1810594E5,9.671726E5,7.630949E5,7.6965775E5,1.1391503E5,4.6661175E5,7.8224706E5,6.1752425E5,1.519399E6,1.2301789E6,4.9543647E5,5.592106E5,1.1315776E6,9.472005E5,5.8819256E5],"split_indices":[7,7,7,7,7,7,7,7,0,0,3,0,1,1,1,8,8,8,8,5,3,8,0,5,7,1,3,1,0,7,7,7,7,6,0,6,3,1,3,6,3,6,1,0,6,6,1,1,3,3,1,1,8,6,1,0,1,3,5,1,6,1,0,0,0,0,0,0,0,6,0,0,3,0,7,7,7,1,7,8,7,0,8,7,8,6,3,1,0,1,3,1,1,7,3,5,1,1,1,1,1,3,3,1,2,5,3,0,0,8,0,0,0,6,7,7,1,2,7,1,3,0,0,6,3,0,0,0,0,0,0,0,0,0,0,0,0,0,0,0,0,0,0,0,0,0,0,0,0,0,0,0,0,0,0,0,0,0,0,0,0,0,0,0,0,0,0,0,0,0,0,0,0,0,0,0,0,0,0,0,0,0,0,0,0,0,0,0,0,0,0,0,0,0,0,0,0,0,0,0,0,0,0,0,0,0,0,0,0,0,0,0,0,0,0,0,0,0,0,0,0,0,0],"split_type":[0,0,0,0,0,0,0,0,0,0,0,0,0,0,0,0,0,0,0,0,0,0,0,0,0,0,0,0,0,0,0,0,0,0,0,0,0,0,0,0,0,0,0,0,0,0,0,0,0,0,0,0,0,0,0,0,0,0,0,0,0,0,0,0,0,0,0,0,0,0,0,0,0,0,0,0,0,0,0,0,0,0,0,0,0,0,0,0,0,0,0,0,0,0,0,0,0,0,0,0,0,0,0,0,0,0,0,0,0,0,0,0,0,0,0,0,0,0,0,0,0,0,0,0,0,0,0,0,0,0,0,0,0,0,0,0,0,0,0,0,0,0,0,0,0,0,0,0,0,0,0,0,0,0,0,0,0,0,0,0,0,0,0,0,0,0,0,0,0,0,0,0,0,0,0,0,0,0,0,0,0,0,0,0,0,0,0,0,0,0,0,0,0,0,0,0,0,0,0,0,0,0,0,0,0,0,0,0,0,0,0,0,0,0,0,0,0,0,0,0,0,0,0],"sum_hessian":[1.0352E4,6.201E3,4.151E3,3.824E3,2.377E3,2.11E3,2.041E3,2.164E3,1.66E3,1.325E3,1.052E3,1.341E3,7.69E2,1.14E3,9.01E2,1.728E3,4.36E2,4.49E2,1.211E3,4.71E2,8.54E2,1.83E2,8.69E2,4.01E2,9.4E2,3.89E2,3.8E2,6.78E2,4.62E2,5.3E2,3.71E2,1.37E2,1.591E3,9E0,4.27E2,1.42E2,3.07E2,2.5E1,1.186E3,3.4E2,1.31E2,3.82E2,4.72E2,1E1,1.73E2,2.65E2,6.04E2,3E2,1.01E2,4.27E2,5.13E2,1.4E1,3.75E2,1E2,2.8E2,7E0,6.71E2,3.56E2,1.06E2,2.54E2,2.76E2,2.84E2,8.7E1,1.14E2,2.3E1,7.87E2,8.04E2,2E0,7E0,8.5E1,3.42E2,4E1,1.02E2,3.4E1,2.73E2,1.6E1,9E0,6.83E2,5.03E2,1.37E2,2.03E2,1.8E1,1.13E2,1.62E2,2.2E2,2.76E2,1.96E2,8E0,2E0,6.1E1,1.12E2,1.42E2,1.23E2,3.75E2,2.29E2,7E0,2.93E2,2.9E1,7.2E1,2.5E2,1.77E2,2.45E2,2.68E2,7E0,7E0,1.6E1,3.59E2,2E1,8E1,1.3E2,1.5E2,4E0,3E0,2.88E2,3.83E2,1.12E2,2.44E2,1.7E1,8.9E1,1.03E2,1.51E2,5E0,2.71E2,1.49E2,1.35E2,2.09E2,5.95E2,5.7E1,2.8E1,2.5E1,1.5E1,4E0,9.8E1,1.93E2,8E1,2E0,1.4E1,6E0,3E0,4.49E2,2.34E2,1.72E2,3.31E2,7.1E1,6.6E1,7.8E1,1.25E2,1.4E1,9.9E1,9.5E1,6.7E1,1.3E1,2.07E2,2.41E2,3.5E1,8.3E1,1.13E2,2E0,6E0,2.4E1,3.7E1,8E1,3.2E1,1.31E2,1.1E1,3E0,1.2E2,1.91E2,1.84E2,1.62E2,6.7E1,3E0,4E0,1.64E2,1.29E2,3E0,2.6E1,7E0,6.5E1,1.3E2,1.2E2,6.9E1,1.08E2,6E1,1.85E2,1.62E2,1.06E2,5E0,2E0,3E0,4E0,8E0,8E0,8.7E1,2.72E2,1.3E1,7E0,2.3E1,5.7E1,1.2E2,1E1,3.6E1,1.14E2,1.7E1,2.71E2,2.74E2,1.09E2,4E1,7.2E1,9.7E1,1.47E2,1.5E1,2E0,8.5E1,4E0,2E0,1.01E2,1.49E2,2E0,6E0,1.43E2,1.21E2,1.4E1],"tree_param":{"num_deleted":"0","num_feature":"9","num_nodes":"223","size_leaf_vector":"1"}},{"base_weights":[2.6607498E3,-6.6415925E6,9.820383E6,-8.997383E6,-2.4139358E6,5.591121E6,1.5019347E7,-1.0213272E7,-7.2638125E6,5.296918E5,-3.4079308E6,3.6401262E6,8.432615E6,1.2825056E7,1.761393E7,-1.0548078E7,-9.231451E6,-5.0531975E6,-7.9298355E6,-2.013858E6,2.4920225E6,-4.923911E6,-1.709008E6,6.1811055E6,2.3219895E6,1.0442956E7,6.3387505E6,1.4879184E7,1.0033124E7,1.9520866E7,1.4867744E7,-9.292707E6,-1.0650273E7,-7.56104E6,-9.7234E6,-6.104406E6,-3.273391E6,-2.9145135E6,-8.058469E6,-3.5585998E6,-6.091766E5,-5.654652E6,3.1508218E6,-6.4386545E6,-3.775709E6,-3.9942665E6,-1.8023427E5,7.3557565E6,2.7990525E6,7.225462E5,3.662617E6,-6.1050875E6,1.0810377E7,8.859351E6,4.513511E6,-3.1859258E6,1.5040411E7,1.1153674E7,7.916058E6,1.8064084E7,2.0861106E7,1.3755972E7,1.265925E6,-6.814263E5,-5.511445E5,-7.670832E5,-1.033549E7,-8.853867E6,-6.1232595E6,-6.152773E5,-7.0936875E5,-4.647895E6,-6.6564225E6,-7.3593395E6,-2.5550175E6,-4.735516E6,2.5129823E5,-8.983216E6,-7.2453185E6,-4.7302755E6,-1.8599762E6,-6.012585E6,1.5454003E5,1.6261977E5,-4.8334738E5,1.8942221E6,5.0518895E6,-4.4368965E6,-7.907698E6,-2.752659E6,-5.3170495E6,2.4549082E6,-4.8150435E6,1.06313E6,-1.9174874E6,-5.1818415E6,7.5547885E6,7.097616E6,1.7823922E6,-5.530985E5,2.4097912E6,5.69673E6,1.773112E6,-5.2379844E5,4.42267E3,1.2704469E7,9.589033E6,6.2374095E6,1.0740088E7,2.0231405E6,6.061556E6,-4.3831684E5,1.3839256E5,1.7159252E7,1.3609146E7,1.2488393E7,9.979495E6,8.669645E6,6.1242975E6,1.9783228E7,1.5903827E7,7.8066725E5,1.4679976E6,1.4918597E7,1.2327311E7,-6.301065E5,-7.3124494E5,-2.6044008E5,-6.669697E5,-4.7336506E5,-2.730902E5,-5.284359E5,-2.7332747E5,-4.926423E5,-3.2407225E5,-6.250946E5,1.0836812E5,-1.5148514E5,-3.2211194E5,3.221568E4,-3.7146612E5,5.5250555E4,-8.095586E4,-6.0057494E5,-7.127038E5,-4.6266275E5,-5.6122475E5,-7.271936E4,-3.7971012E5,-2.0914262E5,1.3064173E5,-4.445595E3,-6.097655E5,-5.0238094E5,3.404668E4,1.8478073E5,-1.0230238E5,4.0836475E5,-1.3968312E4,-3.512065E5,1.1510733E4,-4.1228544E5,-6.871221E5,-2.6686825E5,-2.8237996E4,-4.5519297E5,-2.5649772E5,4.4628025E5,-1.2738639E5,-1.0864327E5,-4.51288E5,-5.8917094E5,9.6591625E4,-2.784074E5,3.179187E4,-5.488044E5,6.2811465E3,6.352181E5,3.8913938E5,2.3943034E5,8.075136E5,2.4537877E5,-4.7633348E4,1.0459223E5,-1.9563384E5,-5.6447575E5,1.9313788E5,3.3081053E5,6.271856E5,4.138528E3,4.492192E5,3.3848753E5,9.063615E5,4.9559228E5,7.5783694E5,6.114745E5,3.149155E5,7.9212056E5,4.6293166E5,-3.5500754E3,2.9539878E5,6.116045E5,3.406415E5,5.374118E5,1.2165271E6,7.553491E5,1.03491575E6,4.5508478E5,9.1361975E5,5.652172E5,7.7035644E5,6.358107E5,2.991757E5,5.0211866E5,2.97139E5,1.3979446E6,7.667743E5,1.1213352E6,4.383071E5,5.2565806E5,1.0631791E6,8.7301E5,1.5788239E5],"categories":[],"categories_nodes":[],"categories_segments":[],"categories_sizes":[],"default_left":[0,0,0,0,0,0,0,0,0,0,0,0,0,0,0,0,0,0,0,0,0,0,0,0,0,0,0,0,0,0,0,0,0,0,0,0,0,0,0,0,0,0,0,0,0,0,0,0,0,0,0,0,0,0,0,0,0,0,0,0,0,0,0,0,0,0,0,0,0,0,0,0,0,0,0,0,0,0,0,0,0,0,0,0,0,0,0,0,0,0,0,0,0,0,0,0,0,0,0,0,0,0,0,0,0,0,0,0,0,0,0,0,0,0,0,0,0,0,0,0,0,0,0,0,0,0,0,0,0,0,0,0,0,0,0,0,0,0,0,0,0,0,0,0,0,0,0,0,0,0,0,0,0,0,0,0,0,0,0,0,0,0,0,0,0,0,0,0,0,0,0,0,0,0,0,0,0,0,0,0,0,0,0,0,0,0,0,0,0,0,0,0,0,0,0,0,0,0,0,0,0,0,0,0,0,0,0,0,0,0,0,0,0,0,0,0,0,0,0,0,0,0,0],"id":3,"left_children":[1,3,5,7,9,11,13,15,17,19,21,23,25,27,29,31,33,35,37,39,41,43,45,47,49,51,53,55,57,59,61,63,65,67,69,71,73,75,77,79,81,83,85,87,89,91,93,95,97,99,101,103,105,107,109,111,113,115,117,119,121,123,-1,-1,-1,-1,125,127,129,-1,-1,131,133,135,137,139,141,143,145,147,149,151,153,-1,-1,155,157,159,161,163,165,167,169,171,173,175,177,179,181,183,185,187,189,-1,-1,191,193,195,197,199,201,-1,-1,203,205,207,209,211,213,215,217,-1,-1,219,221,-1,-1,-1,-1,-1,-1,-1,-1,-1,-1,-1,-1,-1,-1,-1,-1,-1,-1,-1,-1,-1,-1,-1,-1,-1,-1,-1,-1,-1,-1,-1,-1,-1,-1,-1,-1,-1,-1,-1,-1,-1,-1,-1,-1,-1,-1,-1,-1,-1,-1,-1,-1,-1,-1,-1,-1,-1,-1,-1,-1,-1,-1,-1,-1,-1,-1,-1,-1,-1,-1,-1,-1,-1,-1,-1,-1,-1,-1,-1,-1,-1,-1,-1,-1,-1,-1,-1,-1,-1,-1,-1,-1,-1,-1,-1,-1,-1,-1],"loss_changes":[6.754063E17,6.1478024E16,9.180293E16,8.2833426E15,6.4710844E15,1.2753167E16,1.0443333E16,6.679018E14,2.3715865E15,2.7951475E15,4.248938E15,4.570917E15,3.8822123E15,5.694663E15,4.192455E15,1.22836065E14,4.195367E14,6.947206E14,7.874565E14,5.2728052E14,1.713796E15,1.4940409E15,2.7278153E15,1.8346769E15,1.9336179E15,2.9662032E15,2.0855352E15,1.7517883E15,9.4364726E14,6.0330547E14,1.0208708E15,9.911711E12,4.1128607E13,2.0787588E14,8.72179E13,1.6122126E14,4.0387067E14,1.9143349E14,8.560557E14,2.22069E14,5.332701E14,2.5543439E14,6.903728E14,1.06766445E15,7.7222116E14,1.6686345E15,1.0150966E15,9.025487E14,5.2051098E14,8.902432E14,1.8770414E15,9.395429E13,9.5850356E14,8.847289E14,1.028642E15,1.0765926E14,1.525392E15,3.1732077E14,1.5484109E14,6.0638925E14,3.91701E13,2.6124139E14,0E0,0E0,0E0,0E0,2.501389E13,2.1375891E14,7.302169E13,0E0,0E0,1.1930184E14,9.957989E13,3.0761254E14,8.925398E13,6.4759987E13,1.0758965E13,1.8780603E14,2.695908E14,1.6860954E14,2.1149444E14,2.562899E14,2.8083706E14,0E0,0E0,4.4915547E14,4.7746668E14,4.3074898E14,7.701145E14,7.5032595E14,3.6419927E14,6.149303E14,1.470337E15,8.3436706E14,9.592756E14,8.4781614E13,9.8377514E14,3.3591154E14,4.2674225E14,1.0872535E15,6.734976E14,7.0530396E14,2.0374557E15,0E0,0E0,2.8235974E14,8.1739885E14,3.2116745E14,1.8897534E14,4.785872E14,4.8836087E14,0E0,0E0,3.457234E14,1.00321846E15,3.4685082E14,2.139656E14,1.5378614E14,6.6140886E13,2.9764123E12,2.7492086E13,0E0,0E0,1.7167199E14,1.549431E14,0E0,0E0,0E0,0E0,0E0,0E0,0E0,0E0,0E0,0E0,0E0,0E0,0E0,0E0,0E0,0E0,0E0,0E0,0E0,0E0,0E0,0E0,0E0,0E0,0E0,0E0,0E0,0E0,0E0,0E0,0E0,0E0,0E0,0E0,0E0,0E0,0E0,0E0,0E0,0E0,0E0,0E0,0E0,0E0,0E0,0E0,0E0,0E0,0E0,0E0,0E0,0E0,0E0,0E0,0E0,0E0,0E0,0E0,0E0,0E0,0E0,0E0,0E0,0E0,0E0,0E0,0E0,0E0,0E0,0E0,0E0,0E0,0E0,0E0,0E0,0E0,0E0,0E0,0E0,0E0,0E0,0E0,0E0,0E0,0E0,0E0,0E0,0E0,0E0,0E0,0E0,0E0,0E0,0E0,0E0,0E0,0E0,0E0],"parents":[2147483647,0,0,1,1,2,2,3,3,4,4,5,5,6,6,7,7,8,8,9,9,10,10,11,11,12,12,13,13,14,14,15,15,16,16,17,17,18,18,19,19,20,20,21,21,22,22,23,23,24,24,25,25,26,26,27,27,28,28,29,29,30,30,31,31,32,32,33,33,34,34,35,35,36,36,37,37,38,38,39,39,40,40,41,41,42,42,43,43,44,44,45,45,46,46,47,47,48,48,49,49,50,50,51,51,52,52,53,53,54,54,55,55,56,56,57,57,58,58,59,59,60,60,61,61,66,66,67,67,68,68,71,71,72,72,73,73,74,74,75,75,76,76,77,77,78,78,79,79,80,80,81,81,82,82,85,85,86,86,87,87,88,88,89,89,90,90,91,91,92,92,93,93,94,94,95,95,96,96,97,97,98,98,99,99,100,100,101,101,102,102,105,105,106,106,107,107,108,108,109,109,110,110,113,113,114,114,115,115,116,116,117,117,118,118,119,119,120,120,123,123,124,124],"right_children":[2,4,6,8,10,12,14,16,18,20,22,24,26,28,30,32,34,36,38,40,42,44,46,48,50,52,54,56,58,60,62,64,66,68,70,72,74,76,78,80,82,84,86,88,90,92,94,96,98,100,102,104,106,108,110,112,114,116,118,120,122,124,-1,-1,-1,-1,126,128,130,-1,-1,132,134,136,138,140,142,144,146,148,150,152,154,-1,-1,156,158,160,162,164,166,168,170,172,174,176,178,180,182,184,186,188,190,-1,-1,192,194,196,198,200,202,-1,-1,204,206,208,210,212,214,216,218,-1,-1,220,222,-1,-1,-1,-1,-1,-1,-1,-1,-1,-1,-1,-1,-1,-1,-1,-1,-1,-1,-1,-1,-1,-1,-1,-1,-1,-1,-1,-1,-1,-1,-1,-1,-1,-1,-1,-1,-1,-1,-1,-1,-1,-1,-1,-1,-1,-1,-1,-1,-1,-1,-1,-1,-1,-1,-1,-1,-1,-1,-1,-1,-1,-1,-1,-1,-1,-1,-1,-1,-1,-1,-1,-1,-1,-1,-1,-1,-1,-1,-1,-1,-1,-1,-1,-1,-1,-1,-1,-1,-1,-1,-1,-1,-1,-1,-1,-1,-1,-1],"split_conditions":[1.27E0,5.6E-1,2.23E0,2.5E-1,8E-1,1.84E0,2.81E0,1.5E-1,7E-1,8.2E-1,9.2E-1,1.2E0,1.87E1,2.29E1,2.53E1,1E-1,6.4E0,4E-1,-3E-1,1E-1,4.1E1,6.5E1,5.4E1,1.999E3,1.56E0,-2.3E0,1.4E0,-1.1E0,2.3E0,3.13E0,3.4E0,9E-2,8E-2,-2.3E0,1E0,9.3E0,6.1E1,-1.5E0,7.7E1,6.9E-1,4.6E1,9.1E0,1E0,1E1,2.39E1,4.5E0,2.41E1,-8E-1,1.26E1,6.1E1,1.69E1,-2.8E0,1.3E0,6.1E1,5.4E1,1.4E0,1.4E1,2.71E1,3.6E0,1.9E1,1E0,2.87E1,1.265925E6,-6.814263E5,-5.511445E5,-7.670832E5,1E-1,-8E-1,1.979E3,-6.152773E5,-7.0936875E5,6.5E1,4.9E-1,4.8E-1,2.14E1,1.1E0,-6.7E0,8E-1,2E0,5.8E-1,7E-1,1.996E3,-2E0,1.6261977E5,-4.8334738E5,1.996E3,1.99E1,8.8E-1,6E-1,7.7E-1,9.2E1,4.6E1,7E-1,-2.8E0,8.4E1,6E1,1.62E1,1.6E0,8E-1,1.21E1,6.2E0,1.3E0,7.6E1,-5.2379844E5,4.42267E3,1.8E1,1.96E0,9E-1,2.57E1,1.99E0,2.55E1,-4.3831684E5,1.3839256E5,7E-1,3.1E1,7.8E0,5.9E1,3.19E1,1E0,7.8E0,5.3E0,7.8066725E5,1.4679976E6,9E-1,8.2E1,-6.301065E5,-7.3124494E5,-2.6044008E5,-6.669697E5,-4.7336506E5,-2.730902E5,-5.284359E5,-2.7332747E5,-4.926423E5,-3.2407225E5,-6.250946E5,1.0836812E5,-1.5148514E5,-3.2211194E5,3.221568E4,-3.7146612E5,5.5250555E4,-8.095586E4,-6.0057494E5,-7.127038E5,-4.6266275E5,-5.6122475E5,-7.271936E4,-3.7971012E5,-2.0914262E5,1.3064173E5,-4.445595E3,-6.097655E5,-5.0238094E5,3.404668E4,1.8478073E5,-1.0230238E5,4.0836475E5,-1.3968312E4,-3.512065E5,1.1510733E4,-4.1228544E5,-6.871221E5,-2.6686825E5,-2.8237996E4,-4.5519297E5,-2.5649772E5,4.4628025E5,-1.2738639E5,-1.0864327E5,-4.51288E5,-5.8917094E5,9.6591625E4,-2.784074E5,3.179187E4,-5.488044E5,6.2811465E3,6.352181E5,3.8913938E5,2.3943034E5,8.075136E5,2.4537877E5,-4.7633348E4,1.0459223E5,-1.9563384E5,-5.6447575E5,1.9313788E5,3.3081053E5,6.271856E5,4.138528E3,4.492192E5,3.3848753E5,9.063615E5,4.9559228E5,7.5783694E5,6.114745E5,3.149155E5,7.9212056E5,4.6293166E5,-3.5500754E3,2.9539878E5,6.116045E5,3.406415E5,5.374118E5,1.2165271E6,7.553491E5,1.03491575E6,4.5508478E5,9.1361975E5,5.652172E5,7.7035644E5,6.358107E5,2.991757E5,5.0211866E5,2.97139E5,1.3979446E6,7.667743E5,1.1213352E6,4.383071E5,5.2565806E5,1.0631791E6,8.7301E5,1.5788239E5],"split_indices":[7,7,7,7,0,7,7,7,0,7,7,0,1,1,1,8,8,6,8,6,3,3,3,5,7,1,0,1,0,7,7,7,7,2,0,8,3,1,3,7,3,8,6,1,1,8,1,1,1,3,1,1,0,3,3,0,1,1,0,1,6,1,0,0,0,0,0,8,5,0,0,3,7,7,8,0,2,6,0,7,0,5,1,0,0,5,1,7,6,7,3,3,6,1,3,3,1,7,6,1,8,2,3,0,0,3,7,0,2,7,1,0,0,1,3,2,3,1,6,2,0,0,0,6,3,0,0,0,0,0,0,0,0,0,0,0,0,0,0,0,0,0,0,0,0,0,0,0,0,0,0,0,0,0,0,0,0,0,0,0,0,0,0,0,0,0,0,0,0,0,0,0,0,0,0,0,0,0,0,0,0,0,0,0,0,0,0,0,0,0,0,0,0,0,0,0,0,0,0,0,0,0,0,0,0,0,0,0,0,0,0,0,0,0,0,0,0,0,0,0,0,0,0],"split_type":[0,0,0,0,0,0,0,0,0,0,0,0,0,0,0,0,0,0,0,0,0,0,0,0,0,0,0,0,0,0,0,0,0,0,0,0,0,0,0,0,0,0,0,0,0,0,0,0,0,0,0,0,0,0,0,0,0,0,0,0,0,0,0,0,0,0,0,0,0,0,0,0,0,0,0,0,0,0,0,0,0,0,0,0,0,0,0,0,0,0,0,0,0,0,0,0,0,0,0,0,0,0,0,0,0,0,0,0,0,0,0,0,0,0,0,0,0,0,0,0,0,0,0,0,0,0,0,0,0,0,0,0,0,0,0,0,0,0,0,0,0,0,0,0,0,0,0,0,0,0,0,0,0,0,0,0,0,0,0,0,0,0,0,0,0,0,0,0,0,0,0,0,0,0,0,0,0,0,0,0,0,0,0,0,0,0,0,0,0,0,0,0,0,0,0,0,0,0,0,0,0,0,0,0,0,0,0,0,0,0,0,0,0,0,0,0,0,0,0,0,0,0,0],"sum_hessian":[1.0352E4,6.174E3,4.178E3,3.964E3,2.21E3,2.305E3,1.873E3,2.327E3,1.637E3,5.58E2,1.652E3,1.368E3,9.37E2,1.018E3,8.55E2,1.728E3,5.99E2,3.81E2,1.256E3,2.43E2,3.15E2,8.72E2,7.8E2,4.66E2,9.02E2,4.76E2,4.61E2,5.84E2,4.34E2,5.01E2,3.54E2,1.37E2,1.591E3,1.4E2,4.59E2,2.38E2,1.43E2,3.2E1,1.224E3,1.15E2,1.28E2,2.3E1,2.92E2,3.74E2,4.98E2,3.12E2,4.68E2,3.45E2,1.21E2,4.12E2,4.9E2,1E1,4.66E2,1.92E2,2.69E2,5E0,5.79E2,2.81E2,1.53E2,2.47E2,2.54E2,2.67E2,8.7E1,1E2,3.7E1,7.87E2,8.04E2,7.1E1,6.9E1,1.47E2,3.12E2,6.8E1,1.7E2,2E1,1.23E2,2E1,1.2E1,5.68E2,6.56E2,6.7E1,4.8E1,1.5E1,1.13E2,3E0,2E1,1.77E2,1.15E2,1.6E2,2.14E2,3.01E2,1.97E2,3.5E1,2.77E2,2.73E2,1.95E2,5E0,3.4E2,2.2E1,9.9E1,2.35E2,1.77E2,2.35E2,2.55E2,8E0,2E0,1.79E2,2.87E2,8.2E1,1.1E2,1.04E2,1.65E2,3E0,2E0,2.29E2,3.5E2,1.27E2,1.54E2,1.05E2,4.8E1,1.33E2,1.14E2,4E0,2.5E2,1.42E2,1.25E2,6.8E1,7.36E2,9E0,6.2E1,5.2E1,1.7E1,1.2E1,5.6E1,1.41E2,2.9E1,1.7E1,3E0,1.05E2,1.8E1,2E0,1.8E1,9E0,3E0,4.31E2,1.37E2,3.65E2,2.91E2,1.1E1,5.6E1,3.7E1,1.1E1,5E0,1E1,4E0,1.09E2,1.45E2,3.2E1,1E2,1.5E1,1.42E2,1.8E1,1.06E2,1.08E2,2.07E2,9.4E1,1.13E2,8.4E1,1.8E1,1.7E1,9.3E1,1.84E2,8E0,2.65E2,1.04E2,9.1E1,3E0,2E0,1.91E2,1.49E2,1.3E1,9E0,5.8E1,4.1E1,1.23E2,1.12E2,5E0,1.72E2,1.83E2,5.2E1,1.87E2,6.8E1,6E0,1.73E2,9.7E1,1.9E2,3.2E1,5E1,9.5E1,1.5E1,5.4E1,5E1,4.9E1,1.16E2,6E0,2.23E2,1.06E2,2.44E2,1.2E1,1.15E2,5.7E1,9.7E1,9.5E1,1E1,2.9E1,1.9E1,1.29E2,4E0,1.12E2,2E0,6E0,1.36E2,1.23E2,2E0],"tree_param":{"num_deleted":"0","num_feature":"9","num_nodes":"223","size_leaf_vector":"1"}},{"base_weights":[3.3502683E3,-6.1462645E6,9.189262E6,-8.159288E6,-1.7755722E6,5.2480295E6,1.3977353E7,-9.501075E6,-6.527272E6,8.717899E5,-2.8749632E6,3.426786E6,7.8480935E6,1.2112026E7,1.6630198E7,-9.811657E6,-8.590247E6,-4.461502E6,-7.1424435E6,-5.7649915E6,1.4055794E6,-3.7271445E6,-5.574558E5,6.3451185E6,2.4066172E6,9.422527E6,5.501047E6,1.3849436E7,9.26048E6,1.885062E7,1.4490932E7,-8.651149E6,-9.90609E6,-7.0436385E6,-9.045641E6,-5.4210095E6,-2.9182018E6,-2.242266E6,-7.2772835E6,-1.6850981E5,-6.8485155E6,-4.3148934E5,3.4251608E6,-5.732208E6,-2.7205765E6,-3.1392072E6,6.794983E5,7.402753E6,3.0992825E6,9.4990794E5,3.6399495E6,-3.1796602E6,9.77521E6,8.154718E6,3.7844765E6,-3.0128982E6,1.3978044E7,1.0683987E7,8.163406E6,1.7548354E7,1.3875929E6,1.2612756E7,1.6241584E7,-6.259622E5,-4.826856E5,-7.134555E5,-9.613696E6,-9.325958E6,-6.2599115E6,-5.7249894E5,-6.5987156E5,-6.123616E6,-4.189963E6,-7.18863E6,-2.243948E6,-5.90497E6,-3.308327E5,-8.1859335E6,-6.59716E6,-4.4200947E5,2.9325292E6,-4.257847E6,-5.288061E5,-2.4464592E6,8.867056E5,2.0397041E6,5.538367E6,-3.089174E6,-7.0695025E6,-4.307984E6,-1.9331315E6,-3.3174947E5,-5.634416E6,2.2990332E6,-1.3473505E6,5.3274505E6,8.679492E6,-6.730255E5,3.8945278E6,-1.7292755E6,1.7815681E6,5.6805375E6,1.881371E6,-6.1487815E6,2.7936708E6,1.142296E7,8.846624E6,4.6356835E6,9.957142E6,5.7740255E6,1.6381902E6,-4.1530516E5,1.3193422E5,1.5994892E7,1.2809985E7,1.0862123E7,1.5937539E5,6.414158E6,8.956254E6,1.8974248E7,1.4912525E7,1.2700415E7,1.917879E5,1.204406E6,9.611532E5,-6.3847006E5,-6.9451325E5,-2.37405E5,-7.1625344E5,-5.2120172E5,-3.4872794E5,-2.3059781E5,-4.49019E5,-1.742969E5,-3.6419775E5,-1.0963157E5,-6.6854006E5,-1.308104E5,-3.212646E5,-4.79393E5,-1.1384567E4,-1.2877985E5,2.1412938E5,-5.386904E5,-6.440196E5,-5.34061E5,-4.1653094E5,3.1893586E4,2.839952E5,-3.7870728E5,1.638819E4,-3.1788984E5,-1.0513761E5,1.7810328E5,-5.884746E4,4.4691316E4,2.209581E5,-3.9189156E5,4.1583647E5,7.1167444E5,-2.4745133E5,-1.6815861E5,-5.4872094E5,-3.7696747E5,-2.0503667E5,6.3344683E3,-2.0068311E5,-2.4786027E5,1.3147836E5,-1.7933729E4,-4.4787106E5,7.162327E4,4.100274E5,3.208678E5,-1.4682005E5,-1.43936E5,4.0672447E5,7.853455E4,6.6175006E5,9.142191E4,-3.7017044E5,6.2926137E4,3.4134856E5,1.1773713E5,-2.1321802E5,-4.0649062E5,1.4152888E5,-4.6334328E5,4.1717962E5,-9.597577E3,3.51157E5,-5.282107E5,6.44455E3,3.7755788E5,-1.1229638E5,5.320719E4,8.111124E5,4.3682016E5,7.067178E5,4.9093272E5,1.25110875E5,7.103337E5,4.2431316E4,3.5607403E5,6.022947E5,1.703977E4,4.4071478E5,6.2707675E5,1.1401174E6,8.060541E5,1.0387314E6,8.33834E5,6.313743E5,3.1113594E5,5.2704244E5,7.2237025E5,4.9496338E5,5.3236694E5,1.3383829E6,1.0612131E6,5.1852725E5,9.61516E5,8.112762E5],"categories":[],"categories_nodes":[],"categories_segments":[],"categories_sizes":[],"default_left":[0,0,0,0,0,0,0,0,0,0,0,0,0,0,0,0,0,0,0,0,0,0,0,0,0,0,0,0,0,0,0,0,0,0,0,0,0,0,0,0,0,0,0,0,0,0,0,0,0,0,0,0,0,0,0,0,0,0,0,0,0,0,0,0,0,0,0,0,0,0,0,0,0,0,0,0,0,0,0,0,0,0,0,0,0,0,0,0,0,0,0,0,0,0,0,0,0,0,0,0,0,0,0,0,0,0,0,0,0,0,0,0,0,0,0,0,0,0,0,0,0,0,0,0,0,0,0,0,0,0,0,0,0,0,0,0,0,0,0,0,0,0,0,0,0,0,0,0,0,0,0,0,0,0,0,0,0,0,0,0,0,0,0,0,0,0,0,0,0,0,0,0,0,0,0,0,0,0,0,0,0,0,0,0,0,0,0,0,0,0,0,0,0,0,0,0,0,0,0,0,0,0,0,0,0,0,0,0,0,0,0,0,0,0,0,0,0,0,0,0,0,0,0],"id":4,"left_children":[1,3,5,7,9,11,13,15,17,19,21,23,25,27,29,31,33,35,37,39,41,43,45,47,49,51,53,55,57,59,61,63,65,67,69,71,73,75,77,79,81,83,85,87,89,91,93,95,97,99,101,103,105,107,109,111,113,115,117,119,-1,121,123,-1,-1,-1,125,127,129,-1,-1,131,133,135,137,139,141,143,145,-1,147,149,-1,151,153,155,157,159,161,163,165,167,169,171,173,175,177,179,181,183,185,187,189,191,193,195,197,199,201,203,205,-1,-1,207,209,211,-1,213,215,217,219,221,-1,-1,-1,-1,-1,-1,-1,-1,-1,-1,-1,-1,-1,-1,-1,-1,-1,-1,-1,-1,-1,-1,-1,-1,-1,-1,-1,-1,-1,-1,-1,-1,-1,-1,-1,-1,-1,-1,-1,-1,-1,-1,-1,-1,-1,-1,-1,-1,-1,-1,-1,-1,-1,-1,-1,-1,-1,-1,-1,-1,-1,-1,-1,-1,-1,-1,-1,-1,-1,-1,-1,-1,-1,-1,-1,-1,-1,-1,-1,-1,-1,-1,-1,-1,-1,-1,-1,-1,-1,-1,-1,-1,-1,-1,-1,-1,-1,-1,-1,-1,-1],"loss_changes":[5.848956E17,5.4552596E16,7.827891E16,9.235932E15,5.6983275E15,1.0764962E16,9.071933E15,5.742543E14,2.4068052E15,2.0451237E15,2.7292595E15,3.9801215E15,3.4143315E15,5.341307E15,3.3891587E15,1.0378359E14,3.5887888E14,6.4017776E14,9.595988E14,2.5959453E14,1.9789664E15,2.0248387E15,1.1933118E15,1.1682751E15,1.7859623E15,2.5200463E15,1.695564E15,1.5254521E15,5.702557E14,1.2688192E14,1.1004995E15,8.880919E12,3.520155E13,1.9382865E14,7.490423E13,2.0960568E14,4.7911743E14,2.8508795E14,8.340569E14,1.7098694E14,3.3665564E13,7.458838E14,7.323531E14,1.169293E15,8.3542E14,8.457589E14,8.3358336E14,6.453124E14,2.6361335E14,1.0235829E15,1.9235322E15,3.0094648E14,7.328417E14,8.9257473E14,9.81214E14,9.699046E13,1.3946876E15,2.4484105E14,2.7817966E14,3.5222168E14,0E0,1.3483191E14,2.527846E14,0E0,0E0,0E0,3.163673E13,1.4814953E14,1.2658987E14,0E0,0E0,1.1963202E14,1.6267618E14,2.9048072E14,1.2344065E14,7.473676E13,1.4884303E14,2.3310506E14,5.067052E14,0E0,1.4863821E13,5.3025616E13,0E0,2.1279778E14,4.8890972E14,2.4055662E14,4.811295E14,7.156012E14,7.8192134E14,3.1547662E14,8.5624804E14,4.179968E14,2.6124541E14,6.341595E14,5.123341E14,3.7563596E14,9.254194E14,1.5304368E14,2.0739015E14,4.9470326E14,6.499062E14,8.944479E14,1.8422086E15,9.660371E13,7.726043E13,3.2943258E14,1.0864399E15,3.396318E14,1.666254E14,1.8963864E14,7.325657E14,0E0,0E0,3.583549E14,9.7206706E14,2.3298265E14,0E0,1.4000815E14,3.485656E14,2.9944512E13,6.6571993E12,6.394777E13,0E0,0E0,0E0,0E0,0E0,0E0,0E0,0E0,0E0,0E0,0E0,0E0,0E0,0E0,0E0,0E0,0E0,0E0,0E0,0E0,0E0,0E0,0E0,0E0,0E0,0E0,0E0,0E0,0E0,0E0,0E0,0E0,0E0,0E0,0E0,0E0,0E0,0E0,0E0,0E0,0E0,0E0,0E0,0E0,0E0,0E0,0E0,0E0,0E0,0E0,0E0,0E0,0E0,0E0,0E0,0E0,0E0,0E0,0E0,0E0,0E0,0E0,0E0,0E0,0E0,0E0,0E0,0E0,0E0,0E0,0E0,0E0,0E0,0E0,0E0,0E0,0E0,0E0,0E0,0E0,0E0,0E0,0E0,0E0,0E0,0E0,0E0,0E0,0E0,0E0,0E0,0E0,0E0,0E0,0E0,0E0,0E0,0E0,0E0,0E0,0E0],"parents":[2147483647,0,0,1,1,2,2,3,3,4,4,5,5,6,6,7,7,8,8,9,9,10,10,11,11,12,12,13,13,14,14,15,15,16,16,17,17,18,18,19,19,20,20,21,21,22,22,23,23,24,24,25,25,26,26,27,27,28,28,29,29,30,30,31,31,32,32,33,33,34,34,35,35,36,36,37,37,38,38,39,39,40,40,41,41,42,42,43,43,44,44,45,45,46,46,47,47,48,48,49,49,50,50,51,51,52,52,53,53,54,54,55,55,56,56,57,57,58,58,59,59,61,61,62,62,66,66,67,67,68,68,71,71,72,72,73,73,74,74,75,75,76,76,77,77,78,78,80,80,81,81,83,83,84,84,85,85,86,86,87,87,88,88,89,89,90,90,91,91,92,92,93,93,94,94,95,95,96,96,97,97,98,98,99,99,100,100,101,101,102,102,103,103,104,104,105,105,106,106,107,107,108,108,109,109,110,110,113,113,114,114,115,115,117,117,118,118,119,119,120,120,121,121],"right_children":[2,4,6,8,10,12,14,16,18,20,22,24,26,28,30,32,34,36,38,40,42,44,46,48,50,52,54,56,58,60,62,64,66,68,70,72,74,76,78,80,82,84,86,88,90,92,94,96,98,100,102,104,106,108,110,112,114,116,118,120,-1,122,124,-1,-1,-1,126,128,130,-1,-1,132,134,136,138,140,142,144,146,-1,148,150,-1,152,154,156,158,160,162,164,166,168,170,172,174,176,178,180,182,184,186,188,190,192,194,196,198,200,202,204,206,-1,-1,208,210,212,-1,214,216,218,220,222,-1,-1,-1,-1,-1,-1,-1,-1,-1,-1,-1,-1,-1,-1,-1,-1,-1,-1,-1,-1,-1,-1,-1,-1,-1,-1,-1,-1,-1,-1,-1,-1,-1,-1,-1,-1,-1,-1,-1,-1,-1,-1,-1,-1,-1,-1,-1,-1,-1,-1,-1,-1,-1,-1,-1,-1,-1,-1,-1,-1,-1,-1,-1,-1,-1,-1,-1,-1,-1,-1,-1,-1,-1,-1,-1,-1,-1,-1,-1,-1,-1,-1,-1,-1,-1,-1,-1,-1,-1,-1,-1,-1,-1,-1,-1,-1,-1,-1,-1,-1,-1],"split_conditions":[1.28E0,6.3E-1,2.23E0,2.5E-1,9E-1,1.84E0,2.87E0,1.5E-1,7E-1,3.76E1,1.1E0,1E0,2.1E1,2.41E1,2.37E1,1E-1,6.4E0,4E-1,-1E-1,9.7E0,9.3E-1,5.3E1,4.9E1,1.998E3,1.56E0,-1.1E0,1.4E0,-1.1E0,1.6E0,3.13E0,3.21E0,1E-1,8E-2,-1E-1,1E0,4.3E-1,6.1E1,-2.8E0,7.3E1,3.1E1,6E-1,1E-1,1E0,6E-1,7.6E-1,1.22E1,2.37E1,8E-1,1.39E0,4E1,1.62E1,2.5E0,1.2E0,6.1E1,8E-1,1.4E0,1.4E1,3.28E1,5.5E1,1.9E1,1.3875929E6,2.81E1,1.83E1,-6.259622E5,-4.826856E5,-7.134555E5,1.1E0,-3E0,1E-1,-5.7249894E5,-6.5987156E5,1E-1,1.297E3,6.7E0,2.17E1,9E-1,4.9E-1,7E-1,3.6E-1,-4.4200947E5,4E-1,7E-1,-5.288061E5,6.9E-1,1.13E1,2E-1,-1.1E0,-5E-1,5.5E0,8.6E1,1.51E1,-1.05E1,3E-1,1E0,1.394E3,2.5E0,3.5E1,3.08E1,3.7E1,1.24E1,-8E-1,-1.5E0,6.7E1,1.3E0,3E0,7E-1,1.96E0,1.986E3,9.2E1,4.13E1,7.1E1,-4.1530516E5,1.3193422E5,1E0,2.61E0,2E3,1.5937539E5,2.45E0,2.8E0,9.06E2,2.33E1,2.75E1,1.917879E5,1.204406E6,9.611532E5,-6.3847006E5,-6.9451325E5,-2.37405E5,-7.1625344E5,-5.2120172E5,-3.4872794E5,-2.3059781E5,-4.49019E5,-1.742969E5,-3.6419775E5,-1.0963157E5,-6.6854006E5,-1.308104E5,-3.212646E5,-4.79393E5,-1.1384567E4,-1.2877985E5,2.1412938E5,-5.386904E5,-6.440196E5,-5.34061E5,-4.1653094E5,3.1893586E4,2.839952E5,-3.7870728E5,1.638819E4,-3.1788984E5,-1.0513761E5,1.7810328E5,-5.884746E4,4.4691316E4,2.209581E5,-3.9189156E5,4.1583647E5,7.1167444E5,-2.4745133E5,-1.6815861E5,-5.4872094E5,-3.7696747E5,-2.0503667E5,6.3344683E3,-2.0068311E5,-2.4786027E5,1.3147836E5,-1.7933729E4,-4.4787106E5,7.162327E4,4.100274E5,3.208678E5,-1.4682005E5,-1.43936E5,4.0672447E5,7.853455E4,6.6175006E5,9.142191E4,-3.7017044E5,6.2926137E4,3.4134856E5,1.1773713E5,-2.1321802E5,-4.0649062E5,1.4152888E5,-4.6334328E5,4.1717962E5,-9.597577E3,3.51157E5,-5.282107E5,6.44455E3,3.7755788E5,-1.1229638E5,5.320719E4,8.111124E5,4.3682016E5,7.067178E5,4.9093272E5,1.25110875E5,7.103337E5,4.2431316E4,3.5607403E5,6.022947E5,1.703977E4,4.4071478E5,6.2707675E5,1.1401174E6,8.060541E5,1.0387314E6,8.33834E5,6.313743E5,3.1113594E5,5.2704244E5,7.2237025E5,4.9496338E5,5.3236694E5,1.3383829E6,1.0612131E6,5.1852725E5,9.61516E5,8.112762E5],"split_indices":[7,7,7,7,0,7,7,7,0,3,7,0,1,1,1,8,8,6,8,8,7,3,3,5,7,1,0,1,0,7,7,7,7,1,0,7,3,1,3,3,6,6,6,6,7,1,1,6,7,3,1,0,0,3,6,0,1,1,3,1,0,2,2,0,0,0,0,8,6,0,0,8,5,1,8,6,7,6,7,0,0,0,0,7,8,6,1,1,8,3,1,2,6,6,5,8,3,8,3,8,1,1,3,8,0,8,7,5,3,8,3,0,0,6,7,5,0,7,0,5,1,1,0,0,0,0,0,0,0,0,0,0,0,0,0,0,0,0,0,0,0,0,0,0,0,0,0,0,0,0,0,0,0,0,0,0,0,0,0,0,0,0,0,0,0,0,0,0,0,0,0,0,0,0,0,0,0,0,0,0,0,0,0,0,0,0,0,0,0,0,0,0,0,0,0,0,0,0,0,0,0,0,0,0,0,0,0,0,0,0,0,0,0,0,0,0,0,0,0,0,0,0,0],"split_type":[0,0,0,0,0,0,0,0,0,0,0,0,0,0,0,0,0,0,0,0,0,0,0,0,0,0,0,0,0,0,0,0,0,0,0,0,0,0,0,0,0,0,0,0,0,0,0,0,0,0,0,0,0,0,0,0,0,0,0,0,0,0,0,0,0,0,0,0,0,0,0,0,0,0,0,0,0,0,0,0,0,0,0,0,0,0,0,0,0,0,0,0,0,0,0,0,0,0,0,0,0,0,0,0,0,0,0,0,0,0,0,0,0,0,0,0,0,0,0,0,0,0,0,0,0,0,0,0,0,0,0,0,0,0,0,0,0,0,0,0,0,0,0,0,0,0,0,0,0,0,0,0,0,0,0,0,0,0,0,0,0,0,0,0,0,0,0,0,0,0,0,0,0,0,0,0,0,0,0,0,0,0,0,0,0,0,0,0,0,0,0,0,0,0,0,0,0,0,0,0,0,0,0,0,0,0,0,0,0,0,0,0,0,0,0,0,0,0,0,0,0,0,0],"sum_hessian":[1.0352E4,6.201E3,4.151E3,4.245E3,1.956E3,2.278E3,1.873E3,2.327E3,1.918E3,5.74E2,1.382E3,1.341E3,9.37E2,1.103E3,7.7E2,1.728E3,5.99E2,4.42E2,1.476E3,4.2E1,5.32E2,1.01E3,3.72E2,3.46E2,9.95E2,5.59E2,3.78E2,6.83E2,4.2E2,3.74E2,3.96E2,1.37E2,1.591E3,1.4E2,4.59E2,2.71E2,1.71E2,4E1,1.436E3,7E0,3.5E1,2.79E2,2.53E2,3.36E2,6.74E2,1.2E2,2.52E2,2.6E2,8.6E1,4.57E2,5.38E2,1.5E1,5.44E2,1.47E2,2.31E2,5E0,6.78E2,1.79E2,2.41E2,1.68E2,2.06E2,1.95E2,2.01E2,1.14E2,2.3E1,7.87E2,8.04E2,3.3E1,1.07E2,1.47E2,3.12E2,1.7E2,1.01E2,2.2E1,1.49E2,1.3E1,2.7E1,6.1E2,8.26E2,2E0,5E0,9E0,2.6E1,1.1E2,1.69E2,1.54E2,9.9E1,1.14E2,2.22E2,2.22E2,4.52E2,5.7E1,6.3E1,1.4E2,1.12E2,1.01E2,1.59E2,1.5E1,7.1E1,1.08E2,3.49E2,2.48E2,2.9E2,1E1,5E0,1.92E2,3.52E2,5.1E1,9.6E1,1.19E2,1.12E2,3E0,2E0,2.44E2,4.34E2,1.75E2,4E0,7.8E1,1.63E2,1.05E2,6.3E1,1.93E2,2E0,1.41E2,6E1,3.21E2,4.83E2,5E0,2.8E1,5.3E1,5.4E1,1.7E1,1.53E2,3.9E1,6.2E1,7E0,1.5E1,1.3E2,1.9E1,1.1E1,2E0,1.9E1,8E0,4.17E2,1.93E2,3.14E2,5.12E2,2E0,3E0,7E0,2E0,3.3E1,7.7E1,8.6E1,8.3E1,6.9E1,8.5E1,3E0,9.6E1,3E0,1.11E2,3.2E1,1.9E2,1.23E2,9.9E1,1.43E2,3.09E2,2.3E1,3.4E1,8E0,5.5E1,1.04E2,3.6E1,1.2E1,1E2,6E0,9.5E1,1.5E1,1.44E2,1.1E1,4E0,1.8E1,5.3E1,3E1,7.8E1,1E1,3.39E2,5E0,2.43E2,1.77E2,1.13E2,8E0,2E0,3E0,2E0,3E0,1.89E2,1.16E2,2.36E2,2.7E1,2.4E1,9.4E1,2E0,9.8E1,2.1E1,8.7E1,2.5E1,1.1E1,2.33E2,2.69E2,1.65E2,1.08E2,6.7E1,3E1,4.8E1,9.2E1,7.1E1,2E0,1.03E2,6E1,3E0,9.4E1,9.9E1],"tree_param":{"num_deleted":"0","num_feature":"9","num_nodes":"223","size_leaf_vector":"1"}},{"base_weights":[3.9262847E3,-5.977412E6,8.184667E6,-7.896704E6,-2.5711672E6,4.2604485E6,1.2662186E7,-8.926843E6,-6.5492335E6,3.265728E4,-3.4710745E6,2.6999885E6,6.6268705E6,1.0518806E7,1.4978727E7,-9.290299E6,-8.450456E6,-4.8005065E6,-7.19311E6,-2.4851612E6,1.5961054E6,-4.9551165E6,-2.4589128E6,5.089432E6,1.3607095E6,8.33344E6,4.834284E6,1.2943624E7,8.942158E6,1.666469E7,1.2400694E7,-5.6309206E5,-9.369666E6,-7.7184325E6,-8.899567E6,-2.9852222E6,-5.627731E6,-7.744865E6,-6.4026585E6,-8.196553E6,-2.1335678E6,-1.6805969E6,2.5509425E6,-6.265742E6,-3.968526E6,-4.598748E6,-1.3269568E6,2.1969875E5,5.872562E6,2.5863492E6,1.1566093E5,-3.2275215E6,8.745262E6,1.6988529E6,6.2124615E6,-3.0851425E6,1.3224811E7,1.0290027E7,7.743315E6,1.5308331E7,1.788592E7,1.0367084E7,1.4140038E7,-6.409381E5,-6.826023E5,-6.4786825E6,-5.727595E5,-2.3224527E5,-6.252758E5,-4.450438E6,-1.707152E6,-6.015257E5,-5.228388E6,-3.796405E6,-7.994095E6,-7.4326825E6,-5.8466445E6,-6.7762206E5,-5.0994045E6,-5.5442445E4,-3.075053E6,4.2512475E6,-3.2799642E6,1.5187444E5,3.3740978E6,9.9587794E5,-6.7443705E6,-3.2143032E6,-5.106213E6,-1.9305814E6,-6.0943935E6,3.2974862E5,-2.2703198E6,3.1233052E6,-4.0932245E6,7.0463625E6,3.2119218E6,-7.903117E6,2.7917605E6,-1.6870822E6,1.1489974E6,-5.8934845E6,2.6423238E6,5.6173725E6,9.394105E6,4.60832E6,7.221529E5,8.435506E6,4.5200665E6,-3.939303E5,6.0492742E4,6.627175E6,1.3709599E7,1.0447854E7,2.1461898E6,9.306246E6,6.8325095E6,1.7643458E7,1.3917969E7,7.3735194E5,1.2581548E6,1.1905291E7,8.926146E6,9.088615E5,1.0940579E6,-5.305613E5,-3.8923044E5,-3.8313034E5,-2.328742E5,-3.1623225E5,-6.363066E4,-4.0756388E5,-2.6189E5,-2.035298E5,-4.850949E5,-5.3181325E5,-6.0826125E5,-5.3376094E5,-2.4729831E5,-3.5850234E5,-4.9152444E5,-4.4009434E5,-1.27123945E5,-1.5537228E5,6.850988E4,-3.573372E5,-1.7116181E5,3.55589E4,4.3727925E5,7.512023E4,-2.896417E5,-5.964913E5,4.7265445E4,2.767095E5,9.2260734E4,-5.6244644E5,1.8388416E5,-3.3197184E5,-5.9743425E5,-2.631326E5,1.0849026E5,-3.7434403E5,1.02320234E5,1.30714266E5,-2.0647847E5,-2.05084E5,-5.0531872E5,-7.102528E4,2.3218005E5,-2.7333634E5,-4.021703E4,7.692491E4,8.2898144E5,-3.4013197E5,-2.434635E4,3.0616244E5,5.8902006E5,3.0354822E5,8.0489086E4,-6.599513E5,-2.5481383E5,3.6248256E5,1.4560972E5,1.1985377E5,-2.1187147E5,3.294749E5,-1.804588E3,-5.327293E5,-3.8990664E4,3.577361E5,-1.070559E5,7.0058925E5,1.9867128E5,4.32083E4,6.846978E5,3.9112622E5,-7.390043E4,2.3272223E5,-3.137106E4,4.1888512E5,6.533919E5,1.0700705E5,4.0935875E5,8.691978E5,3.2636175E5,8.1122194E5,1.0132082E6,7.927313E5,6.234306E5,3.2377588E5,-6.0867434E4,1.7572192E5,6.868313E5,3.6430478E5,5.2697494E5,1.3581879E6,1.098147E6,6.3804244E5,9.98193E5,3.168293E5,8.547037E5,6.337821E5,1.27109734E5],"categories":[],"categories_nodes":[],"categories_segments":[],"categories_sizes":[],"default_left":[0,0,0,0,0,0,0,0,0,0,0,0,0,0,0,0,0,0,0,0,0,0,0,0,0,0,0,0,0,0,0,0,0,0,0,0,0,0,0,0,0,0,0,0,0,0,0,0,0,0,0,0,0,0,0,0,0,0,0,0,0,0,0,0,0,0,0,0,0,0,0,0,0,0,0,0,0,0,0,0,0,0,0,0,0,0,0,0,0,0,0,0,0,0,0,0,0,0,0,0,0,0,0,0,0,0,0,0,0,0,0,0,0,0,0,0,0,0,0,0,0,0,0,0,0,0,0,0,0,0,0,0,0,0,0,0,0,0,0,0,0,0,0,0,0,0,0,0,0,0,0,0,0,0,0,0,0,0,0,0,0,0,0,0,0,0,0,0,0,0,0,0,0,0,0,0,0,0,0,0,0,0,0,0,0,0,0,0,0,0,0,0,0,0,0,0,0,0,0,0,0,0,0,0,0,0,0,0,0,0,0,0,0,0,0,0,0,0,0,0,0,0,0],"id":5,"left_children":[1,3,5,7,9,11,13,15,17,19,21,23,25,27,29,31,33,35,37,39,41,43,45,47,49,51,53,55,57,59,61,-1,63,65,67,69,71,73,75,77,79,81,83,85,87,89,91,93,95,97,99,101,103,105,107,109,111,113,115,117,119,121,123,-1,-1,125,-1,-1,-1,127,129,-1,131,133,135,137,139,-1,141,143,145,147,149,151,153,155,157,159,161,163,165,167,169,171,173,175,177,179,181,183,185,187,189,191,193,195,197,199,201,-1,-1,203,205,207,209,211,213,215,217,-1,-1,219,221,-1,-1,-1,-1,-1,-1,-1,-1,-1,-1,-1,-1,-1,-1,-1,-1,-1,-1,-1,-1,-1,-1,-1,-1,-1,-1,-1,-1,-1,-1,-1,-1,-1,-1,-1,-1,-1,-1,-1,-1,-1,-1,-1,-1,-1,-1,-1,-1,-1,-1,-1,-1,-1,-1,-1,-1,-1,-1,-1,-1,-1,-1,-1,-1,-1,-1,-1,-1,-1,-1,-1,-1,-1,-1,-1,-1,-1,-1,-1,-1,-1,-1,-1,-1,-1,-1,-1,-1,-1,-1,-1,-1,-1,-1,-1,-1,-1,-1,-1,-1],"loss_changes":[5.066396E17,3.9080955E16,7.678295E16,5.250941E15,5.054399E15,8.5935037E15,9.98147E15,2.9636992E14,1.8356948E15,2.1887121E15,2.3956662E15,4.4956593E15,2.792506E15,3.9520056E15,4.0485564E15,4.5097157E13,2.4297489E14,6.589425E14,4.790091E14,4.1023474E14,1.07743704E15,8.1432365E14,2.3070975E15,1.9245952E15,1.3776618E15,2.280211E15,1.9512627E15,1.9202541E15,9.674113E14,7.01832E14,1.2364309E15,0E0,3.5132832E12,1.5860885E14,7.720204E13,2.6019127E14,3.1981937E14,6.673649E14,2.451868E14,5.7812273E12,3.950474E14,7.539454E14,5.247858E14,9.6946324E14,3.036472E14,1.3051434E15,9.791082E14,9.0191964E14,1.3358991E15,1.0024314E15,8.383538E14,2.8160198E14,8.747152E14,3.9450674E14,1.146985E15,8.519044E13,1.2205094E15,3.6574438E14,4.3037935E14,6.829857E14,6.7345087E12,3.015604E14,1.5527595E14,0E0,0E0,6.3986154E13,0E0,0E0,0E0,5.7648125E13,1.7085838E14,0E0,2.2023196E14,1.02399E14,1.1772076E14,1.0291923E14,2.4696384E14,0E0,1.1979217E13,1.4540939E14,1.6523155E14,1.23817465E14,2.3594752E14,3.1894984E14,2.3046097E14,2.862404E14,8.914258E14,5.9493645E14,2.4103893E14,4.6996938E14,7.2968166E14,9.189806E14,1.10368285E15,7.4598455E14,8.148932E13,1.0638623E15,3.0804727E14,2.417986E13,7.4838114E14,7.520144E14,1.1954891E15,1.0570931E14,6.959515E13,9.600895E14,1.2754614E15,2.000165E14,3.243316E14,2.415511E14,7.100502E14,0E0,0E0,2.834006E14,4.5021136E14,2.9929694E14,5.635762E13,4.048973E14,2.1341478E14,4.9978387E13,1.7220886E14,0E0,0E0,1.3814011E14,7.3578695E13,0E0,0E0,0E0,0E0,0E0,0E0,0E0,0E0,0E0,0E0,0E0,0E0,0E0,0E0,0E0,0E0,0E0,0E0,0E0,0E0,0E0,0E0,0E0,0E0,0E0,0E0,0E0,0E0,0E0,0E0,0E0,0E0,0E0,0E0,0E0,0E0,0E0,0E0,0E0,0E0,0E0,0E0,0E0,0E0,0E0,0E0,0E0,0E0,0E0,0E0,0E0,0E0,0E0,0E0,0E0,0E0,0E0,0E0,0E0,0E0,0E0,0E0,0E0,0E0,0E0,0E0,0E0,0E0,0E0,0E0,0E0,0E0,0E0,0E0,0E0,0E0,0E0,0E0,0E0,0E0,0E0,0E0,0E0,0E0,0E0,0E0,0E0,0E0,0E0,0E0,0E0,0E0,0E0,0E0,0E0,0E0,0E0,0E0,0E0,0E0],"parents":[2147483647,0,0,1,1,2,2,3,3,4,4,5,5,6,6,7,7,8,8,9,9,10,10,11,11,12,12,13,13,14,14,15,15,16,16,17,17,18,18,19,19,20,20,21,21,22,22,23,23,24,24,25,25,26,26,27,27,28,28,29,29,30,30,32,32,33,33,34,34,35,35,36,36,37,37,38,38,39,39,40,40,41,41,42,42,43,43,44,44,45,45,46,46,47,47,48,48,49,49,50,50,51,51,52,52,53,53,54,54,55,55,56,56,57,57,58,58,59,59,60,60,61,61,62,62,65,65,69,69,70,70,72,72,73,73,74,74,75,75,76,76,78,78,79,79,80,80,81,81,82,82,83,83,84,84,85,85,86,86,87,87,88,88,89,89,90,90,91,91,92,92,93,93,94,94,95,95,96,96,97,97,98,98,99,99,100,100,101,101,102,102,103,103,104,104,105,105,106,106,107,107,108,108,111,111,112,112,113,113,114,114,115,115,116,116,117,117,118,118,121,121,122,122],"right_children":[2,4,6,8,10,12,14,16,18,20,22,24,26,28,30,32,34,36,38,40,42,44,46,48,50,52,54,56,58,60,62,-1,64,66,68,70,72,74,76,78,80,82,84,86,88,90,92,94,96,98,100,102,104,106,108,110,112,114,116,118,120,122,124,-1,-1,126,-1,-1,-1,128,130,-1,132,134,136,138,140,-1,142,144,146,148,150,152,154,156,158,160,162,164,166,168,170,172,174,176,178,180,182,184,186,188,190,192,194,196,198,200,202,-1,-1,204,206,208,210,212,214,216,218,-1,-1,220,222,-1,-1,-1,-1,-1,-1,-1,-1,-1,-1,-1,-1,-1,-1,-1,-1,-1,-1,-1,-1,-1,-1,-1,-1,-1,-1,-1,-1,-1,-1,-1,-1,-1,-1,-1,-1,-1,-1,-1,-1,-1,-1,-1,-1,-1,-1,-1,-1,-1,-1,-1,-1,-1,-1,-1,-1,-1,-1,-1,-1,-1,-1,-1,-1,-1,-1,-1,-1,-1,-1,-1,-1,-1,-1,-1,-1,-1,-1,-1,-1,-1,-1,-1,-1,-1,-1,-1,-1,-1,-1,-1,-1,-1,-1,-1,-1,-1,-1,-1,-1],"split_conditions":[1.2E0,5.2E-1,2.15E0,2.2E-1,8E-1,1.77E0,2.72E0,1E-1,8E-1,7.4E-1,7.7E-1,1.2E0,1.87E1,1.81E1,2.54E1,-8E-1,1.1E0,7.6E0,9E1,4.1E0,5.6E1,6.6E1,5.1E1,3.9E1,1.993E3,-1.1E0,4.8E1,-8E-1,1.6E0,3.07E0,3.1E0,-5.6309206E5,9.6E1,6.4E0,-3E0,3.6E-1,5.4E1,3E-1,3.1E-1,2.8E0,1.18E1,9.5E0,1E-1,1E-1,2.35E1,9.4E0,1.59E1,1.73E1,2.23E1,-1.5E0,4.3E1,2.5E0,3E1,9E-1,2.55E1,1.4E0,1E0,2.6E1,2.39E1,1.53E1,1E0,2.88E1,3.4E0,-6.409381E5,-6.826023E5,-2.5E0,-5.727595E5,-2.3224527E5,-6.252758E5,2E-1,6E1,-6.015257E5,4.3E-1,8E-1,2E1,3E-1,2.4E0,-6.7762206E5,3.6E1,-1.2E0,6.9E1,5E-1,7.4E0,-1E-1,1.68E1,-5.7E0,4E-1,6E-1,7.6E-1,4E-1,6E-1,1.11E1,8.2E1,1.67E0,1.64E0,8E-1,2E3,1.59E0,7.3E0,5.6E0,1.88E1,1.3E0,3E0,8.8E0,7E-1,3.3E0,1.3E0,1.88E0,6.6E1,-3.939303E5,6.0492742E4,3.76E1,2.28E0,1.989E3,9E-1,1.9E1,5.5E1,1.9E0,2.67E1,7.3735194E5,1.2581548E6,9E-1,8E1,9.088615E5,1.0940579E6,-5.305613E5,-3.8923044E5,-3.8313034E5,-2.328742E5,-3.1623225E5,-6.363066E4,-4.0756388E5,-2.6189E5,-2.035298E5,-4.850949E5,-5.3181325E5,-6.0826125E5,-5.3376094E5,-2.4729831E5,-3.5850234E5,-4.9152444E5,-4.4009434E5,-1.27123945E5,-1.5537228E5,6.850988E4,-3.573372E5,-1.7116181E5,3.55589E4,4.3727925E5,7.512023E4,-2.896417E5,-5.964913E5,4.7265445E4,2.767095E5,9.2260734E4,-5.6244644E5,1.8388416E5,-3.3197184E5,-5.9743425E5,-2.631326E5,1.0849026E5,-3.7434403E5,1.02320234E5,1.30714266E5,-2.0647847E5,-2.05084E5,-5.0531872E5,-7.102528E4,2.3218005E5,-2.7333634E5,-4.021703E4,7.692491E4,8.2898144E5,-3.4013197E5,-2.434635E4,3.0616244E5,5.8902006E5,3.0354822E5,8.0489086E4,-6.599513E5,-2.5481383E5,3.6248256E5,1.4560972E5,1.1985377E5,-2.1187147E5,3.294749E5,-1.804588E3,-5.327293E5,-3.8990664E4,3.577361E5,-1.070559E5,7.0058925E5,1.9867128E5,4.32083E4,6.846978E5,3.9112622E5,-7.390043E4,2.3272223E5,-3.137106E4,4.1888512E5,6.533919E5,1.0700705E5,4.0935875E5,8.691978E5,3.2636175E5,8.1122194E5,1.0132082E6,7.927313E5,6.234306E5,3.2377588E5,-6.0867434E4,1.7572192E5,6.868313E5,3.6430478E5,5.2697494E5,1.3581879E6,1.098147E6,6.3804244E5,9.98193E5,3.168293E5,8.547037E5,6.337821E5,1.27109734E5],"split_indices":[7,7,7,7,0,7,7,7,0,7,7,0,1,1,1,8,0,8,3,4,3,3,3,3,5,1,3,1,0,7,7,0,3,8,8,7,3,8,7,8,8,8,6,8,1,1,1,1,1,1,3,0,3,6,1,0,6,2,1,1,6,1,7,0,0,2,0,0,0,6,3,0,7,6,1,6,0,0,3,2,3,6,1,1,2,1,6,6,7,6,6,1,3,7,7,6,5,7,1,1,1,8,0,1,8,0,0,7,3,0,0,3,7,5,0,3,3,0,8,0,0,6,3,0,0,0,0,0,0,0,0,0,0,0,0,0,0,0,0,0,0,0,0,0,0,0,0,0,0,0,0,0,0,0,0,0,0,0,0,0,0,0,0,0,0,0,0,0,0,0,0,0,0,0,0,0,0,0,0,0,0,0,0,0,0,0,0,0,0,0,0,0,0,0,0,0,0,0,0,0,0,0,0,0,0,0,0,0,0,0,0,0,0,0,0,0,0,0,0,0,0,0,0],"split_type":[0,0,0,0,0,0,0,0,0,0,0,0,0,0,0,0,0,0,0,0,0,0,0,0,0,0,0,0,0,0,0,0,0,0,0,0,0,0,0,0,0,0,0,0,0,0,0,0,0,0,0,0,0,0,0,0,0,0,0,0,0,0,0,0,0,0,0,0,0,0,0,0,0,0,0,0,0,0,0,0,0,0,0,0,0,0,0,0,0,0,0,0,0,0,0,0,0,0,0,0,0,0,0,0,0,0,0,0,0,0,0,0,0,0,0,0,0,0,0,0,0,0,0,0,0,0,0,0,0,0,0,0,0,0,0,0,0,0,0,0,0,0,0,0,0,0,0,0,0,0,0,0,0,0,0,0,0,0,0,0,0,0,0,0,0,0,0,0,0,0,0,0,0,0,0,0,0,0,0,0,0,0,0,0,0,0,0,0,0,0,0,0,0,0,0,0,0,0,0,0,0,0,0,0,0,0,0,0,0,0,0,0,0,0,0,0,0,0,0,0,0,0,0],"sum_hessian":[1.0352E4,5.98E3,4.372E3,3.824E3,2.156E3,2.331E3,2.041E3,2.164E3,1.66E3,5.54E2,1.602E3,1.406E3,9.25E2,1.063E3,9.78E2,1.217E3,9.47E2,4.49E2,1.211E3,2.12E2,3.42E2,6.48E2,9.54E2,5.04E2,9.02E2,4.72E2,4.53E2,4.16E2,6.47E2,5.88E2,3.9E2,7.9E1,1.138E3,3.67E2,5.8E2,1.42E2,3.07E2,7.08E2,5.03E2,1.1E1,2.01E2,7.7E1,2.65E2,2.76E2,3.72E2,3.29E2,6.25E2,7E1,4.34E2,4.54E2,4.48E2,1.6E1,4.56E2,1.39E2,3.14E2,7E0,4.09E2,3.01E2,3.46E2,2.85E2,3.03E2,1.83E2,2.07E2,7.46E2,3.92E2,1.04E2,2.63E2,4E0,5.76E2,6.5E1,7.7E1,3.4E1,2.73E2,4.3E1,6.65E2,1.72E2,3.31E2,6E0,5E0,6.3E1,1.38E2,1.6E1,6.1E1,6.8E1,1.97E2,1.7E1,2.59E2,2.26E2,1.46E2,1.19E2,2.1E2,2.27E2,3.98E2,4.2E1,2.8E1,3E2,1.34E2,8E0,4.46E2,1.63E2,2.85E2,1.1E1,5E0,8E1,3.76E2,3.4E1,1.05E2,1.34E2,1.8E2,4E0,3E0,2.9E1,3.8E2,2.95E2,6E0,1.24E2,2.22E2,1.02E2,1.83E2,5E0,2.98E2,8.5E1,9.8E1,1.22E2,8.5E1,4.4E1,6E1,3.2E1,3.3E1,1.6E1,6.1E1,1.93E2,8E1,3.5E1,8E0,4.31E2,2.34E2,1.63E2,9E0,2.08E2,1.23E2,3E0,2E0,2E1,4.3E1,3.1E1,1.07E2,6E0,1E1,1E1,5.1E1,3E0,6.5E1,1.53E2,4.4E1,2E0,1.5E1,1.24E2,1.35E2,2.03E2,2.3E1,1.41E2,5E0,2.5E1,9.4E1,5.6E1,1.54E2,1.57E2,7E1,2.02E2,1.96E2,3.5E1,7E0,2.3E1,5E0,1.03E2,1.97E2,8.6E1,4.8E1,5E0,3E0,1.01E2,3.45E2,4.6E1,1.17E2,7E1,2.15E2,8E0,3E0,3E0,2E0,3E1,5E1,1.6E1,3.6E2,2.9E1,5E0,3.2E1,7.3E1,3.8E1,9.6E1,5.6E1,1.24E2,6E0,2.3E1,1.05E2,2.75E2,1.84E2,1.11E2,3E0,3E0,9E0,1.15E2,6.9E1,1.53E2,4.9E1,5.3E1,1.4E1,1.69E2,4E0,8.1E1,9.6E1,2E0],"tree_param":{"num_deleted":"0","num_feature":"9","num_nodes":"223","size_leaf_vector":"1"}},{"base_weights":[4.3069907E3,-4.930894E6,8.601698E6,-6.996748E6,-9.079948E5,5.140636E6,1.2111729E7,-8.224743E6,-5.5773485E6,9.5445344E5,-2.1223228E6,3.8488435E6,7.267273E6,1.0335205E7,1.421239E7,-8.49431E6,-7.434233E6,-3.7820172E6,-6.119649E6,1.9999768E6,-1.803116E6,-3.3412988E6,-1.8977784E5,5.766669E6,2.242237E6,8.662205E6,5.0542655E6,1.2836012E7,8.789948E6,1.5996406E7,1.2250983E7,-7.4803865E6,-8.576864E6,-5.9121255E6,-7.8024425E6,-4.673195E6,-2.353971E6,-1.8210085E6,-6.2470545E6,7.3342944E5,3.7440498E6,-2.8203315E6,1.2780896E6,-1.9616792E6,-4.6046025E6,-1.8623078E6,1.0267316E6,7.0125175E6,2.9902048E6,4.1732248E6,8.03541E5,-2.4240428E6,9.033102E6,7.5513015E6,3.7311855E6,3.674889E4,1.3106084E7,1.0056147E7,7.421212E6,1.5258713E7,1.7560292E7,1.0583031E7,1.3512093E7,-5.500337E5,-4.3966125E5,-7.5928965E6,-8.646909E6,-6.717314E6,-4.295334E6,-2.5954905E6,-7.862878E6,-5.514586E6,-3.8998028E6,-7.107522E6,-1.8872401E6,-5.754238E5,-1.0158257E6,-7.0697025E6,-5.6278345E6,-1.0542124E6,1.8543334E6,-2.7935658E6,4.1139328E6,-1.2239164E6,-4.456361E6,8.1004805E6,2.4369647E5,-2.7332138E6,-5.044081E5,-2.0879599E6,-5.5547385E6,1.880692E6,-4.1271605E6,-5.785209E5,1.2415386E6,-8.0784194E5,7.3205985E6,-1.4246051E6,3.3981528E6,-6.9656965E6,4.4465555E6,2.7949958E6,-1.5536366E6,-5.99594E6,1.4508581E6,4.5950895E6,9.358533E6,1.1971802E6,8.444781E6,1.7000599E6,4.692525E6,-2.8423408E6,4.719665E5,6.4030665E6,1.350122E7,6.440931E6,1.1205644E7,7.868941E5,7.058802E6,1.606123E7,1.2908353E7,4.4702116E5,1.7764328E7,1.1406274E7,8.364074E6,1.0223883E6,8.1908906E5,-5.361376E5,-1.8130086E5,-5.945706E5,-6.3407825E5,-4.9637484E5,-3.7431572E5,-2.54919E5,-4.6898388E5,-2.5388716E5,-6.4060273E4,-5.1981462E5,-5.7617894E5,-2.5055116E5,-4.236307E5,-4.138552E5,-2.3264469E5,-1.7755277E5,-5.577087E5,-8.232686E4,-1.9576116E5,-2.8114666E5,5.599328E4,-5.6441025E5,-4.637346E5,-4.325892E5,-3.180821E5,-6.090952E5,-5.015748E4,-1.4724747E5,1.9649244E5,-2.120215E4,-3.4545325E5,1.8197861E5,4.1748016E5,2.2775319E5,-1.29956734E5,5.1037324E4,-3.6844312E5,-1.039808E4,7.61244E5,2.4928152E5,-1.0597709E5,-1.3874308E5,-2.6065794E5,5.1687462E5,-5.9769695E4,-2.7969975E5,4.639638E4,-4.2395206E5,-5.567374E4,-6.8461394E5,1.5990623E5,-1.02498305E5,-3.809886E5,1.0148124E5,-4.5406816E5,-1.4034036E5,3.2539666E5,-4.546223E5,5.2465344E5,7.822023E4,-1.5072642E5,5.780757E5,1.945516E5,-6.595135E5,-1.9378417E5,1.7612966E5,3.7897188E5,2.5174666E5,-3.7836645E4,-1.5743636E5,3.415061E5,-4.6725956E5,-1.8472273E5,-2.0355056E5,3.253367E5,5.581924E5,9.402694E4,6.6483294E5,2.1379292E5,2.554942E5,-9.986068E4,6.567678E5,3.7631538E5,3.3413244E5,1.3728724E4,4.2192712E5,2.1325088E5,-4.5755266E5,-4.017664E3,5.662215E5,-8.985417E4,1.0119079E6,8.656282E5,6.348986E5,3.5232394E5,5.8995006E5,8.386002E5,3.511637E5,5.392353E5,4.3364244E5,1.1284979E6,7.5585E5,9.986389E5,1.251336E6,4.8695656E5,8.101113E5,3.4461403E5,2.3630016E5,6.3348506E5],"categories":[],"categories_nodes":[],"categories_segments":[],"categories_sizes":[],"default_left":[0,0,0,0,0,0,0,0,0,0,0,0,0,0,0,0,0,0,0,0,0,0,0,0,0,0,0,0,0,0,0,0,0,0,0,0,0,0,0,0,0,0,0,0,0,0,0,0,0,0,0,0,0,0,0,0,0,0,0,0,0,0,0,0,0,0,0,0,0,0,0,0,0,0,0,0,0,0,0,0,0,0,0,0,0,0,0,0,0,0,0,0,0,0,0,0,0,0,0,0,0,0,0,0,0,0,0,0,0,0,0,0,0,0,0,0,0,0,0,0,0,0,0,0,0,0,0,0,0,0,0,0,0,0,0,0,0,0,0,0,0,0,0,0,0,0,0,0,0,0,0,0,0,0,0,0,0,0,0,0,0,0,0,0,0,0,0,0,0,0,0,0,0,0,0,0,0,0,0,0,0,0,0,0,0,0,0,0,0,0,0,0,0,0,0,0,0,0,0,0,0,0,0,0,0,0,0,0,0,0,0,0,0,0,0,0,0,0,0,0,0,0,0,0,0,0,0,0,0,0,0,0,0,0,0,0,0],"id":6,"left_children":[1,3,5,7,9,11,13,15,17,19,21,23,25,27,29,31,33,35,37,39,41,43,45,47,49,51,53,55,57,59,61,63,65,67,69,71,73,75,77,79,81,83,85,87,89,91,93,95,97,99,101,103,105,107,109,111,113,115,117,119,121,123,125,-1,-1,127,129,131,133,135,137,139,141,143,145,-1,147,149,151,153,155,157,159,161,163,165,167,169,171,173,175,177,179,-1,181,183,185,187,189,191,193,195,197,199,201,203,205,207,209,211,213,215,-1,217,219,221,223,-1,225,227,229,-1,231,233,235,-1,-1,-1,-1,-1,-1,-1,-1,-1,-1,-1,-1,-1,-1,-1,-1,-1,-1,-1,-1,-1,-1,-1,-1,-1,-1,-1,-1,-1,-1,-1,-1,-1,-1,-1,-1,-1,-1,-1,-1,-1,-1,-1,-1,-1,-1,-1,-1,-1,-1,-1,-1,-1,-1,-1,-1,-1,-1,-1,-1,-1,-1,-1,-1,-1,-1,-1,-1,-1,-1,-1,-1,-1,-1,-1,-1,-1,-1,-1,-1,-1,-1,-1,-1,-1,-1,-1,-1,-1,-1,-1,-1,-1,-1,-1,-1,-1,-1,-1,-1,-1,-1,-1,-1,-1,-1,-1,-1,-1,-1,-1,-1],"loss_changes":[4.3931863E17,5.4661585E16,4.581026E16,7.529284E15,5.0522296E15,5.1998954E15,6.8466417E15,4.329327E14,1.9425708E15,2.5465033E15,3.1843075E15,3.6413624E15,2.1726822E15,3.8249776E15,2.7993222E15,8.058218E13,2.9014222E14,5.8841374E14,8.369646E14,1.4109824E15,7.652275E14,1.435814E15,1.06806784E15,1.8469197E15,1.79408E15,1.8270039E15,8.968826E14,1.3372767E15,1.02241696E15,2.4542302E14,7.236333E14,1.3092671E13,4.4066364E13,1.2866729E14,1.3064002E14,1.66554E14,3.9259544E14,2.2867059E14,7.26352E14,7.4735914E14,6.619758E14,4.7250183E14,4.2850496E14,4.461067E14,1.0213797E15,1.881255E15,6.16996E14,9.0217506E14,3.0921228E14,8.712851E14,1.7505895E15,2.1631052E14,5.7080974E14,5.349081E14,3.532538E14,1.9291918E14,9.1736206E14,1.282576E15,3.4706235E14,3.7740737E14,1.966322E14,2.3706501E14,2.864872E14,0E0,0E0,1.7925583E13,1.6166257E13,2.531078E12,4.3180997E13,8.813311E12,1.5146202E13,1.1974986E14,1.5895513E14,4.26703E13,1.0535239E14,0E0,2.3203705E14,2.3030903E14,4.882304E14,3.6561137E14,8.693875E14,7.851127E13,6.988642E14,2.7229776E14,3.805102E14,1.8470651E14,3.202635E14,1.8606255E14,3.8946317E14,6.3238146E14,7.4259126E14,4.177549E14,4.754628E14,0E0,4.888757E14,1.0729034E14,9.1148225E14,3.018914E13,4.4323002E14,4.6076208E13,4.905615E14,5.418971E14,7.759182E14,6.2565594E11,1.2498685E14,3.299253E14,3.1732936E14,8.8867084E13,1.9126295E14,2.8100485E14,2.5632875E14,7.164036E13,0E0,3.0842476E14,2.0807828E14,2.5412946E14,4.2818032E14,0E0,3.351857E14,3.4883724E13,8.668855E13,0E0,3.6494337E13,8.356074E13,1.50741E14,0E0,0E0,0E0,0E0,0E0,0E0,0E0,0E0,0E0,0E0,0E0,0E0,0E0,0E0,0E0,0E0,0E0,0E0,0E0,0E0,0E0,0E0,0E0,0E0,0E0,0E0,0E0,0E0,0E0,0E0,0E0,0E0,0E0,0E0,0E0,0E0,0E0,0E0,0E0,0E0,0E0,0E0,0E0,0E0,0E0,0E0,0E0,0E0,0E0,0E0,0E0,0E0,0E0,0E0,0E0,0E0,0E0,0E0,0E0,0E0,0E0,0E0,0E0,0E0,0E0,0E0,0E0,0E0,0E0,0E0,0E0,0E0,0E0,0E0,0E0,0E0,0E0,0E0,0E0,0E0,0E0,0E0,0E0,0E0,0E0,0E0,0E0,0E0,0E0,0E0,0E0,0E0,0E0,0E0,0E0,0E0,0E0,0E0,0E0,0E0,0E0,0E0,0E0,0E0,0E0,0E0,0E0,0E0,0E0,0E0,0E0,0E0],"parents":[2147483647,0,0,1,1,2,2,3,3,4,4,5,5,6,6,7,7,8,8,9,9,10,10,11,11,12,12,13,13,14,14,15,15,16,16,17,17,18,18,19,19,20,20,21,21,22,22,23,23,24,24,25,25,26,26,27,27,28,28,29,29,30,30,31,31,32,32,33,33,34,34,35,35,36,36,37,37,38,38,39,39,40,40,41,41,42,42,43,43,44,44,45,45,46,46,47,47,48,48,49,49,50,50,51,51,52,52,53,53,54,54,55,55,56,56,57,57,58,58,59,59,60,60,61,61,62,62,65,65,66,66,67,67,68,68,69,69,70,70,71,71,72,72,73,73,74,74,76,76,77,77,78,78,79,79,80,80,81,81,82,82,83,83,84,84,85,85,86,86,87,87,88,88,89,89,90,90,91,91,92,92,94,94,95,95,96,96,97,97,98,98,99,99,100,100,101,101,102,102,103,103,104,104,105,105,106,106,107,107,108,108,109,109,110,110,111,111,113,113,114,114,115,115,116,116,118,118,119,119,120,120,122,122,123,123,124,124],"right_children":[2,4,6,8,10,12,14,16,18,20,22,24,26,28,30,32,34,36,38,40,42,44,46,48,50,52,54,56,58,60,62,64,66,68,70,72,74,76,78,80,82,84,86,88,90,92,94,96,98,100,102,104,106,108,110,112,114,116,118,120,122,124,126,-1,-1,128,130,132,134,136,138,140,142,144,146,-1,148,150,152,154,156,158,160,162,164,166,168,170,172,174,176,178,180,-1,182,184,186,188,190,192,194,196,198,200,202,204,206,208,210,212,214,216,-1,218,220,222,224,-1,226,228,230,-1,232,234,236,-1,-1,-1,-1,-1,-1,-1,-1,-1,-1,-1,-1,-1,-1,-1,-1,-1,-1,-1,-1,-1,-1,-1,-1,-1,-1,-1,-1,-1,-1,-1,-1,-1,-1,-1,-1,-1,-1,-1,-1,-1,-1,-1,-1,-1,-1,-1,-1,-1,-1,-1,-1,-1,-1,-1,-1,-1,-1,-1,-1,-1,-1,-1,-1,-1,-1,-1,-1,-1,-1,-1,-1,-1,-1,-1,-1,-1,-1,-1,-1,-1,-1,-1,-1,-1,-1,-1,-1,-1,-1,-1,-1,-1,-1,-1,-1,-1,-1,-1,-1,-1,-1,-1,-1,-1,-1,-1,-1,-1,-1,-1,-1],"split_conditions":[1.44E0,6.6E-1,2.23E0,2.5E-1,1.2E0,1.92E0,2.81E0,1.5E-1,7E-1,1.994E3,1.12E0,1.5E0,2.1E1,1.83E1,9.2E0,1E-1,5E-1,4E-1,0E0,1.09E0,1.2E0,3E-1,5.4E1,1.986E3,2.23E1,-1.1E0,1.3E0,-1E-1,2.58E1,3.35E0,3.1E0,9E-2,1E-1,1E-1,-8E-1,3.8E-1,5E1,-5.7E0,7.3E1,2E-1,3.5E1,4E-1,5.5E0,9.1E-1,8.9E0,1.2E1,-2.3E0,2.9E1,2.2E1,-2E0,8E-1,-2.8E0,1.9E1,4.5E1,5.4E1,1.7E0,1E0,3.3E1,7E-1,2.11E1,1.21E1,2.96E1,1.8E1,-5.500337E5,-4.3966125E5,1.4E-1,9.8E1,2.2E-1,1.31E1,-2.3E0,1.6E0,1E-1,6.5E1,5E0,1.1E1,-5.754238E5,4.1E-1,3.7E-1,4.7E-1,4E-1,5.6E1,9E-1,1E0,5.6E0,4.5E0,-1.33E1,3E-1,2.57E1,8.49E2,-6.3E0,8.5E1,-5.7E0,8E-1,-5.785209E5,4.8E0,1.97E3,-8E-1,6.7E0,-9.4E0,-1.45E1,1.62E0,3.6E0,7.7E1,-3.6E0,-1.39E1,1.09E1,3.7E0,2.28E1,2.92E1,8E-1,2.5E0,1.918E3,4.719665E5,1.62E1,1.975E3,1.6E0,9E-1,7.868941E5,5.4E1,-1E-1,3.07E0,4.4702116E5,4.9E1,4.6E0,1.97E1,1.0223883E6,8.1908906E5,-5.361376E5,-1.8130086E5,-5.945706E5,-6.3407825E5,-4.9637484E5,-3.7431572E5,-2.54919E5,-4.6898388E5,-2.5388716E5,-6.4060273E4,-5.1981462E5,-5.7617894E5,-2.5055116E5,-4.236307E5,-4.138552E5,-2.3264469E5,-1.7755277E5,-5.577087E5,-8.232686E4,-1.9576116E5,-2.8114666E5,5.599328E4,-5.6441025E5,-4.637346E5,-4.325892E5,-3.180821E5,-6.090952E5,-5.015748E4,-1.4724747E5,1.9649244E5,-2.120215E4,-3.4545325E5,1.8197861E5,4.1748016E5,2.2775319E5,-1.29956734E5,5.1037324E4,-3.6844312E5,-1.039808E4,7.61244E5,2.4928152E5,-1.0597709E5,-1.3874308E5,-2.6065794E5,5.1687462E5,-5.9769695E4,-2.7969975E5,4.639638E4,-4.2395206E5,-5.567374E4,-6.8461394E5,1.5990623E5,-1.02498305E5,-3.809886E5,1.0148124E5,-4.5406816E5,-1.4034036E5,3.2539666E5,-4.546223E5,5.2465344E5,7.822023E4,-1.5072642E5,5.780757E5,1.945516E5,-6.595135E5,-1.9378417E5,1.7612966E5,3.7897188E5,2.5174666E5,-3.7836645E4,-1.5743636E5,3.415061E5,-4.6725956E5,-1.8472273E5,-2.0355056E5,3.253367E5,5.581924E5,9.402694E4,6.6483294E5,2.1379292E5,2.554942E5,-9.986068E4,6.567678E5,3.7631538E5,3.3413244E5,1.3728724E4,4.2192712E5,2.1325088E5,-4.5755266E5,-4.017664E3,5.662215E5,-8.985417E4,1.0119079E6,8.656282E5,6.348986E5,3.5232394E5,5.8995006E5,8.386002E5,3.511637E5,5.392353E5,4.3364244E5,1.1284979E6,7.5585E5,9.986389E5,1.251336E6,4.8695656E5,8.101113E5,3.4461403E5,2.3630016E5,6.3348506E5],"split_indices":[7,7,7,7,0,7,7,7,0,5,7,0,1,1,2,8,0,6,8,7,7,6,3,5,8,1,0,1,1,7,7,7,0,6,8,7,3,1,3,6,3,6,1,7,8,8,1,3,3,1,6,1,3,3,3,0,6,3,0,1,1,1,2,0,0,7,3,7,8,1,0,0,3,1,1,0,7,7,7,1,3,6,6,1,8,2,6,8,5,2,3,1,6,0,0,5,1,1,2,2,7,0,3,1,2,1,0,1,1,6,0,5,0,1,5,0,6,0,3,1,7,0,3,0,2,0,0,0,0,0,0,0,0,0,0,0,0,0,0,0,0,0,0,0,0,0,0,0,0,0,0,0,0,0,0,0,0,0,0,0,0,0,0,0,0,0,0,0,0,0,0,0,0,0,0,0,0,0,0,0,0,0,0,0,0,0,0,0,0,0,0,0,0,0,0,0,0,0,0,0,0,0,0,0,0,0,0,0,0,0,0,0,0,0,0,0,0,0,0,0,0,0,0,0,0,0,0,0,0,0,0,0,0,0,0,0,0],"split_type":[0,0,0,0,0,0,0,0,0,0,0,0,0,0,0,0,0,0,0,0,0,0,0,0,0,0,0,0,0,0,0,0,0,0,0,0,0,0,0,0,0,0,0,0,0,0,0,0,0,0,0,0,0,0,0,0,0,0,0,0,0,0,0,0,0,0,0,0,0,0,0,0,0,0,0,0,0,0,0,0,0,0,0,0,0,0,0,0,0,0,0,0,0,0,0,0,0,0,0,0,0,0,0,0,0,0,0,0,0,0,0,0,0,0,0,0,0,0,0,0,0,0,0,0,0,0,0,0,0,0,0,0,0,0,0,0,0,0,0,0,0,0,0,0,0,0,0,0,0,0,0,0,0,0,0,0,0,0,0,0,0,0,0,0,0,0,0,0,0,0,0,0,0,0,0,0,0,0,0,0,0,0,0,0,0,0,0,0,0,0,0,0,0,0,0,0,0,0,0,0,0,0,0,0,0,0,0,0,0,0,0,0,0,0,0,0,0,0,0,0,0,0,0,0,0,0,0,0,0,0,0,0,0,0,0,0,0],"sum_hessian":[1.0352E4,6.577E3,3.775E3,4.345E3,2.232E3,1.902E3,1.873E3,2.327E3,2.018E3,8.81E2,1.351E3,1.185E3,7.17E2,1.018E3,8.55E2,1.728E3,5.99E2,4.7E2,1.548E3,6.39E2,2.42E2,8.28E2,5.23E2,5.39E2,6.46E2,4.38E2,2.79E2,3.86E2,6.32E2,4.44E2,4.11E2,1.37E2,1.591E3,1.2E2,4.79E2,2.88E2,1.82E2,4.5E1,1.503E3,3.71E2,2.68E2,1.82E2,6E1,3.97E2,4.31E2,2.2E2,3.03E2,3.71E2,1.68E2,2.75E2,3.71E2,1.4E1,4.24E2,9.5E1,1.84E2,8E0,3.78E2,3.25E2,3.07E2,3.09E2,1.35E2,1.81E2,2.3E2,1E2,3.7E1,1.13E2,1.478E3,7.8E1,4.2E1,6E0,4.73E2,1.35E2,1.53E2,1.5E1,1.67E2,4E0,4.1E1,6.41E2,8.62E2,1.43E2,2.28E2,1.4E1,2.54E2,9.3E1,8.9E1,7E0,5.3E1,2.59E2,1.38E2,1.19E2,3.12E2,8.3E1,1.37E2,6E0,2.97E2,1.4E1,3.57E2,1.4E1,1.54E2,6E0,2.69E2,2.01E2,1.7E2,7E0,7E0,3E1,3.94E2,1.2E1,8.3E1,6E1,1.24E2,6E0,2E0,2.2E1,3.56E2,8E1,2.45E2,2.4E1,2.83E2,2.26E2,8.3E1,3E0,1.32E2,1.29E2,5.2E1,1.39E2,9.1E1,1.11E2,2E0,1.093E3,3.85E2,5.8E1,2E1,3.5E1,7E0,3E0,3E0,2.26E2,2.47E2,3.1E1,1.04E2,3.2E1,1.21E2,3E0,1.2E1,9.5E1,7.2E1,1.5E1,2.6E1,1.93E2,4.48E2,5.68E2,2.94E2,5E0,1.38E2,4.4E1,1.84E2,7E0,7E0,1.41E2,1.13E2,1.1E1,8.2E1,1.2E1,7.7E1,2E0,5E0,1.8E1,3.5E1,1.49E2,1.1E2,5E0,1.33E2,7E1,4.9E1,2.82E2,3E1,2E0,8.1E1,4.6E1,9.1E1,2.9E2,7E0,1.2E1,2E0,4E0,3.53E2,3E0,1.1E1,1.6E1,1.38E2,3E0,3E0,9.1E1,1.78E2,1.62E2,3.9E1,1.54E2,1.6E1,5E0,2E0,3E0,4E0,1.4E1,1.6E1,3.85E2,9E0,6E0,6E0,6.2E1,2.1E1,1.9E1,4.1E1,6.7E1,5.7E1,2E0,4E0,1.8E1,4E0,1.87E2,1.69E2,2.6E1,5.4E1,5.6E1,1.89E2,7E1,2.13E2,2E0,2.24E2,3.6E1,4.7E1,1.3E2,2E0,1.25E2,4E0,7E0,4.5E1],"tree_param":{"num_deleted":"0","num_feature":"9","num_nodes":"237","size_leaf_vector":"1"}},{"base_weights":[4.671812E3,-4.955795E6,7.414308E6,-6.8390005E6,-1.9245846E6,4.2386215E6,1.1272352E7,-7.7783745E6,-5.7370575E6,-3.1461378E6,-3.845049E5,2.766505E6,6.3402655E6,9.530369E6,1.3138957E7,-8.169902E6,-7.490885E6,-4.2868795E6,-6.2773915E6,-1.4449151E6,-4.0816125E6,-4.0979532E6,4.0131E5,5.181625E6,1.922315E6,7.899328E6,4.7168605E6,1.1083848E7,7.4148865E6,1.4600255E7,1.1017752E7,-5.5296075E5,-5.967574E5,-6.8007155E6,-7.7445645E6,-2.7276708E6,-5.0036915E6,-6.7346825E6,-5.6275205E6,-4.448952E6,-9.195367E5,-3.333388E6,-5.3601345E6,5.3606595E6,-4.67236E6,2.7352198E6,-6.25502E5,6.510978E6,3.3286895E6,6.870281E5,2.9683988E6,-2.6744345E6,8.248421E6,2.0824054E6,5.809509E6,-3.5856642E6,1.1222717E7,8.0317515E6,5.1618535E6,1.3777217E7,1.6028576E7,1.0165787E7,1.3651758E7,-4.950501E5,-5.1718495E6,-5.810744E6,-5.47976E5,-4.0258642E6,-1.4111502E6,-5.34602E5,-4.6540585E6,-3.454951E6,-6.939708E6,-6.566582E6,-5.0307275E6,-1.3306582E6,-6.2613375E6,-2.533525E6,3.5572628E5,-4.2739905E6,-2.4445228E6,-5.8773165E6,5.946996E5,8.816771E6,-4.7561903E5,-2.7458925E6,-5.6880115E6,1.4666709E6,4.1760845E6,2.841443E5,-2.1098565E6,3.6541888E6,7.67222E6,4.1836847E5,5.388122E6,-1.1706061E6,1.5688379E6,4.5841505E6,1.4462494E6,-5.9674595E6,1.3645214E6,9.658175E6,7.135409E6,5.4997365E6,1.0728756E6,7.370993E6,3.9282272E6,-3.6467253E5,-1.576274E4,6.2301165E6,1.1578315E7,6.468396E6,8.81609E6,8.09231E6,4.705794E6,1.483449E7,1.2526342E7,1.1381909E6,1.1281281E7,1.0487619E7,7.080627E6,1.3855054E7,5.254217E5,-2.9244112E5,-4.7336134E5,-2.9591312E5,-4.3859053E5,-5.446867E5,-2.4774164E5,-3.1097903E5,-5.5487164E4,-3.62187E5,-2.2603594E5,-1.6718828E5,-4.00552E5,-4.6061212E5,-5.315261E5,-4.7044928E5,-2.0223914E5,-3.0504003E5,-4.2871566E5,-4.8305647E5,1.7427004E4,-1.8272416E5,-4.7383816E5,-1.9853003E5,6.6080164E4,-7.677376E4,1.5149589E5,-5.855237E5,-2.9018094E5,2.8034728E5,-1.8367352E5,-2.1959042E5,-4.8378606E5,1.2807274E5,-4.6582978E5,7.2327325E5,1.6388412E5,-8.5558955E3,-3.0798094E5,-4.574237E5,-2.4063188E5,1.2784901E5,-1.8289098E5,-4.0615484E5,3.1300028E5,-6.345505E5,3.5841395E4,-2.3564973E5,6.532672E4,4.6191484E5,1.3296066E5,-1.81072E4,5.61681E5,1.6271161E5,-2.2070256E5,1.5508847E5,4.606336E5,6.07221E5,-1.3093302E5,-3.5690378E5,1.2651012E5,2.5914789E5,5.2340928E5,-1.7566577E3,3.620043E5,-4.6159884E5,-1.7610234E5,-1.9286417E5,3.0711788E5,2.0087036E5,6.921833E5,2.842708E5,5.633762E5,7.226952E4,4.7317794E5,2.7100484E5,-8.372573E3,3.4154534E5,5.764033E5,4.2206753E5,2.037587E5,-2.0675766E5,5.154859E5,9.078354E5,7.373615E5,5.197474E5,2.3334631E5,7.360441E5,5.5118206E5,1.2278822E5,6.5141256E5,1.4405366E5,3.5912225E5,3.6926097E5,1.0476176E6,8.8232844E5,2.8840253E5,4.0479447E5,9.315379E5,7.4446975E5,4.3623388E5,5.3976527E4,5.427189E5,9.7866856E5,4.0563288E5],"categories":[],"categories_nodes":[],"categories_segments":[],"categories_sizes":[],"default_left":[0,0,0,0,0,0,0,0,0,0,0,0,0,0,0,0,0,0,0,0,0,0,0,0,0,0,0,0,0,0,0,0,0,0,0,0,0,0,0,0,0,0,0,0,0,0,0,0,0,0,0,0,0,0,0,0,0,0,0,0,0,0,0,0,0,0,0,0,0,0,0,0,0,0,0,0,0,0,0,0,0,0,0,0,0,0,0,0,0,0,0,0,0,0,0,0,0,0,0,0,0,0,0,0,0,0,0,0,0,0,0,0,0,0,0,0,0,0,0,0,0,0,0,0,0,0,0,0,0,0,0,0,0,0,0,0,0,0,0,0,0,0,0,0,0,0,0,0,0,0,0,0,0,0,0,0,0,0,0,0,0,0,0,0,0,0,0,0,0,0,0,0,0,0,0,0,0,0,0,0,0,0,0,0,0,0,0,0,0,0,0,0,0,0,0,0,0,0,0,0,0,0,0,0,0,0,0,0,0,0,0,0,0,0,0,0,0,0,0,0,0,0,0,0,0,0,0],"id":7,"left_children":[1,3,5,7,9,11,13,15,17,19,21,23,25,27,29,31,33,35,37,39,41,43,45,47,49,51,53,55,57,59,61,-1,-1,63,65,67,69,71,73,75,77,79,81,83,85,87,89,91,93,95,97,99,101,103,105,107,109,111,113,115,117,119,121,-1,123,125,-1,127,129,-1,131,133,135,137,139,141,143,145,147,149,151,153,155,157,-1,159,161,163,165,167,169,171,173,175,177,179,181,183,185,187,189,191,193,195,197,199,201,-1,-1,203,205,207,209,211,213,215,217,-1,219,221,223,225,-1,-1,-1,-1,-1,-1,-1,-1,-1,-1,-1,-1,-1,-1,-1,-1,-1,-1,-1,-1,-1,-1,-1,-1,-1,-1,-1,-1,-1,-1,-1,-1,-1,-1,-1,-1,-1,-1,-1,-1,-1,-1,-1,-1,-1,-1,-1,-1,-1,-1,-1,-1,-1,-1,-1,-1,-1,-1,-1,-1,-1,-1,-1,-1,-1,-1,-1,-1,-1,-1,-1,-1,-1,-1,-1,-1,-1,-1,-1,-1,-1,-1,-1,-1,-1,-1,-1,-1,-1,-1,-1,-1,-1,-1,-1,-1,-1,-1,-1,-1,-1,-1,-1,-1,-1],"loss_changes":[3.805639E17,3.5390273E16,5.082226E16,3.914794E15,4.4724955E15,7.0333826E15,5.968252E15,1.7090534E14,1.3553242E15,2.1043665E15,3.0743862E15,2.726136E15,2.3368058E15,3.115449E15,2.6350827E15,1.5470472E13,1.5759953E14,5.2506297E14,3.4338264E14,7.4084596E14,8.0004396E14,1.0247357E15,2.0866542E15,8.330594E14,1.2850051E15,1.7827744E15,1.3177851E15,1.1789986E15,5.3531613E14,4.0339192E14,6.960209E14,0E0,0E0,1.09765405E14,9.543417E13,2.5752007E14,2.6738426E14,4.7900052E14,2.673542E14,3.872768E14,8.3037985E14,4.427016E14,9.705316E14,5.220137E14,3.2483348E14,4.8007185E14,8.174932E14,6.387663E14,8.788064E14,7.520772E14,1.3189952E15,2.2094889E14,6.559961E14,4.667353E14,9.287008E14,3.1570224E13,9.1141354E14,3.4026234E14,8.487365E13,2.6911836E14,2.2995255E13,2.0871823E14,5.9496034E12,0E0,5.238491E13,2.3207587E12,0E0,1.1319628E14,1.4271708E14,0E0,2.004182E14,9.756545E13,1.15214645E14,9.6772056E13,2.1770599E14,2.3928276E14,6.3901597E13,1.8999794E14,5.960388E14,1.0309586E14,3.356078E14,7.971255E14,2.4493727E14,6.4144867E13,0E0,2.6848693E14,1.9282712E14,2.1462972E14,3.9138118E14,8.056881E14,8.8262887E14,2.974877E14,3.9826158E14,4.2937033E14,3.1074518E14,1.0359916E15,5.036588E14,6.3835025E14,1.52936E15,2.88246E12,1.1171553E14,2.856776E14,7.025858E14,1.6750735E14,3.5755542E14,3.4059305E14,3.031259E14,0E0,0E0,4.279025E14,6.130164E14,3.1110542E14,2.5808995E14,6.828743E13,8.161767E13,1.4853715E14,5.6081535E13,0E0,5.6750477E13,9.459451E13,1.2131632E14,4.2434277E12,0E0,0E0,0E0,0E0,0E0,0E0,0E0,0E0,0E0,0E0,0E0,0E0,0E0,0E0,0E0,0E0,0E0,0E0,0E0,0E0,0E0,0E0,0E0,0E0,0E0,0E0,0E0,0E0,0E0,0E0,0E0,0E0,0E0,0E0,0E0,0E0,0E0,0E0,0E0,0E0,0E0,0E0,0E0,0E0,0E0,0E0,0E0,0E0,0E0,0E0,0E0,0E0,0E0,0E0,0E0,0E0,0E0,0E0,0E0,0E0,0E0,0E0,0E0,0E0,0E0,0E0,0E0,0E0,0E0,0E0,0E0,0E0,0E0,0E0,0E0,0E0,0E0,0E0,0E0,0E0,0E0,0E0,0E0,0E0,0E0,0E0,0E0,0E0,0E0,0E0,0E0,0E0,0E0,0E0,0E0,0E0,0E0,0E0,0E0,0E0,0E0,0E0,0E0,0E0,0E0],"parents":[2147483647,0,0,1,1,2,2,3,3,4,4,5,5,6,6,7,7,8,8,9,9,10,10,11,11,12,12,13,13,14,14,15,15,16,16,17,17,18,18,19,19,20,20,21,21,22,22,23,23,24,24,25,25,26,26,27,27,28,28,29,29,30,30,33,33,34,34,35,35,36,36,37,37,38,38,39,39,40,40,41,41,42,42,43,43,44,44,45,45,46,46,47,47,48,48,49,49,50,50,51,51,52,52,53,53,54,54,55,55,56,56,57,57,58,58,59,59,60,60,61,61,62,62,64,64,65,65,67,67,68,68,70,70,71,71,72,72,73,73,74,74,75,75,76,76,77,77,78,78,79,79,80,80,81,81,82,82,83,83,85,85,86,86,87,87,88,88,89,89,90,90,91,91,92,92,93,93,94,94,95,95,96,96,97,97,98,98,99,99,100,100,101,101,102,102,103,103,104,104,105,105,106,106,109,109,110,110,111,111,112,112,113,113,114,114,115,115,116,116,118,118,119,119,120,120,121,121],"right_children":[2,4,6,8,10,12,14,16,18,20,22,24,26,28,30,32,34,36,38,40,42,44,46,48,50,52,54,56,58,60,62,-1,-1,64,66,68,70,72,74,76,78,80,82,84,86,88,90,92,94,96,98,100,102,104,106,108,110,112,114,116,118,120,122,-1,124,126,-1,128,130,-1,132,134,136,138,140,142,144,146,148,150,152,154,156,158,-1,160,162,164,166,168,170,172,174,176,178,180,182,184,186,188,190,192,194,196,198,200,202,-1,-1,204,206,208,210,212,214,216,218,-1,220,222,224,226,-1,-1,-1,-1,-1,-1,-1,-1,-1,-1,-1,-1,-1,-1,-1,-1,-1,-1,-1,-1,-1,-1,-1,-1,-1,-1,-1,-1,-1,-1,-1,-1,-1,-1,-1,-1,-1,-1,-1,-1,-1,-1,-1,-1,-1,-1,-1,-1,-1,-1,-1,-1,-1,-1,-1,-1,-1,-1,-1,-1,-1,-1,-1,-1,-1,-1,-1,-1,-1,-1,-1,-1,-1,-1,-1,-1,-1,-1,-1,-1,-1,-1,-1,-1,-1,-1,-1,-1,-1,-1,-1,-1,-1,-1,-1,-1,-1,-1,-1,-1,-1,-1,-1,-1,-1],"split_conditions":[1.28E0,5.2E-1,2.23E0,2E-1,9.2E-1,1.84E0,2.78E0,8E-2,8E-1,1E0,4.1E1,1E0,1.87E1,2.29E1,2.53E1,9.2E1,7E-1,7.6E0,9E1,5.3E1,4E-1,4.2E0,9E-1,1.86E1,1.56E0,-1.1E0,4.8E1,3.7E0,2.8E0,3.24E0,3.4E0,-5.5296075E5,-5.967574E5,1E-1,0E0,3.6E-1,5.4E1,3E-1,3.1E-1,1.08E1,1E-1,6.9E-1,8.5E1,3.7E0,9E-1,8E-1,2.41E1,9E-1,6.6E1,4.5E1,1.69E1,-2.8E0,1.4E0,1.832E3,1.6E0,1.4E0,9E-1,5.5E1,1.719E3,1.88E1,5.3E1,2.45E1,6.5E1,-4.950501E5,7.3E0,-3E0,-5.47976E5,-1.1E0,5.5E1,-5.34602E5,4.3E-1,6.4E1,2E1,3E-1,2.4E0,3.1E1,3E-1,2.91E1,7.4E-1,-1.23E1,-1.13E1,7.3E0,2.79E1,1.21E0,-4.7561903E5,1.32E1,3.6E1,2.72E1,-1.1E0,-3.6E0,8.8E1,5E-1,2.5E1,9E-1,3E-1,3.7E0,-8E-1,1.3E0,7.6E1,-3.6E0,-1.39E1,7E-1,1.93E0,1.97E0,1E0,6.1E1,2.55E1,-3.6467253E5,-1.576274E4,1.7E0,1.4E1,2.9E1,2.68E1,6.3E1,3E0,7.95E2,7.8E1,1.1381909E6,5.7E1,4E0,6.8E1,3.28E1,5.254217E5,-2.9244112E5,-4.7336134E5,-2.9591312E5,-4.3859053E5,-5.446867E5,-2.4774164E5,-3.1097903E5,-5.5487164E4,-3.62187E5,-2.2603594E5,-1.6718828E5,-4.00552E5,-4.6061212E5,-5.315261E5,-4.7044928E5,-2.0223914E5,-3.0504003E5,-4.2871566E5,-4.8305647E5,1.7427004E4,-1.8272416E5,-4.7383816E5,-1.9853003E5,6.6080164E4,-7.677376E4,1.5149589E5,-5.855237E5,-2.9018094E5,2.8034728E5,-1.8367352E5,-2.1959042E5,-4.8378606E5,1.2807274E5,-4.6582978E5,7.2327325E5,1.6388412E5,-8.5558955E3,-3.0798094E5,-4.574237E5,-2.4063188E5,1.2784901E5,-1.8289098E5,-4.0615484E5,3.1300028E5,-6.345505E5,3.5841395E4,-2.3564973E5,6.532672E4,4.6191484E5,1.3296066E5,-1.81072E4,5.61681E5,1.6271161E5,-2.2070256E5,1.5508847E5,4.606336E5,6.07221E5,-1.3093302E5,-3.5690378E5,1.2651012E5,2.5914789E5,5.2340928E5,-1.7566577E3,3.620043E5,-4.6159884E5,-1.7610234E5,-1.9286417E5,3.0711788E5,2.0087036E5,6.921833E5,2.842708E5,5.633762E5,7.226952E4,4.7317794E5,2.7100484E5,-8.372573E3,3.4154534E5,5.764033E5,4.2206753E5,2.037587E5,-2.0675766E5,5.154859E5,9.078354E5,7.373615E5,5.197474E5,2.3334631E5,7.360441E5,5.5118206E5,1.2278822E5,6.5141256E5,1.4405366E5,3.5912225E5,3.6926097E5,1.0476176E6,8.8232844E5,2.8840253E5,4.0479447E5,9.315379E5,7.4446975E5,4.3623388E5,5.3976527E4,5.427189E5,9.7866856E5,4.0563288E5],"split_indices":[7,7,7,7,7,7,7,7,0,0,3,0,1,1,1,3,0,8,3,3,6,8,0,1,7,1,3,8,0,7,7,0,0,6,8,7,3,8,7,8,6,7,3,0,6,6,1,6,3,3,1,1,0,5,0,0,6,3,5,1,3,2,3,0,8,8,0,1,3,0,7,3,1,6,0,3,0,8,7,2,2,8,1,7,0,1,3,1,1,1,3,6,3,6,6,8,1,2,3,1,2,8,7,7,6,3,1,0,0,2,1,1,1,3,0,5,3,0,3,0,3,1,0,0,0,0,0,0,0,0,0,0,0,0,0,0,0,0,0,0,0,0,0,0,0,0,0,0,0,0,0,0,0,0,0,0,0,0,0,0,0,0,0,0,0,0,0,0,0,0,0,0,0,0,0,0,0,0,0,0,0,0,0,0,0,0,0,0,0,0,0,0,0,0,0,0,0,0,0,0,0,0,0,0,0,0,0,0,0,0,0,0,0,0,0,0,0,0,0,0,0,0,0,0,0,0,0],"split_type":[0,0,0,0,0,0,0,0,0,0,0,0,0,0,0,0,0,0,0,0,0,0,0,0,0,0,0,0,0,0,0,0,0,0,0,0,0,0,0,0,0,0,0,0,0,0,0,0,0,0,0,0,0,0,0,0,0,0,0,0,0,0,0,0,0,0,0,0,0,0,0,0,0,0,0,0,0,0,0,0,0,0,0,0,0,0,0,0,0,0,0,0,0,0,0,0,0,0,0,0,0,0,0,0,0,0,0,0,0,0,0,0,0,0,0,0,0,0,0,0,0,0,0,0,0,0,0,0,0,0,0,0,0,0,0,0,0,0,0,0,0,0,0,0,0,0,0,0,0,0,0,0,0,0,0,0,0,0,0,0,0,0,0,0,0,0,0,0,0,0,0,0,0,0,0,0,0,0,0,0,0,0,0,0,0,0,0,0,0,0,0,0,0,0,0,0,0,0,0,0,0,0,0,0,0,0,0,0,0,0,0,0,0,0,0,0,0,0,0,0,0,0,0,0,0,0,0],"sum_hessian":[1.0352E4,6.201E3,4.151E3,3.824E3,2.377E3,2.278E3,1.873E3,2.061E3,1.763E3,1.325E3,1.052E3,1.341E3,9.37E2,9.72E2,9.01E2,8.61E2,1.2E3,4.81E2,1.282E3,4.71E2,8.54E2,1.83E2,8.69E2,3.46E2,9.95E2,4.76E2,4.61E2,5.58E2,4.14E2,5.3E2,3.71E2,5.02E2,3.59E2,3.3E2,8.7E2,1.53E2,3.28E2,7.47E2,5.35E2,6.9E1,4.02E2,5.41E2,3.13E2,1E1,1.73E2,2.65E2,6.04E2,2E2,1.46E2,4.57E2,5.38E2,1.5E1,4.61E2,1.36E2,3.25E2,5E0,5.53E2,3.23E2,9.1E1,3.43E2,1.87E2,2.84E2,8.7E1,2.8E2,5E1,3.9E1,8.31E2,7.6E1,7.7E1,3.6E1,2.92E2,4.5E1,7.02E2,2.04E2,3.31E2,2.6E1,4.3E1,1.77E2,2.25E2,2.61E2,2.8E2,2.88E2,2.5E1,8E0,2E0,6.1E1,1.12E2,1.42E2,1.23E2,3.75E2,2.29E2,5.9E1,1.41E2,6.1E1,8.5E1,1.47E2,3.1E2,2.6E2,2.78E2,8E0,7E0,2E2,2.61E2,3E1,1.06E2,1.76E2,1.49E2,3E0,2E0,3.8E1,5.15E2,1.11E2,2.12E2,1E1,8.1E1,1.8E2,1.63E2,1.76E2,1.1E1,2.55E2,2.9E1,8.3E1,4E0,3.3E1,1.7E1,1.1E1,2.8E1,7E0,6.9E1,1.2E1,6.5E1,2.12E2,8E1,3.2E1,1.3E1,4.6E2,2.42E2,1.95E2,9E0,2.08E2,1.23E2,5E0,2.1E1,6E0,3.7E1,1.63E2,1.4E1,1.25E2,1E2,6E0,2.55E2,7E0,2.73E2,8E1,2.08E2,2.2E1,3E0,6E0,2E0,2.4E1,3.7E1,8E1,3.2E1,1.31E2,1.1E1,3E0,1.2E2,8E0,3.67E2,1.62E2,6.7E1,2.1E1,3.8E1,6E0,1.35E2,4E1,2.1E1,2.4E1,6.1E1,9E0,1.38E2,1E1,3E2,2.01E2,5.9E1,2E2,7.8E1,6E0,2E0,3E0,4E0,7E0,1.93E2,6.1E1,2E2,7E0,2.3E1,3.1E1,7.5E1,4.7E1,1.29E2,4.7E1,1.02E2,4E0,3.4E1,2.16E2,2.99E2,8.4E1,2.7E1,7.2E1,1.4E2,2E0,8E0,1.2E1,6.9E1,3E0,1.77E2,1.61E2,2E0,4E0,7E0,2.45E2,1E1,3E0,2.6E1,8.1E1,2E0],"tree_param":{"num_deleted":"0","num_feature":"9","num_nodes":"227","size_leaf_vector":"1"}},{"base_weights":[5.004793E3,-4.270693E6,7.453504E6,-6.059403E6,-7.874842E5,4.740499E6,1.0831853E7,-6.9577295E6,-4.605904E6,-2.663254E6,1.3651702E5,3.4638942E6,6.7917895E6,9.530777E6,1.2673027E7,-7.3355015E6,-6.1931355E6,-3.354633E6,-5.2623545E6,-4.0859947E5,-3.981227E6,-1.2200575E6,1.7550701E6,4.808536E6,1.6647971E6,8.0837625E6,4.905835E6,1.1067596E7,7.5642045E6,1.4529707E7,1.0974491E7,-6.44537E6,-7.426693E6,-4.6159525E6,-6.510003E6,-5.4609115E6,-2.676996E6,-2.1406625E6,-5.391746E6,-3.6857838E6,7.836545E5,-2.16492E6,-5.2282575E6,-5.4284117E4,-2.5877535E6,3.3566712E6,5.7882244E5,6.1897875E6,3.0354448E6,2.1590438E6,-1.9066306E6,-2.322964E6,8.451585E6,8.1215805E6,4.230698E6,-3.3036153E5,1.1133465E7,8.221156E6,5.04579E6,1.3059161E6,1.4215615E7,9.421274E6,1.2188879E7,-6.5503245E6,-2.4149208E6,-6.4600255E6,-7.497739E6,-5.3984785E6,-3.3803345E6,-1.0701515E6,-6.567835E6,3.9996678E5,-6.0178445E6,-1.4246699E6,-3.3399045E6,-4.225262E6,4.429391E5,-6.079421E6,-4.8675485E6,-6.197989E5,-5.1748415E6,4.598829E6,-5.786804E5,-3.3982795E6,3.9489384E5,-6.171278E6,-3.5425458E6,-7.328791E5,2.5279172E6,-3.5295572E6,-1.1981459E6,3.6945712E6,-2.639658E6,7.687115E5,-6.8087765E6,-6.2269235E6,6.3871645E6,4.1815668E6,6.17252E5,3.968947E6,1.1162081E6,-4.5849565E6,-6.951414E5,-4.0433222E5,6.718996E5,-2.2423848E6,8.550526E6,3.504387E4,8.543509E6,2.954748E6,5.4486725E6,3.627479E6,1.125141E7,9.085214E6,7.116079E6,6.750624E6,3.9956205E6,1.2301283E7,1.4636877E7,9.738025E6,5.862905E6,8.986717E5,9.899505E6,-4.8015128E5,-3.9744372E5,-8.675903E4,-2.2240995E5,-1.6071608E5,-4.558419E5,-5.6689775E5,-5.1827712E5,-2.9862856E5,-4.5066647E5,-2.0288356E5,-3.6029922E5,-2.516605E4,-8.5528086E4,-4.2049512E5,-4.8415312E5,-1.9657536E5,1.15027195E5,-4.8846428E5,-3.243772E5,-3.968349E5,-7.617504E4,-3.2109062E5,-1.7871308E5,-5.415762E5,-2.072375E5,1.1481881E5,-2.6015972E5,-3.8621197E5,-5.1682912E5,-3.2310447E5,-4.9058E5,-1.4538538E5,3.0384312E5,-4.6184906E5,-5.0868523E4,5.623172E5,3.017826E4,-2.1499642E5,5.249161E4,-2.5138656E5,4.13209E5,1.9599375E5,-9.595537E4,1.886473E4,-4.453608E5,2.3483734E5,-3.5551456E5,-8.8737414E4,8.483226E4,2.3792611E5,-6.982873E4,-1.6816373E5,-3.3103956E5,-1.0457636E5,2.5904769E5,7.7863664E4,2.9861978E5,-2.6419578E5,1.1953186E5,-4.6990947E5,6.4722586E4,-5.4039375E5,-2.4584658E5,-1.3458352E5,-5.2948825E5,1.6875289E5,4.8190944E5,-4.110429E5,3.0427984E5,2.2314058E5,-1.7065595E5,2.2971869E5,7.1992075E5,-9.3775664E4,1.6371405E5,-1.5733144E5,-4.0953097E5,3.2656994E5,-9.0193766E4,-1.6321098E5,2.8991925E5,2.0400178E5,-4.6561356E5,6.914592E5,5.299136E5,3.8481675E5,6.510683E5,3.8738753E5,9.394176E4,4.6373578E5,2.4322784E5,-8.539392E4,7.842484E5,8.9092225E5,7.2210244E5,4.6611184E5,6.8247906E5,3.2729922E5,5.665865E5,6.419959E4,5.0998988E5,1.4057972E5,3.685309E5,9.370503E5,6.9154594E5,4.1120647E5,1.0278966E6,2.0513762E5,6.899912E5,1.4636964E5,5.5418656E5,7.6328525E5,5.4176094E5],"categories":[],"categories_nodes":[],"categories_segments":[],"categories_sizes":[],"default_left":[0,0,0,0,0,0,0,0,0,0,0,0,0,0,0,0,0,0,0,0,0,0,0,0,0,0,0,0,0,0,0,0,0,0,0,0,0,0,0,0,0,0,0,0,0,0,0,0,0,0,0,0,0,0,0,0,0,0,0,0,0,0,0,0,0,0,0,0,0,0,0,0,0,0,0,0,0,0,0,0,0,0,0,0,0,0,0,0,0,0,0,0,0,0,0,0,0,0,0,0,0,0,0,0,0,0,0,0,0,0,0,0,0,0,0,0,0,0,0,0,0,0,0,0,0,0,0,0,0,0,0,0,0,0,0,0,0,0,0,0,0,0,0,0,0,0,0,0,0,0,0,0,0,0,0,0,0,0,0,0,0,0,0,0,0,0,0,0,0,0,0,0,0,0,0,0,0,0,0,0,0,0,0,0,0,0,0,0,0,0,0,0,0,0,0,0,0,0,0,0,0,0,0,0,0,0,0,0,0,0,0,0,0,0,0,0,0,0,0,0,0,0,0,0,0,0,0,0,0,0,0,0,0,0,0,0,0],"id":8,"left_children":[1,3,5,7,9,11,13,15,17,19,21,23,25,27,29,31,33,35,37,39,41,43,45,47,49,51,53,55,57,59,61,63,65,67,69,71,73,75,77,79,81,83,85,87,89,91,93,95,97,99,101,103,105,107,109,-1,111,113,115,-1,117,119,121,123,125,127,129,131,133,135,137,139,141,143,145,147,149,151,153,155,157,159,161,163,165,167,169,171,173,175,177,179,181,183,185,187,189,191,193,195,197,199,201,-1,203,205,207,-1,209,211,213,215,