{"learner":{"attributes":{"scikit_learn":"{\"_estimator_type\": \"regressor\"}"},"feature_names":[],"feature_types":[],"gradient_booster":{"model":{"gbtree_model_param":{"num_parallel_tree":"1","num_trees":"200"},"iteration_indptr":[0,1,2,3,4,5,6,7,8,9,10,11,12,13,14,15,16,17,18,19,20,21,22,23,24,25,26,27,28,29,30,31,32,33,34,35,36,37,38,39,40,41,42,43,44,45,46,47,48,49,50,51,52,53,54,55,56,57,58,59,60,61,62,63,64,65,66,67,68,69,70,71,72,73,74,75,76,77,78,79,80,81,82,83,84,85,86,87,88,89,90,91,92,93,94,95,96,97,98,99,100,101,102,103,104,105,106,107,108,109,110,111,112,113,114,115,116,117,118,119,120,121,122,123,124,125,126,127,128,129,130,131,132,133,134,135,136,137,138,139,140,141,142,143,144,145,146,147,148,149,150,151,152,153,154,155,156,157,158,159,160,161,162,163,164,165,166,167,168,169,170,171,172,173,174,175,176,177,178,179,180,181,182,183,184,185,186,187,188,189,190,191,192,193,194,195,196,197,198,199,200],"tree_info":[0,0,0,0,0,0,0,0,0,0,0,0,0,0,0,0,0,0,0,0,0,0,0,0,0,0,0,0,0,0,0,0,0,0,0,0,0,0,0,0,0,0,0,0,0,0,0,0,0,0,0,0,0,0,0,0,0,0,0,0,0,0,0,0,0,0,0,0,0,0,0,0,0,0,0,0,0,0,0,0,0,0,0,0,0,0,0,0,0,0,0,0,0,0,0,0,0,0,0,0,0,0,0,0,0,0,0,0,0,0,0,0,0,0,0,0,0,0,0,0,0,0,0,0,0,0,0,0,0,0,0,0,0,0,0,0,0,0,0,0,0,0,0,0,0,0,0,0,0,0,0,0,0,0,0,0,0,0,0,0,0,0,0,0,0,0,0,0,0,0,0,0,0,0,0,0,0,0,0,0,0,0,0,0,0,0,0,0,0,0,0,0,0,0,0,0,0,0,0,0],"trees":[{"base_weights":[1.6929684E3,-2.716805E10,9.8346115E10,-2.7317903E9,-2.0458342E10,5.0175976E12,-2.7729682E9,2.4276586E11,-2.6569958E9,5.6310217E13,-2.7132836E9,6.467623E10,-1.9923808E9,-2.2171791E9,1.6898608E13],"categories":[],"categories_nodes":[],"categories_segments":[],"categories_sizes":[],"default_left":[0,0,0,0,0,0,0,0,0,0,0,0,0,0,0],"id":0,"left_children":[1,3,5,-1,7,9,-1,11,-1,13,-1,-1,-1,-1,-1],"loss_changes":[3.3093807E25,9.198584E21,1.6628915E27,0E0,3.5393494E23,1.7338276E28,0E0,5.4351444E23,0E0,3.8087553E28,0E0,0E0,0E0,0E0,0E0],"parents":[2147483647,0,0,1,1,2,2,4,4,5,5,7,7,9,9],"right_children":[2,4,6,-1,8,10,-1,12,-1,14,-1,-1,-1,-1,-1],"split_conditions":[8.26E1,1.78E0,8.29E1,-2.7317903E9,1.33E1,9.6E0,-2.7729682E9,3.2E0,-2.6569958E9,1.6E0,-2.7132836E9,6.467623E10,-1.9923808E9,-2.2171791E9,1.6898608E13],"split_indices":[3,7,3,0,1,1,0,0,0,0,0,0,0,0,0],"split_type":[0,0,0,0,0,0,0,0,0,0,0,0,0,0,0],"sum_hessian":[1.2384E4,9.704E3,2.68E3,9.489E3,2.15E2,6.6E1,2.614E3,4E0,2.11E2,5E0,6.1E1,1E0,3E0,4E0,1E0],"tree_param":{"num_deleted":"0","num_feature":"9","num_nodes":"15","size_leaf_vector":"1"}},{"base_weights":[1.3684462E9,-2.444534E10,9.4811726E10,-2.4586401E9,-1.8134606E10,4.7679826E12,-2.4957775E9,2.3102605E11,-2.3925496E9,5.3495256E13,-2.4463314E9,6.144242E10,-1.8429524E9,-2.0398048E9,1.6053677E13],"categories":[],"categories_nodes":[],"categories_segments":[],"categories_sizes":[],"default_left":[0,0,0,0,0,0,0,0,0,0,0,0,0,0,0],"id":1,"left_children":[1,3,5,-1,7,9,-1,11,-1,13,-1,-1,-1,-1,-1],"loss_changes":[2.9876485E25,8.193813E21,1.5006837E27,0E0,3.171856E23,1.5647337E28,0E0,4.8952755E23,0E0,3.4373652E28,0E0,0E0,0E0,0E0,0E0],"parents":[2147483647,0,0,1,1,2,2,4,4,5,5,7,7,9,9],"right_children":[2,4,6,-1,8,10,-1,12,-1,14,-1,-1,-1,-1,-1],"split_conditions":[8.26E1,1.78E0,8.29E1,-2.4586401E9,1.33E1,9.6E0,-2.4957775E9,3.2E0,-2.3925496E9,1.6E0,-2.4463314E9,6.144242E10,-1.8429524E9,-2.0398048E9,1.6053677E13],"split_indices":[3,7,3,0,1,1,0,0,0,0,0,0,0,0,0],"split_type":[0,0,0,0,0,0,0,0,0,0,0,0,0,0,0],"sum_hessian":[1.2384E4,9.704E3,2.68E3,9.489E3,2.15E2,6.6E1,2.614E3,4E0,2.11E2,5E0,6.1E1,1E0,3E0,4E0,1E0],"tree_param":{"num_deleted":"0","num_feature":"9","num_nodes":"15","size_leaf_vector":"1"}},{"base_weights":[2.5316772E9,-2.1995166E10,9.131589E10,-2.2128023E9,-1.6056298E10,4.5307244E12,-2.2462953E9,2.1984333E11,-2.154423E9,5.0821E13,-2.2056438E9,5.8370294E10,-1.704731E9,-1.8766205E9,1.5250993E13],"categories":[],"categories_nodes":[],"categories_segments":[],"categories_sizes":[],"default_left":[0,0,0,0,0,0,0,0,0,0,0,0,0,0,0],"id":2,"left_children":[1,3,5,-1,7,9,-1,11,-1,13,-1,-1,-1,-1,-1],"loss_changes":[2.6971538E25,7.3023166E21,1.3543036E27,0E0,2.8437025E23,1.4121339E28,0E0,4.4092525E23,0E0,3.1021905E28,0E0,0E0,0E0,0E0,0E0],"parents":[2147483647,0,0,1,1,2,2,4,4,5,5,7,7,9,9],"right_children":[2,4,6,-1,8,10,-1,12,-1,14,-1,-1,-1,-1,-1],"split_conditions":[8.26E1,1.78E0,8.29E1,-2.2128023E9,1.33E1,9.6E0,-2.2462953E9,3.2E0,-2.154423E9,1.6E0,-2.2056438E9,5.8370294E10,-1.704731E9,-1.8766205E9,1.5250993E13],"split_indices":[3,7,3,0,1,1,0,0,0,0,0,0,0,0,0],"split_type":[0,0,0,0,0,0,0,0,0,0,0,0,0,0,0],"sum_hessian":[1.2384E4,9.704E3,2.68E3,9.489E3,2.15E2,6.6E1,2.614E3,4E0,2.11E2,5E0,6.1E1,1E0,3E0,4E0,1E0],"tree_param":{"num_deleted":"0","num_feature":"9","num_nodes":"15","size_leaf_vector":"1"}},{"base_weights":[3.5136302E9,-1.9790258E10,8.787049E10,-1.9915451E9,-1.4198303E10,4.3052177E12,-2.0217518E9,2.091921E11,-1.9399973E9,4.8280424E13,-1.988637E9,5.545178E10,-1.5768762E9,-1.7264909E9,1.4488443E13],"categories":[],"categories_nodes":[],"categories_segments":[],"categories_sizes":[],"default_left":[0,0,0,0,0,0,0,0,0,0,0,0,0,0,0],"id":3,"left_children":[1,3,5,-1,7,9,-1,11,-1,13,-1,-1,-1,-1,-1],"loss_changes":[2.4348701E25,6.5114124E21,1.2222065E27,0E0,2.5505095E23,1.2744182E28,0E0,3.9716784E23,0E0,2.7996998E28,0E0,0E0,0E0,0E0,0E0],"parents":[2147483647,0,0,1,1,2,2,4,4,5,5,7,7,9,9],"right_children":[2,4,6,-1,8,10,-1,12,-1,14,-1,-1,-1,-1,-1],"split_conditions":[8.26E1,1.78E0,8.29E1,-1.9915451E9,1.33E1,9.6E0,-2.0217518E9,3.2E0,-1.9399973E9,1.6E0,-1.988637E9,5.545178E10,-1.5768762E9,-1.7264909E9,1.4488443E13],"split_indices":[3,7,3,0,1,1,0,0,0,0,0,0,0,0,0],"split_type":[0,0,0,0,0,0,0,0,0,0,0,0,0,0,0],"sum_hessian":[1.2384E4,9.704E3,2.68E3,9.489E3,2.15E2,6.6E1,2.614E3,4E0,2.11E2,5E0,6.1E1,1E0,3E0,4E0,1E0],"tree_param":{"num_deleted":"0","num_feature":"9","num_nodes":"15","size_leaf_vector":"1"}},{"base_weights":[4.335675E9,-1.7806088E10,8.448542E10,-1.7924116E10,-1.2538034E10,4.0908858E12,-1.819654E9,-1.8093304E9,-1.7683593E9,1.9904789E11,-1.7469126E9,4.5866837E13,-1.7929809E9,5.2679193E10,-1.4586104E9,-1.5883716E9,1.3764022E13],"categories":[],"categories_nodes":[],"categories_segments":[],"categories_sizes":[],"default_left":[0,0,0,0,0,0,0,0,0,0,0,0,0,0,0,0,0],"id":4,"left_children":[1,3,5,7,9,11,-1,-1,-1,13,-1,15,-1,-1,-1,-1,-1],"loss_changes":[2.1980626E25,5.809283E21,1.1029978E27,6.6004756E19,2.2884074E23,1.1501351E28,0E0,0E0,0E0,3.5777013E23,0E0,2.526706E28,0E0,0E0,0E0,0E0,0E0],"parents":[2147483647,0,0,1,1,2,2,3,3,4,4,5,5,9,9,11,11],"right_children":[2,4,6,8,10,12,-1,-1,-1,14,-1,16,-1,-1,-1,-1,-1],"split_conditions":[8.26E1,1.78E0,8.29E1,8.6E-1,1.33E1,9.6E0,-1.819654E9,-1.8093304E9,-1.7683593E9,3.2E0,-1.7469126E9,1.6E0,-1.7929809E9,5.2679193E10,-1.4586104E9,-1.5883716E9,1.3764022E13],"split_indices":[3,7,3,7,1,1,0,0,0,0,0,0,0,0,0,0,0],"split_type":[0,0,0,0,0,0,0,0,0,0,0,0,0,0,0,0,0],"sum_hessian":[1.2384E4,9.704E3,2.68E3,9.489E3,2.15E2,6.6E1,2.614E3,5.527E3,3.962E3,4E0,2.11E2,5E0,6.1E1,1E0,3E0,4E0,1E0],"tree_param":{"num_deleted":"0","num_feature":"9","num_nodes":"17","size_leaf_vector":"1"}},{"base_weights":[5.0167383E9,-1.6020749E10,8.116885E10,-1.6132082E10,-1.1055186E10,3.88718E12,-1.6377582E9,-1.626657E9,-1.5885736E9,1.8938723E11,-1.5730454E9,4.357389E13,-1.6165747E9,5.0045235E10,-1.3492146E9,-1.4613019E9,1.307582E13],"categories":[],"categories_nodes":[],"categories_segments":[],"categories_sizes":[],"default_left":[0,0,0,0,0,0,0,0,0,0,0,0,0,0,0,0,0],"id":5,"left_children":[1,3,5,7,9,11,-1,-1,-1,13,-1,15,-1,-1,-1,-1,-1],"loss_changes":[1.9842678E25,5.186994E21,9.954193E26,5.6204923E19,2.0539752E23,1.0379739E28,0E0,0E0,0E0,3.2229568E23,0E0,2.2803311E28,0E0,0E0,0E0,0E0,0E0],"parents":[2147483647,0,0,1,1,2,2,3,3,4,4,5,5,9,9,11,11],"right_children":[2,4,6,8,10,12,-1,-1,-1,14,-1,16,-1,-1,-1,-1,-1],"split_conditions":[8.26E1,1.78E0,8.29E1,9.5E-1,1.33E1,9.6E0,-1.6377582E9,-1.626657E9,-1.5885736E9,3.2E0,-1.5730454E9,1.6E0,-1.6165747E9,5.0045235E10,-1.3492146E9,-1.4613019E9,1.307582E13],"split_indices":[3,7,3,7,1,1,0,0,0,0,0,0,0,0,0,0,0],"split_type":[0,0,0,0,0,0,0,0,0,0,0,0,0,0,0,0,0],"sum_hessian":[1.2384E4,9.704E3,2.68E3,9.489E3,2.15E2,6.6E1,2.614E3,6.096E3,3.393E3,4E0,2.11E2,5E0,6.1E1,1E0,3E0,4E0,1E0],"tree_param":{"num_deleted":"0","num_feature":"9","num_nodes":"17","size_leaf_vector":"1"}},{"base_weights":[5.574007E9,-1.4414151E10,7.7927416E10,-1.4519213E10,-9.731505E9,3.6935775E12,-1.4740449E9,-1.4674045E9,-1.433988E9,1.8018771E11,-1.416483E9,4.1395557E13,-1.4575246E9,4.7542972E10,-1.2480236E9,-1.3443977E9,1.2422029E13],"categories":[],"categories_nodes":[],"categories_segments":[],"categories_sizes":[],"default_left":[0,0,0,0,0,0,0,0,0,0,0,0,0,0,0,0,0],"id":6,"left_children":[1,3,5,7,9,11,-1,-1,-1,13,-1,15,-1,-1,-1,-1,-1],"loss_changes":[1.791245E25,4.6333033E21,8.983357E26,5.303439E19,1.8441855E23,9.367519E27,0E0,0E0,0E0,2.9035182E23,0E0,2.0579804E28,0E0,0E0,0E0,0E0,0E0],"parents":[2147483647,0,0,1,1,2,2,3,3,4,4,5,5,9,9,11,11],"right_children":[2,4,6,8,10,12,-1,-1,-1,14,-1,16,-1,-1,-1,-1,-1],"split_conditions":[8.26E1,1.78E0,8.29E1,7.8E-1,1.33E1,9.6E0,-1.4740449E9,-1.4674045E9,-1.433988E9,3.2E0,-1.416483E9,1.6E0,-1.4575246E9,4.7542972E10,-1.2480236E9,-1.3443977E9,1.2422029E13],"split_indices":[3,7,3,7,1,1,0,0,0,0,0,0,0,0,0,0,0],"split_type":[0,0,0,0,0,0,0,0,0,0,0,0,0,0,0,0,0],"sum_hessian":[1.2384E4,9.704E3,2.68E3,9.489E3,2.15E2,6.6E1,2.614E3,5.049E3,4.44E3,4E0,2.11E2,5E0,6.1E1,1E0,3E0,4E0,1E0],"tree_param":{"num_deleted":"0","num_feature":"9","num_nodes":"17","size_leaf_vector":"1"}},{"base_weights":[6.022641E9,-1.296841E10,7.476644E10,-1.3067597E10,-8.5505843E9,3.5095815E12,-1.3266968E9,-1.3173578E9,-1.2849388E9,1.7142792E11,-1.2755027E9,3.9326117E13,-1.314123E9,4.5165826E10,-1.1544218E9,-1.2368458E9,1.1800928E13],"categories":[],"categories_nodes":[],"categories_segments":[],"categories_sizes":[],"default_left":[0,0,0,0,0,0,0,0,0,0,0,0,0,0,0,0,0],"id":7,"left_children":[1,3,5,7,9,11,-1,-1,-1,13,-1,15,-1,-1,-1,-1,-1],"loss_changes":[1.6169799E25,4.1410058E21,8.1072326E26,5.0152085E19,1.656358E23,8.454022E27,0E0,0E0,0E0,2.6158577E23,0E0,1.8573117E28,0E0,0E0,0E0,0E0,0E0],"parents":[2147483647,0,0,1,1,2,2,3,3,4,4,5,5,9,9,11,11],"right_children":[2,4,6,8,10,12,-1,-1,-1,14,-1,16,-1,-1,-1,-1,-1],"split_conditions":[8.26E1,1.78E0,8.29E1,9.9E-1,1.33E1,9.6E0,-1.3266968E9,-1.3173578E9,-1.2849388E9,3.2E0,-1.2755027E9,1.6E0,-1.314123E9,4.5165826E10,-1.1544218E9,-1.2368458E9,1.1800928E13],"split_indices":[3,7,3,7,1,1,0,0,0,0,0,0,0,0,0,0,0],"split_type":[0,0,0,0,0,0,0,0,0,0,0,0,0,0,0,0,0],"sum_hessian":[1.2384E4,9.704E3,2.68E3,9.489E3,2.15E2,6.6E1,2.614E3,6.347E3,3.142E3,4E0,2.11E2,5E0,6.1E1,1E0,3E0,4E0,1E0],"tree_param":{"num_deleted":"0","num_feature":"9","num_nodes":"17","size_leaf_vector":"1"}},{"base_weights":[6.3761444E9,-1.1667434E10,7.169004E10,-1.1761112E10,-7.497675E9,3.3347184E12,-1.194078E9,-1.1912794E9,-1.16296E9,1.6308742E11,-1.1485541E9,3.736012E13,-1.1848303E9,4.2907533E10,-1.0678402E9,-1.1378982E9,1.1210882E13],"categories":[],"categories_nodes":[],"categories_segments":[],"categories_sizes":[],"default_left":[0,0,0,0,0,0,0,0,0,0,0,0,0,0,0,0,0],"id":8,"left_children":[1,3,5,7,9,11,-1,-1,-1,13,-1,15,-1,-1,-1,-1,-1],"loss_changes":[1.4596514E25,3.7026074E21,7.316572E26,5.087266E19,1.48811605E23,7.629618E27,0E0,0E0,0E0,2.3567989E23,0E0,1.6762099E28,0E0,0E0,0E0,0E0,0E0],"parents":[2147483647,0,0,1,1,2,2,3,3,4,4,5,5,9,9,11,11],"right_children":[2,4,6,8,10,12,-1,-1,-1,14,-1,16,-1,-1,-1,-1,-1],"split_conditions":[8.26E1,1.78E0,8.29E1,7E-1,1.33E1,9.6E0,-1.194078E9,-1.1912794E9,-1.16296E9,3.2E0,-1.1485541E9,1.6E0,-1.1848303E9,4.2907533E10,-1.0678402E9,-1.1378982E9,1.1210882E13],"split_indices":[3,7,3,6,1,1,0,0,0,0,0,0,0,0,0,0,0],"split_type":[0,0,0,0,0,0,0,0,0,0,0,0,0,0,0,0,0],"sum_hessian":[1.2384E4,9.704E3,2.68E3,9.489E3,2.15E2,6.6E1,2.614E3,4.365E3,5.124E3,4E0,2.11E2,5E0,6.1E1,1E0,3E0,4E0,1E0],"tree_param":{"num_deleted":"0","num_feature":"9","num_nodes":"17","size_leaf_vector":"1"}},{"base_weights":[6.646541E9,-1.049674E10,6.870133E10,-1.0585249E10,-6.5595223E9,3.1685387E12,-1.0747158E9,-1.0663728E9,-1.0364071E9,1.5514662E11,-1.0342405E9,3.54924E13,-1.06825824E9,4.076216E10,-9.877521E8,-1.04686637E9,1.0650338E13],"categories":[],"categories_nodes":[],"categories_segments":[],"categories_sizes":[],"default_left":[0,0,0,0,0,0,0,0,0,0,0,0,0,0,0,0,0],"id":9,"left_children":[1,3,5,7,9,11,-1,-1,-1,13,-1,15,-1,-1,-1,-1,-1],"loss_changes":[1.3176166E25,3.3125597E21,6.603038E26,5.425937E19,1.3373509E23,6.8856147E27,0E0,0E0,0E0,2.1234858E23,0E0,1.5127676E28,0E0,0E0,0E0,0E0,0E0],"parents":[2147483647,0,0,1,1,2,2,3,3,4,4,5,5,9,9,11,11],"right_children":[2,4,6,8,10,12,-1,-1,-1,14,-1,16,-1,-1,-1,-1,-1],"split_conditions":[8.26E1,1.78E0,8.29E1,1.1E0,1.33E1,9.6E0,-1.0747158E9,-1.0663728E9,-1.0364071E9,3.2E0,-1.0342405E9,1.6E0,-1.06825824E9,4.076216E10,-9.877521E8,-1.04686637E9,1.0650338E13],"split_indices":[3,7,3,7,1,1,0,0,0,0,0,0,0,0,0,0,0],"split_type":[0,0,0,0,0,0,0,0,0,0,0,0,0,0,0,0,0],"sum_hessian":[1.2384E4,9.704E3,2.68E3,9.489E3,2.15E2,6.6E1,2.614E3,6.969E3,2.52E3,4E0,2.11E2,5E0,6.1E1,1E0,3E0,4E0,1E0],"tree_param":{"num_deleted":"0","num_feature":"9","num_nodes":"17","size_leaf_vector":"1"}},{"base_weights":[6.8445256E9,-9.443291E9,6.580253E10,-9.526945E9,-5.724217E9,3.0106135E12,-9.6728525E8,-9.6473184E8,-9.400904E8,1.4758683E11,-9.3130426E8,3.3718043E13,-9.631554E8,3.872405E10,-9.1367066E8,-9.6311706E8,1.0117821E13],"categories":[],"categories_nodes":[],"categories_segments":[],"categories_sizes":[],"default_left":[0,0,0,0,0,0,0,0,0,0,0,0,0,0,0,0,0],"id":10,"left_children":[1,3,5,7,9,11,-1,-1,-1,13,-1,15,-1,-1,-1,-1,-1],"loss_changes":[1.1893903E25,2.9647376E21,5.9591015E26,5.332262E19,1.2021911E23,6.214171E27,0E0,0E0,0E0,1.9133496E23,0E0,1.3652619E28,0E0,0E0,0E0,0E0,0E0],"parents":[2147483647,0,0,1,1,2,2,3,3,4,4,5,5,9,9,11,11],"right_children":[2,4,6,8,10,12,-1,-1,-1,14,-1,16,-1,-1,-1,-1,-1],"split_conditions":[8.26E1,1.78E0,8.29E1,7.4E-1,1.33E1,9.6E0,-9.6728525E8,-9.6473184E8,-9.400904E8,3.2E0,-9.3130426E8,1.6E0,-9.631554E8,3.872405E10,-9.1367066E8,-9.6311706E8,1.0117821E13],"split_indices":[3,7,3,7,1,1,0,0,0,0,0,0,0,0,0,0,0],"split_type":[0,0,0,0,0,0,0,0,0,0,0,0,0,0,0,0,0],"sum_hessian":[1.2384E4,9.704E3,2.68E3,9.489E3,2.15E2,6.6E1,2.614E3,4.815E3,4.674E3,4E0,2.11E2,5E0,6.1E1,1E0,3E0,4E0,1E0],"tree_param":{"num_deleted":"0","num_feature":"9","num_nodes":"17","size_leaf_vector":"1"}},{"base_weights":[6.979605E9,-8.4953585E9,6.29951E10,-8.574451E9,-4.9810586E9,2.8605355E12,-8.705937E8,-8.683143E8,-8.4516346E8,1.4039022E11,-8.386131E8,3.2032382E13,-8.683934E8,3.6787847E10,-8.4514534E8,-8.8606765E8,9.61193E12],"categories":[],"categories_nodes":[],"categories_segments":[],"categories_sizes":[],"default_left":[0,0,0,0,0,0,0,0,0,0,0,0,0,0,0,0,0],"id":11,"left_children":[1,3,5,7,9,11,-1,-1,-1,13,-1,15,-1,-1,-1,-1,-1],"loss_changes":[1.073632E25,2.654818E21,5.3779745E26,5.3394677E19,1.0809727E23,5.6082075E27,0E0,0E0,0E0,1.7240777E23,0E0,1.2321398E28,0E0,0E0,0E0,0E0,0E0],"parents":[2147483647,0,0,1,1,2,2,3,3,4,4,5,5,9,9,11,11],"right_children":[2,4,6,8,10,12,-1,-1,-1,14,-1,16,-1,-1,-1,-1,-1],"split_conditions":[8.26E1,1.78E0,8.29E1,8E-1,1.33E1,9.6E0,-8.705937E8,-8.683143E8,-8.4516346E8,3.2E0,-8.386131E8,1.6E0,-8.683934E8,3.6787847E10,-8.4514534E8,-8.8606765E8,9.61193E12],"split_indices":[3,7,3,6,1,1,0,0,0,0,0,0,0,0,0,0,0],"split_type":[0,0,0,0,0,0,0,0,0,0,0,0,0,0,0,0,0],"sum_hessian":[1.2384E4,9.704E3,2.68E3,9.489E3,2.15E2,6.6E1,2.614E3,4.997E3,4.492E3,4E0,2.11E2,5E0,6.1E1,1E0,3E0,4E0,1E0],"tree_param":{"num_deleted":"0","num_feature":"9","num_nodes":"17","size_leaf_vector":"1"}},{"base_weights":[7.0602225E9,-7.642382E9,6.0279812E10,-7.717187E9,-4.3204337E9,2.7179174E12,-7.835677E8,-7.7746906E8,-7.5192774E8,1.3353974E11,-7.551474E8,3.0430982E13,-7.829547E8,3.4948456E10,-7.817595E8,-8.151823E8,9.131333E12],"categories":[],"categories_nodes":[],"categories_segments":[],"categories_sizes":[],"default_left":[0,0,0,0,0,0,0,0,0,0,0,0,0,0,0,0,0],"id":12,"left_children":[1,3,5,7,9,11,-1,-1,-1,13,-1,15,-1,-1,-1,-1,-1],"loss_changes":[9.69131E24,2.378333E21,4.8535276E26,4.9539596E19,9.722167E22,5.061338E27,0E0,0E0,0E0,1.5535906E23,0E0,1.1119978E28,0E0,0E0,0E0,0E0,0E0],"parents":[2147483647,0,0,1,1,2,2,3,3,4,4,5,5,9,9,11,11],"right_children":[2,4,6,8,10,12,-1,-1,-1,14,-1,16,-1,-1,-1,-1,-1],"split_conditions":[8.26E1,1.78E0,8.29E1,1.17E0,1.33E1,9.6E0,-7.835677E8,-7.7746906E8,-7.5192774E8,3.2E0,-7.551474E8,1.6E0,-7.829547E8,3.4948456E10,-7.817595E8,-8.151823E8,9.131333E12],"split_indices":[3,7,3,7,1,1,0,0,0,0,0,0,0,0,0,0,0],"split_type":[0,0,0,0,0,0,0,0,0,0,0,0,0,0,0,0,0],"sum_hessian":[1.2384E4,9.704E3,2.68E3,9.489E3,2.15E2,6.6E1,2.614E3,7.323E3,2.166E3,4E0,2.11E2,5E0,6.1E1,1E0,3E0,4E0,1E0],"tree_param":{"num_deleted":"0","num_feature":"9","num_nodes":"17","size_leaf_vector":"1"}},{"base_weights":[7.0938716E9,-6.8748585E9,5.765688E10,-6.945629E9,-3.7337073E9,2.5823902E12,-7.052408E8,-7.0256915E8,-6.8171475E8,1.2701911E11,-6.7998886E8,2.8909637E13,-7.05922E8,3.3201033E10,-7.231275E8,-7.4996774E8,8.674766E12],"categories":[],"categories_nodes":[],"categories_segments":[],"categories_sizes":[],"default_left":[0,0,0,0,0,0,0,0,0,0,0,0,0,0,0,0,0],"id":13,"left_children":[1,3,5,7,9,11,-1,-1,-1,13,-1,15,-1,-1,-1,-1,-1],"loss_changes":[8.7479355E24,2.1314997E21,4.380231E26,4.971974E19,8.746067E22,4.5678E27,0E0,0E0,0E0,1.400016E23,0E0,1.0035711E28,0E0,0E0,0E0,0E0,0E0],"parents":[2147483647,0,0,1,1,2,2,3,3,4,4,5,5,9,9,11,11],"right_children":[2,4,6,8,10,12,-1,-1,-1,14,-1,16,-1,-1,-1,-1,-1],"split_conditions":[8.26E1,1.78E0,8.29E1,9E-1,1.33E1,9.6E0,-7.052408E8,-7.0256915E8,-6.8171475E8,3.2E0,-6.7998886E8,1.6E0,-7.05922E8,3.3201033E10,-7.231275E8,-7.4996774E8,8.674766E12],"split_indices":[3,7,3,6,1,1,0,0,0,0,0,0,0,0,0,0,0],"split_type":[0,0,0,0,0,0,0,0,0,0,0,0,0,0,0,0,0],"sum_hessian":[1.2384E4,9.704E3,2.68E3,9.489E3,2.15E2,6.6E1,2.614E3,5.813E3,3.676E3,4E0,2.11E2,5E0,6.1E1,1E0,3E0,4E0,1E0],"tree_param":{"num_deleted":"0","num_feature":"9","num_nodes":"17","size_leaf_vector":"1"}},{"base_weights":[7.087191E9,-6.184239E9,5.5126036E10,-6.2512123E9,-3.213124E9,2.453604E12,-6.3474374E8,-6.348633E8,-6.158038E9,1.2081277E11,-6.123107E8,2.7464345E13,-6.364684E8,-6.194639E8,-5.868447E8,3.154098E10,-6.68893E8,-6.8997037E8,8.2410283E12],"categories":[],"categories_nodes":[],"categories_segments":[],"categories_sizes":[],"default_left":[0,0,0,0,0,0,0,0,0,0,0,0,0,0,0,0,0,0,0],"id":14,"left_children":[1,3,5,7,9,11,-1,-1,13,15,-1,17,-1,-1,-1,-1,-1,-1,-1],"loss_changes":[7.8963254E24,1.9110755E21,3.9530963E26,4.705361E19,7.869701E22,4.1223922E27,0E0,0E0,1.5420325E19,1.2616701E23,0E0,9.057167E27,0E0,0E0,0E0,0E0,0E0,0E0,0E0],"parents":[2147483647,0,0,1,1,2,2,3,3,4,4,5,5,8,8,9,9,11,11],"right_children":[2,4,6,8,10,12,-1,-1,14,16,-1,18,-1,-1,-1,-1,-1,-1,-1],"split_conditions":[8.26E1,1.78E0,8.29E1,7E-1,1.33E1,9.6E0,-6.3474374E8,-6.348633E8,2.623E3,3.2E0,-6.123107E8,1.6E0,-6.364684E8,-6.194639E8,-5.868447E8,3.154098E10,-6.68893E8,-6.8997037E8,8.2410283E12],"split_indices":[3,7,3,7,1,1,0,0,5,0,0,0,0,0,0,0,0,0,0],"split_type":[0,0,0,0,0,0,0,0,0,0,0,0,0,0,0,0,0,0,0],"sum_hessian":[1.2384E4,9.704E3,2.68E3,9.489E3,2.15E2,6.6E1,2.614E3,4.606E3,4.883E3,4E0,2.11E2,5E0,6.1E1,4.317E3,5.66E2,1E0,3E0,4E0,1E0],"tree_param":{"num_deleted":"0","num_feature":"9","num_nodes":"19","size_leaf_vector":"1"}},{"base_weights":[7.046012E9,-5.562887E9,5.268656E10,-5.6262856E9,-2.7517204E9,2.3312238E12,-5.7129363E8,-5.748679E8,-5.560198E9,1.14905915E11,-5.513685E8,2.6091297E13,-5.738481E8,-5.593615E8,-5.3582394E8,2.9963932E10,-6.18726E8,-6.3477274E8,7.828976E12],"categories":[],"categories_nodes":[],"categories_segments":[],"categories_sizes":[],"default_left":[0,0,0,0,0,0,0,0,0,0,0,0,0,0,0,0,0,0,0],"id":15,"left_children":[1,3,5,7,9,11,-1,-1,13,15,-1,17,-1,-1,-1,-1,-1,-1,-1],"loss_changes":[7.1275763E24,1.7141421E21,3.5676173E26,4.4819823E19,7.0826256E22,3.7204184E27,0E0,0E0,1.1817445E19,1.1370371E23,0E0,8.1740386E27,0E0,0E0,0E0,0E0,0E0,0E0,0E0],"parents":[2147483647,0,0,1,1,2,2,3,3,4,4,5,5,8,8,9,9,11,11],"right_children":[2,4,6,8,10,12,-1,-1,14,16,-1,18,-1,-1,-1,-1,-1,-1,-1],"split_conditions":[8.26E1,1.78E0,8.29E1,5E-1,1.33E1,9.6E0,-5.7129363E8,-5.748679E8,1.45E0,3.2E0,-5.513685E8,1.6E0,-5.738481E8,-5.593615E8,-5.3582394E8,2.9963932E10,-6.18726E8,-6.3477274E8,7.828976E12],"split_indices":[3,7,3,6,1,1,0,0,7,0,0,0,0,0,0,0,0,0,0],"split_type":[0,0,0,0,0,0,0,0,0,0,0,0,0,0,0,0,0,0,0],"sum_hessian":[1.2384E4,9.704E3,2.68E3,9.489E3,2.15E2,6.6E1,2.614E3,3.297E3,6.192E3,4E0,2.11E2,5E0,6.1E1,5.29E3,9.02E2,1E0,3E0,4E0,1E0],"tree_param":{"num_deleted":"0","num_feature":"9","num_nodes":"19","size_leaf_vector":"1"}},{"base_weights":[6.975591E9,-5.0038036E9,5.0337415E10,-5.0638326E9,-2.3432433E9,2.2149338E12,-5.1418604E9,-5.162857E8,-4.9968804E9,1.0928437E11,-4.9649168E8,2.4786892E13,-5.173889E8,-5.195105E8,-4.9246384E8,-5.034373E8,-4.8072634E8,2.8465736E10,-5.7232154E8,-5.83991E8,7.437528E12],"categories":[],"categories_nodes":[],"categories_segments":[],"categories_sizes":[],"default_left":[0,0,0,0,0,0,0,0,0,0,0,0,0,0,0,0,0,0,0,0,0],"id":16,"left_children":[1,3,5,7,9,11,13,-1,15,17,-1,19,-1,-1,-1,-1,-1,-1,-1,-1,-1],"loss_changes":[6.43362E24,1.5381414E21,3.2197334E26,3.714569E19,6.375524E22,3.3576448E27,4.665729E18,0E0,1.6267002E19,1.0247527E23,0E0,7.3770236E27,0E0,0E0,0E0,0E0,0E0,0E0,0E0,0E0,0E0],"parents":[2147483647,0,0,1,1,2,2,3,3,4,4,5,5,6,6,8,8,9,9,11,11],"right_children":[2,4,6,8,10,12,14,-1,16,18,-1,20,-1,-1,-1,-1,-1,-1,-1,-1,-1],"split_conditions":[8.26E1,1.78E0,8.29E1,6E-1,1.33E1,9.6E0,2E-1,-5.162857E8,2.534E3,3.2E0,-4.9649168E8,1.6E0,-5.173889E8,-5.195105E8,-4.9246384E8,-5.034373E8,-4.8072634E8,2.8465736E10,-5.7232154E8,-5.83991E8,7.437528E12],"split_indices":[3,7,3,6,1,1,6,0,5,0,0,0,0,0,0,0,0,0,0,0,0],"split_type":[0,0,0,0,0,0,0,0,0,0,0,0,0,0,0,0,0,0,0,0,0],"sum_hessian":[1.2384E4,9.704E3,2.68E3,9.489E3,2.15E2,6.6E1,2.614E3,3.797E3,5.692E3,4E0,2.11E2,5E0,6.1E1,2.081E3,5.33E2,4.731E3,9.61E2,1E0,3E0,4E0,1E0],"tree_param":{"num_deleted":"0","num_feature":"9","num_nodes":"21","size_leaf_vector":"1"}},{"base_weights":[6.8804797E9,-4.500755E9,4.807705E10,-4.5576074E9,-1.9820815E9,2.104432E12,-4.6280617E9,-4.5864684E9,-4.349466E9,1.0393461E11,-4.470767E8,2.3547695E13,-4.6648448E8,-4.6985648E8,-4.492388E8,-4.6684067E8,-4.543916E9,-4.3902198E8,-3.8093824E8,2.7042447E10,-5.293974E8,-5.372717E8,7.0656516E12,-4.5760163E8,-4.425535E8],"categories":[],"categories_nodes":[],"categories_segments":[],"categories_sizes":[],"default_left":[0,0,0,0,0,0,0,0,0,0,0,0,0,0,0,0,0,0,0,0,0,0,0,0,0],"id":17,"left_children":[1,3,5,7,9,11,13,15,17,19,-1,21,-1,-1,-1,-1,23,-1,-1,-1,-1,-1,-1,-1,-1],"loss_changes":[5.8071446E24,1.3806595E21,2.9057761E26,3.707363E19,5.7400836E22,3.0302466E27,3.904621E18,7.78222E18,9.1400554E18,9.235888E22,0E0,6.657722E27,0E0,0E0,0E0,0E0,6.8454714E17,0E0,0E0,0E0,0E0,0E0,0E0,0E0,0E0],"parents":[2147483647,0,0,1,1,2,2,3,3,4,4,5,5,6,6,7,7,8,8,9,9,11,11,16,16],"right_children":[2,4,6,8,10,12,14,16,18,20,-1,22,-1,-1,-1,-1,24,-1,-1,-1,-1,-1,-1,-1,-1],"split_conditions":[8.26E1,1.78E0,8.29E1,1.39E0,1.33E1,9.6E0,1E-1,4E-1,2.755E3,3.2E0,-4.470767E8,1.6E0,-4.6648448E8,-4.6985648E8,-4.492388E8,-4.6684067E8,2.44E3,-4.3902198E8,-3.8093824E8,2.7042447E10,-5.293974E8,-5.372717E8,7.0656516E12,-4.5760163E8,-4.425535E8],"split_indices":[3,7,3,7,1,1,6,6,5,0,0,0,0,0,0,0,5,0,0,0,0,0,0,0,0],"split_type":[0,0,0,0,0,0,0,0,0,0,0,0,0,0,0,0,0,0,0,0,0,0,0,0,0],"sum_hessian":[1.2384E4,9.704E3,2.68E3,9.489E3,2.15E2,6.6E1,2.614E3,8.315E3,1.174E3,4E0,2.11E2,5E0,6.1E1,1.698E3,9.16E2,2.805E3,5.51E3,1.085E3,8.9E1,1E0,3E0,4E0,1E0,4.305E3,1.205E3],"tree_param":{"num_deleted":"0","num_feature":"9","num_nodes":"25","size_leaf_vector":"1"}},{"base_weights":[6.764705E9,-4.048219E9,4.5904077E10,-4.1020772E9,-1.6631974E9,1.9994313E12,-4.165607E9,-4.1418744E9,-3.9775107E9,9.884376E10,-4.0257994E8,2.2370444E13,-4.205884E8,-4.210006E8,-3.9846998E8,-4.1783142E8,-4.076402E8,-4.0085494E9,-3.5857085E8,2.5690325E10,-4.8969258E8,-4.9428992E8,6.7123686E12,-3.892177E8,-4.0785277E8],"categories":[],"categories_nodes":[],"categories_segments":[],"categories_sizes":[],"default_left":[0,0,0,0,0,0,0,0,0,0,0,0,0,0,0,0,0,0,0,0,0,0,0,0,0],"id":18,"left_children":[1,3,5,7,9,11,13,15,17,19,-1,21,-1,-1,-1,-1,-1,23,-1,-1,-1,-1,-1,-1,-1],"loss_changes":[5.241655E24,1.239823E21,2.6224364E26,3.0570434E19,5.1688835E22,2.7347738E27,4.22888E18,7.2057594E16,1.387559E19,8.324403E22,0E0,6.0085585E27,0E0,0E0,0E0,0E0,0E0,1.5852671E18,0E0,0E0,0E0,0E0,0E0,0E0,0E0],"parents":[2147483647,0,0,1,1,2,2,3,3,4,4,5,5,6,6,7,7,8,8,9,9,11,11,17,17],"right_children":[2,4,6,8,10,12,14,16,18,20,-1,22,-1,-1,-1,-1,-1,24,-1,-1,-1,-1,-1,-1,-1],"split_conditions":[8.26E1,1.78E0,8.29E1,1.14E0,1.33E1,9.6E0,2E-1,2.278E3,2.755E3,3.2E0,-4.0257994E8,1.6E0,-4.205884E8,-4.210006E8,-3.9846998E8,-4.1783142E8,-4.076402E8,9.9E0,-3.5857085E8,2.5690325E10,-4.8969258E8,-4.9428992E8,6.7123686E12,-3.892177E8,-4.0785277E8],"split_indices":[3,7,3,7,1,1,6,5,5,0,0,0,0,0,0,0,0,4,0,0,0,0,0,0,0],"split_type":[0,0,0,0,0,0,0,0,0,0,0,0,0,0,0,0,0,0,0,0,0,0,0,0,0],"sum_hessian":[1.2384E4,9.704E3,2.68E3,9.489E3,2.15E2,6.6E1,2.614E3,7.167E3,2.322E3,4E0,2.11E2,5E0,6.1E1,2.081E3,5.33E2,4.564E3,2.603E3,2.143E3,1.79E2,1E0,3E0,4E0,1E0,8.26E2,1.317E3],"tree_param":{"num_deleted":"0","num_feature":"9","num_nodes":"25","size_leaf_vector":"1"}},{"base_weights":[6.6319124E9,-3.641046E9,4.3816706E10,-3.6920783E9,-1.3820718E9,1.8996591E12,-3.7493596E9,-3.7614432E8,-3.628851E9,9.399951E10,-3.6251182E9,2.1252046E13,-3.7920794E8,-3.808232E8,-3.6361936E8,-3.660003E8,-3.4587363E8,2.440581E10,-4.5296563E8,-3.6996464E8,-2.9196624E8,-4.5474672E8,6.376751E12],"categories":[],"categories_nodes":[],"categories_segments":[],"categories_sizes":[],"default_left":[0,0,0,0,0,0,0,0,0,0,0,0,0,0,0,0,0,0,0,0,0,0,0],"id":19,"left_children":[1,3,5,7,9,11,13,-1,15,17,19,21,-1,-1,-1,-1,-1,-1,-1,-1,-1,-1,-1],"loss_changes":[4.731203E24,1.11368614E21,2.3667272E26,2.797636E19,4.655295E22,2.4681143E27,3.5713545E18,0E0,1.3799029E19,7.5031235E22,3.442439E17,5.422692E27,0E0,0E0,0E0,0E0,0E0,0E0,0E0,0E0,0E0,0E0,0E0],"parents":[2147483647,0,0,1,1,2,2,3,3,4,4,5,5,6,6,8,8,9,9,10,10,11,11],"right_children":[2,4,6,8,10,12,14,-1,16,18,20,22,-1,-1,-1,-1,-1,-1,-1,-1,-1,-1,-1],"split_conditions":[8.26E1,1.78E0,8.29E1,6.8E-1,1.33E1,9.6E0,1E-1,-3.7614432E8,2.534E3,3.2E0,2.667E3,1.6E0,-3.7920794E8,-3.808232E8,-3.6361936E8,-3.660003E8,-3.4587363E8,2.440581E10,-4.5296563E8,-3.6996464E8,-2.9196624E8,-4.5474672E8,6.376751E12],"split_indices":[3,7,3,7,1,1,6,0,5,0,5,0,0,0,0,0,0,0,0,0,0,0,0],"split_type":[0,0,0,0,0,0,0,0,0,0,0,0,0,0,0,0,0,0,0,0,0,0,0],"sum_hessian":[1.2384E4,9.704E3,2.68E3,9.489E3,2.15E2,6.6E1,2.614E3,4.497E3,4.992E3,4E0,2.11E2,5E0,6.1E1,1.698E3,9.16E2,4.202E3,7.9E2,1E0,3E0,1.87E2,2.4E1,4E0,1E0],"tree_param":{"num_deleted":"0","num_feature":"9","num_nodes":"23","size_leaf_vector":"1"}},{"base_weights":[6.4852634E9,-3.2746534E9,4.1812943E10,-3.322985E9,-1.1360364E9,1.8048562E12,-3.3747082E9,-3.3462769E9,-3.1553103E9,8.939013E10,-3.265729E8,2.0189557E13,-3.4189878E8,-3.4048637E8,-3.1883885E8,-3.4128656E8,-3.3117652E9,-3.1871498E8,-2.7360598E8,2.318552E10,-4.1899325E8,-4.18367E8,6.057913E12,-3.3274387E8,-3.166392E8],"categories":[],"categories_nodes":[],"categories_segments":[],"categories_sizes":[],"default_left":[0,0,0,0,0,0,0,0,0,0,0,0,0,0,0,0,0,0,0,0,0,0,0,0,0],"id":20,"left_children":[1,3,5,7,9,11,13,15,17,19,-1,21,-1,-1,-1,-1,23,-1,-1,-1,-1,-1,-1,-1,-1],"loss_changes":[4.2704262E24,9.993668E20,2.1359542E26,2.649918E19,4.193519E22,2.2274572E27,3.8393187E18,7.8002346E18,6.963691E18,6.7630902E22,0E0,4.8939525E27,0E0,0E0,0E0,0E0,2.0266198E18,0E0,0E0,0E0,0E0,0E0,0E0,0E0,0E0],"parents":[2147483647,0,0,1,1,2,2,3,3,4,4,5,5,6,6,7,7,8,8,9,9,11,11,16,16],"right_children":[2,4,6,8,10,12,14,16,18,20,-1,22,-1,-1,-1,-1,24,-1,-1,-1,-1,-1,-1,-1,-1],"split_conditions":[8.26E1,1.78E0,8.29E1,1.39E0,1.33E1,9.6E0,3E-1,4E-1,2.755E3,3.2E0,-3.265729E8,1.6E0,-3.4189878E8,-3.4048637E8,-3.1883885E8,-3.4128656E8,2.667E3,-3.1871498E8,-2.7360598E8,2.318552E10,-4.1899325E8,-4.18367E8,6.057913E12,-3.3274387E8,-3.166392E8],"split_indices":[3,7,3,7,1,1,6,6,5,0,0,0,0,0,0,0,5,0,0,0,0,0,0,0,0],"split_type":[0,0,0,0,0,0,0,0,0,0,0,0,0,0,0,0,0,0,0,0,0,0,0,0,0],"sum_hessian":[1.2384E4,9.704E3,2.68E3,9.489E3,2.15E2,6.6E1,2.614E3,8.315E3,1.174E3,4E0,2.11E2,5E0,6.1E1,2.235E3,3.79E2,2.805E3,5.51E3,1.085E3,8.9E1,1E0,3E0,4E0,1E0,4.954E3,5.56E2],"tree_param":{"num_deleted":"0","num_feature":"9","num_nodes":"25","size_leaf_vector":"1"}},{"base_weights":[6.3274394E9,-2.945039E9,3.989069E10,-2.9908534E9,-9.185441E8,1.7147758E12,-3.0374897E9,-3.0237204E9,-2.8901614E9,8.500442E10,-2.9406963E9,1.9180183E13,-3.0826035E8,-3.1004656E8,-2.9525088E8,-3.083903E9,-2.9891274E8,-2.9218877E8,-2.697876E9,2.2026244E10,-3.8756874E8,-3.006814E8,-2.3258645E8,-3.8489763E8,5.755017E12,-3.0978506E8,-2.8362992E8,-2.764456E8,-2.4051822E8],"categories":[],"categories_nodes":[],"categories_segments":[],"categories_sizes":[],"default_left":[0,0,0,0,0,0,0,0,0,0,0,0,0,0,0,0,0,0,0,0,0,0,0,0,0,0,0,0,0],"id":21,"left_children":[1,3,5,7,9,11,13,15,17,19,21,23,-1,-1,-1,25,-1,-1,27,-1,-1,-1,-1,-1,-1,-1,-1,-1,-1],"loss_changes":[3.8545094E24,8.98279E20,1.927685E26,2.267112E19,3.777983E22,2.0102665E27,4.8413696E18,5.6294995E18,6.500946E18,6.096241E22,1.6246736E18,4.416768E27,0E0,0E0,0E0,9.457559E16,0E0,0E0,1.1315294E17,0E0,0E0,0E0,0E0,0E0,0E0,0E0,0E0,0E0,0E0],"parents":[2147483647,0,0,1,1,2,2,3,3,4,4,5,5,6,6,7,7,8,8,9,9,10,10,11,11,15,15,18,18],"right_children":[2,4,6,8,10,12,14,16,18,20,22,24,-1,-1,-1,26,-1,-1,28,-1,-1,-1,-1,-1,-1,-1,-1,-1,-1],"split_conditions":[8.26E1,1.78E0,8.29E1,1E0,1.33E1,9.6E0,1.8E-1,1.31E1,2.623E3,3.2E0,2.667E3,1.6E0,-3.0826035E8,-3.1004656E8,-2.9525088E8,9.1E-1,-2.9891274E8,-2.9218877E8,1.46E0,2.2026244E10,-3.8756874E8,-3.006814E8,-2.3258645E8,-3.8489763E8,5.755017E12,-3.0978506E8,-2.8362992E8,-2.764456E8,-2.4051822E8],"split_indices":[3,7,3,6,1,1,7,8,5,0,5,0,0,0,0,7,0,0,7,0,0,0,0,0,0,0,0,0,0],"split_type":[0,0,0,0,0,0,0,0,0,0,0,0,0,0,0,0,0,0,0,0,0,0,0,0,0,0,0,0,0],"sum_hessian":[1.2384E4,9.704E3,2.68E3,9.489E3,2.15E2,6.6E1,2.614E3,7.132E3,2.357E3,4E0,2.11E2,5E0,6.1E1,1.481E3,1.133E3,2.571E3,4.561E3,2.011E3,3.46E2,1E0,3E0,1.87E2,2.4E1,4E0,1E0,2.423E3,1.48E2,2.75E2,7.1E1],"tree_param":{"num_deleted":"0","num_feature":"9","num_nodes":"29","size_leaf_vector":"1"}},{"base_weights":[6.1608335E9,-2.6485358E9,3.8047728E10,-2.6919473E9,-7.289795E8,1.6291835E12,-2.733972E9,-2.7101202E9,-2.5322824E9,8.083171E10,-2.6491423E9,1.8221269E13,-2.779315E8,-2.766813E8,-2.6008094E8,-2.7365128E9,-2.640309E8,-2.4067075E9,-2.635115E8,2.092493E10,-3.585011E8,-2.7077322E8,-2.1025814E8,-3.5410582E8,5.4672664E12,-2.8035494E8,-2.7139333E9,-2.4689731E8,-2.0933656E8,-2.6605051E8,-2.7489062E8],"categories":[],"categories_nodes":[],"categories_segments":[],"categories_sizes":[],"default_left":[0,0,0,0,0,0,0,0,0,0,0,0,0,0,0,0,0,0,0,0,0,0,0,0,0,0,0,0,0,0,0],"id":22,"left_children":[1,3,5,7,9,11,13,15,17,19,21,23,-1,-1,-1,25,-1,27,-1,-1,-1,-1,-1,-1,-1,-1,29,-1,-1,-1,-1],"loss_changes":[3.47909E24,8.067568E20,1.7397246E26,2.0676026E19,3.4041852E22,1.8142544E27,4.2423908E18,8.4442493E18,6.377097E18,5.495312E22,1.09564135E18,3.9861118E27,0E0,0E0,0E0,1.697857E18,0E0,3.7089958E18,0E0,0E0,0E0,0E0,0E0,0E0,0E0,0E0,1.3330655E18,0E0,0E0,0E0,0E0],"parents":[2147483647,0,0,1,1,2,2,3,3,4,4,5,5,6,6,7,7,8,8,9,9,10,10,11,11,15,15,17,17,26,26],"right_children":[2,4,6,8,10,12,14,16,18,20,22,24,-1,-1,-1,26,-1,28,-1,-1,-1,-1,-1,-1,-1,-1,30,-1,-1,-1,-1],"split_conditions":[8.26E1,1.78E0,8.29E1,1.43E0,1.33E1,9.6E0,2E-1,2.359E3,9.7E0,3.2E0,2.667E3,1.6E0,-2.779315E8,-2.766813E8,-2.6008094E8,2E-1,-2.640309E8,2.534E3,-2.635115E8,2.092493E10,-3.585011E8,-2.7077322E8,-2.1025814E8,-3.5410582E8,5.4672664E12,-2.8035494E8,2.7E0,-2.4689731E8,-2.0933656E8,-2.6605051E8,-2.7489062E8],"split_indices":[3,7,3,7,1,1,6,5,2,0,5,0,0,0,0,6,0,5,0,0,0,0,0,0,0,0,0,0,0,0,0],"split_type":[0,0,0,0,0,0,0,0,0,0,0,0,0,0,0,0,0,0,0,0,0,0,0,0,0,0,0,0,0,0,0],"sum_hessian":[1.2384E4,9.704E3,2.68E3,9.489E3,2.15E2,6.6E1,2.614E3,8.505E3,9.84E2,4E0,2.11E2,5E0,6.1E1,2.081E3,5.33E2,6.144E3,2.361E3,4.54E2,5.3E2,1E0,3E0,1.87E2,2.4E1,4E0,1E0,1.517E3,4.627E3,3.73E2,8.1E1,1.861E3,2.766E3],"tree_param":{"num_deleted":"0","num_feature":"9","num_nodes":"31","size_leaf_vector":"1"}},{"base_weights":[5.987575E9,-2.3817984E9,3.6281786E10,-2.4229427E9,-5.630935E8,1.5478569E12,-2.4607803E9,-2.48217E9,-2.38177E9,7.6861825E10,-2.3864968E9,1.7310295E13,-2.5058662E8,-2.5023053E8,-2.3620395E8,-2.5245893E8,-2.428565E8,-2.3995615E9,-2.2379825E9,1.9878685E10,-3.3161354E8,-2.438399E8,-1.9007334E8,-3.2577738E8,5.193903E12,-2.4105756E9,-2.2206053E8,-2.1134449E9,-2.324553E8,-2.3209004E9,-2.4291494E8,-2.2037822E8,-1.8431712E8,-2.2132736E8,-2.4563946E8],"categories":[],"categories_nodes":[],"categories_segments":[],"categories_sizes":[],"default_left":[0,0,0,0,0,0,0,0,0,0,0,0,0,0,0,0,0,0,0,0,0,0,0,0,0,0,0,0,0,0,0,0,0,0,0],"id":23,"left_children":[1,3,5,7,9,11,13,15,17,19,21,23,-1,-1,-1,-1,-1,25,27,-1,-1,-1,-1,-1,-1,29,-1,31,-1,33,-1,-1,-1,-1,-1],"loss_changes":[3.1402233E24,7.2484535E20,1.5700933E26,1.7235276E19,3.0677631E22,1.6373557E27,4.812096E18,2.6638792E18,9.0162065E18,4.9537704E22,7.101614E17,3.597448E27,0E0,0E0,0E0,0E0,0E0,4.4810816E18,1.9224741E18,0E0,0E0,0E0,0E0,0E0,0E0,2.170735E18,0E0,2.554667E18,0E0,6.6233877E18,0E0,0E0,0E0,0E0,0E0],"parents":[2147483647,0,0,1,1,2,2,3,3,4,4,5,5,6,6,7,7,8,8,9,9,10,10,11,11,17,17,18,18,25,25,27,27,29,29],"right_children":[2,4,6,8,10,12,14,16,18,20,22,24,-1,-1,-1,-1,-1,26,28,-1,-1,-1,-1,-1,-1,30,-1,32,-1,34,-1,-1,-1,-1,-1],"split_conditions":[8.26E1,1.78E0,8.29E1,5.8E-1,1.33E1,9.6E0,2.5E-1,1.31E1,2.623E3,3.2E0,2.667E3,1.6E0,-2.5058662E8,-2.5023053E8,-2.3620395E8,-2.5245893E8,-2.428565E8,1.63E0,1.44E1,1.9878685E10,-3.3161354E8,-2.438399E8,-1.9007334E8,-3.2577738E8,5.193903E12,2.2E0,-2.2206053E8,1.18E0,-2.324553E8,2.12E1,-2.4291494E8,-2.2037822E8,-1.8431712E8,-2.2132736E8,-2.4563946E8],"split_indices":[3,7,3,7,1,1,7,1,5,0,5,0,0,0,0,0,0,7,1,0,0,0,0,0,0,0,0,7,0,1,0,0,0,0,0],"split_type":[0,0,0,0,0,0,0,0,0,0,0,0,0,0,0,0,0,0,0,0,0,0,0,0,0,0,0,0,0,0,0,0,0,0,0],"sum_hessian":[1.2384E4,9.704E3,2.68E3,9.489E3,2.15E2,6.6E1,2.614E3,3.867E3,5.622E3,4E0,2.11E2,5E0,6.1E1,1.823E3,7.91E2,2.133E3,1.734E3,4.989E3,6.33E2,1E0,3E0,1.87E2,2.4E1,4E0,1E0,4.688E3,3.01E2,2.7E2,3.63E2,8.26E2,3.862E3,1.97E2,7.3E1,4.7E2,3.56E2],"tree_param":{"num_deleted":"0","num_feature":"9","num_nodes":"35","size_leaf_vector":"1"}},{"base_weights":[5.809478E9,-2.1418619E9,3.459051E10,-2.180866E9,-4.1829734E8,1.4705834E12,-2.2148882E9,-2.1948838E9,-2.0337098E9,7.308506E10,-2.149894E9,1.6444861E13,-2.2593214E8,-2.2580266E8,-2.132547E8,-2.2180344E9,-2.1340726E9,-1.951371E9,-2.1820611E8,1.888475E10,-3.067425E8,-2.0711237E8,-2.5282542E8,-2.9971517E8,4.934208E12,-2.2578706E9,-2.1898458E9,-2.0109755E9,-2.1518733E8,-1.9972763E8,-1.7382357E8,-2.3145229E8,-2.2169104E8,-2.1138808E8,-2.2121646E8,-2.101819E8,-1.8049453E8],"categories":[],"categories_nodes":[],"categories_segments":[],"categories_sizes":[],"default_left":[0,0,0,0,0,0,0,0,0,0,0,0,0,0,0,0,0,0,0,0,0,0,0,0,0,0,0,0,0,0,0,0,0,0,0,0,0],"id":24,"left_children":[1,3,5,7,9,11,13,15,17,19,21,23,-1,-1,-1,25,27,29,-1,-1,-1,-1,-1,-1,-1,31,33,35,-1,-1,-1,-1,-1,-1,-1,-1,-1],"loss_changes":[2.8343538E24,6.5151774E20,1.4170026E26,1.5109577E19,2.7649204E22,1.477706E27,4.4743262E18,7.44445E18,5.9903505E18,4.465726E22,1.0820602E18,3.24668E27,0E0,0E0,0E0,2.0626486E18,9.581408E17,1.8998154E18,0E0,0E0,0E0,0E0,0E0,0E0,0E0,7.948853E17,1.5773858E18,2.1956456E18,0E0,0E0,0E0,0E0,0E0,0E0,0E0,0E0,0E0],"parents":[2147483647,0,0,1,1,2,2,3,3,4,4,5,5,6,6,7,7,8,8,9,9,10,10,11,11,15,15,16,16,17,17,25,25,26,26,27,27],"right_children":[2,4,6,8,10,12,14,16,18,20,22,24,-1,-1,-1,26,28,30,-1,-1,-1,-1,-1,-1,-1,32,34,36,-1,-1,-1,-1,-1,-1,-1,-1,-1],"split_conditions":[8.26E1,1.78E0,8.29E1,1.47E0,1.33E1,9.6E0,1E-1,2.359E3,1.64E1,3.2E0,1.87E1,1.6E0,-2.2593214E8,-2.2580266E8,-2.132547E8,5E-1,-7.4E0,2.534E3,-2.1820611E8,1.888475E10,-3.067425E8,-2.0711237E8,-2.5282542E8,-2.9971517E8,4.934208E12,1.14E1,2.2E0,9.7E-1,-2.1518733E8,-1.9972763E8,-1.7382357E8,-2.3145229E8,-2.2169104E8,-2.1138808E8,-2.2121646E8,-2.101819E8,-1.8049453E8],"split_indices":[3,7,3,7,1,1,6,5,2,0,4,0,0,0,0,6,2,5,0,0,0,0,0,0,0,1,0,7,0,0,0,0,0,0,0,0,0],"split_type":[0,0,0,0,0,0,0,0,0,0,0,0,0,0,0,0,0,0,0,0,0,0,0,0,0,0,0,0,0,0,0,0,0,0,0,0,0],"sum_hessian":[1.2384E4,9.704E3,2.68E3,9.489E3,2.15E2,6.6E1,2.614E3,8.651E3,8.38E2,4E0,2.11E2,5E0,6.1E1,1.698E3,9.16E2,6.24E3,2.411E3,5.48E2,2.9E2,1E0,3E0,1.8E2,3.1E1,4E0,1E0,2.553E3,3.687E3,3.19E2,2.092E3,4.44E2,1.04E2,1.048E3,1.505E3,8.59E2,2.828E3,2.15E2,1.04E2],"tree_param":{"num_deleted":"0","num_feature":"9","num_nodes":"37","size_leaf_vector":"1"}},{"base_weights":[5.6281487E9,-1.9260236E9,3.2971534E10,-1.9629989E9,-2.9258746E8,1.3971621E12,-1.9935672E9,-1.9869521E9,-1.8897074E9,6.9492154E10,-1.9370739E9,1.5622693E13,-2.0370334E8,-2.040675E8,-1.9245083E9,-2.0329613E9,-1.960577E9,-1.7095275E8,-1.917466E9,1.7940513E10,-2.8373683E8,-1.996327E9,-1.5919384E8,-2.75738E8,4.687497E12,-1.944707E8,-1.7366464E8,-2.0441518E8,-1.8372648E8,-1.9802021E8,-1.9086544E8,-1.9455948E9,-1.7820932E9,-7.97553E7,-2.0054699E8,-1.8075832E8,-1.9739285E8,-1.6952068E9,-1.9841163E8,-1.5554194E8,-1.7858121E9,-1.8492483E8,-1.4097054E8],"categories":[],"categories_nodes":[],"categories_segments":[],"categories_sizes":[],"default_left":[0,0,0,0,0,0,0,0,0,0,0,0,0,0,0,0,0,0,0,0,0,0,0,0,0,0,0,0,0,0,0,0,0,0,0,0,0,0,0,0,0,0,0],"id":25,"left_children":[1,3,5,7,9,11,13,15,17,19,21,23,-1,-1,25,27,29,-1,31,-1,-1,33,-1,-1,-1,-1,-1,-1,-1,-1,-1,35,37,-1,-1,-1,-1,39,-1,-1,41,-1,-1],"loss_changes":[2.5582674E24,5.855783E20,1.2788396E26,1.2905065E19,2.4922785E22,1.3336233E27,4.579035E18,4.670233E18,8.514618E18,4.0258803E22,1.1574955E18,2.9301148E27,0E0,0E0,7.132576E17,1.8768751E18,8.691947E17,0E0,4.2817973E18,0E0,0E0,3.40444E17,0E0,0E0,0E0,0E0,0E0,0E0,0E0,0E0,0E0,2.9774423E18,2.9906716E18,0E0,0E0,0E0,0E0,5.1538068E17,0E0,0E0,9.957529E17,0E0,0E0],"parents":[2147483647,0,0,1,1,2,2,3,3,4,4,5,5,6,6,7,7,8,8,9,9,10,10,11,11,14,14,15,15,16,16,18,18,21,21,31,31,32,32,37,37,40,40],"right_children":[2,4,6,8,10,12,14,16,18,20,22,24,-1,-1,26,28,30,-1,32,-1,-1,34,-1,-1,-1,-1,-1,-1,-1,-1,-1,36,38,-1,-1,-1,-1,40,-1,-1,42,-1,-1],"split_conditions":[8.26E1,1.78E0,8.29E1,1E0,1.33E1,9.6E0,1.9E-1,1.31E1,7.3E0,3.2E0,2.586E3,1.6E0,-2.0370334E8,-2.040675E8,6E-1,9.1E-1,2.355E3,-1.7095275E8,1.54E0,1.7940513E10,-2.8373683E8,-5.7E0,-1.5919384E8,-2.75738E8,4.687497E12,-1.944707E8,-1.7366464E8,-2.0441518E8,-1.8372648E8,-1.9802021E8,-1.9086544E8,2.1E0,2.35E1,-7.97553E7,-2.0054699E8,-1.8075832E8,-1.9739285E8,3.4E0,-1.9841163E8,-1.5554194E8,2.573E3,-1.8492483E8,-1.4097054E8],"split_indices":[3,7,3,6,1,1,7,8,1,0,5,0,0,0,6,7,5,0,7,0,0,2,0,0,0,0,0,0,0,0,0,0,1,0,0,0,0,0,0,0,5,0,0],"split_type":[0,0,0,0,0,0,0,0,0,0,0,0,0,0,0,0,0,0,0,0,0,0,0,0,0,0,0,0,0,0,0,0,0,0,0,0,0,0,0,0,0,0,0],"sum_hessian":[1.2384E4,9.704E3,2.68E3,9.489E3,2.15E2,6.6E1,2.614E3,7.132E3,2.357E3,4E0,2.11E2,5E0,6.1E1,1.537E3,1.077E3,2.571E3,4.561E3,3.23E2,2.034E3,1E0,3E0,1.76E2,3.5E1,4E0,1E0,9.64E2,1.13E2,2.423E3,1.48E2,3.283E3,1.278E3,1.673E3,3.61E2,2E0,1.74E2,2.96E2,1.377E3,2.59E2,1.02E2,1.09E2,1.5E2,1.25E2,2.5E1],"tree_param":{"num_deleted":"0","num_feature":"9","num_nodes":"43","size_leaf_vector":"1"}},{"base_weights":[5.444958E9,-1.7318538E9,3.1422398E10,-1.7669103E9,-1.8361886E8,1.3274013E12,-1.7944293E9,-1.7813692E9,-1.6630753E9,6.6074305E10,-1.7454396E9,1.4841625E13,-1.8366155E8,-1.7216957E8,-1.8342865E9,-1.8398686E8,-1.7636755E9,-1.5450271E9,-1.7238559E9,1.7043489E10,-2.6245656E8,-1.6745906E9,-2.0916342E8,-2.5367893E8,4.453122E12,-1.8889496E8,-1.7834187E8,-1.7802753E9,-1.7045805E9,-1.5944054E9,-1.2999437E8,-1.7702982E9,-1.6377038E8,-1.7207928E8,-1.3473344E8,-1.7363442E9,-1.8053256E8,-1.5782944E9,-1.7271166E8,-1.784047E9,-1.498005E8,-1.4548512E8,-1.7960926E8,-1.6950698E9,-1.779306E8,-1.6153502E8,-1.2282705E8,-1.153433E8,-1.8229618E9,-1.754802E8,-1.5878943E9,-1.8390921E9,-6.883849E7,-1.1193038E8,-1.6011019E8,-4.3103348E7,-1.8491646E8],"categories":[],"categories_nodes":[],"categories_segments":[],"categories_sizes":[],"default_left":[0,0,0,0,0,0,0,0,0,0,0,0,0,0,0,0,0,0,0,0,0,0,0,0,0,0,0,0,0,0,0,0,0,0,0,0,0,0,0,0,0,0,0,0,0,0,0,0,0,0,0,0,0,0,0,0,0],"id":26,"left_children":[1,3,5,7,9,11,13,15,17,19,21,23,-1,-1,25,-1,27,29,31,-1,-1,33,-1,-1,-1,-1,-1,35,37,39,-1,41,-1,-1,-1,43,-1,45,-1,47,-1,-1,-1,49,-1,-1,-1,-1,51,-1,53,55,-1,-1,-1,-1,-1],"loss_changes":[2.3090543E24,5.2642126E20,1.1541489E26,1.1286021E19,2.2467657E22,1.2035896E27,4.4225348E18,5.363787E18,5.7668593E18,3.6294586E22,1.6972237E18,2.6444157E27,0E0,0E0,1.2857777E18,0E0,3.251599E18,2.8770965E18,1.6972941E17,0E0,0E0,4.1820145E17,0E0,0E0,0E0,0E0,0E0,2.3475013E18,1.3415097E18,3.4700235E18,0E0,1.341369E18,0E0,0E0,0E0,2.3812783E17,0E0,9.7312936E17,0E0,5.4767994E17,0E0,0E0,0E0,3.339982E18,0E0,0E0,0E0,0E0,5.6411104E17,0E0,3.9251686E17,5.928567E17,0E0,0E0,0E0,0E0,0E0],"parents":[2147483647,0,0,1,1,2,2,3,3,4,4,5,5,6,6,7,7,8,8,9,9,10,10,11,11,14,14,16,16,17,17,18,18,21,21,27,27,28,28,29,29,31,31,35,35,37,37,39,39,43,43,48,48,50,50,51,51],"right_children":[2,4,6,8,10,12,14,16,18,20,22,24,-1,-1,26,-1,28,30,32,-1,-1,34,-1,-1,-1,-1,-1,36,38,40,-1,42,-1,-1,-1,44,-1,46,-1,48,-1,-1,-1,50,-1,-1,-1,-1,52,-1,54,56,-1,-1,-1,-1,-1],"split_conditions":[8.26E1,1.78E0,8.29E1,1.39E0,1.33E1,9.6E0,8.82E1,2E-1,3.01E1,3.2E0,1.87E1,1.6E0,-1.8366155E8,-1.7216957E8,1.1E-1,-1.8398686E8,2.428E3,2.525E3,2.351E3,1.7043489E10,-2.6245656E8,2.634E3,-2.0916342E8,-2.5367893E8,4.453122E12,-1.8889496E8,-1.7834187E8,2.6E0,-7.4E0,5.8E0,-1.2999437E8,4.9E0,-1.6377038E8,-1.7207928E8,-1.3473344E8,1.65E1,-1.8053256E8,1.18E0,-1.7271166E8,3.4E0,-1.498005E8,-1.4548512E8,-1.7960926E8,6.8E-1,-1.779306E8,-1.6153502E8,-1.2282705E8,-1.153433E8,1.77E1,-1.754802E8,1.1E0,1.686E3,-6.883849E7,-1.1193038E8,-1.6011019E8,-4.3103348E7,-1.8491646E8],"split_indices":[3,7,3,7,1,1,3,6,8,0,4,0,0,0,7,0,5,5,5,0,0,5,0,0,0,0,0,0,2,4,0,2,0,0,0,1,0,7,0,4,0,0,0,7,0,0,0,0,1,0,0,5,0,0,0,0,0],"split_type":[0,0,0,0,0,0,0,0,0,0,0,0,0,0,0,0,0,0,0,0,0,0,0,0,0,0,0,0,0,0,0,0,0,0,0,0,0,0,0,0,0,0,0,0,0,0,0,0,0,0,0,0,0,0,0,0,0],"sum_hessian":[1.2384E4,9.704E3,2.68E3,9.489E3,2.15E2,6.6E1,2.614E3,8.315E3,1.174E3,4E0,2.11E2,5E0,6.1E1,9.41E2,1.673E3,1.907E3,6.408E3,4.08E2,7.66E2,1E0,3E0,1.8E2,3.1E1,4E0,1E0,7.89E2,8.84E2,4.98E3,1.428E3,3.35E2,7.3E1,4.85E2,2.81E2,1.54E2,2.6E1,1.834E3,3.146E3,2.27E2,1.201E3,1.07E2,2.28E2,4.1E1,4.44E2,9.56E2,8.78E2,2.02E2,2.5E1,8E0,9.9E1,6.04E2,3.52E2,9.7E1,2E0,1.2E1,3.4E2,1E0,9.6E1],"tree_param":{"num_deleted":"0","num_feature":"9","num_nodes":"57","size_leaf_vector":"1"}},{"base_weights":[5.261042E9,-1.5572632E9,2.9940785E10,-1.5904963E9,-8.995573E7,1.2611191E12,-1.6151927E9,-1.6335352E9,-1.5614028E9,6.282308E10,-1.5733294E9,1.4099607E13,-1.6559163E8,-1.6388366E9,-1.5074337E9,-1.6675401E9,-1.5904736E9,-1.5322857E9,-1.6136339E9,1.6191315E10,-2.4277234E8,-1.5088265E9,-1.889007E8,-2.3338462E8,4.2304657E12,-1.6761342E8,-1.5941643E8,-1.5495474E8,-1.355827E8,-1.6760376E8,-1.5243205E8,-1.652534E8,-1.560423E9,-1.5697681E9,-1.4589074E9,-1.7069029E8,-1.5871194E9,-1.5498235E9,-1.2175912E8,-1.5772696E8,-1.4104466E8,-1.4456904E8,-1.5953773E9,-1.491073E9,-1.3173844E9,-1.6284456E9,-1.5406326E8,-1.567821E9,-9.453295E7,-1.6107262E8,-1.5015695E9,-1.4708947E9,-1.67313E9,-1.1397653E8,-1.3738465E9,-1.6609163E8,-1.5126469E8,-6.2966324E7,-1.5763017E9,-1.4198707E8,-1.601321E8,-1.380183E9,-1.5126404E9,-1.2512422E8,-1.7373968E8,-6.6815548E7,-1.3821261E9,-4.193511E7,-1.5813538E8,-1.3883037E8,-6.201619E7,-1.5546619E8,-1.3369454E8,-1.4253054E8,-1.1611381E8],"categories":[],"categories_nodes":[],"categories_segments":[],"categories_sizes":[],"default_left":[0,0,0,0,0,0,0,0,0,0,0,0,0,0,0,0,0,0,0,0,0,0,0,0,0,0,0,0,0,0,0,0,0,0,0,0,0,0,0,0,0,0,0,0,0,0,0,0,0,0,0,0,0,0,0,0,0,0,0,0,0,0,0,0,0,0,0,0,0,0,0,0,0,0,0],"id":27,"left_children":[1,3,5,7,9,11,13,15,17,19,21,23,-1,25,27,29,31,33,35,-1,-1,37,-1,-1,-1,-1,-1,-1,-1,-1,-1,-1,39,41,43,-1,45,47,-1,-1,-1,-1,49,51,53,55,-1,57,-1,-1,59,61,63,-1,65,-1,-1,-1,67,-1,-1,69,71,-1,-1,-1,73,-1,-1,-1,-1,-1,-1,-1,-1],"loss_changes":[2.0841204E24,4.731009E20,1.0416167E26,9.33371E18,2.0256727E22,1.0862355E27,4.1917254E18,2.9217103E18,6.174435E18,3.272161E22,1.4665902E18,2.3865742E27,0E0,8.821426E17,9.829106E17,7.8812993E15,5.9334925E17,7.804175E18,2.2760067E18,0E0,0E0,2.7405107E17,0E0,0E0,0E0,0E0,0E0,0E0,0E0,0E0,0E0,0E0,7.163538E17,5.3705426E18,3.7486837E18,0E0,5.3480246E17,2.042101E17,0E0,0E0,0E0,0E0,4.509229E17,1.2677633E18,8.510748E17,5.7463116E17,0E0,1.9291591E17,0E0,0E0,1.3046365E17,1.4037157E18,3.7474875E17,0E0,1.1649546E17,0E0,0E0,0E0,1.960825E17,0E0,0E0,1.00289534E18,2.5062532E18,0E0,0E0,0E0,1.4918174E16,0E0,0E0,0E0,0E0,0E0,0E0,0E0,0E0],"parents":[2147483647,0,0,1,1,2,2,3,3,4,4,5,5,6,6,7,7,8,8,9,9,10,10,11,11,13,13,14,14,15,15,16,16,17,17,18,18,21,21,32,32,33,33,34,34,36,36,37,37,42,42,43,43,44,44,45,45,47,47,50,50,51,51,52,52,54,54,58,58,61,61,62,62,66,66],"right_children":[2,4,6,8,10,12,14,16,18,20,22,24,-1,26,28,30,32,34,36,-1,-1,38,-1,-1,-1,-1,-1,-1,-1,-1,-1,-1,40,42,44,-1,46,48,-1,-1,-1,-1,50,52,54,56,-1,58,-1,-1,60,62,64,-1,66,-1,-1,-1,68,-1,-1,70,72,-1,-1,-1,74,-1,-1,-1,-1,-1,-1,-1,-1],"split_conditions":[8.26E1,1.78E0,8.29E1,5.7E-1,1.33E1,9.6E0,3.5E-1,1.31E1,2.24E1,3.2E0,1.87E1,1.6E0,-1.6559163E8,1.406E3,4E-1,2.896E3,1.954E3,1.14E0,1.989E3,1.6191315E10,-2.4277234E8,2.634E3,-1.889007E8,-2.3338462E8,4.2304657E12,-1.6761342E8,-1.5941643E8,-1.5495474E8,-1.355827E8,-1.6760376E8,-1.5243205E8,-1.652534E8,2.91E1,2.1E0,2.534E3,-1.7069029E8,2.38E1,5.85E1,-1.2175912E8,-1.5772696E8,-1.4104466E8,-1.4456904E8,2.595E3,5.5E0,-3.4E0,1.46E0,-1.5406326E8,-5.7E0,-9.453295E7,-1.6107262E8,1.34E1,2.27E1,-6.9E0,-1.1397653E8,8.8E0,-1.6609163E8,-1.5126469E8,-6.2966324E7,2.25E1,-1.4198707E8,-1.601321E8,1.64E0,1.62E0,-1.2512422E8,-1.7373968E8,-6.6815548E7,1.55E0,-4.193511E7,-1.5813538E8,-1.3883037E8,-6.201619E7,-1.5546619E8,-1.3369454E8,-1.4253054E8,-1.1611381E8],"split_indices":[3,7,3,7,1,1,7,1,1,0,4,0,0,5,6,5,5,7,5,0,0,5,0,0,0,0,0,0,0,0,0,0,8,0,5,0,4,3,0,0,0,0,5,0,2,7,0,2,0,0,1,8,2,0,1,0,0,0,8,0,0,7,7,0,0,0,7,0,0,0,0,0,0,0,0],"split_type":[0,0,0,0,0,0,0,0,0,0,0,0,0,0,0,0,0,0,0,0,0,0,0,0,0,0,0,0,0,0,0,0,0,0,0,0,0,0,0,0,0,0,0,0,0,0,0,0,0,0,0,0,0,0,0,0,0,0,0,0,0,0,0,0,0,0,0,0,0,0,0,0,0,0,0],"sum_hessian":[1.2384E4,9.704E3,2.68E3,9.489E3,2.15E2,6.6E1,2.614E3,3.805E3,5.684E3,4E0,2.11E2,5E0,6.1E1,2.132E3,4.82E2,2.105E3,1.7E3,3.669E3,2.015E3,1E0,3E0,1.8E2,3.1E1,4E0,1E0,1.142E3,9.9E2,3.7E2,1.12E2,1.977E3,1.28E2,5.37E2,1.163E3,2.415E3,1.254E3,4.32E2,1.583E3,1.54E2,2.6E1,1.037E3,1.26E2,4.23E2,1.992E3,1.014E3,2.4E2,8.2E2,7.63E2,1.48E2,6E0,1.698E3,2.94E2,9.21E2,9.3E1,6.3E1,1.77E2,6.3E2,1.9E2,2E0,1.46E2,1.7E2,1.24E2,3.01E2,6.2E2,1.5E1,7.8E1,3E0,1.74E2,1E0,1.45E2,2.97E2,4E0,4.94E2,1.26E2,1.41E2,3.3E1],"tree_param":{"num_deleted":"0","num_feature":"9","num_nodes":"75","size_leaf_vector":"1"}},{"base_weights":[5.0774067E9,-1.4002986E9,2.8524274E10,-1.4317903E9,-1.021807E7,1.1981425E12,-1.4539095E9,-1.4693394E9,-1.4048576E9,5.9730477E10,-1.4191485E9,1.3394686E13,-1.4929955E8,-1.4698994E9,-1.3169551E9,-1.4820036E9,-1.3712184E8,-1.3769775E9,-1.454144E9,1.5381749E10,-2.245644E8,-1.3605921E9,-1.7060094E8,-2.1471384E8,4.0189428E12,-1.4869042E8,-1.3732056E8,-1.372501E8,-1.1906714E8,-1.4644707E8,-1.5445955E8,-1.4119395E9,-1.3162816E9,-1.5407154E8,-1.4296028E9,-1.3971482E9,-1.1003417E8,-1.3103076E9,-1.4365905E9,-1.3449275E9,-1.1917052E9,-1.4661759E9,-1.3884659E9,-1.4128044E9,-8.6430136E7,-1.0503557E8,-1.3224872E8,-1.4520691E8,-1.3625197E8,-1.3067972E9,-1.4274917E9,-1.05580984E8,-1.2522866E9,-1.4997664E9,-1.361908E8,-1.348562E8,-1.467811E8,-3.9838356E7,-1.4169668E9,-1.3306253E9,-1.120186E9,-1.18624984E8,-1.4722402E8,-1.309359E9,-1.0738537E8,-1.50617E8,-9.7006536E7,-9.438269E7,-1.4372618E8,-1.26728536E8,-1.3896891E8,-6.150333E7,-1.1365299E8,-3.584349E7,-1.3141372E8],"categories":[],"categories_nodes":[],"categories_segments":[],"categories_sizes":[],"default_left":[0,0,0,0,0,0,0,0,0,0,0,0,0,0,0,0,0,0,0,0,0,0,0,0,0,0,0,0,0,0,0,0,0,0,0,0,0,0,0,0,0,0,0,0,0,0,0,0,0,0,0,0,0,0,0,0,0,0,0,0,0,0,0,0,0,0,0,0,0,0,0,0,0,0,0],"id":28,"left_children":[1,3,5,7,9,11,13,15,17,19,21,23,-1,25,27,29,-1,31,33,-1,-1,35,-1,-1,-1,-1,-1,-1,-1,-1,-1,37,39,-1,41,43,-1,45,47,49,51,53,55,57,-1,-1,-1,-1,-1,59,61,-1,63,65,-1,-1,-1,-1,67,69,71,-1,-1,73,-1,-1,-1,-1,-1,-1,-1,-1,-1,-1,-1],"loss_changes":[1.8810972E24,4.2483356E20,9.400572E25,7.5322704E18,1.8265591E22,9.803243E26,3.790905E18,2.8659782E18,5.622744E18,2.9501158E22,1.2398973E18,2.1538743E27,0E0,1.7941215E18,3.5089374E17,1.5559937E18,0E0,5.70212E18,2.0187385E18,0E0,0E0,1.8464758E17,0E0,0E0,0E0,0E0,0E0,0E0,0E0,0E0,0E0,3.746995E18,3.09721E18,0E0,3.1440755E17,7.195204E16,0E0,3.5606585E16,8.331659E16,1.4809806E18,7.771524E17,7.910854E17,4.0785724E17,6.4668876E16,0E0,0E0,0E0,0E0,0E0,1.7955289E18,1.761963E18,0E0,3.3534225E17,5.808236E17,0E0,0E0,0E0,0E0,6.4598507E16,6.706141E17,4.4050834E16,0E0,0E0,9.6932945E16,0E0,0E0,0E0,0E0,0E0,0E0,0E0,0E0,0E0,0E0,0E0],"parents":[2147483647,0,0,1,1,2,2,3,3,4,4,5,5,6,6,7,7,8,8,9,9,10,10,11,11,13,13,14,14,15,15,17,17,18,18,21,21,31,31,32,32,34,34,35,35,37,37,38,38,39,39,40,40,41,41,42,42,43,43,49,49,50,50,52,52,53,53,58,58,59,59,60,60,63,63],"right_children":[2,4,6,8,10,12,14,16,18,20,22,24,-1,26,28,30,-1,32,34,-1,-1,36,-1,-1,-1,-1,-1,-1,-1,-1,-1,38,40,-1,42,44,-1,46,48,50,52,54,56,58,-1,-1,-1,-1,-1,60,62,-1,64,66,-1,-1,-1,-1,68,70,72,-1,-1,74,-1,-1,-1,-1,-1,-1,-1,-1,-1,-1,-1],"split_conditions":[8.26E1,1.78E0,8.29E1,5.9E-1,1.33E1,9.6E0,4E-1,2.35E1,2.24E1,3.2E0,1.87E1,1.6E0,-1.4929955E8,2.72E1,4E-1,4E0,-1.3712184E8,1.12E0,1.989E3,1.5381749E10,-2.245644E8,2.634E3,-1.7060094E8,-2.1471384E8,4.0189428E12,-1.4869042E8,-1.3732056E8,-1.372501E8,-1.1906714E8,-1.4644707E8,-1.5445955E8,2.2E0,2.534E3,-1.5407154E8,2.38E1,5.85E1,-1.1003417E8,1E0,2.525E3,4.2E0,1.34E1,3.68E1,2.95E1,2.25E1,-8.6430136E7,-1.0503557E8,-1.3224872E8,-1.4520691E8,-1.3625197E8,1.62E0,1.55E1,-1.05580984E8,1.5E0,1.69E0,-1.361908E8,-1.348562E8,-1.467811E8,-3.9838356E7,2.57E1,2.54E1,1.546E3,-1.18624984E8,-1.4722402E8,1.7E0,-1.0738537E8,-1.50617E8,-9.7006536E7,-9.438269E7,-1.4372618E8,-1.26728536E8,-1.3896891E8,-6.150333E7,-1.1365299E8,-3.584349E7,-1.3141372E8],"split_indices":[3,7,3,7,1,1,6,1,1,0,4,0,0,8,7,0,0,7,5,0,0,5,0,0,0,0,0,0,0,0,0,0,5,0,4,3,0,0,5,0,1,8,4,8,0,0,0,0,0,7,8,0,7,7,0,0,0,0,3,8,5,0,0,0,0,0,0,0,0,0,0,0,0,0,0],"split_type":[0,0,0,0,0,0,0,0,0,0,0,0,0,0,0,0,0,0,0,0,0,0,0,0,0,0,0,0,0,0,0,0,0,0,0,0,0,0,0,0,0,0,0,0,0,0,0,0,0,0,0,0,0,0,0,0,0,0,0,0,0,0,0,0,0,0,0,0,0,0,0,0,0,0,0],"sum_hessian":[1.2384E4,9.704E3,2.68E3,9.489E3,2.15E2,6.6E1,2.614E3,3.941E3,5.548E3,4E0,2.11E2,5E0,6.1E1,2.332E3,2.82E2,3.478E3,4.63E2,3.562E3,1.986E3,1E0,3E0,1.8E2,3.1E1,4E0,1E0,1.971E3,3.61E2,1.89E2,9.3E1,2.736E3,7.42E2,2.246E3,1.316E3,4.25E2,1.561E3,1.54E2,2.6E1,4.49E2,1.797E3,1.062E3,2.54E2,8.08E2,7.53E2,1.48E2,6E0,2.4E1,4.25E2,1.471E3,3.26E2,7.38E2,3.24E2,8.4E1,1.7E2,6.01E2,2.07E2,5.13E2,2.4E2,1E0,1.47E2,6.49E2,8.9E1,5.5E1,2.69E2,1.24E2,4.6E1,5.92E2,9E0,8E0,1.39E2,3.24E2,3.25E2,4E0,8.5E1,1E0,1.23E2],"tree_param":{"num_deleted":"0","num_feature":"9","num_nodes":"75","size_leaf_vector":"1"}},{"base_weights":[4.895034E9,-1.2590684E9,2.7170552E10,-1.288913E9,5.7989612E7,1.138307E12,-1.308726E9,-1.3076178E9,-1.2412422E9,5.6788865E10,-1.2802762E9,1.2725005E13,-1.3461039E9,-1.2496472E9,-1.3411892E9,-1.3560298E9,-1.2934516E9,-1.2584745E9,-1.1099322E9,1.461266E10,-2.0772206E8,-1.227154E9,-1.5407398E8,-1.9753675E8,3.8179952E12,-1.3905774E8,-8.7208595E8,-1.2871726E9,-1.1980337E9,-1.3873035E8,-1.2985096E9,-1.3154396E8,-1.3891566E9,-1.2790525E9,-1.3465151E9,-1.1728488E9,-1.2710999E9,-9.349691E8,-1.1622455E8,-1.2597842E9,-9.943827E7,-9.5434296E7,-1.4814355E7,-1.3115716E9,-1.0882617E8,-1.2035087E8,-7.7178296E7,-1.299204E9,-3.422994E7,-1.4981151E9,-1.3586902E8,-1.2649448E9,-1.3211465E9,-1.3544722E8,-1.1510542E9,-1.4112762E8,-1.1220207E9,-1.2555231E8,-1.3248608E9,-9.405667E7,-2.4917844E7,-5.24764E7,-1.2659625E9,-1.3127598E8,-3.777448E7,-1.2998221E8,-3.767235E7,-1.5046707E8,-6.338132E7,-1.2778892E9,-1.1143113E9,-8.5002E7,-1.3277748E9,-6.2761875E8,-1.2081677E9,-1.14212456E8,-8.59089E7,-1.383763E8,-1.23729304E8,-1.2819957E8,-8.1511144E7,-1.3104678E8,-1.2544534E9,-9.962802E8,-1.2202322E9,-1.1487021E8,-1.3394945E9,-2.777944E7,-7.119897E7,-1.2538756E8,-6.008712E8,-1.2787782E8,-1.1940712E8,-7.4331096E7,-1.0480079E8,-1.3882243E8,-1.1311342E8,-1.345354E8,-1.0471389E8,-1.4156032E7,-6.803087E7],"categories":[],"categories_nodes":[],"categories_segments":[],"categories_sizes":[],"default_left":[0,0,0,0,0,0,0,0,0,0,0,0,0,0,0,0,0,0,0,0,0,0,0,0,0,0,0,0,0,0,0,0,0,0,0,0,0,0,0,0,0,0,0,0,0,0,0,0,0,0,0,0,0,0,0,0,0,0,0,0,0,0,0,0,0,0,0,0,0,0,0,0,0,0,0,0,0,0,0,0,0,0,0,0,0,0,0,0,0,0,0,0,0,0,0,0,0,0,0,0,0],"id":29,"left_children":[1,3,5,7,9,11,13,15,17,19,21,23,25,27,29,31,33,35,37,-1,-1,39,-1,-1,-1,-1,41,43,45,-1,47,-1,49,51,53,55,57,59,-1,61,-1,-1,-1,63,-1,-1,-1,65,-1,67,-1,69,71,-1,73,-1,75,-1,77,-1,-1,-1,79,-1,-1,-1,-1,-1,-1,81,83,-1,85,87,89,-1,-1,-1,-1,-1,-1,-1,91,93,95,-1,97,-1,-1,-1,99,-1,-1,-1,-1,-1,-1,-1,-1,-1,-1],"loss_changes":[1.6978419E24,3.8154946E20,8.4840035E25,6.839842E18,1.647164E22,8.847399E26,3.339419E18,2.9070736E18,4.699225E18,2.6598352E22,1.0425833E18,1.943863E27,9.43381E16,2.823194E17,1.4935062E18,2.136395E17,2.3120355E18,1.0755159E18,1.8514368E18,0E0,0E0,1.2205459E17,0E0,0E0,0E0,0E0,3.350146E17,1.1546807E18,3.0328929E16,0E0,1.4284855E17,0E0,6.8004354E17,8.067073E17,1.6409991E17,2.2702716E18,5.9109745E16,6.8899797E16,0E0,3.9547234E16,0E0,0E0,0E0,2.4488323E16,0E0,0E0,0E0,1.4355224E16,0E0,3.9054653E15,0E0,4.7163947E18,2.0722188E18,0E0,7.364925E17,0E0,4.3016413E17,0E0,5.7800886E17,0E0,0E0,0E0,6.099211E16,0E0,0E0,0E0,0E0,0E0,0E0,5.6520175E17,1.9973464E18,0E0,5.78994E17,8.818083E15,4.6794775E17,0E0,0E0,0E0,0E0,0E0,0E0,0E0,9.786885E17,8.8285506E17,3.9051135E17,0E0,2.030842E17,0E0,0E0,0E0,8.6128044E16,0E0,0E0,0E0,0E0,0E0,0E0,0E0,0E0,0E0,0E0],"parents":[2147483647,0,0,1,1,2,2,3,3,4,4,5,5,6,6,7,7,8,8,9,9,10,10,11,11,12,12,13,13,14,14,15,15,16,16,17,17,18,18,21,21,26,26,27,27,28,28,30,30,32,32,33,33,34,34,35,35,36,36,37,37,39,39,43,43,47,47,49,49,51,51,52,52,54,54,56,56,58,58,62,62,69,69,70,70,72,72,73,73,74,74,82,82,83,83,84,84,86,86,90,90],"right_children":[2,4,6,8,10,12,14,16,18,20,22,24,26,28,30,32,34,36,38,-1,-1,40,-1,-1,-1,-1,42,44,46,-1,48,-1,50,52,54,56,58,60,-1,62,-1,-1,-1,64,-1,-1,-1,66,-1,68,-1,70,72,-1,74,-1,76,-1,78,-1,-1,-1,80,-1,-1,-1,-1,-1,-1,82,84,-1,86,88,90,-1,-1,-1,-1,-1,-1,-1,92,94,96,-1,98,-1,-1,-1,100,-1,-1,-1,-1,-1,-1,-1,-1,-1,-1],"split_conditions":[8.26E1,1.78E0,8.29E1,2.359E3,1.33E1,9.6E0,8.82E1,2E-1,1.44E0,3.2E0,1.87E1,1.6E0,6E-1,2.2E1,1.1E-1,7.03E1,4.2E0,-7.4E0,2.82E1,1.461266E10,-2.0772206E8,2.634E3,-1.5407398E8,-1.9753675E8,3.8179952E12,-1.3905774E8,6.4E-1,6E-1,2.87E1,-1.3873035E8,8E-1,-1.3154396E8,8.5E0,3.16E1,1.63E0,-8E-1,4E0,5.77E1,-1.1622455E8,-5.7E0,-9.943827E7,-9.5434296E7,-1.4814355E7,2.785E3,-1.0882617E8,-1.2035087E8,-7.7178296E7,2.84E1,-3.422994E7,1.04E1,-1.3586902E8,1.36E0,3.3E0,-1.3544722E8,2.27E1,-1.4112762E8,3.207E3,-1.2555231E8,8.9E-1,-9.405667E7,-2.4917844E7,-5.24764E7,1.72E1,-1.3127598E8,-3.777448E7,-1.2998221E8,-3.767235E7,-1.5046707E8,-6.338132E7,5.58E1,2.062E3,-8.5002E7,7.4E-1,5E0,5.98E1,-1.14212456E8,-8.59089E7,-1.383763E8,-1.23729304E8,-1.2819957E8,-8.1511144E7,-1.3104678E8,9E-1,2.5E0,-1.2E0,-1.1487021E8,4.73E1,-2.777944E7,-7.119897E7,-1.2538756E8,1.49E1,-1.2787782E8,-1.1940712E8,-7.4331096E7,-1.0480079E8,-1.3882243E8,-1.1311342E8,-1.345354E8,-1.0471389E8,-1.4156032E7,-6.803087E7],"split_indices":[3,7,3,5,1,1,3,6,7,0,4,0,6,1,7,3,0,2,8,0,0,5,0,0,0,0,7,6,1,0,7,0,8,8,7,1,0,3,0,2,0,0,0,5,0,0,0,1,0,1,0,7,2,0,8,0,5,0,7,0,0,0,4,0,0,0,0,0,0,3,5,0,7,0,3,0,0,0,0,0,0,0,6,0,2,0,8,0,0,0,1,0,0,0,0,0,0,0,0,0,0],"split_type":[0,0,0,0,0,0,0,0,0,0,0,0,0,0,0,0,0,0,0,0,0,0,0,0,0,0,0,0,0,0,0,0,0,0,0,0,0,0,0,0,0,0,0,0,0,0,0,0,0,0,0,0,0,0,0,0,0,0,0,0,0,0,0,0,0,0,0,0,0,0,0,0,0,0,0,0,0,0,0,0,0,0,0,0,0,0,0,0,0,0,0,0,0,0,0,0,0,0,0,0,0],"sum_hessian":[1.2384E4,9.704E3,2.68E3,9.489E3,2.15E2,6.6E1,2.614E3,6.796E3,2.693E3,4E0,2.11E2,5E0,6.1E1,9.41E2,1.673E3,1.517E3,5.279E3,2.373E3,3.2E2,1E0,3E0,1.8E2,3.1E1,4E0,1E0,5.4E1,7E0,5.31E2,4.1E2,7.89E2,8.84E2,7E2,8.17E2,4.172E3,1.107E3,3.17E2,2.056E3,7.8E1,2.42E2,1.54E2,2.6E1,6E0,1E0,4.68E2,6.3E1,4.03E2,7E0,8.83E2,1E0,1.68E2,6.49E2,3.148E3,1.024E3,1.058E3,4.9E1,5.1E1,2.66E2,1.613E3,4.43E2,7.7E1,1E0,2E0,1.52E2,4.67E2,1E0,8.82E2,1E0,1.66E2,2E0,2.892E3,2.56E2,1.6E1,1.008E3,6E0,4.3E1,2.44E2,2.2E1,2.56E2,1.87E2,1.45E2,7E0,1.187E3,1.705E3,1.26E2,1.3E2,6.8E1,9.4E2,2E0,4E0,3.9E1,4E0,1.201E3,5.04E2,2.4E1,1.02E2,4E1,9E1,9.18E2,2.2E1,1E0,3E0],"tree_param":{"num_deleted":"0","num_feature":"9","num_nodes":"101","size_leaf_vector":"1"}},{"base_weights":[4.714573E9,-1.1320536E9,2.5877121E10,-1.1603523E9,1.1649263E8,1.0814547E12,-1.1781654E9,-1.1818017E9,-1.1261967E9,5.3990957E10,-1.1546811E9,1.2088804E13,-1.21551464E8,-1.2070723E9,-1.1233225E9,-1.1690012E9,-1.2400586E9,-1.1376564E9,-1.0295964E9,1.3882026E10,-1.9214291E8,-1.1064365E9,-1.3914806E9,-1.8173381E8,3.6270957E12,-1.2431912E8,-1.1689217E9,-1.140702E9,-1.01958344E8,-1.2141932E8,-1.1535139E9,-1.2720868E8,-1.1933256E9,-1.05649965E9,-1.1482673E9,-1.0582323E9,-8.492118E8,-1.1867968E9,-1.00596915E9,-1.4282627E8,-5.5983296E7,-1.20657304E8,-1.11479976E8,-1.1555028E9,-1.0116878E8,-1.1503926E9,-1.4367862E8,-1.1147319E8,-1.2444319E9,-1.26499896E8,-1.0096244E9,-1.0908074E9,-1.1606152E9,-6.6911948E7,-1.0643657E8,-7.1053784E7,-9.343584E7,-1.2106733E9,-7.1368184E7,-1.0109935E8,-2.869346E7,-1.15763816E8,-6.314359E7,-1.1555302E9,-1.00053894E9,-1.4394355E8,-1.2079181E9,-1.0770013E9,-9.4342854E8,-1.1184975E8,-9.6716205E8,-1.1707818E9,-1.10172776E8,-3.1436448E7,-1.2172863E8,-1.1420051E9,-1.1908594E9,-8.396448E8,-1.1110831E8,-1.2364375E8,-1.00083674E9,-1.18025E8,-9.7446035E8,-9.658511E7,-6.6444256E7,-5.1629452E7,-9.800338E8,-1.1935891E9,-1.1243462E9,-1.1579337E8,-1.0171651E8,-1.08533784E8,-1.20600936E8,-8.7989224E7,-3.643088E7,-4.5942852E7,-1.0617726E8,-9.914921E7,-5.104669E7,-1.0192819E8,-7.590665E7,-1.16785944E8,-1.2361663E8,-1.1669691E8,-1.046082E8],"categories":[],"categories_nodes":[],"categories_segments":[],"categories_sizes":[],"default_left":[0,0,0,0,0,0,0,0,0,0,0,0,0,0,0,0,0,0,0,0,0,0,0,0,0,0,0,0,0,0,0,0,0,0,0,0,0,0,0,0,0,0,0,0,0,0,0,0,0,0,0,0,0,0,0,0,0,0,0,0,0,0,0,0,0,0,0,0,0,0,0,0,0,0,0,0,0,0,0,0,0,0,0,0,0,0,0,0,0,0,0,0,0,0,0,0,0,0,0,0,0,0,0,0,0],"id":30,"left_children":[1,3,5,7,9,11,13,15,17,19,21,23,-1,25,27,29,31,33,35,-1,-1,37,39,-1,-1,-1,41,43,-1,-1,45,-1,47,49,51,53,55,57,59,-1,-1,-1,-1,61,-1,63,-1,-1,65,-1,67,69,71,-1,-1,-1,-1,73,-1,-1,-1,-1,-1,75,77,-1,79,81,83,-1,85,87,-1,-1,-1,89,91,93,-1,-1,95,-1,97,-1,-1,-1,99,101,103,-1,-1,-1,-1,-1,-1,-1,-1,-1,-1,-1,-1,-1,-1,-1,-1],"loss_changes":[1.5324193E24,3.4303355E20,7.656784E25,5.621618E18,1.4854845E22,7.984757E26,2.78998E18,2.8817408E18,2.9045403E18,2.3981774E22,8.823537E17,1.7543296E27,0E0,8.877721E17,4.9025904E17,1.9449921E18,2.3643898E16,1.6131331E18,1.1726951E18,0E0,0E0,2.67454E17,1.7928197E17,0E0,0E0,0E0,3.728136E17,3.1468902E17,0E0,0E0,1.5126465E18,0E0,3.6007686E17,2.5540336E18,7.853152E17,1.0404019E17,4.455661E16,2.0910072E17,2.4215644E16,0E0,0E0,0E0,0E0,4.1165715E16,0E0,1.5740081E18,0E0,0E0,7.694822E16,0E0,4.3343628E17,7.2592396E17,1.25256365E17,0E0,0E0,0E0,0E0,1.4486286E17,0E0,0E0,0E0,0E0,0E0,2.7500105E17,1.2903165E18,0E0,6.7729916E16,4.8031946E17,4.3421034E17,0E0,9.758386E16,7.76308E17,0E0,0E0,0E0,3.791468E18,1.681813E17,7.316502E17,0E0,0E0,5.6791095E17,0E0,1.4979746E17,0E0,0E0,0E0,9.3555245E16,7.8812993E15,1.0342798E18,0E0,0E0,0E0,0E0,0E0,0E0,0E0,0E0,0E0,0E0,0E0,0E0,0E0,0E0,0E0,0E0],"parents":[2147483647,0,0,1,1,2,2,3,3,4,4,5,5,6,6,7,7,8,8,9,9,10,10,11,11,13,13,14,14,15,15,16,16,17,17,18,18,21,21,22,22,26,26,27,27,30,30,32,32,33,33,34,34,35,35,36,36,37,37,38,38,43,43,45,45,48,48,50,50,51,51,52,52,57,57,63,63,64,64,66,66,67,67,68,68,70,70,71,71,75,75,76,76,77,77,80,80,82,82,86,86,87,87,88,88],"right_children":[2,4,6,8,10,12,14,16,18,20,22,24,-1,26,28,30,32,34,36,-1,-1,38,40,-1,-1,-1,42,44,-1,-1,46,-1,48,50,52,54,56,58,60,-1,-1,-1,-1,62,-1,64,-1,-1,66,-1,68,70,72,-1,-1,-1,-1,74,-1,-1,-1,-1,-1,76,78,-1,80,82,84,-1,86,88,-1,-1,-1,90,92,94,-1,-1,96,-1,98,-1,-1,-1,100,102,104,-1,-1,-1,-1,-1,-1,-1,-1,-1,-1,-1,-1,-1,-1,-1,-1],"split_conditions":[8.26E1,1.78E0,8.29E1,2.282E3,1.33E1,9.6E0,1E-1,4.3E0,1.47E0,3.2E0,1.87E1,1.6E0,-1.21551464E8,1.32E3,6E-1,2E-1,8.2E-1,-7.4E0,2.755E3,1.3882026E10,-1.9214291E8,1.86E0,3.9E0,-1.8173381E8,3.6270957E12,-1.2431912E8,2.36E1,2.128E3,-1.01958344E8,-1.2141932E8,3.13E1,-1.2720868E8,1.15E1,-8E-1,2.1E0,-8.2E0,1.52E1,5.85E1,1.72E1,-1.4282627E8,-5.5983296E7,-1.20657304E8,-1.11479976E8,2.87E1,-1.0116878E8,1.64E0,-1.4367862E8,-1.1147319E8,6.1E0,-1.26499896E8,7.7E-1,1E0,2.38E1,-6.6911948E7,-1.0643657E8,-7.1053784E7,-9.343584E7,2.25E1,-7.1368184E7,-1.0109935E8,-2.869346E7,-1.15763816E8,-6.314359E7,2.95E1,2.23E1,-1.4394355E8,1.59E0,4.21E1,3.207E3,-1.1184975E8,3E0,2.552E3,-1.10172776E8,-3.1436448E7,-1.2172863E8,1.2E0,7.4E-1,2.13E1,-1.1110831E8,-1.2364375E8,1.49E1,-1.18025E8,7.2E-1,-9.658511E7,-6.6444256E7,-5.1629452E7,1.24E0,2.54E1,9.7E-1,-1.1579337E8,-1.0171651E8,-1.08533784E8,-1.20600936E8,-8.7989224E7,-3.643088E7,-4.5942852E7,-1.0617726E8,-9.914921E7,-5.104669E7,-1.0192819E8,-7.590665E7,-1.16785944E8,-1.2361663E8,-1.1669691E8,-1.046082E8],"split_indices":[3,7,3,5,1,1,6,0,7,0,4,0,0,5,6,6,7,2,5,0,0,7,0,0,0,0,8,5,0,0,1,0,1,1,0,2,1,3,4,0,0,0,0,1,0,7,0,0,4,0,7,6,4,0,0,0,0,8,0,0,0,0,0,8,1,0,7,3,5,0,1,5,0,0,0,7,7,1,0,0,1,0,7,0,0,0,7,8,7,0,0,0,0,0,0,0,0,0,0,0,0,0,0,0,0],"split_type":[0,0,0,0,0,0,0,0,0,0,0,0,0,0,0,0,0,0,0,0,0,0,0,0,0,0,0,0,0,0,0,0,0,0,0,0,0,0,0,0,0,0,0,0,0,0,0,0,0,0,0,0,0,0,0,0,0,0,0,0,0,0,0,0,0,0,0,0,0,0,0,0,0,0,0,0,0,0,0,0,0,0,0,0,0,0,0,0,0,0,0,0,0,0,0,0,0,0,0,0,0,0,0,0,0],"sum_hessian":[1.2384E4,9.704E3,2.68E3,9.489E3,2.15E2,6.6E1,2.614E3,5.808E3,3.681E3,4E0,2.11E2,5E0,6.1E1,1.698E3,9.16E2,4.779E3,1.029E3,3.281E3,4E2,1E0,3E0,1.8E2,3.1E1,4E0,1E0,8.56E2,8.42E2,7.76E2,1.4E2,1.2E3,3.579E3,5.95E2,4.34E2,3.91E2,2.89E3,3.41E2,5.9E1,9.4E1,8.6E1,2.9E1,2E0,4.84E2,3.58E2,6.89E2,8.7E1,3.545E3,3.4E1,1.8E2,2.54E2,6.7E1,3.24E2,5.27E2,2.363E3,7E0,3.34E2,2.6E1,3.3E1,8.8E1,6E0,8.5E1,1E0,6.85E2,4E0,3.421E3,1.24E2,3.4E1,2.2E2,1.53E2,1.71E2,4.24E2,1.03E2,1.999E3,3.64E2,1E0,8.7E1,2.498E3,9.23E2,5.4E1,7E1,1.89E2,3.1E1,7.1E1,8.2E1,1.56E2,1.5E1,4E0,9.9E1,1.324E3,6.75E2,2.208E3,2.9E2,1.25E2,7.98E2,4.9E1,5E0,4E0,2.7E1,7.8E1,4E0,8.1E1,1.8E1,8.43E2,4.81E2,4.28E2,2.47E2],"tree_param":{"num_deleted":"0","num_feature":"9","num_nodes":"105","size_leaf_vector":"1"}},{"base_weights":[4.536678E9,-1.01784646E9,2.4641909E10,-1.0446768E9,1.6566152E8,1.0274404E12,-1.0606313E9,-1.0825413E9,-1.0286271E9,5.132984E10,-1.0418222E9,1.1484409E13,-1.0959236E9,-1.00723584E9,-1.0864031E9,-1.1258778E9,-1.0529122E9,-1.0459441E9,-9.917144E8,1.3187924E10,-1.7773221E8,-9.977506E8,-1.2585453E9,-1.6719509E8,3.4457408E12,-1.1347065E8,-6.923009E8,-1.0389745E9,-9.643857E8,-1.1269542E9,-1.0493929E9,-1.0690335E9,-1.164452E9,-1.02046086E9,-1.098088E9,-1.0264046E9,-1.0723022E9,-1.00795283E9,-8.992353E8,-1.02686957E9,-7.93632E7,-1.2901973E8,-5.225107E7,-7.683552E7,-7.9960635E6,-1.0728343E8,-9.3087526E8,-8.364092E8,-9.8563475E8,-1.12759384E8,-3.0095812E7,-1.0529437E9,-7.179279E8,-1.0193904E8,-1.1372836E8,-1.1652607E8,-3.1615316E7,-9.416584E7,-1.053377E8,-1.1017956E9,-6.9511864E7,-1.0098444E9,-1.0870758E9,-1.09894104E8,-1.01413843E9,-9.53965E8,-1.0431872E9,-7.538022E8,-9.4183624E7,-6.6376877E8,-1.04211475E9,-9.84175E7,-8.0465016E7,-6.875026E7,-9.207193E7,-9.914173E7,-6.3474196E7,-1.0534377E8,-3.0000544E7,-7.9155784E7,-2.0864224E8,-1.1029934E8,-4.6303933E8,-1.0210944E9,-8.99158E8,-1.0958497E9,-7.9977624E7,-8.77053E8,-1.0434242E9,-1.0005292E9,-8.410495E8,-1.0988617E8,-9.90933E8,-3.9033348E7,-7.728289E8,-7.0715384E7,-1.5834407E7,-1.3821884E9,-1.0099202E9,-5.657158E6,-2.5639178E7,-1.046871E7,-5.8987188E7,-1.0546649E9,-9.940788E8,-7.989116E8,-9.7233837E8,-3.6562076E7,-1.0979194E9,-7.3561274E8,-1.0104087E9,-1.2674538E9,-1.0128181E9,-9.352455E8,-1.06443315E9,-7.934009E8,-9.3382534E8,-8.5391526E8,-1.008269E9,-8.5566106E8,-6.477767E7,-3.5918132E7,-1.4559469E8,-8.157999E8,-1.0608263E9,-1.0342757E8,-1.13430936E8,-1.0564468E8,-9.669384E7,-4.896162E7,-8.272332E7,-2.0656462E7,-9.774221E7,-1.02552664E8,-1.13355624E8,-4.1597156E7,-7.7759624E7,-1.0182286E8,-2.9015674E7,-5.62895E7,-1.3254911E8,-8.865123E7,-1.0464928E8,-9.919078E7,-7.835205E7,-6.8996904E7,-1.0786619E8,-8.1492536E7,-4.0626144E7,-1.7221914E7,-9.424928E7,-9.691394E7,-7.459674E7,-2.5747482E7,-1.0092498E8,-8.833127E7,-3.721424E7,-8.315005E7,-1.5669011E7,-3.875963E7,-1.07004616E8],"categories":[],"categories_nodes":[],"categories_segments":[],"categories_sizes":[],"default_left":[0,0,0,0,0,0,0,0,0,0,0,0,0,0,0,0,0,0,0,0,0,0,0,0,0,0,0,0,0,0,0,0,0,0,0,0,0,0,0,0,0,0,0,0,0,0,0,0,0,0,0,0,0,0,0,0,0,0,0,0,0,0,0,0,0,0,0,0,0,0,0,0,0,0,0,0,0,0,0,0,0,0,0,0,0,0,0,0,0,0,0,0,0,0,0,0,0,0,0,0,0,0,0,0,0,0,0,0,0,0,0,0,0,0,0,0,0,0,0,0,0,0,0,0,0,0,0,0,0,0,0,0,0,0,0,0,0,0,0,0,0,0,0,0,0,0,0,0,0,0,0,0,0,0,0,0,0,0,0,0,0],"id":31,"left_children":[1,3,5,7,9,11,13,15,17,19,21,23,25,27,29,31,33,35,37,-1,-1,39,41,-1,-1,-1,43,45,47,49,51,53,55,57,59,61,63,65,67,69,-1,-1,-1,-1,-1,-1,71,73,75,-1,-1,77,79,-1,-1,-1,-1,-1,-1,81,-1,83,85,-1,87,89,91,93,-1,95,97,-1,-1,-1,-1,-1,-1,-1,-1,-1,99,-1,101,103,105,107,-1,109,111,113,115,-1,117,-1,119,-1,-1,121,123,-1,-1,-1,-1,125,127,129,131,-1,133,135,137,139,141,143,145,147,149,151,153,155,-1,-1,-1,157,159,-1,-1,-1,-1,-1,-1,-1,-1,-1,-1,-1,-1,-1,-1,-1,-1,-1,-1,-1,-1,-1,-1,-1,-1,-1,-1,-1,-1,-1,-1,-1,-1,-1,-1,-1,-1],"loss_changes":[1.3831199E24,3.0834458E20,6.910244E25,4.65447E18,1.3397936E22,7.206225E26,2.504283E18,2.4175886E18,3.2358363E18,2.1623142E22,7.6916556E17,1.5832758E27,1.8497304E17,1.7444412E17,1.445374E18,1.2218829E18,1.3453097E18,1.2339863E18,2.3280795E18,0E0,0E0,2.6085693E17,7.1358305E16,0E0,0E0,0E0,3.1113018E17,7.728951E17,2.1437838E17,9.471633E16,3.386144E17,4.2291615E17,8.3738806E16,1.583719E18,2.6507906E17,1.5405125E18,1.8402834E18,2.4745873E18,1.3407885E18,1.6628134E17,0E0,0E0,0E0,0E0,0E0,0E0,3.5597788E16,1.3281661E17,2.406611E16,0E0,0E0,2.5332748E16,3.2233008E17,0E0,0E0,0E0,0E0,0E0,0E0,1.1047893E16,0E0,1.6683022E18,5.1003266E17,0E0,1.5418496E18,3.0072787E18,2.0907961E18,2.5158585E17,0E0,8.537735E16,2.1353395E17,0E0,0E0,0E0,0E0,0E0,0E0,0E0,0E0,0E0,7.2794284E15,0E0,7.460015E16,6.548515E17,6.9040534E17,4.0103147E17,0E0,1.4069879E18,2.1378024E18,1.1446532E18,2.3163631E17,0E0,5.025032E17,0E0,2.2260273E17,0E0,0E0,2.3160553E17,4.9828108E17,0E0,0E0,0E0,0E0,1.6001852E17,7.693415E17,3.8334253E17,2.3021135E17,0E0,2.0223977E17,4.68304E17,1.9962733E16,1.5437671E18,9.6074446E17,1.4752631E18,5.984686E17,9.3553486E17,2.9316938E17,1.6016806E17,1.11252985E17,2.3282599E17,0E0,0E0,0E0,2.1121179E17,2.4320318E17,0E0,0E0,0E0,0E0,0E0,0E0,0E0,0E0,0E0,0E0,0E0,0E0,0E0,0E0,0E0,0E0,0E0,0E0,0E0,0E0,0E0,0E0,0E0,0E0,0E0,0E0,0E0,0E0,0E0,0E0,0E0,0E0,0E0,0E0,0E0,0E0],"parents":[2147483647,0,0,1,1,2,2,3,3,4,4,5,5,6,6,7,7,8,8,9,9,10,10,11,11,12,12,13,13,14,14,15,15,16,16,17,17,18,18,21,21,22,22,26,26,27,27,28,28,29,29,30,30,31,31,32,32,33,33,34,34,35,35,36,36,37,37,38,38,39,39,46,46,47,47,48,48,51,51,52,52,59,59,61,61,62,62,64,64,65,65,66,66,67,67,69,69,70,70,80,80,82,82,83,83,84,84,85,85,87,87,88,88,89,89,90,90,92,92,94,94,97,97,98,98,103,103,104,104,105,105,106,106,108,108,109,109,110,110,111,111,112,112,113,113,114,114,115,115,116,116,117,117,118,118,119,119,123,123,124,124],"right_children":[2,4,6,8,10,12,14,16,18,20,22,24,26,28,30,32,34,36,38,-1,-1,40,42,-1,-1,-1,44,46,48,50,52,54,56,58,60,62,64,66,68,70,-1,-1,-1,-1,-1,-1,72,74,76,-1,-1,78,80,-1,-1,-1,-1,-1,-1,82,-1,84,86,-1,88,90,92,94,-1,96,98,-1,-1,-1,-1,-1,-1,-1,-1,-1,100,-1,102,104,106,108,-1,110,112,114,116,-1,118,-1,120,-1,-1,122,124,-1,-1,-1,-1,126,128,130,132,-1,134,136,138,140,142,144,146,148,150,152,154,156,-1,-1,-1,158,160,-1,-1,-1,-1,-1,-1,-1,-1,-1,-1,-1,-1,-1,-1,-1,-1,-1,-1,-1,-1,-1,-1,-1,-1,-1,-1,-1,-1,-1,-1,-1,-1,-1,-1,-1,-1],"split_conditions":[8.26E1,1.78E0,8.29E1,4E-1,1.33E1,9.6E0,8.77E1,1.14E1,2.351E3,3.2E0,1.87E1,1.6E0,6E-1,2.2E1,1.1E-1,6.2E1,7.52E1,3.3E0,1.44E0,1.3187924E10,-1.7773221E8,2.634E3,3.9E0,-1.6719509E8,3.4457408E12,-1.1347065E8,6.4E-1,3.5E-1,5E-2,2.552E3,8E-1,1.8E-1,9.7E-1,1.4E-1,2.55E1,3.29E1,1.2E0,1.36E1,2.82E1,2.57E1,-7.93632E7,-1.2901973E8,-5.225107E7,-7.683552E7,-7.9960635E6,-1.0728343E8,3E-1,8.45E1,2.87E1,-1.12759384E8,-3.0095812E7,2.84E1,1.7E1,-1.0193904E8,-1.1372836E8,-1.1652607E8,-3.1615316E7,-9.416584E7,-1.053377E8,2.785E3,-6.9511864E7,1.33E0,2.58E1,-1.09894104E8,2.11E1,9.7E-1,5.75E1,2.3E0,-9.4183624E7,6.3E0,-7E-1,-9.84175E7,-8.0465016E7,-6.875026E7,-9.207193E7,-9.914173E7,-6.3474196E7,-1.0534377E8,-3.0000544E7,-7.9155784E7,1E0,-1.1029934E8,1.9E0,5.82E1,2.062E3,-2E0,-7.9977624E7,4.9E0,-7E-1,3.5E0,8.8E0,-1.0988617E8,1.86E1,-3.9033348E7,2.785E3,-7.0715384E7,-1.5834407E7,1.36E1,1.91E1,-5.657158E6,-2.5639178E7,-1.046871E7,-5.8987188E7,9.7E0,3.9E-1,2.1E0,1.5E0,-3.6562076E7,8E-1,1.53E1,2.347E3,1.918E3,8.7E0,1E0,2.7E0,-3.4E0,1.26E1,1.9E1,1.05E1,2.77E1,-6.477767E7,-3.5918132E7,-1.4559469E8,5.2E1,2.73E1,-1.0342757E8,-1.13430936E8,-1.0564468E8,-9.669384E7,-4.896162E7,-8.272332E7,-2.0656462E7,-9.774221E7,-1.02552664E8,-1.13355624E8,-4.1597156E7,-7.7759624E7,-1.0182286E8,-2.9015674E7,-5.62895E7,-1.3254911E8,-8.865123E7,-1.0464928E8,-9.919078E7,-7.835205E7,-6.8996904E7,-1.0786619E8,-8.1492536E7,-4.0626144E7,-1.7221914E7,-9.424928E7,-9.691394E7,-7.459674E7,-2.5747482E7,-1.0092498E8,-8.833127E7,-3.721424E7,-8.315005E7,-1.5669011E7,-3.875963E7,-1.07004616E8],"split_indices":[3,7,3,6,1,1,3,1,5,0,4,0,6,1,7,3,3,0,7,0,0,5,0,0,0,0,7,7,7,5,6,7,7,7,2,8,7,1,8,3,0,0,0,0,0,0,6,3,1,0,0,1,1,0,0,0,0,0,0,5,0,7,2,0,8,7,3,0,0,4,2,0,0,0,0,0,0,0,0,0,0,0,0,3,5,2,0,0,2,0,1,0,1,0,5,0,0,1,1,0,0,0,0,4,7,0,0,0,6,8,5,5,4,6,4,2,8,8,2,8,0,0,0,3,3,0,0,0,0,0,0,0,0,0,0,0,0,0,0,0,0,0,0,0,0,0,0,0,0,0,0,0,0,0,0,0,0,0,0,0,0],"split_type":[0,0,0,0,0,0,0,0,0,0,0,0,0,0,0,0,0,0,0,0,0,0,0,0,0,0,0,0,0,0,0,0,0,0,0,0,0,0,0,0,0,0,0,0,0,0,0,0,0,0,0,0,0,0,0,0,0,0,0,0,0,0,0,0,0,0,0,0,0,0,0,0,0,0,0,0,0,0,0,0,0,0,0,0,0,0,0,0,0,0,0,0,0,0,0,0,0,0,0,0,0,0,0,0,0,0,0,0,0,0,0,0,0,0,0,0,0,0,0,0,0,0,0,0,0,0,0,0,0,0,0,0,0,0,0,0,0,0,0,0,0,0,0,0,0,0,0,0,0,0,0,0,0,0,0,0,0,0,0,0,0],"sum_hessian":[1.2384E4,9.704E3,2.68E3,9.489E3,2.15E2,6.6E1,2.614E3,2.805E3,6.684E3,4E0,2.11E2,5E0,6.1E1,8.64E2,1.75E3,1.124E3,1.681E3,4.531E3,2.153E3,1E0,3E0,1.8E2,3.1E1,4E0,1E0,5.4E1,7E0,4.83E2,3.81E2,8.21E2,9.29E2,4.66E2,6.58E2,9.92E2,6.89E2,2.625E3,1.906E3,1.823E3,3.3E2,1.54E2,2.6E1,2.9E1,2E0,6E0,1E0,3.61E2,1.22E2,6E1,3.21E2,8.2E2,1E0,9.17E2,1.2E1,2.79E2,1.87E2,6.57E2,1E0,3.01E2,6.91E2,6.81E2,8E0,2.076E3,5.49E2,1.295E3,6.11E2,7.31E2,1.092E3,7.9E1,2.51E2,8E0,1.46E2,8.1E1,4.1E1,2.5E1,3.5E1,3.14E2,7E0,9.16E2,1E0,1E1,2E0,6.79E2,2E0,1.877E3,1.99E2,5.3E2,1.9E1,1.13E2,4.98E2,5.12E2,2.19E2,5.19E2,5.73E2,5E0,7.4E1,7E0,1E0,9E0,1.37E2,1E0,1E0,1E0,1E0,8.2E2,1.057E3,8.9E1,1.1E2,2E0,5.28E2,5.8E1,5.5E1,5.5E1,4.43E2,2.61E2,2.51E2,1.51E2,6.8E1,7E1,5.03E2,4.1E1,3.3E1,1E0,8E0,3.2E1,1.05E2,6.64E2,1.56E2,3.09E2,7.48E2,9E0,8E1,1E0,1.09E2,1.84E2,3.44E2,8E0,5E1,5.4E1,1E0,5E0,5E1,9.9E1,3.44E2,1.86E2,7.5E1,1.1E1,2.4E2,1.42E2,9E0,1E0,6.7E1,3E1,4E1,1E0,5.02E2,3.8E1,3E0,3.1E1,1E0,2E0,1.03E2],"tree_param":{"num_deleted":"0","num_feature":"9","num_nodes":"161","size_leaf_vector":"1"}},{"base_weights":[4.361794E9,-9.1520026E8,2.3462455E10,-9.4061754E8,2.057477E8,9.761199E11,-9.549499E8,-9.6809504E8,-9.220564E8,4.8798888E10,-9.412875E8,1.0910231E13,-9.895297E8,-9.1820634E8,-9.8584403E8,-9.8586554E8,-9.158448E8,-8.922632E8,-9.496285E8,1.2528527E10,-1.6440229E8,-1.0275016E9,-8.503925E8,-1.5381947E8,3.2734537E12,-1.023299E8,-6.336748E8,-9.264728E8,-7.899642E7,-1.0185307E8,-9.527843E8,-1.1179191E8,-9.800571E8,-1.0156481E9,-9.0179686E8,-8.325291E8,-9.156724E8,-9.561753E8,-8.020981E8,-7.5426904E7,-1.06507704E8,-8.994822E8,-6.6799123E8,-7.0249624E7,-7.5962615E6,-9.5877664E8,-8.851773E7,-9.586819E7,-7.669974E8,-9.6737536E8,-1.0407879E9,-6.847799E7,-1.04112296E8,-9.293553E8,-8.376574E7,-6.477419E8,-8.428908E8,-9.348421E8,-8.074383E8,-9.968476E8,-9.446427E8,-4.9933904E8,-8.369434E7,-6.6113984E7,-9.343009E7,-2.451613E7,-6.920111E7,-9.59509E8,-2.5199504E7,-1.7701392E7,-7.8288083E8,-9.2473946E8,-9.8960026E8,-1.0555992E8,-7.8630536E7,-8.8777645E8,-9.666462E7,-7.5510483E8,-4.962957E8,-8.7835174E8,-7.807998E8,-9.633402E8,-8.841983E8,-8.9899136E8,-7.498269E8,-5.534953E8,-1.007234E9,-9.637455E8,-9.0732595E8,-5.1732573E8,-1.1476921E7,-9.602209E7,-2.5906442E7,-8.0631464E7,-3.3445014E7,-9.706545E8,-8.6332435E8,-8.1540954E8,-9.971971E8,-8.48905E7,-9.7095304E7,-4.3758116E7,-8.323449E7,-2.5728262E7,-5.514594E8,-9.594185E8,-8.406119E8,-7.912304E8,-4.8365248E8,-9.745848E8,-8.438177E8,-7.375437E8,-9.0877376E8,-7.421085E7,-9.758414E8,-7.3244954E8,-1.0217831E8,-5.744115E7,-1.198759E7,-9.1436966E8,-1.0432086E9,-9.813342E8,-9.060146E8,-8.757972E8,-9.7211334E8,-2.1043094E7,-5.4835336E7,-9.325324E7,-1.0669331E8,-7.776335E7,-8.9392696E7,-8.397415E7,-5.3099356E7,-1.001585E8,-8.456955E7,-1.058567E7,-5.726935E7,-6.9243895E6,-9.653245E7,-8.552348E7,-6.804524E7,-8.3686616E7,-7.128508E7,-2.152874E7,-5.4918668E7,-9.391999E7,-1.01069736E8,-1.5689082E7,-8.492821E7,-7.6670616E7,-3.3185444E7,-7.695173E7,-9.447737E7,-9.845262E7,-1.7961178E7,-7.7614424E7,-6.4837652E7,-1.0225781E8,-7.860187E7,-3.981215E7,-1.0453633E8,-9.817379E7,-2.7002702E7,-6.837745E7,-9.293167E7,-8.7711416E7,-3.547144E7,-8.545544E7,-1.02007944E8],"categories":[],"categories_nodes":[],"categories_segments":[],"categories_sizes":[],"default_left":[0,0,0,0,0,0,0,0,0,0,0,0,0,0,0,0,0,0,0,0,0,0,0,0,0,0,0,0,0,0,0,0,0,0,0,0,0,0,0,0,0,0,0,0,0,0,0,0,0,0,0,0,0,0,0,0,0,0,0,0,0,0,0,0,0,0,0,0,0,0,0,0,0,0,0,0,0,0,0,0,0,0,0,0,0,0,0,0,0,0,0,0,0,0,0,0,0,0,0,0,0,0,0,0,0,0,0,0,0,0,0,0,0,0,0,0,0,0,0,0,0,0,0,0,0,0,0,0,0,0,0,0,0,0,0,0,0,0,0,0,0,0,0,0,0,0,0,0,0,0,0,0,0,0,0,0,0,0,0,0,0,0,0,0,0,0,0,0,0],"id":32,"left_children":[1,3,5,7,9,11,13,15,17,19,21,23,25,27,29,31,33,35,37,-1,-1,39,41,-1,-1,-1,43,45,-1,-1,47,-1,49,51,53,55,57,59,61,-1,-1,63,65,-1,-1,67,-1,-1,69,71,73,-1,-1,75,-1,77,79,81,83,85,87,89,-1,-1,-1,-1,-1,91,-1,-1,93,95,97,-1,-1,99,-1,101,103,105,107,109,111,113,115,117,119,121,123,125,-1,-1,-1,-1,-1,127,129,131,133,-1,-1,-1,-1,-1,135,137,139,141,143,145,147,149,151,-1,153,155,-1,-1,-1,157,159,161,163,165,167,-1,-1,-1,-1,-1,-1,-1,-1,-1,-1,-1,-1,-1,-1,-1,-1,-1,-1,-1,-1,-1,-1,-1,-1,-1,-1,-1,-1,-1,-1,-1,-1,-1,-1,-1,-1,-1,-1,-1,-1,-1,-1,-1,-1],"loss_changes":[1.248356E24,2.7670229E20,6.236481E25,3.947968E18,1.2085351E22,6.503606E26,2.0632116E18,2.630665E18,3.8224302E18,1.9496952E22,7.875494E17,1.428901E27,9.661189E16,5.49791E17,5.500021E17,1.0729826E18,4.579598E17,3.0817288E18,2.069967E18,0E0,0E0,2.6440176E17,3.7514457E17,0E0,0E0,0E0,2.5369691E17,6.587218E17,0E0,0E0,4.813222E16,0E0,1.08480456E18,2.3951761E17,7.558307E17,9.570853E17,3.3222492E18,3.7492467E17,9.640958E17,0E0,0E0,7.1090024E16,1.04565755E17,0E0,0E0,8.015E16,0E0,0E0,1.1443387E17,1.2273716E18,8.8872205E17,0E0,0E0,6.903174E16,0E0,3.7319184E17,9.435041E17,1.5482531E18,9.2408235E17,2.2146451E18,6.981987E17,5.130129E16,0E0,0E0,0E0,0E0,0E0,6.0939332E16,0E0,0E0,3.548124E15,1.3897123E18,1.1347664E18,0E0,0E0,1.2954886E17,0E0,2.4892064E17,1.4818613E17,6.1002664E17,4.7898245E17,5.9292704E17,1.531822E18,6.261323E17,1.589542E17,7.625718E16,1.0071175E18,5.7603854E17,7.091762E17,2.744271E16,0E0,0E0,0E0,0E0,0E0,6.346909E17,2.1481818E17,1.7776904E16,8.753872E16,0E0,0E0,0E0,0E0,0E0,1.0023038E17,6.6918916E17,1.7685425E17,3.584584E17,9.281225E16,2.7232704E17,2.346094E17,8.458411E17,1.8748696E18,0E0,3.210574E17,1.7270249E17,0E0,0E0,0E0,1.5850824E18,1.6205922E17,4.9117383E16,1.1770932E18,4.8484065E16,4.8725078E17,0E0,0E0,0E0,0E0,0E0,0E0,0E0,0E0,0E0,0E0,0E0,0E0,0E0,0E0,0E0,0E0,0E0,0E0,0E0,0E0,0E0,0E0,0E0,0E0,0E0,0E0,0E0,0E0,0E0,0E0,0E0,0E0,0E0,0E0,0E0,0E0,0E0,0E0,0E0,0E0,0E0,0E0,0E0,0E0],"parents":[2147483647,0,0,1,1,2,2,3,3,4,4,5,5,6,6,7,7,8,8,9,9,10,10,11,11,12,12,13,13,14,14,15,15,16,16,17,17,18,18,21,21,22,22,26,26,27,27,30,30,32,32,33,33,34,34,35,35,36,36,37,37,38,38,41,41,42,42,45,45,48,48,49,49,50,50,53,53,55,55,56,56,57,57,58,58,59,59,60,60,61,61,67,67,70,70,71,71,72,72,75,75,77,77,78,78,79,79,80,80,81,81,82,82,83,83,84,84,85,85,86,86,87,87,88,88,89,89,95,95,96,96,97,97,98,98,104,104,105,105,106,106,107,107,108,108,109,109,110,110,111,111,112,112,114,114,115,115,119,119,120,120,121,121,122,122,123,123,124,124],"right_children":[2,4,6,8,10,12,14,16,18,20,22,24,26,28,30,32,34,36,38,-1,-1,40,42,-1,-1,-1,44,46,-1,-1,48,-1,50,52,54,56,58,60,62,-1,-1,64,66,-1,-1,68,-1,-1,70,72,74,-1,-1,76,-1,78,80,82,84,86,88,90,-1,-1,-1,-1,-1,92,-1,-1,94,96,98,-1,-1,100,-1,102,104,106,108,110,112,114,116,118,120,122,124,126,-1,-1,-1,-1,-1,128,130,132,134,-1,-1,-1,-1,-1,136,138,140,142,144,146,148,150,152,-1,154,156,-1,-1,-1,158,160,162,164,166,168,-1,-1,-1,-1,-1,-1,-1,-1,-1,-1,-1,-1,-1,-1,-1,-1,-1,-1,-1,-1,-1,-1,-1,-1,-1,-1,-1,-1,-1,-1,-1,-1,-1,-1,-1,-1,-1,-1,-1,-1,-1,-1,-1,-1],"split_conditions":[8.26E1,1.78E0,8.29E1,5.7E-1,1.33E1,9.6E0,8.97E1,1.85E1,1.83E1,3.2E0,1.85E0,1.6E0,6E-1,7E-1,1.1E-1,-2.3E0,1.65E3,2.7E0,1.69E0,1.2528527E10,-1.6440229E8,2.95E1,2.497E3,-1.5381947E8,3.2734537E12,-1.023299E8,6.4E-1,2.2E1,-7.899642E7,-1.0185307E8,5E-1,-1.1179191E8,7.49E1,4E-2,2.02E1,1.2E0,2.595E3,1.972E3,7.6E0,-7.5426904E7,-1.06507704E8,1.85E1,2.9E0,-7.0249624E7,-7.5962615E6,2.74E1,-8.851773E7,-9.586819E7,1.1E0,1.4E-1,9E-1,-6.847799E7,-1.04112296E8,2.5E-1,-8.376574E7,7E-1,1E0,1.1E0,9.1E-1,3.8E0,2E1,5.7E0,-8.369434E7,-6.6113984E7,-9.343009E7,-2.451613E7,-6.920111E7,2.785E3,-2.5199504E7,-1.7701392E7,7E-1,9.3E0,6E-1,-1.0555992E8,-7.8630536E7,7.8E1,-9.666462E7,8E-1,1.739E3,4.99E1,1.61E0,1.02E1,7.5E0,3.7E0,6.8E0,3.7E0,1.58E1,1.4E0,2.95E1,-2E0,-1.1476921E7,-9.602209E7,-2.5906442E7,-8.0631464E7,-3.3445014E7,6.62E1,5.39E1,4.6E-1,7.36E1,-8.48905E7,-9.7095304E7,-4.3758116E7,-8.323449E7,-2.5728262E7,5.4E0,1.2E3,7.48E1,4.73E1,1.546E3,1.26E1,7.1E0,-3.6E0,1.839E3,-7.421085E7,6.65E1,1.3E0,-1.0217831E8,-5.744115E7,-1.198759E7,5.88E1,8E-1,4.5E1,2.99E1,6.6E0,9.4E-1,-2.1043094E7,-5.4835336E7,-9.325324E7,-1.0669331E8,-7.776335E7,-8.9392696E7,-8.397415E7,-5.3099356E7,-1.001585E8,-8.456955E7,-1.058567E7,-5.726935E7,-6.9243895E6,-9.653245E7,-8.552348E7,-6.804524E7,-8.3686616E7,-7.128508E7,-2.152874E7,-5.4918668E7,-9.391999E7,-1.01069736E8,-1.5689082E7,-8.492821E7,-7.6670616E7,-3.3185444E7,-7.695173E7,-9.447737E7,-9.845262E7,-1.7961178E7,-7.7614424E7,-6.4837652E7,-1.0225781E8,-7.860187E7,-3.981215E7,-1.0453633E8,-9.817379E7,-2.7002702E7,-6.837745E7,-9.293167E7,-8.7711416E7,-3.547144E7,-8.545544E7,-1.02007944E8],"split_indices":[3,7,3,7,1,1,3,1,1,0,7,0,6,6,7,1,5,0,7,0,0,8,5,0,0,0,7,1,0,0,7,0,3,7,2,0,5,5,4,0,0,1,0,0,0,8,0,0,0,7,6,0,0,7,0,7,7,7,7,2,2,0,0,0,0,0,0,5,0,0,6,1,8,0,0,3,0,0,5,3,7,4,1,0,0,2,2,7,4,2,0,0,0,0,0,3,3,7,3,0,0,0,0,0,1,5,3,3,5,8,2,2,5,0,3,7,0,0,0,3,0,8,8,0,7,0,0,0,0,0,0,0,0,0,0,0,0,0,0,0,0,0,0,0,0,0,0,0,0,0,0,0,0,0,0,0,0,0,0,0,0,0,0,0,0,0,0,0,0],"split_type":[0,0,0,0,0,0,0,0,0,0,0,0,0,0,0,0,0,0,0,0,0,0,0,0,0,0,0,0,0,0,0,0,0,0,0,0,0,0,0,0,0,0,0,0,0,0,0,0,0,0,0,0,0,0,0,0,0,0,0,0,0,0,0,0,0,0,0,0,0,0,0,0,0,0,0,0,0,0,0,0,0,0,0,0,0,0,0,0,0,0,0,0,0,0,0,0,0,0,0,0,0,0,0,0,0,0,0,0,0,0,0,0,0,0,0,0,0,0,0,0,0,0,0,0,0,0,0,0,0,0,0,0,0,0,0,0,0,0,0,0,0,0,0,0,0,0,0,0,0,0,0,0,0,0,0,0,0,0,0,0,0,0,0,0,0,0,0,0,0],"sum_hessian":[1.2384E4,9.704E3,2.68E3,9.489E3,2.15E2,6.6E1,2.614E3,3.805E3,5.684E3,4E0,2.11E2,5E0,6.1E1,1.208E3,1.406E3,2.826E3,9.79E2,2.748E3,2.936E3,1E0,3E0,1.03E2,1.08E2,4E0,1E0,5.4E1,7E0,1.129E3,7.9E1,6.92E2,7.14E2,1.11E2,2.715E3,1.12E2,8.67E2,7.84E2,1.964E3,2.806E3,1.3E2,1.5E1,8.8E1,8.2E1,2.6E1,6E0,1E0,6.21E2,5.08E2,6.88E2,2.6E1,2.26E3,4.55E2,1E1,1.02E2,5.97E2,2.7E2,4.5E1,7.39E2,1.662E3,3.02E2,6.01E2,2.205E3,1.5E1,1.15E2,1.3E1,6.9E1,2E0,2.4E1,6.2E2,1E0,1E0,2.5E1,7.89E2,1.471E3,4.27E2,2.8E1,2.94E2,3.03E2,2.4E1,2.1E1,4.62E2,2.77E2,1.052E3,6.1E2,1.11E2,1.91E2,1.5E1,5.86E2,1.442E3,7.63E2,1.4E1,1E0,6.19E2,1E0,2.3E1,2E0,4.43E2,3.46E2,6.6E1,1.405E3,2.08E2,8.6E1,6E0,1.8E1,5E0,1.6E1,1.39E2,3.23E2,2.66E2,1.1E1,9.55E2,9.7E1,9.2E1,5.18E2,4E1,7.1E1,1.83E2,8E0,1.4E1,1E0,1.71E2,4.15E2,1.093E3,3.49E2,5.23E2,2.4E2,2E0,1.2E1,3.25E2,1.18E2,9.8E1,2.48E2,5.9E1,7E0,1.36E3,4.5E1,1E0,1.5E1,1E0,1.38E2,2.92E2,3.1E1,1.62E2,1.04E2,3E0,8E0,4.96E2,4.59E2,1E0,9.6E1,8.5E1,7E0,1.11E2,4.07E2,7E1,1E0,1.15E2,6.8E1,8.9E1,8.2E1,2E0,4.13E2,1.092E3,1E0,3.6E1,3.13E2,5.21E2,2E0,7.5E1,1.65E2],"tree_param":{"num_deleted":"0","num_feature":"9","num_nodes":"169","size_leaf_vector":"1"}},{"base_weights":[4.1904515E9,-8.229049E8,2.2336827E10,-8.4701984E8,2.4039952E8,9.273605E11,-8.5970125E8,-8.889617E8,-8.363549E8,4.639183E10,-8.492115E8,1.0364757E13,-8.934829E8,-8.82201E8,-8.1707654E8,-8.3264723E8,-9.04831E8,-8.421388E8,-7.6316115E8,1.1902102E10,-1.5207213E8,-8.1064115E8,-1.0408374E9,-1.4151392E8,3.1097812E12,-9.228297E7,-5.8003814E8,-9.114449E7,-8.5142496E8,-8.2860614E8,-7.145934E8,-7.8412134E8,-8.78416E8,-9.403441E8,-8.626247E8,-8.312615E8,-8.834784E8,-7.9256186E8,-6.563636E8,-8.442215E8,-6.6205645E8,-1.06731584E9,-4.2910704E7,-6.422823E7,-7.2164475E6,-8.817105E7,-8.081383E8,-8.469673E7,-7.621203E8,-7.182558E7,-1.7600698E7,-8.3438246E8,-6.9341144E7,-9.173898E8,-7.869984E8,-9.0321944E7,-9.750942E7,-8.045269E8,-9.1196826E8,-8.37487E8,-7.6726515E8,-9.2044646E8,-8.510004E8,-7.411038E8,-8.5794323E8,-4.885613E7,-7.095101E8,-8.571117E8,-4.6949836E7,-6.7063252E7,-1.723705E7,-4.4098764E7,-1.096304E8,-7.1759194E8,-8.336086E8,-8.088654E8,-6.6842144E8,-7.259855E7,-8.834686E8,-2.5997262E7,-9.201692E7,-8.01643E7,-4.3336052E7,-7.4841286E8,-8.678138E8,-9.130815E7,-2.5392784E7,-8.2345114E8,-8.650795E8,-6.8472294E8,-8.41523E8,-9.230449E8,-4.8164184E7,-7.6953235E8,-8.8911475E8,-7.843323E8,-6.2805052E7,-8.81636E7,-6.848889E7,-7.267917E7,-4.8993748E7,-8.8278035E8,-6.4988276E7,-5.846119E7,-7.973897E7,-8.365891E8,-2.855032E7,-8.12592E8,-1.8269942E7,-5.725503E8,-7.5275304E7,-2.2621764E7,-8.883667E7,-4.958337E7,-7.5732984E7,-9.033329E8,-7.003623E7,-8.479708E8,-7.933203E8,-7.680561E8,-8.833243E8,-5.945138E8,-7.1602074E8,-8.640515E8,-6.38501E7,-8.277161E7,-9.386177E7,-6.167441E8,-7.9485395E8,-8.6929485E8,-1.0774643E9,-8.764787E7,-7.4077024E8,-5.1073216E8,-8.978817E8,-8.409714E8,-4.343808E7,-6.926286E7,-8.6676984E7,-5.9391356E7,-1.395826E8,-4.382009E7,-9.1172936E7,-8.881484E7,-8.273753E7,-7.258316E7,-8.179095E7,-9.8061336E7,-7.438252E7,-8.867262E7,-6.388816E7,-6.747261E7,-4.4474924E7,-3.0738452E7,-7.2369224E7,-9.1467736E7,-7.836412E7,-6.5192012E7,-1.2838586E7,-8.191247E7,-6.347047E7,-8.856152E7,-7.1400696E7,-1.1038673E8,-3.3106676E7,-7.780096E7,-5.2597996E7,-5.6346316E7,-9.717299E6,-9.38009E7,-6.8744E7,-2.3192736E7,-8.423838E7,-1.4244795E6,-1.951291E7],"categories":[],"categories_nodes":[],"categories_segments":[],"categories_sizes":[],"default_left":[0,0,0,0,0,0,0,0,0,0,0,0,0,0,0,0,0,0,0,0,0,0,0,0,0,0,0,0,0,0,0,0,0,0,0,0,0,0,0,0,0,0,0,0,0,0,0,0,0,0,0,0,0,0,0,0,0,0,0,0,0,0,0,0,0,0,0,0,0,0,0,0,0,0,0,0,0,0,0,0,0,0,0,0,0,0,0,0,0,0,0,0,0,0,0,0,0,0,0,0,0,0,0,0,0,0,0,0,0,0,0,0,0,0,0,0,0,0,0,0,0,0,0,0,0,0,0,0,0,0,0,0,0,0,0,0,0,0,0,0,0,0,0,0,0,0,0,0,0,0,0,0,0,0,0,0,0,0,0,0,0,0,0,0,0,0,0,0,0,0,0,0,0,0,0],"id":33,"left_children":[1,3,5,7,9,11,13,15,17,19,21,23,25,27,29,31,33,35,37,-1,-1,39,41,-1,-1,-1,43,-1,45,47,49,51,53,55,57,59,61,63,65,67,69,71,-1,-1,-1,-1,73,-1,75,-1,-1,77,-1,79,81,-1,-1,83,85,87,89,91,93,95,97,-1,99,101,-1,-1,-1,-1,-1,103,105,107,109,-1,111,-1,-1,-1,-1,113,115,-1,-1,117,119,121,123,125,-1,127,129,131,-1,-1,-1,-1,-1,133,-1,-1,-1,135,-1,137,-1,139,-1,-1,-1,-1,-1,141,-1,143,145,147,149,151,153,155,-1,-1,-1,157,159,161,163,-1,165,167,169,171,-1,-1,-1,-1,173,-1,-1,-1,-1,-1,-1,-1,-1,-1,-1,-1,-1,-1,-1,-1,-1,-1,-1,-1,-1,-1,-1,-1,-1,-1,-1,-1,-1,-1,-1,-1,-1,-1,-1],"loss_changes":[1.1267343E24,2.4905413E20,5.6284115E25,3.5009858E18,1.0901411E22,5.869495E26,1.7870846E18,9.516669E17,2.5676147E18,1.7580244E22,7.23162E17,1.2895785E27,3.5043635E16,7.5294556E17,4.9138494E17,2.7067337E17,1.4027305E18,2.4212477E18,1.2569617E18,0E0,0E0,3.4419112E17,6.03346E16,0E0,0E0,0E0,2.065471E17,0E0,3.9258722E17,3.5311036E17,7.0834937E16,4.198991E17,4.046203E16,1.3975233E17,1.2357455E18,1.5779487E18,9.5286316E17,8.411528E17,7.9487654E17,2.931386E17,4.3987062E16,6.1225205E16,0E0,0E0,0E0,0E0,2.2977154E17,0E0,2.7837875E17,0E0,0E0,8.224347E16,0E0,2.3898985E16,2.0301383E16,0E0,0E0,5.01131E17,3.476216E16,1.2503118E18,2.525288E18,3.1254278E17,1.74708E18,7.438328E17,1.6290364E17,0E0,4.3980465E15,1.6036157E17,0E0,0E0,0E0,0E0,0E0,4.464237E17,2.0876647E17,1.3156316E17,1.1878904E17,0E0,8.55508E16,0E0,0E0,0E0,0E0,2.7637324E16,2.3570011E17,0E0,0E0,1.8242393E18,2.3113318E18,2.6603783E17,6.46636E17,2.0136016E17,0E0,5.040689E17,1.0306558E18,6.9260436E16,0E0,0E0,0E0,0E0,0E0,2.1562742E17,0E0,0E0,0E0,1.1412051E17,0E0,1.7306313E17,0E0,2.5008722E17,0E0,0E0,0E0,0E0,0E0,5.742969E16,0E0,7.9530755E17,1.9487216E18,6.8697487E17,6.1023775E17,5.2881012E17,3.3241315E17,2.3174187E17,0E0,0E0,0E0,6.2062264E17,3.2356428E17,5.892327E17,5.4107407E17,0E0,6.146094E17,9.789845E16,3.1783803E17,3.516678E16,0E0,0E0,0E0,0E0,1.810665E16,0E0,0E0,0E0,0E0,0E0,0E0,0E0,0E0,0E0,0E0,0E0,0E0,0E0,0E0,0E0,0E0,0E0,0E0,0E0,0E0,0E0,0E0,0E0,0E0,0E0,0E0,0E0,0E0,0E0,0E0,0E0,0E0,0E0,0E0],"parents":[2147483647,0,0,1,1,2,2,3,3,4,4,5,5,6,6,7,7,8,8,9,9,10,10,11,11,12,12,13,13,14,14,15,15,16,16,17,17,18,18,21,21,22,22,26,26,28,28,29,29,30,30,31,31,32,32,33,33,34,34,35,35,36,36,37,37,38,38,39,39,40,40,41,41,46,46,48,48,51,51,53,53,54,54,57,57,58,58,59,59,60,60,61,61,62,62,63,63,64,64,66,66,67,67,73,73,74,74,75,75,76,76,78,78,83,83,84,84,87,87,88,88,89,89,90,90,91,91,93,93,94,94,95,95,101,101,105,105,107,107,109,109,115,115,117,117,118,118,119,119,120,120,121,121,122,122,123,123,127,127,128,128,129,129,130,130,132,132,133,133,134,134,135,135,140,140],"right_children":[2,4,6,8,10,12,14,16,18,20,22,24,26,28,30,32,34,36,38,-1,-1,40,42,-1,-1,-1,44,-1,46,48,50,52,54,56,58,60,62,64,66,68,70,72,-1,-1,-1,-1,74,-1,76,-1,-1,78,-1,80,82,-1,-1,84,86,88,90,92,94,96,98,-1,100,102,-1,-1,-1,-1,-1,104,106,108,110,-1,112,-1,-1,-1,-1,114,116,-1,-1,118,120,122,124,126,-1,128,130,132,-1,-1,-1,-1,-1,134,-1,-1,-1,136,-1,138,-1,140,-1,-1,-1,-1,-1,142,-1,144,146,148,150,152,154,156,-1,-1,-1,158,160,162,164,-1,166,168,170,172,-1,-1,-1,-1,174,-1,-1,-1,-1,-1,-1,-1,-1,-1,-1,-1,-1,-1,-1,-1,-1,-1,-1,-1,-1,-1,-1,-1,-1,-1,-1,-1,-1,-1,-1,-1,-1,-1,-1],"split_conditions":[8.26E1,1.78E0,8.29E1,2E-1,1.33E1,9.6E0,1E-1,5.95E1,2.755E3,3.2E0,1.87E1,1.6E0,6E-1,1.32E3,2.128E3,1.3E-1,1.64E1,4.2E0,1.28E0,1.1902102E10,-1.5207213E8,1.91E0,3.9E0,-1.4151392E8,3.1097812E12,-9.228297E7,6.4E-1,-9.114449E7,2.36E1,5E-1,3.25E1,-5E-1,4.7E-1,7.05E1,2.4E-1,1.52E0,8.3E-1,1.37E1,1.39E1,5.85E1,2.47E1,1.659E3,-4.2910704E7,-6.422823E7,-7.2164475E6,-8.817105E7,8.62E1,-8.469673E7,4E-1,-7.182558E7,-1.7600698E7,4.86E1,-6.9341144E7,7.9E2,4E0,-9.0321944E7,-9.750942E7,7.8E1,2.54E1,2.83E1,2.42E1,3.37E1,1.55E1,9.1E-1,6.65E1,-4.885613E7,1.69E0,2.634E3,-4.6949836E7,-6.7063252E7,-1.723705E7,-4.4098764E7,-1.096304E8,1.5E-1,2.428E3,9.65E1,2.38E1,-7.259855E7,9.43E2,-2.5997262E7,-9.201692E7,-8.01643E7,-4.3336052E7,1.66E1,2.63E1,-9.130815E7,-2.5392784E7,7E-1,7.4E-1,2.8E0,4.73E1,2.4E-1,-4.8164184E7,4.5E0,6.4E0,4.18E1,-6.2805052E7,-8.81636E7,-6.848889E7,-7.267917E7,-4.8993748E7,2.57E1,-6.4988276E7,-5.846119E7,-7.973897E7,5.7E0,-2.855032E7,1.09E1,-1.8269942E7,7.5E-1,-7.5275304E7,-2.2621764E7,-8.883667E7,-4.958337E7,-7.5732984E7,1.2E3,-7.003623E7,5.58E1,2.3E0,1.686E3,2.58E1,1.66E0,1.53E0,2.304E3,-6.38501E7,-8.277161E7,-9.386177E7,6.01E1,1.2E0,1.64E0,1.99E1,-8.764787E7,1E0,-3E-1,4.2E1,2.07E1,-4.343808E7,-6.926286E7,-8.6676984E7,-5.9391356E7,1E0,-4.382009E7,-9.1172936E7,-8.881484E7,-8.273753E7,-7.258316E7,-8.179095E7,-9.8061336E7,-7.438252E7,-8.867262E7,-6.388816E7,-6.747261E7,-4.4474924E7,-3.0738452E7,-7.2369224E7,-9.1467736E7,-7.836412E7,-6.5192012E7,-1.2838586E7,-8.191247E7,-6.347047E7,-8.856152E7,-7.1400696E7,-1.1038673E8,-3.3106676E7,-7.780096E7,-5.2597996E7,-5.6346316E7,-9.717299E6,-9.38009E7,-6.8744E7,-2.3192736E7,-8.423838E7,-1.4244795E6,-1.951291E7],"split_indices":[3,7,3,6,1,1,6,3,5,0,4,0,6,5,5,7,1,0,7,0,0,7,0,0,0,0,7,0,8,6,8,2,7,3,7,7,7,1,1,3,1,5,0,0,0,0,3,0,7,0,0,3,0,5,0,0,0,3,2,8,1,8,8,7,3,0,7,5,0,0,0,0,0,7,5,3,8,0,5,0,0,0,0,1,8,0,0,7,7,0,8,7,0,0,0,3,0,0,0,0,0,3,0,0,0,0,0,8,0,7,0,0,0,0,0,5,0,3,0,5,2,7,7,5,0,0,0,3,7,7,1,0,6,2,8,1,0,0,0,0,0,0,0,0,0,0,0,0,0,0,0,0,0,0,0,0,0,0,0,0,0,0,0,0,0,0,0,0,0,0,0,0,0,0,0],"split_type":[0,0,0,0,0,0,0,0,0,0,0,0,0,0,0,0,0,0,0,0,0,0,0,0,0,0,0,0,0,0,0,0,0,0,0,0,0,0,0,0,0,0,0,0,0,0,0,0,0,0,0,0,0,0,0,0,0,0,0,0,0,0,0,0,0,0,0,0,0,0,0,0,0,0,0,0,0,0,0,0,0,0,0,0,0,0,0,0,0,0,0,0,0,0,0,0,0,0,0,0,0,0,0,0,0,0,0,0,0,0,0,0,0,0,0,0,0,0,0,0,0,0,0,0,0,0,0,0,0,0,0,0,0,0,0,0,0,0,0,0,0,0,0,0,0,0,0,0,0,0,0,0,0,0,0,0,0,0,0,0,0,0,0,0,0,0,0,0,0,0,0,0,0,0,0],"sum_hessian":[1.2384E4,9.704E3,2.68E3,9.489E3,2.15E2,6.6E1,2.614E3,1.907E3,7.582E3,4E0,2.11E2,5E0,6.1E1,1.698E3,9.16E2,4.31E2,1.476E3,7.017E3,5.65E2,1E0,3E0,1.8E2,3.1E1,4E0,1E0,5.4E1,7E0,8.56E2,8.42E2,8.17E2,9.9E1,2.18E2,2.13E2,7.9E2,6.86E2,5.572E3,1.445E3,4.38E2,1.27E2,1.43E2,3.7E1,2.9E1,2E0,6E0,1E0,4.84E2,3.58E2,6.31E2,1.86E2,9.8E1,1E0,1.35E2,8.3E1,1.43E2,7E1,3.95E2,3.95E2,3.23E2,3.63E2,5.067E3,5.05E2,6.63E2,7.82E2,2.52E2,1.86E2,3.3E1,9.4E1,1.37E2,6E0,3.6E1,1E0,2E0,2.7E1,8.5E1,2.73E2,1.19E2,6.7E1,4.7E1,8.8E1,1E0,1.42E2,6.6E1,4E0,1.78E2,1.45E2,3.62E2,1E0,3.379E3,1.688E3,2.44E2,2.61E2,6.58E2,5E0,2.56E2,5.26E2,1.78E2,7.4E1,1.6E2,2.6E1,8.5E1,9E0,1.19E2,1.8E1,3.5E1,5E1,2.71E2,2E0,1.18E2,1E0,3.5E1,3.2E1,1E0,8.7E1,8E0,1.7E2,1.16E2,2.9E1,1.848E3,1.531E3,2.74E2,1.414E3,6.8E1,1.76E2,2.32E2,2.9E1,1E2,5.58E2,4E1,2.16E2,4.81E2,4.5E1,5.1E1,1.27E2,6E0,1.13E2,2.67E2,4E0,4.1E1,7.7E1,3.3E1,2E0,3E0,1.13E2,6.12E2,1.236E3,4.17E2,1.114E3,2.4E1,2.5E2,1.392E3,2.2E1,4.2E1,2.6E1,4E0,1.72E2,1.36E2,9.6E1,3.7E1,3E0,1.84E2,3.2E1,4.31E2,5E1,4.3E1,2E0,1.06E2,2.1E1,5E0,1E0,9.2E1,2.1E1,1E0,2.66E2,1E0,1E0],"tree_param":{"num_deleted":"0","num_feature":"9","num_nodes":"175","size_leaf_vector":"1"}},{"base_weights":[4.0230026E9,-7.398375E8,2.1262592E10,-7.6269606E8,2.6788048E8,8.810346E11,-7.7411386E8,-8.785453E8,-7.592082E8,4.4102648E10,-7.672219E8,9.846556E12,-8.067753E7,-7.8742304E8,-7.137357E8,-6.74877E8,-8.938297E8,-7.7510605E8,-7.341291E8,1.1306995E10,-1.4066672E8,-7.319243E8,-9.4289856E8,-1.3019281E8,2.9542924E12,-8.101052E7,-7.6046726E8,-7.322954E8,-6.154683E8,-3.1704542E7,-7.1269944E7,-8.957121E7,-2.135026E7,-7.658678E8,-8.2027725E8,-6.252783E8,-7.436315E8,-7.936007E8,-6.561635E8,-9.657085E8,-4.0049988E7,-8.450933E7,-7.48393E8,-7.5207584E8,-6.3628883E8,-5.314844E8,-7.0551616E8,-7.638489E8,-1.0122659E9,-8.081475E8,-9.111179E8,-6.5076934E8,-5.048653E8,-7.479801E8,-6.1064314E8,-8.157208E8,-4.510793E7,-6.608683E8,-1.2577734E7,-4.1158844E7,-9.905889E8,-7.492594E8,-2.465179E7,-7.533296E8,-1.7167636E7,-5.080418E8,-7.1991354E8,-1.2703667E7,-5.3751508E7,-7.294623E8,-3.2559498E7,-7.687697E8,-6.8458624E8,-1.02546376E8,-2.8176986E7,-8.165182E8,-6.0463866E8,-9.149408E7,-2.6059162E7,-7.247625E7,-5.9550995E8,-1.1778407E7,-5.170205E7,-7.4096454E8,-8.31213E8,-2.5426733E8,-6.182587E8,-6.006976E8,-8.587447E7,-3.8018618E8,-6.771671E8,-2.8879406E7,-1.0058853E8,-7.500194E8,-2.7859638E7,-7.564956E7,-3.9877868E7,-5.385047E8,-2.2974854E7,-7.272011E7,-2.0691854E7,-3.6287732E7,-7.532326E8,-7.9460954E8,-7.591874E8,-5.7391686E8,-7.463698E8,-7.493804E8,-8.294441E8,-3.5644036E7,-6.3228092E7,-3.0842342E8,-6.080186E8,-7.018688E8,-7.493996E8,-8.797274E7,-7.689027E8,-3.1928182E7,-2.96119E6,-5.6679866E8,-7.002966E7,-1.7245728E7,-6.1574364E7,-7.5694395E6,-4.1831907E8,-6.815932E8,-1.63752E7,-7.721289E7,-7.21107E8,-6.014792E8,-3.8077564E7,-7.639882E7,-2.1528176E7,-7.512506E7,-8.182621E7,-7.928626E7,-7.484945E7,-3.7947828E7,-6.1246172E7,-7.678767E7,-4.987826E7,-7.565003E7,-1.720744E7,-9.0191224E7,-8.036742E7,-3.3527082E7,-6.024582E6,-6.1794024E7,-2.9006046E7,-7.265484E7,-6.0107068E7,-9.191051E7,-7.466627E7,-8.687879E7,-6.6275724E7,-6.1818944E7,-3.8113732E7,-4.661041E7,-8.969708E6,-5.1141436E7,-7.103792E7,-5.6772652E7,-7.331305E7,-4.0687504E7,-7.060209E7],"categories":[],"categories_nodes":[],"categories_segments":[],"categories_sizes":[],"default_left":[0,0,0,0,0,0,0,0,0,0,0,0,0,0,0,0,0,0,0,0,0,0,0,0,0,0,0,0,0,0,0,0,0,0,0,0,0,0,0,0,0,0,0,0,0,0,0,0,0,0,0,0,0,0,0,0,0,0,0,0,0,0,0,0,0,0,0,0,0,0,0,0,0,0,0,0,0,0,0,0,0,0,0,0,0,0,0,0,0,0,0,0,0,0,0,0,0,0,0,0,0,0,0,0,0,0,0,0,0,0,0,0,0,0,0,0,0,0,0,0,0,0,0,0,0,0,0,0,0,0,0,0,0,0,0,0,0,0,0,0,0,0,0,0,0,0,0,0,0,0,0,0,0,0,0,0,0,0,0,0,0,0,0,0,0],"id":34,"left_children":[1,3,5,7,9,11,13,15,17,19,21,23,-1,25,27,29,31,33,35,-1,-1,37,39,-1,-1,-1,41,43,45,-1,-1,-1,-1,47,49,51,53,55,57,59,-1,-1,61,63,65,67,69,71,73,75,77,79,81,83,85,87,-1,89,-1,-1,91,93,-1,95,-1,97,99,-1,-1,101,-1,103,105,-1,-1,107,109,-1,-1,-1,111,-1,-1,113,115,117,119,121,-1,123,125,-1,-1,127,-1,-1,-1,129,-1,-1,-1,-1,131,133,135,137,139,141,143,-1,-1,145,147,149,151,-1,153,-1,-1,155,-1,-1,-1,-1,157,159,-1,-1,161,163,-1,-1,-1,-1,-1,-1,-1,-1,-1,-1,-1,-1,-1,-1,-1,-1,-1,-1,-1,-1,-1,-1,-1,-1,-1,-1,-1,-1,-1,-1,-1,-1,-1,-1,-1],"loss_changes":[1.01694075E24,2.2375853E20,5.0796366E25,3.1677194E18,9.834506E21,5.2972124E26,1.5393866E18,2.4036204E17,3.1069208E18,1.5852324E22,6.244786E17,1.16384065E27,0E0,6.880656E17,4.302169E17,8.53265E16,1.2763131E17,1.7189677E18,3.2544137E18,0E0,0E0,3.2502443E17,9.14134E15,0E0,0E0,0E0,3.8016714E17,2.8297031E17,2.5272275E17,0E0,0E0,0E0,0E0,1.557401E18,3.005449E17,5.7693574E17,1.4529738E18,3.5182173E17,1.3397329E17,5.884586E15,0E0,0E0,1.9622324E17,1.0863175E17,4.38604E17,4.635321E16,9.910338E16,1.287748E18,4.8488463E16,9.3555245E17,1.7724127E16,5.4971183E17,2.0258392E17,1.2484823E18,1.4134002E17,2.9825792E17,0E0,1.359832E17,0E0,0E0,1.0084721E16,1.03688345E17,0E0,6.4246663E16,0E0,1.5604104E17,1.0280434E16,0E0,0E0,2.2939111E16,0E0,4.790704E17,1.4930048E18,0E0,0E0,7.532974E16,2.8476252E16,0E0,0E0,0E0,3.259964E17,0E0,0E0,4.4810816E17,4.9064607E16,4.8968898E16,5.4790863E16,9.790601E15,0E0,4.9613675E16,7.017963E16,0E0,0E0,5.981343E14,0E0,0E0,0E0,5.9025083E16,0E0,0E0,0E0,0E0,1.4891785E16,5.758978E17,5.6266848E17,5.545189E17,5.594931E17,4.4527582E17,5.151344E17,0E0,0E0,3.3104715E16,2.4979585E17,9.066133E17,4.3558253E17,0E0,6.222708E17,0E0,0E0,4.4181676E17,0E0,0E0,0E0,0E0,5.241097E16,2.370767E16,0E0,0E0,3.0854935E17,9.927875E16,0E0,0E0,0E0,0E0,0E0,0E0,0E0,0E0,0E0,0E0,0E0,0E0,0E0,0E0,0E0,0E0,0E0,0E0,0E0,0E0,0E0,0E0,0E0,0E0,0E0,0E0,0E0,0E0,0E0,0E0,0E0,0E0,0E0,0E0,0E0],"parents":[2147483647,0,0,1,1,2,2,3,3,4,4,5,5,6,6,7,7,8,8,9,9,10,10,11,11,13,13,14,14,15,15,16,16,17,17,18,18,21,21,22,22,26,26,27,27,28,28,33,33,34,34,35,35,36,36,37,37,38,38,39,39,42,42,43,43,44,44,45,45,46,46,47,47,48,48,49,49,50,50,51,51,52,52,53,53,54,54,55,55,57,57,60,60,61,61,63,63,65,65,66,66,69,69,71,71,72,72,75,75,76,76,80,80,83,83,84,84,85,85,86,86,87,87,89,89,90,90,93,93,97,97,102,102,103,103,104,104,105,105,106,106,107,107,108,108,111,111,112,112,113,113,114,114,116,116,119,119,124,124,125,125,128,128,129,129],"right_children":[2,4,6,8,10,12,14,16,18,20,22,24,-1,26,28,30,32,34,36,-1,-1,38,40,-1,-1,-1,42,44,46,-1,-1,-1,-1,48,50,52,54,56,58,60,-1,-1,62,64,66,68,70,72,74,76,78,80,82,84,86,88,-1,90,-1,-1,92,94,-1,96,-1,98,100,-1,-1,102,-1,104,106,-1,-1,108,110,-1,-1,-1,112,-1,-1,114,116,118,120,122,-1,124,126,-1,-1,128,-1,-1,-1,130,-1,-1,-1,-1,132,134,136,138,140,142,144,-1,-1,146,148,150,152,-1,154,-1,-1,156,-1,-1,-1,-1,158,160,-1,-1,162,164,-1,-1,-1,-1,-1,-1,-1,-1,-1,-1,-1,-1,-1,-1,-1,-1,-1,-1,-1,-1,-1,-1,-1,-1,-1,-1,-1,-1,-1,-1,-1,-1,-1,-1,-1],"split_conditions":[8.26E1,1.78E0,8.29E1,-8E-1,1.33E1,9.6E0,3.5E-1,4.86E1,2.282E3,3.2E0,1.87E1,1.6E0,-8.067753E7,1.406E3,2.062E3,2.166E3,1E0,4.3E0,3.5E0,1.1306995E10,-1.4066672E8,1.86E0,3.9E0,-1.3019281E8,2.9542924E12,-8.101052E7,2E-2,5E-1,2.5E0,-3.1704542E7,-7.1269944E7,-8.957121E7,-2.135026E7,3.13E1,7.52E1,1.18E0,1.67E0,5.77E1,2.65E1,1.659E3,-4.0049988E7,-8.450933E7,3.07E1,9.56E1,2.16E1,8.32E1,9.08E1,1.52E0,2.63E1,3.45E1,1.38E0,3.85E1,2.2E0,5.1E0,2.28E1,2.95E1,-4.510793E7,2.9E0,-1.2577734E7,-4.1158844E7,1.6E1,2.86E1,-2.465179E7,3.33E1,-1.7167636E7,1.51E1,3.4E0,-1.2703667E7,-5.3751508E7,1.45E1,-3.2559498E7,2E-1,7.5E0,-1.02546376E8,-2.8176986E7,4.1E0,2.25E1,-9.149408E7,-2.6059162E7,-7.247625E7,2.304E3,-1.1778407E7,-5.170205E7,2.1E0,9.3E-1,1.21E1,1.67E1,1E0,-8.587447E7,2.359E3,1.72E1,-2.8879406E7,-1.0058853E8,2.22E1,-2.7859638E7,-7.564956E7,-3.9877868E7,1.565E3,-2.2974854E7,-7.272011E7,-2.0691854E7,-3.6287732E7,2.9E1,7E-2,4.97E1,1.761E3,4.73E1,9.8E0,4.65E1,-3.5644036E7,-6.3228092E7,2.1E0,1.09E1,1E0,1.5E0,-8.797274E7,4.15E1,-3.1928182E7,-2.96119E6,2.27E1,-7.002966E7,-1.7245728E7,-6.1574364E7,-7.5694395E6,2.8E0,1.83E1,-1.63752E7,-7.721289E7,2.08E1,4.2E-1,-3.8077564E7,-7.639882E7,-2.1528176E7,-7.512506E7,-8.182621E7,-7.928626E7,-7.484945E7,-3.7947828E7,-6.1246172E7,-7.678767E7,-4.987826E7,-7.565003E7,-1.720744E7,-9.0191224E7,-8.036742E7,-3.3527082E7,-6.024582E6,-6.1794024E7,-2.9006046E7,-7.265484E7,-6.0107068E7,-9.191051E7,-7.466627E7,-8.687879E7,-6.6275724E7,-6.1818944E7,-3.8113732E7,-4.661041E7,-8.969708E6,-5.1141436E7,-7.103792E7,-5.6772652E7,-7.331305E7,-4.0687504E7,-7.060209E7],"split_indices":[3,7,3,1,1,1,7,3,5,0,4,0,0,5,5,5,6,0,4,0,0,7,0,0,0,0,7,6,0,0,0,0,0,1,3,7,7,3,1,5,0,0,8,3,8,3,3,7,2,8,7,3,0,0,8,8,0,0,0,0,2,1,0,4,0,2,0,0,0,1,0,6,2,0,0,4,1,0,0,0,5,0,0,0,7,1,2,6,0,5,4,0,0,1,0,0,0,5,0,0,0,0,1,7,3,5,8,1,3,0,0,1,8,6,1,0,3,0,0,1,0,0,0,0,0,1,0,0,2,7,0,0,0,0,0,0,0,0,0,0,0,0,0,0,0,0,0,0,0,0,0,0,0,0,0,0,0,0,0,0,0,0,0,0,0],"split_type":[0,0,0,0,0,0,0,0,0,0,0,0,0,0,0,0,0,0,0,0,0,0,0,0,0,0,0,0,0,0,0,0,0,0,0,0,0,0,0,0,0,0,0,0,0,0,0,0,0,0,0,0,0,0,0,0,0,0,0,0,0,0,0,0,0,0,0,0,0,0,0,0,0,0,0,0,0,0,0,0,0,0,0,0,0,0,0,0,0,0,0,0,0,0,0,0,0,0,0,0,0,0,0,0,0,0,0,0,0,0,0,0,0,0,0,0,0,0,0,0,0,0,0,0,0,0,0,0,0,0,0,0,0,0,0,0,0,0,0,0,0,0,0,0,0,0,0,0,0,0,0,0,0,0,0,0,0,0,0,0,0,0,0,0,0],"sum_hessian":[1.2384E4,9.704E3,2.68E3,9.489E3,2.15E2,6.6E1,2.614E3,2.7E2,9.219E3,4E0,2.11E2,5E0,6.1E1,2.132E3,4.82E2,2.2E1,2.48E2,5.624E3,3.595E3,1E0,3E0,1.8E2,3.1E1,4E0,1E0,1.142E3,9.9E2,4E2,8.2E1,3E0,1.9E1,2.47E2,1E0,4.684E3,9.4E2,2.94E2,3.301E3,9.4E1,8.6E1,2.9E1,2E0,1.15E2,8.75E2,3.26E2,7.4E1,4.6E1,3.6E1,4.65E3,3.4E1,8.38E2,1.02E2,2.39E2,5.5E1,3.192E3,1.09E2,8.7E1,7E0,8.5E1,1E0,2E0,2.7E1,8.73E2,2E0,3.25E2,1E0,3.2E1,4.2E1,1E0,4.5E1,3.3E1,3E0,4.37E3,2.8E2,3.3E1,1E0,8.02E2,3.6E1,1.01E2,1E0,9.7E1,1.42E2,2E0,5.3E1,2.953E3,2.39E2,3E0,1.06E2,1.7E1,7E1,6E0,7.9E1,1E0,2.6E1,8.71E2,2E0,3.21E2,4E0,2.8E1,4E0,4.1E1,1E0,3E0,3E1,1.16E3,3.21E3,1.04E2,1.76E2,1.39E2,6.63E2,5E0,3.1E1,7E0,1.35E2,5.39E2,2.414E3,1.27E2,1.12E2,2E0,1E0,7E1,3.6E1,1E0,1.6E1,1E0,5E0,7.8E1,1E0,4.79E2,3.92E2,1.8E1,1E1,2.9E1,1E0,4.21E2,7.39E2,7.56E2,2.454E3,1.9E1,8.5E1,1.6E2,1.6E1,1.37E2,2E0,1.65E2,4.98E2,6E0,1E0,1.3E2,5E0,4.28E2,1.11E2,3.3E1,2.381E3,5.4E1,5.8E1,5.3E1,1.7E1,4E0,1E0,1.4E1,6.4E1,3.2E1,3.6E2,8E0,1E1],"tree_param":{"num_deleted":"0","num_feature":"9","num_nodes":"165","size_leaf_vector":"1"}},{"base_weights":[3.8597975E9,-6.650131E8,2.0237801E10,-6.866765E8,2.898497E8,8.3702206E11,-6.971067E8,-7.9148E8,-6.835216E8,4.192565E10,-6.934939E8,9.354263E12,-7.2739904E8,-7.3050765E8,-6.759389E8,-6.118665E8,-8.0489216E8,-6.950088E8,-6.5445843E8,1.0741645E10,-1.3011673E8,-6.610749E8,-8.551923E7,-1.19777384E8,2.8065784E12,-7.530139E7,-4.603721E8,-6.4432403E8,-7.4273005E8,-6.895835E8,-6.268431E8,-2.9326698E7,-6.4499304E7,-8.06502E8,-2.0282746E7,-6.8786035E8,-7.2954285E8,-6.646975E8,-5.787689E8,-6.898155E8,-5.3476637E8,-5.180774E7,-2.8217532E6,-7.221562E7,-4.664354E8,-7.437304E8,-2.0537642E7,-6.9910534E8,-6.186598E8,-2.6727148E7,-6.2910336E8,-6.035243E8,-8.16979E7,-6.863339E8,-8.496831E8,-6.644336E8,-7.40243E8,-5.851969E8,-6.7502586E8,-4.6827357E8,-6.123095E8,-6.999948E8,-3.9059164E7,-1.4979143E7,-5.411227E8,-1.9741956E7,-4.74743E7,-7.440951E7,-2.1360214E7,-1.9703628E7,-6.993836E7,-5.430337E8,-6.635683E8,-6.300818E8,-1.3941143E7,-6.519728E7,-1.7625672E7,-6.884509E8,-5.514836E8,-2.6564542E7,-8.69737E8,-6.876905E8,-5.3004938E8,-8.666137E8,-7.3088134E8,-5.976118E8,-4.3149296E8,-6.653515E8,-7.34093E8,