{"learner":{"attributes":{"scikit_learn":"{\"_estimator_type\": \"regressor\"}"},"feature_names":[],"feature_types":[],"gradient_booster":{"model":{"gbtree_model_param":{"num_parallel_tree":"1","num_trees":"500"},"iteration_indptr":[0,1,2,3,4,5,6,7,8,9,10,11,12,13,14,15,16,17,18,19,20,21,22,23,24,25,26,27,28,29,30,31,32,33,34,35,36,37,38,39,40,41,42,43,44,45,46,47,48,49,50,51,52,53,54,55,56,57,58,59,60,61,62,63,64,65,66,67,68,69,70,71,72,73,74,75,76,77,78,79,80,81,82,83,84,85,86,87,88,89,90,91,92,93,94,95,96,97,98,99,100,101,102,103,104,105,106,107,108,109,110,111,112,113,114,115,116,117,118,119,120,121,122,123,124,125,126,127,128,129,130,131,132,133,134,135,136,137,138,139,140,141,142,143,144,145,146,147,148,149,150,151,152,153,154,155,156,157,158,159,160,161,162,163,164,165,166,167,168,169,170,171,172,173,174,175,176,177,178,179,180,181,182,183,184,185,186,187,188,189,190,191,192,193,194,195,196,197,198,199,200,201,202,203,204,205,206,207,208,209,210,211,212,213,214,215,216,217,218,219,220,221,222,223,224,225,226,227,228,229,230,231,232,233,234,235,236,237,238,239,240,241,242,243,244,245,246,247,248,249,250,251,252,253,254,255,256,257,258,259,260,261,262,263,264,265,266,267,268,269,270,271,272,273,274,275,276,277,278,279,280,281,282,283,284,285,286,287,288,289,290,291,292,293,294,295,296,297,298,299,300,301,302,303,304,305,306,307,308,309,310,311,312,313,314,315,316,317,318,319,320,321,322,323,324,325,326,327,328,329,330,331,332,333,334,335,336,337,338,339,340,341,342,343,344,345,346,347,348,349,350,351,352,353,354,355,356,357,358,359,360,361,362,363,364,365,366,367,368,369,370,371,372,373,374,375,376,377,378,379,380,381,382,383,384,385,386,387,388,389,390,391,392,393,394,395,396,397,398,399,400,401,402,403,404,405,406,407,408,409,410,411,412,413,414,415,416,417,418,419,420,421,422,423,424,425,426,427,428,429,430,431,432,433,434,435,436,437,438,439,440,441,442,443,444,445,446,447,448,449,450,451,452,453,454,455,456,457,458,459,460,461,462,463,464,465,466,467,468,469,470,471,472,473,474,475,476,477,478,479,480,481,482,483,484,485,486,487,488,489,490,491,492,493,494,495,496,497,498,499,500],"tree_info":[0,0,0,0,0,0,0,0,0,0,0,0,0,0,0,0,0,0,0,0,0,0,0,0,0,0,0,0,0,0,0,0,0,0,0,0,0,0,0,0,0,0,0,0,0,0,0,0,0,0,0,0,0,0,0,0,0,0,0,0,0,0,0,0,0,0,0,0,0,0,0,0,0,0,0,0,0,0,0,0,0,0,0,0,0,0,0,0,0,0,0,0,0,0,0,0,0,0,0,0,0,0,0,0,0,0,0,0,0,0,0,0,0,0,0,0,0,0,0,0,0,0,0,0,0,0,0,0,0,0,0,0,0,0,0,0,0,0,0,0,0,0,0,0,0,0,0,0,0,0,0,0,0,0,0,0,0,0,0,0,0,0,0,0,0,0,0,0,0,0,0,0,0,0,0,0,0,0,0,0,0,0,0,0,0,0,0,0,0,0,0,0,0,0,0,0,0,0,0,0,0,0,0,0,0,0,0,0,0,0,0,0,0,0,0,0,0,0,0,0,0,0,0,0,0,0,0,0,0,0,0,0,0,0,0,0,0,0,0,0,0,0,0,0,0,0,0,0,0,0,0,0,0,0,0,0,0,0,0,0,0,0,0,0,0,0,0,0,0,0,0,0,0,0,0,0,0,0,0,0,0,0,0,0,0,0,0,0,0,0,0,0,0,0,0,0,0,0,0,0,0,0,0,0,0,0,0,0,0,0,0,0,0,0,0,0,0,0,0,0,0,0,0,0,0,0,0,0,0,0,0,0,0,0,0,0,0,0,0,0,0,0,0,0,0,0,0,0,0,0,0,0,0,0,0,0,0,0,0,0,0,0,0,0,0,0,0,0,0,0,0,0,0,0,0,0,0,0,0,0,0,0,0,0,0,0,0,0,0,0,0,0,0,0,0,0,0,0,0,0,0,0,0,0,0,0,0,0,0,0,0,0,0,0,0,0,0,0,0,0,0,0,0,0,0,0,0,0,0,0,0,0,0,0,0,0,0,0,0,0,0,0,0,0,0,0,0,0,0,0,0,0,0,0,0,0,0,0,0,0,0,0,0,0,0,0,0,0,0,0,0,0,0,0,0,0,0,0,0,0,0,0,0,0,0,0,0,0,0,0,0,0,0,0,0,0,0,0,0,0],"trees":[{"base_weights":[-4.7477745E-3,-4.3795225E6,7.159493E6,-6.6708195E6,-2.033503E6,5.0783735E6,9.610232E6,-7.365535E6,-5.944638E6,-3.318434E6,3.5096117E4,8.2355615E6,4.2840455E6,8.535628E6,1.0894091E6,-5.463599E5,-7.482619E5,-2.6291678E6,-6.183739E6,-2.0158734E6,-4.755044E6,4.518666E6,-5.2951475E5,1.3874355E5,8.6039644E5,3.166482E6,5.7000055E6,9.137679E6,5.1100235E6,-3.6438792E6,-1.1589714E6,-3.0101268E6,-6.2676735E6,-6.269261E6,-1.5536968E6,-4.05979E6,-6.283844E6,-2.123015E5,5.988537E5,1.1458246E6,-1.5588872E6,4.243304E6,1.2833768E6,7.50188E6,4.214638E6,9.683913E5,7.0796195E6,6.4998585E6,1.2032546E6,-4.4120184E5,-2.1469642E5,-1.442664E5,-2.0526248E4,-4.0601378E5,-2.5673248E4,-6.3102806E5,-1.4942167E5,-6.823661E5,-2.1467061E5,4.613774E4,-2.4494433E5,-4.71119E5,-3.1539697E5,-6.775483E5,-6.568621E4,1.5085667E5,-2.783309E5,-3.75858E5,-7.805018E4,4.945891E5,8.2219555E4,3.8122488E5,6.0204094E4,3.4490525E5,7.719616E5,4.616268E5,1.2278243E5,7.6043444E5,3.2499628E5,7.773217E5,3.082059E5,2.56323E5,-1.4644558E5],"categories":[],"categories_nodes":[],"categories_segments":[],"categories_sizes":[],"default_left":[0,0,0,0,0,0,0,0,0,0,0,0,0,0,0,0,0,0,0,0,0,0,0,0,0,0,0,0,0,0,0,0,0,0,0,0,0,0,0,0,0,0,0,0,0,0,0,0,0,0,0,0,0,0,0,0,0,0,0,0,0,0,0,0,0,0,0,0,0,0,0,0,0,0,0,0,0,0,0,0,0,0,0],"id":0,"left_children":[1,3,5,7,9,11,13,15,17,19,21,23,25,27,-1,-1,-1,29,31,33,35,37,39,-1,-1,41,43,45,47,49,51,53,55,57,59,61,63,-1,-1,65,67,69,71,73,75,-1,77,79,81,-1,-1,-1,-1,-1,-1,-1,-1,-1,-1,-1,-1,-1,-1,-1,-1,-1,-1,-1,-1,-1,-1,-1,-1,-1,-1,-1,-1,-1,-1,-1,-1,-1,-1],"loss_changes":[4.2298114E16,4.485667E15,2.5625386E15,1.6961255E14,1.1031896E15,6.6440674E14,2.2984947E14,6.326487E12,1.5180132E14,4.694598E14,4.0742825E14,1.2682045E14,3.3799675E14,2.2554054E14,0E0,0E0,0E0,1.9646044E13,3.360973E13,2.576105E14,1.0310015E14,1.8843716E14,2.483966E14,0E0,0E0,2.5410879E14,2.3067384E14,5.622649E13,1.1163392E14,8.761062E11,1.8683569E12,1.9195295E13,2.9416768E13,1.5063725E13,2.2494958E14,3.5885525E13,9.5141444E13,0E0,0E0,8.258822E13,1.4945298E14,1.9062729E14,8.04094E13,1.1319923E13,6.1509233E13,0E0,2.9542933E13,4.5675836E13,2.914988E13,0E0,0E0,0E0,0E0,0E0,0E0,0E0,0E0,0E0,0E0,0E0,0E0,0E0,0E0,0E0,0E0,0E0,0E0,0E0,0E0,0E0,0E0,0E0,0E0,0E0,0E0,0E0,0E0,0E0,0E0,0E0,0E0,0E0,0E0],"parents":[2147483647,0,0,1,1,2,2,3,3,4,4,5,5,6,6,7,7,8,8,9,9,10,10,11,11,12,12,13,13,17,17,18,18,19,19,20,20,21,21,22,22,25,25,26,26,27,27,28,28,29,29,30,30,31,31,32,32,33,33,34,34,35,35,36,36,39,39,40,40,41,41,42,42,43,43,44,44,46,46,47,47,48,48],"right_children":[2,4,6,8,10,12,14,16,18,20,22,24,26,28,-1,-1,-1,30,32,34,36,38,40,-1,-1,42,44,46,48,50,52,54,56,58,60,62,64,-1,-1,66,68,70,72,74,76,-1,78,80,82,-1,-1,-1,-1,-1,-1,-1,-1,-1,-1,-1,-1,-1,-1,-1,-1,-1,-1,-1,-1,-1,-1,-1,-1,-1,-1,-1,-1,-1,-1,-1,-1,-1,-1],"split_conditions":[1.56E0,4.4E-1,2.45E0,1.5E-1,1.03E0,8.6E0,2.97E0,-2.2E0,2E-1,1.42E1,1.7E0,1E0,2.05E0,5.1E1,1.0894091E6,-5.463599E5,-7.482619E5,6E-1,-1.1E1,2.2E1,6E-1,2E1,2.3E0,1.3874355E5,8.6039644E5,2.18E1,2.26E1,1.94E1,3.9E0,-1.29E1,3.9E-1,3.7E0,9E-1,9.1E-1,4.8E0,7.3E-1,7E1,-2.123015E5,5.988537E5,2.07E1,3.7E1,4.1E0,2E0,8E-1,4.6E0,9.683913E5,4E0,4.891E3,5.5E1,-4.4120184E5,-2.1469642E5,-1.442664E5,-2.0526248E4,-4.0601378E5,-2.5673248E4,-6.3102806E5,-1.4942167E5,-6.823661E5,-2.1467061E5,4.613774E4,-2.4494433E5,-4.71119E5,-3.1539697E5,-6.775483E5,-6.568621E4,1.5085667E5,-2.783309E5,-3.75858E5,-7.805018E4,4.945891E5,8.2219555E4,3.8122488E5,6.0204094E4,3.4490525E5,7.719616E5,4.616268E5,1.2278243E5,7.6043444E5,3.2499628E5,7.773217E5,3.082059E5,2.56323E5,-1.4644558E5],"split_indices":[7,7,7,7,7,8,7,8,8,8,8,6,7,3,0,0,0,6,2,3,6,3,0,0,0,8,8,1,0,2,7,0,6,7,8,7,3,0,0,1,3,0,0,6,0,0,0,5,3,0,0,0,0,0,0,0,0,0,0,0,0,0,0,0,0,0,0,0,0,0,0,0,0,0,0,0,0,0,0,0,0,0,0],"split_type":[0,0,0,0,0,0,0,0,0,0,0,0,0,0,0,0,0,0,0,0,0,0,0,0,0,0,0,0,0,0,0,0,0,0,0,0,0,0,0,0,0,0,0,0,0,0,0,0,0,0,0,0,0,0,0,0,0,0,0,0,0,0,0,0,0,0,0,0,0,0,0,0,0,0,0,0,0,0,0,0,0,0,0],"sum_hessian":[1.347E3,8.36E2,5.11E2,4.22E2,4.14E2,2.78E2,2.33E2,2.11E2,2.11E2,2.55E2,1.59E2,5.4E1,2.24E2,1.31E2,1.02E2,1.5E1,1.96E2,1.5E1,1.96E2,1.35E2,1.2E2,1.7E1,1.42E2,3E0,5.1E1,1.27E2,9.7E1,1.1E2,2.1E1,8E0,7E0,6E0,1.9E2,1.2E1,1.23E2,8.5E1,3.5E1,3E0,1.4E1,5.4E1,8.8E1,8E1,4.7E1,4.2E1,5.5E1,8.4E1,2.6E1,1.5E1,6E0,4E0,4E0,5E0,2E0,4E0,2E0,1.88E2,2E0,1E1,2E0,3.8E1,8.5E1,4.7E1,3.8E1,3.2E1,3E0,5E1,4E0,2.2E1,6.6E1,6.6E1,1.4E1,9E0,3.8E1,3E0,3.9E1,4.8E1,7E0,2.2E1,4E0,1E1,5E0,4E0,2E0],"tree_param":{"num_deleted":"0","num_feature":"9","num_nodes":"83","size_leaf_vector":"1"}},{"base_weights":[1.416509E3,-3.9489155E6,6.4592805E6,-6.011604E6,-1.8369489E6,4.5838645E6,8.66775E6,-6.6350885E6,-5.359763E6,-2.9968468E6,3.036861E4,7.430172E6,3.8677278E6,7.706681E6,9.8152594E5,-4.951386E5,-6.738155E5,-2.4175442E6,-5.571518E6,-1.8223438E6,-4.292182E6,1.4827842E6,-1.4405818E6,1.2833775E5,7.7601144E5,2.857789E6,5.147365E6,8.5575344E5,5.679674E6,-3.3523688E6,-1.0636734E6,-2.7707835E6,-5.6449925E6,-4.9973885E6,-1.2956641E6,-3.6629565E6,-5.676105E6,-2.5371538E6,2.288613E6,-3.3546705E6,-2.527121E4,3.8260948E6,1.1642355E6,6.7776655E6,3.8036098E6,6.5416665E6,1.7921821E6,-4.059057E5,-1.975207E5,-1.3224419E5,-1.9157848E4,-3.7353266E5,-2.3961715E4,-3.9053822E5,-5.781726E5,1.1798125E5,-5.7935194E5,1.3498783E4,-2.3495992E5,-4.249886E5,-2.8466597E5,-6.118466E5,-6.075976E4,-3.1602044E5,8.007655E4,2.1664346E4,3.9186772E5,3.1040838E4,-4.316373E5,1.1377333E5,-1.7990533E5,4.458684E5,7.454569E4,3.4691462E5,5.4338062E4,3.1903738E5,6.966953E5,1.6848992E5,4.2840747E5,7.264182E5,3.7275488E5,2.8900166E5,-1.3668255E5],"categories":[],"categories_nodes":[],"categories_segments":[],"categories_sizes":[],"default_left":[0,0,0,0,0,0,0,0,0,0,0,0,0,0,0,0,0,0,0,0,0,0,0,0,0,0,0,0,0,0,0,0,0,0,0,0,0,0,0,0,0,0,0,0,0,0,0,0,0,0,0,0,0,0,0,0,0,0,0,0,0,0,0,0,0,0,0,0,0,0,0,0,0,0,0,0,0,0,0,0,0,0,0],"id":1,"left_children":[1,3,5,7,9,11,13,15,17,19,21,23,25,27,-1,-1,-1,29,31,33,35,37,39,-1,-1,41,43,-1,45,47,49,51,53,55,57,59,61,63,65,67,69,71,73,75,77,79,81,-1,-1,-1,-1,-1,-1,-1,-1,-1,-1,-1,-1,-1,-1,-1,-1,-1,-1,-1,-1,-1,-1,-1,-1,-1,-1,-1,-1,-1,-1,-1,-1,-1,-1,-1,-1],"loss_changes":[3.441394E16,3.6352056E15,2.0808687E15,1.3635018E14,8.989387E14,5.399606E14,1.8242122E14,3.4263102E12,1.1861304E14,3.8165E14,3.4396507E14,1.0158564E14,2.7607003E14,1.790545E14,0E0,0E0,0E0,1.6684279E13,2.4898462E13,2.2094852E14,8.457556E13,2.6819641E14,2.1663766E14,0E0,0E0,2.0544983E14,1.8891145E14,0E0,1.2901773E14,7.415362E11,1.5520141E12,1.6194883E13,2.2851373E13,1.00274534E14,1.7823925E14,2.9105383E13,7.699843E13,3.1646267E13,2.2881717E14,1.2118009E14,9.900393E13,1.5452742E14,6.6803665E13,6.970866E12,4.9787798E13,4.2052696E13,3.5162755E13,0E0,0E0,0E0,0E0,0E0,0E0,0E0,0E0,0E0,0E0,0E0,0E0,0E0,0E0,0E0,0E0,0E0,0E0,0E0,0E0,0E0,0E0,0E0,0E0,0E0,0E0,0E0,0E0,0E0,0E0,0E0,0E0,0E0,0E0,0E0,0E0],"parents":[2147483647,0,0,1,1,2,2,3,3,4,4,5,5,6,6,7,7,8,8,9,9,10,10,11,11,12,12,13,13,17,17,18,18,19,19,20,20,21,21,22,22,25,25,26,26,28,28,29,29,30,30,31,31,32,32,33,33,34,34,35,35,36,36,37,37,38,38,39,39,40,40,41,41,42,42,43,43,44,44,45,45,46,46],"right_children":[2,4,6,8,10,12,14,16,18,20,22,24,26,28,-1,-1,-1,30,32,34,36,38,40,-1,-1,42,44,-1,46,48,50,52,54,56,58,60,62,64,66,68,70,72,74,76,78,80,82,-1,-1,-1,-1,-1,-1,-1,-1,-1,-1,-1,-1,-1,-1,-1,-1,-1,-1,-1,-1,-1,-1,-1,-1,-1,-1,-1,-1,-1,-1,-1,-1,-1,-1,-1,-1],"split_conditions":[1.56E0,4.4E-1,2.45E0,1.5E-1,1.03E0,8.6E0,2.97E0,-2.2E0,2E-1,1.42E1,1.65E1,1E0,2.05E0,9.1E0,9.8152594E5,-4.951386E5,-6.738155E5,6E-1,-1.1E1,2.9E1,6E-1,2.3E1,9.5E0,1.2833775E5,7.7601144E5,2.18E1,2.26E1,8.5575344E5,4E0,-1.29E1,3.9E-1,3.7E0,7E-1,6E-1,6.9E0,7.3E-1,7E1,1.44E0,1E0,3E-1,1.97E1,4.1E0,2E0,8E-1,2.14E0,4.891E3,5.5E1,-4.059057E5,-1.975207E5,-1.3224419E5,-1.9157848E4,-3.7353266E5,-2.3961715E4,-3.9053822E5,-5.781726E5,1.1798125E5,-5.7935194E5,1.3498783E4,-2.3495992E5,-4.249886E5,-2.8466597E5,-6.118466E5,-6.075976E4,-3.1602044E5,8.007655E4,2.1664346E4,3.9186772E5,3.1040838E4,-4.316373E5,1.1377333E5,-1.7990533E5,4.458684E5,7.454569E4,3.4691462E5,5.4338062E4,3.1903738E5,6.966953E5,1.6848992E5,4.2840747E5,7.264182E5,3.7275488E5,2.8900166E5,-1.3668255E5],"split_indices":[7,7,7,7,7,8,7,8,8,8,8,6,7,4,0,0,0,6,2,3,6,3,4,0,0,8,8,0,0,2,7,0,0,7,8,7,3,7,6,6,1,0,0,6,7,5,3,0,0,0,0,0,0,0,0,0,0,0,0,0,0,0,0,0,0,0,0,0,0,0,0,0,0,0,0,0,0,0,0,0,0,0,0],"split_type":[0,0,0,0,0,0,0,0,0,0,0,0,0,0,0,0,0,0,0,0,0,0,0,0,0,0,0,0,0,0,0,0,0,0,0,0,0,0,0,0,0,0,0,0,0,0,0,0,0,0,0,0,0,0,0,0,0,0,0,0,0,0,0,0,0,0,0,0,0,0,0,0,0,0,0,0,0,0,0,0,0,0,0],"sum_hessian":[1.347E3,8.36E2,5.11E2,4.22E2,4.14E2,2.78E2,2.33E2,2.11E2,2.11E2,2.55E2,1.59E2,5.4E1,2.24E2,1.31E2,1.02E2,1.5E1,1.96E2,1.5E1,1.96E2,1.35E2,1.2E2,8E1,7.9E1,3E0,5.1E1,1.27E2,9.7E1,9E1,4.1E1,8E0,7E0,6E0,1.9E2,1.8E1,1.17E2,8.5E1,3.5E1,1.3E1,6.7E1,3.3E1,4.6E1,8E1,4.7E1,4.2E1,5.5E1,3.3E1,8E0,4E0,4E0,5E0,2E0,4E0,2E0,1.6E1,1.74E2,2E0,1.6E1,5E1,6.7E1,4.7E1,3.8E1,3.2E1,3E0,1.1E1,2E0,3E1,3.7E1,7E0,2.6E1,2.8E1,1.8E1,6.6E1,1.4E1,9E0,3.8E1,3E0,3.9E1,1.1E1,4.4E1,2.5E1,8E0,6E0,2E0],"tree_param":{"num_deleted":"0","num_feature":"9","num_nodes":"83","size_leaf_vector":"1"}},{"base_weights":[1.9301023E3,-3.5607672E6,5.8261015E6,-5.4182215E6,-1.6589269E6,3.3742325E6,7.202926E6,-5.908915E6,-4.7423995E6,-2.705229E6,2.5524688E4,4.3291505E6,1.2967519E6,5.928881E6,8.330541E6,-5.952486E6,-1.8392028E5,-2.4380798E6,-5.0101805E6,-1.6451302E6,-3.8743875E6,3.836158E6,-4.5431394E5,2.9471142E6,5.1883025E6,4.227626E6,6.966442E5,7.0860455E6,4.0415158E6,8.415221E6,3.8361125E5,-4.611556E5,-6.054354E5,-3.628606E6,-1.2428015E6,-5.0536145E6,-1.00915414E5,-9.764137E5,-3.8786405E6,-3.3049128E6,-5.127178E6,-1.7267736E5,5.0638625E5,5.7343506E5,-1.7319015E6,3.8264522E6,-2.2960486E5,6.260591E6,4.447799E6,9.36957E4,5.504062E5,1.7104884E6,-1.9724528E5,7.825211E6,6.074431E6,4.743764E6,1.0296738E6,9.112665E6,7.7172675E6,-1.8266538E5,-4.1399206E5,-1.4377198E5,-1.7880646E4,-1.7660697E5,-5.1048584E5,1.6115703E5,-1.7950702E5,-4.3239872E5,1.7192567E5,-3.3918056E5,2.2972764E4,-5.5251606E5,-5.620276E4,2.6406594E5,9.492298E3,-2.9478294E5,-7.649318E4,2.3022778E5,4.5586125E5,-1.1933112E5,1.9961355E5,2.9148288E5,6.534532E5,2.5009158E5,5.818643E5,5.1439156E4,4.5418106E5,-1.3394272E5,5.117128E4,7.9550894E5,3.052173E5,3.4803572E5,6.716156E5,1.189321E5,5.0269916E5,3.1842462E5,-2.8171904E4,9.211386E5,3.5741588E5,6.4921406E5,8.378855E5],"categories":[],"categories_nodes":[],"categories_segments":[],"categories_sizes":[],"default_left":[0,0,0,0,0,0,0,0,0,0,0,0,0,0,0,0,0,0,0,0,0,0,0,0,0,0,0,0,0,0,0,0,0,0,0,0,0,0,0,0,0,0,0,0,0,0,0,0,0,0,0,0,0,0,0,0,0,0,0,0,0,0,0,0,0,0,0,0,0,0,0,0,0,0,0,0,0,0,0,0,0,0,0,0,0,0,0,0,0,0,0,0,0,0,0,0,0,0,0,0,0],"id":2,"left_children":[1,3,5,7,9,11,13,15,17,19,21,23,25,27,29,31,-1,33,35,37,39,41,43,45,47,49,51,53,55,57,-1,-1,-1,59,61,63,-1,65,67,69,71,-1,-1,73,75,77,79,81,83,-1,-1,85,87,89,91,93,95,97,99,-1,-1,-1,-1,-1,-1,-1,-1,-1,-1,-1,-1,-1,-1,-1,-1,-1,-1,-1,-1,-1,-1,-1,-1,-1,-1,-1,-1,-1,-1,-1,-1,-1,-1,-1,-1,-1,-1,-1,-1,-1,-1],"loss_changes":[2.7991423E16,2.947782E15,1.7041024E15,1.12253265E14,7.314838E14,3.6337732E14,4.2038818E14,3.1786516E13,1.0070544E14,3.109186E14,2.9430102E14,1.35506755E14,1.0258526E14,3.1424826E14,3.2799591E13,4.5902463E12,0E0,2.5373568E13,2.3226646E13,1.993404E14,6.9380365E13,1.3167762E14,1.8875777E14,1.4334245E14,3.329472E13,3.6846222E13,4.655688E13,2.425046E13,1.2624922E14,1.0967199E13,0E0,0E0,0E0,1.6514401E12,2.231632E12,1.8107314E13,0E0,2.274719E14,8.471722E13,2.7192713E13,6.2301386E13,0E0,0E0,7.888469E13,7.299409E13,3.414244E13,2.8121531E13,7.5327015E12,1.1622289E14,0E0,0E0,7.894059E13,2.335866E13,7.955353E12,5.153585E13,4.4357214E13,3.7628443E13,9.725417E12,1.8551037E13,0E0,0E0,0E0,0E0,0E0,0E0,0E0,0E0,0E0,0E0,0E0,0E0,0E0,0E0,0E0,0E0,0E0,0E0,0E0,0E0,0E0,0E0,0E0,0E0,0E0,0E0,0E0,0E0,0E0,0E0,0E0,0E0,0E0,0E0,0E0,0E0,0E0,0E0,0E0,0E0,0E0,0E0],"parents":[2147483647,0,0,1,1,2,2,3,3,4,4,5,5,6,6,7,7,8,8,9,9,10,10,11,11,12,12,13,13,14,14,15,15,17,17,18,18,19,19,20,20,21,21,22,22,23,23,24,24,25,25,26,26,27,27,28,28,29,29,33,33,34,34,35,35,37,37,38,38,39,39,40,40,43,43,44,44,45,45,46,46,47,47,48,48,51,51,52,52,53,53,54,54,55,55,56,56,57,57,58,58],"right_children":[2,4,6,8,10,12,14,16,18,20,22,24,26,28,30,32,-1,34,36,38,40,42,44,46,48,50,52,54,56,58,-1,-1,-1,60,62,64,-1,66,68,70,72,-1,-1,74,76,78,80,82,84,-1,-1,86,88,90,92,94,96,98,100,-1,-1,-1,-1,-1,-1,-1,-1,-1,-1,-1,-1,-1,-1,-1,-1,-1,-1,-1,-1,-1,-1,-1,-1,-1,-1,-1,-1,-1,-1,-1,-1,-1,-1,-1,-1,-1,-1,-1,-1,-1,-1],"split_conditions":[1.56E0,4.4E-1,2.15E0,1.8E-1,1.03E0,2.21E1,2.7E0,4E-1,3.4E0,1.42E1,1.7E0,1.78E0,1.7E0,2.3E0,5.2E0,8E-1,-1.8392028E5,6E-1,9E-1,4.915E3,6E-1,2E1,2.8E0,4E0,1.04E1,1.73E0,1E0,1.91E1,4E0,1.84E1,3.8361125E5,-4.611556E5,-6.054354E5,2.893E3,3.9E-1,3E-1,-1.00915414E5,2.9E0,9.2E-1,4.8E0,7E1,-1.7267736E5,5.0638625E5,1.4E0,4.9E1,1.61E0,5.2E1,1.8E1,1.32E1,9.36957E4,5.504062E5,2.87E1,1.88E0,1.45E1,2.3E0,1.5E0,2.3E0,5.1E1,3.04E0,-1.8266538E5,-4.1399206E5,-1.4377198E5,-1.7880646E4,-1.7660697E5,-5.1048584E5,1.6115703E5,-1.7950702E5,-4.3239872E5,1.7192567E5,-3.3918056E5,2.2972764E4,-5.5251606E5,-5.620276E4,2.6406594E5,9.492298E3,-2.9478294E5,-7.649318E4,2.3022778E5,4.5586125E5,-1.1933112E5,1.9961355E5,2.9148288E5,6.534532E5,2.5009158E5,5.818643E5,5.1439156E4,4.5418106E5,-1.3394272E5,5.117128E4,7.9550894E5,3.052173E5,3.4803572E5,6.716156E5,1.189321E5,5.0269916E5,3.1842462E5,-2.8171904E4,9.211386E5,3.5741588E5,6.4921406E5,8.378855E5],"split_indices":[7,7,7,7,7,8,7,6,8,8,8,7,0,2,0,1,0,6,6,5,6,3,0,0,8,7,6,8,0,1,0,0,0,5,7,0,0,8,7,0,3,0,0,0,3,7,3,3,1,0,0,8,7,1,7,0,7,3,7,0,0,0,0,0,0,0,0,0,0,0,0,0,0,0,0,0,0,0,0,0,0,0,0,0,0,0,0,0,0,0,0,0,0,0,0,0,0,0,0,0,0],"split_type":[0,0,0,0,0,0,0,0,0,0,0,0,0,0,0,0,0,0,0,0,0,0,0,0,0,0,0,0,0,0,0,0,0,0,0,0,0,0,0,0,0,0,0,0,0,0,0,0,0,0,0,0,0,0,0,0,0,0,0,0,0,0,0,0,0,0,0,0,0,0,0,0,0,0,0,0,0,0,0,0,0,0,0,0,0,0,0,0,0,0,0,0,0,0,0,0,0,0,0,0,0],"sum_hessian":[1.347E3,8.36E2,5.11E2,4.22E2,4.14E2,1.85E2,3.26E2,2.4E2,1.82E2,2.55E2,1.59E2,1.26E2,5.9E1,1.56E2,1.7E2,2.37E2,3E0,2E1,1.62E2,1.35E2,1.2E2,1.7E1,1.42E2,5E1,7.6E1,9E0,5E1,9.5E1,6.1E1,1.66E2,4E0,2E1,2.17E2,9E0,1.1E1,1.6E2,2E0,1.05E2,3E1,8.5E1,3.5E1,3E0,1.4E1,7.9E1,6.3E1,3.9E1,1.1E1,2.8E1,4.8E1,3E0,6E0,2.3E1,2.7E1,5.1E1,4.4E1,4.9E1,1.2E1,7.7E1,8.9E1,3E0,6E0,9E0,2E0,3E0,1.57E2,2.5E1,8E1,2.8E1,2E0,8.3E1,2E0,3.2E1,3E0,1.4E1,6.5E1,2.7E1,3.6E1,1.4E1,2.5E1,8E0,3E0,3E0,2.5E1,2.1E1,2.7E1,1.7E1,6E0,1E1,1.7E1,4.9E1,2E0,1E1,3.4E1,4E0,4.5E1,4E0,8E0,7.5E1,2E0,3.5E1,5.4E1],"tree_param":{"num_deleted":"0","num_feature":"9","num_nodes":"101","size_leaf_vector":"1"}},{"base_weights":[6.2082646E3,-3.2091882E6,5.262616E6,-4.883011E6,-1.4953661E6,3.056219E6,6.501537E6,-5.3043545E6,-4.237304E6,-2.3373258E6,2.1159147E5,3.9162612E6,1.1848594E6,5.3553065E6,7.5159035E6,-5.3699435E6,-1.7202167E5,-2.558283E6,-4.492292E6,-6.696721E5,-2.9614448E6,1.6796904E6,-1.3243881E6,2.6674298E6,4.692549E6,3.5895162E6,5.7178306E5,6.399528E6,3.652072E6,7.5902595E6,3.5292238E5,-4.4310915E6,-5.4940144E5,-3.489262E6,-1.0561948E6,-4.5344765E6,-9.418771E4,-5.334613E5,-5.1496156E4,-3.5381692E6,-2.1423955E6,-1.9519594E6,2.451415E6,-3.150061E6,1.9982878E5,3.4609592E6,-1.9995436E5,2.3986055E6,4.923751E6,-2.6505097E5,5.1025725E5,2.2513072E6,8.341001E4,7.0638575E6,5.4896465E6,4.2818205E6,9.490335E5,8.729013E5,7.1990065E6,-3.4318688E5,-5.6134194E5,-1.247155E5,-3.7382666E5,-1.235276E5,-1.6688615E4,-1.6336144E5,-4.58391E5,-1.127196E5,1.8868233E5,-2.4987803E5,-4.8342656E5,-2.5328178E5,-2.7599678E4,-2.4858233E5,6.5619484E4,-6.653297E4,3.1795303E5,-3.4745617E4,-3.6756597E5,1.469712E5,-1.2928033E5,2.0129277E5,4.0836072E5,-1.08723914E5,1.846425E5,1.03575086E5,4.7790647E5,2.3885617E5,5.1714566E5,-1.173636E5,3.6823653E5,6.760509E4,-1.9671767E5,7.17549E5,2.848695E5,3.163961E5,6.0637294E5,4.928879E5,2.735832E5,2.9295062E5,-2.5667727E4,6.3407744E5,7.8022944E5],"categories":[],"categories_nodes":[],"categories_segments":[],"categories_sizes":[],"default_left":[0,0,0,0,0,0,0,0,0,0,0,0,0,0,0,0,0,0,0,0,0,0,0,0,0,0,0,0,0,0,0,0,0,0,0,0,0,0,0,0,0,0,0,0,0,0,0,0,0,0,0,0,0,0,0,0,0,0,0,0,0,0,0,0,0,0,0,0,0,0,0,0,0,0,0,0,0,0,0,0,0,0,0,0,0,0,0,0,0,0,0,0,0,0,0,0,0,0,0,0,0,0,0],"id":3,"left_children":[1,3,5,7,9,11,13,15,17,19,21,23,25,27,29,31,-1,33,35,37,39,41,43,45,47,49,51,53,55,57,-1,59,-1,61,63,65,-1,-1,67,69,71,73,75,77,79,81,83,85,87,-1,-1,89,91,93,95,97,99,-1,101,-1,-1,-1,-1,-1,-1,-1,-1,-1,-1,-1,-1,-1,-1,-1,-1,-1,-1,-1,-1,-1,-1,-1,-1,-1,-1,-1,-1,-1,-1,-1,-1,-1,-1,-1,-1,-1,-1,-1,-1,-1,-1,-1,-1],"loss_changes":[2.2800023E16,2.3937458E15,1.3797078E15,9.260594E13,5.9692825E14,2.947173E14,3.399531E14,5.0002546E13,6.214603E13,2.8736324E14,3.1341044E14,1.1060333E14,8.640188E13,2.558614E14,2.3902567E13,4.4270375E12,0E0,3.1274979E13,1.7894981E13,2.2177436E14,8.783772E13,2.0377206E14,1.8985455E14,1.1673506E14,2.9027805E13,1.26822516E14,4.0003694E13,1.9250312E13,1.0147491E14,1.1565273E13,0E0,2.0903405E13,0E0,3.7122275E12,1.5456923E12,1.3448348E13,0E0,0E0,1.4599527E14,1.4553658E14,6.1967755E13,1.9732376E13,1.36006985E14,4.4387245E13,7.392785E13,2.7844541E13,2.3796161E13,2.4248052E13,3.0978257E13,0E0,0E0,5.8235986E13,4.8725112E13,4.027874E12,4.089574E13,3.6532656E13,3.1794343E13,0E0,1.7835925E13,0E0,0E0,0E0,0E0,0E0,0E0,0E0,0E0,0E0,0E0,0E0,0E0,0E0,0E0,0E0,0E0,0E0,0E0,0E0,0E0,0E0,0E0,0E0,0E0,0E0,0E0,0E0,0E0,0E0,0E0,0E0,0E0,0E0,0E0,0E0,0E0,0E0,0E0,0E0,0E0,0E0,0E0,0E0,0E0],"parents":[2147483647,0,0,1,1,2,2,3,3,4,4,5,5,6,6,7,7,8,8,9,9,10,10,11,11,12,12,13,13,14,14,15,15,17,17,18,18,19,19,20,20,21,21,22,22,23,23,24,24,25,25,26,26,27,27,28,28,29,29,31,31,33,33,34,34,35,35,38,38,39,39,40,40,41,41,42,42,43,43,44,44,45,45,46,46,47,47,48,48,51,51,52,52,53,53,54,54,55,55,56,56,58,58],"right_children":[2,4,6,8,10,12,14,16,18,20,22,24,26,28,30,32,-1,34,36,38,40,42,44,46,48,50,52,54,56,58,-1,60,-1,62,64,66,-1,-1,68,70,72,74,76,78,80,82,84,86,88,-1,-1,90,92,94,96,98,100,-1,102,-1,-1,-1,-1,-1,-1,-1,-1,-1,-1,-1,-1,-1,-1,-1,-1,-1,-1,-1,-1,-1,-1,-1,-1,-1,-1,-1,-1,-1,-1,-1,-1,-1,-1,-1,-1,-1,-1,-1,-1,-1,-1,-1,-1],"split_conditions":[1.56E0,4.4E-1,2.15E0,1.9E-1,1.09E0,2.21E1,2.7E0,4E-1,4.7E0,7.9E0,1.65E1,1.78E0,2E0,2.3E0,5.2E0,5E-1,-1.7202167E5,6E-1,9E-1,2.1E1,6.5E1,2.3E1,9.5E0,4E0,1.8E1,1.63E0,4E-1,1.91E1,4E0,-3.9E0,3.5292238E5,4.617E3,-5.4940144E5,2.25E3,3.9E-1,3E-1,-9.418771E4,-5.334613E5,7.7E-1,7E-1,7E-1,1.44E0,4E-1,3E-1,2.36E1,1.6E0,5.2E1,2.06E0,8E-1,-2.6505097E5,5.1025725E5,3.173E3,4.969E3,1.45E1,2.3E0,4.525E3,2.3E0,8.729013E5,3.06E0,-3.4318688E5,-5.6134194E5,-1.247155E5,-3.7382666E5,-1.235276E5,-1.6688615E4,-1.6336144E5,-4.58391E5,-1.127196E5,1.8868233E5,-2.4987803E5,-4.8342656E5,-2.5328178E5,-2.7599678E4,-2.4858233E5,6.5619484E4,-6.653297E4,3.1795303E5,-3.4745617E4,-3.6756597E5,1.469712E5,-1.2928033E5,2.0129277E5,4.0836072E5,-1.08723914E5,1.846425E5,1.03575086E5,4.7790647E5,2.3885617E5,5.1714566E5,-1.173636E5,3.6823653E5,6.760509E4,-1.9671767E5,7.17549E5,2.848695E5,3.163961E5,6.0637294E5,4.928879E5,2.735832E5,2.9295062E5,-2.5667727E4,6.3407744E5,7.8022944E5],"split_indices":[7,7,7,7,7,8,7,6,8,8,8,7,0,2,0,8,0,6,6,3,3,3,4,0,3,7,6,8,0,2,0,5,0,5,7,0,0,0,7,6,6,7,6,6,8,7,3,7,6,0,0,5,5,1,7,5,7,0,7,0,0,0,0,0,0,0,0,0,0,0,0,0,0,0,0,0,0,0,0,0,0,0,0,0,0,0,0,0,0,0,0,0,0,0,0,0,0,0,0,0,0,0,0],"split_type":[0,0,0,0,0,0,0,0,0,0,0,0,0,0,0,0,0,0,0,0,0,0,0,0,0,0,0,0,0,0,0,0,0,0,0,0,0,0,0,0,0,0,0,0,0,0,0,0,0,0,0,0,0,0,0,0,0,0,0,0,0,0,0,0,0,0,0,0,0,0,0,0,0,0,0,0,0,0,0,0,0,0,0,0,0,0,0,0,0,0,0,0,0,0,0,0,0,0,0,0,0,0,0],"sum_hessian":[1.347E3,8.36E2,5.11E2,4.22E2,4.14E2,1.85E2,3.26E2,2.51E2,1.71E2,2.77E2,1.37E2,1.26E2,5.9E1,1.56E2,1.7E2,2.46E2,5E0,2.4E1,1.47E2,7.6E1,2.01E2,7E1,6.7E1,5E1,7.6E1,1.1E1,4.8E1,9.5E1,6.1E1,1.66E2,4E0,3.3E1,2.13E2,1.4E1,1E1,1.45E2,2E0,8E0,6.8E1,1.16E2,8.5E1,1.2E1,5.8E1,3E1,3.7E1,3.9E1,1.1E1,8E0,6.8E1,2E0,9E0,1E1,3.8E1,5.1E1,4.4E1,4.9E1,1.2E1,3.7E1,1.29E2,2E1,1.3E1,2E0,1.2E1,8E0,2E0,3E0,1.42E2,4.4E1,2.4E1,6.6E1,5E1,7E1,1.5E1,1E1,2E0,1.1E1,4.7E1,5E0,2.5E1,2E1,1.7E1,1.3E1,2.6E1,8E0,3E0,6E0,2E0,7E0,6.1E1,3E0,7E0,3E1,8E0,4.9E1,2E0,1E1,3.4E1,3.3E1,1.6E1,4E0,8E0,5.8E1,7.1E1],"tree_param":{"num_deleted":"0","num_feature":"9","num_nodes":"103","size_leaf_vector":"1"}},{"base_weights":[7.976671E3,-2.959933E6,4.651668E6,-4.4017565E6,-1.4316259E6,2.6388798E6,5.868506E6,-4.7540235E6,-3.774641E6,-2.3843755E6,-2.8362706E5,3.4973762E6,8.4288156E5,4.8386225E6,6.7797525E6,-4.8572547E5,-2.9502008E6,-2.332073E6,-4.0048422E6,-1.5483329E6,-3.3458082E6,3.1481728E6,-6.7708506E5,5.161685E6,2.8400348E6,3.6951765E6,2.675579E5,5.980022E6,3.543447E6,7.458764E6,6.1441925E6,-1.933794E5,-4.125954E5,-3.173572E6,-8.3661706E5,-3.6957338E6,-4.8052875E5,-8.627952E5,-3.646112E6,-4.1437288E6,-2.5142342E6,-1.4108286E5,4.0911622E5,1.9651828E6,-1.0550888E6,3.4046355E6,5.6048565E6,3.834624E6,1.5096479E6,4.5629597E5,1.0358158E5,1.4281582E6,-5.2542344E5,5.053932E6,6.5949194E5,4.0416582E6,1.0483938E6,7.5400544E5,2.9131634E5,1.6225133E5,6.224854E6,-1.16401125E5,-3.393196E5,-9.873612E4,-1.5576047E4,-4.677164E5,-3.080216E5,1.16400164E5,-1.5258898E5,-4.107431E5,-6.1029668E4,-2.9871544E5,-4.7562372E5,-1.30156664E5,-2.8850834E5,2.5167638E5,5.0248277E4,-2.7644297E5,-4.6517406E4,4.2581134E5,1.6995352E5,2.8680834E5,5.941482E5,2.33672E5,4.601884E5,7.952743E4,3.348371E5,2.1226875E4,4.8378006E5,-2.113282E5,3.2586904E4,5.9143594E5,3.0105012E5,6.99865E4,4.2563584E5,1.8777331E5,-1.4943878E5,5.2803956E5,6.737713E5],"categories":[],"categories_nodes":[],"categories_segments":[],"categories_sizes":[],"default_left":[0,0,0,0,0,0,0,0,0,0,0,0,0,0,0,0,0,0,0,0,0,0,0,0,0,0,0,0,0,0,0,0,0,0,0,0,0,0,0,0,0,0,0,0,0,0,0,0,0,0,0,0,0,0,0,0,0,0,0,0,0,0,0,0,0,0,0,0,0,0,0,0,0,0,0,0,0,0,0,0,0,0,0,0,0,0,0,0,0,0,0,0,0,0,0,0,0,0,0],"id":4,"left_children":[1,3,5,7,9,11,13,15,17,19,21,23,25,27,29,-1,31,33,35,37,39,41,43,45,47,49,51,53,55,57,59,-1,-1,61,63,65,-1,67,69,71,73,-1,-1,75,77,79,81,83,85,-1,-1,87,89,91,-1,93,95,-1,-1,-1,97,-1,-1,-1,-1,-1,-1,-1,-1,-1,-1,-1,-1,-1,-1,-1,-1,-1,-1,-1,-1,-1,-1,-1,-1,-1,-1,-1,-1,-1,-1,-1,-1,-1,-1,-1,-1,-1,-1],"loss_changes":[1.8591981E16,1.8072192E15,1.2728125E15,7.550123E13,4.3791963E14,3.0542358E14,2.7407797E14,3.5388383E13,4.2797336E13,1.7085152E14,2.4923085E14,1.3303339E14,1.07316855E14,2.109049E14,2.7967216E13,0E0,1.2336992E13,2.754714E13,1.5395713E13,1.6798882E14,5.659814E13,8.745463E13,1.668733E14,9.728436E12,1.25206685E14,2.0658843E13,5.2289113E13,1.3364864E13,9.023552E13,6.856647E12,2.4184424E13,0E0,0E0,2.6704966E12,8.725589E11,4.66063E13,0E0,1.2407632E14,3.810713E13,2.1212978E13,1.9630148E13,0E0,0E0,1.5678115E13,1.4492704E14,7.315831E12,8.754821E12,5.360656E13,5.513266E13,0E0,0E0,9.432528E13,4.6647543E13,4.724907E13,0E0,4.222255E13,3.2329666E13,0E0,0E0,0E0,8.984535E12,0E0,0E0,0E0,0E0,0E0,0E0,0E0,0E0,0E0,0E0,0E0,0E0,0E0,0E0,0E0,0E0,0E0,0E0,0E0,0E0,0E0,0E0,0E0,0E0,0E0,0E0,0E0,0E0,0E0,0E0,0E0,0E0,0E0,0E0,0E0,0E0,0E0,0E0],"parents":[2147483647,0,0,1,1,2,2,3,3,4,4,5,5,6,6,7,7,8,8,9,9,10,10,11,11,12,12,13,13,14,14,16,16,17,17,18,18,19,19,20,20,21,21,22,22,23,23,24,24,25,25,26,26,27,27,28,28,29,29,30,30,33,33,34,34,35,35,37,37,38,38,39,39,40,40,43,43,44,44,45,45,46,46,47,47,48,48,51,51,52,52,53,53,55,55,56,56,60,60],"right_children":[2,4,6,8,10,12,14,16,18,20,22,24,26,28,30,-1,32,34,36,38,40,42,44,46,48,50,52,54,56,58,60,-1,-1,62,64,66,-1,68,70,72,74,-1,-1,76,78,80,82,84,86,-1,-1,88,90,92,-1,94,96,-1,-1,-1,98,-1,-1,-1,-1,-1,-1,-1,-1,-1,-1,-1,-1,-1,-1,-1,-1,-1,-1,-1,-1,-1,-1,-1,-1,-1,-1,-1,-1,-1,-1,-1,-1,-1,-1,-1,-1,-1,-1],"split_conditions":[1.5E0,4.4E-1,2.15E0,2.1E-1,9.4E-1,2.21E1,2.7E0,3E-1,4.7E0,1.43E1,1.7E0,8.9E0,1.7E0,-5E-1,1.84E1,-4.8572547E5,5.2E0,6E-1,1.88E1,4.915E3,6.5E1,2E1,1.4E0,2.1E1,3.626E3,2.72E1,8E-1,2.31E0,4E0,5.1E1,2.37E1,-1.933794E5,-4.125954E5,2.25E3,3.9E-1,5.8E1,-4.8052875E5,2.9E0,1.2E0,2E-1,7.2E1,-1.4108286E5,4.0911622E5,3.635E3,4E1,4.2E0,1E0,1.71E0,1.93E0,4.5629597E5,1.0358158E5,2.87E1,1.82E0,1.8E1,6.5949194E5,1.5E0,5.4E1,7.5400544E5,2.9131634E5,1.6225133E5,3.04E0,-1.16401125E5,-3.393196E5,-9.873612E4,-1.5576047E4,-4.677164E5,-3.080216E5,1.16400164E5,-1.5258898E5,-4.107431E5,-6.1029668E4,-2.9871544E5,-4.7562372E5,-1.30156664E5,-2.8850834E5,2.5167638E5,5.0248277E4,-2.7644297E5,-4.6517406E4,4.2581134E5,1.6995352E5,2.8680834E5,5.941482E5,2.33672E5,4.601884E5,7.952743E4,3.348371E5,2.1226875E4,4.8378006E5,-2.113282E5,3.2586904E4,5.9143594E5,3.0105012E5,6.99865E4,4.2563584E5,1.8777331E5,-1.4943878E5,5.2803956E5,6.737713E5],"split_indices":[7,7,7,7,7,8,7,6,8,8,8,8,0,2,1,0,1,6,8,5,3,3,0,3,5,8,6,7,0,3,8,0,0,5,7,3,0,8,2,6,3,0,0,5,3,0,6,7,7,0,0,8,7,8,0,0,3,0,0,0,7,0,0,0,0,0,0,0,0,0,0,0,0,0,0,0,0,0,0,0,0,0,0,0,0,0,0,0,0,0,0,0,0,0,0,0,0,0,0],"split_type":[0,0,0,0,0,0,0,0,0,0,0,0,0,0,0,0,0,0,0,0,0,0,0,0,0,0,0,0,0,0,0,0,0,0,0,0,0,0,0,0,0,0,0,0,0,0,0,0,0,0,0,0,0,0,0,0,0,0,0,0,0,0,0,0,0,0,0,0,0,0,0,0,0,0,0,0,0,0,0,0,0,0,0,0,0,0,0,0,0,0,0,0,0,0,0,0,0,0,0],"sum_hessian":[1.347E3,8.22E2,5.25E2,4.22E2,4E2,1.99E2,3.26E2,2.66E2,1.56E2,2.18E2,1.82E2,1.34E2,6.5E1,1.56E2,1.7E2,2.5E2,1.6E1,2.3E1,1.33E2,1.18E2,1E2,1.8E1,1.64E2,3.6E1,9.8E1,1E1,5.5E1,8.1E1,7.5E1,7.7E1,9.3E1,1E1,6E0,1.4E1,9E0,1E2,3.3E1,9E1,2.8E1,4.9E1,5.1E1,3E0,1.5E1,2E1,1.44E2,9E0,2.7E1,5.5E1,4.3E1,7E0,3E0,2.2E1,3.3E1,3.6E1,4.5E1,6.2E1,1.3E1,7.5E1,2E0,2E0,9.1E1,2E0,1.2E1,7E0,2E0,3.6E1,6.4E1,2.2E1,6.8E1,2.4E1,4E0,1.9E1,3E1,1.3E1,3.8E1,1.4E1,6E0,3.6E1,1.08E2,5E0,4E0,4E0,2.3E1,2E1,3.5E1,3.2E1,1.1E1,1.7E1,5E0,1.1E1,2.2E1,2.4E1,1.2E1,4E0,5.8E1,1E1,3E0,3.6E1,5.5E1],"tree_param":{"num_deleted":"0","num_feature":"9","num_nodes":"99","size_leaf_vector":"1"}},{"base_weights":[9.845543E3,-2.669252E6,4.2016465E6,-3.5490845E6,-6.031279E5,2.3923475E6,5.2954025E6,-4.1935902E6,-2.7302698E6,2.2650728E6,-1.04055806E6,3.1667865E6,7.7201975E5,4.3680465E6,6.1158675E6,-4.3146485E6,-2.965452E6,5.372085E5,-2.9207302E6,-2.0548378E5,3.1098722E6,-1.7493342E6,6.403305E4,4.685428E6,2.5672258E6,3.3765568E6,2.4662822E5,5.400946E6,3.196128E6,6.7262895E6,5.5442845E6,-2.6752182E6,-4.3576366E5,-1.6894302E5,-3.749602E6,1.04261025E6,-1.1132989E5,-3.5921618E6,-2.487857E6,-1.3359666E2,3.3492475E6,-3.2234812E6,-1.2200451E6,1.2116114E6,-8.038125E5,4.819597E6,1.5583127E5,4.3017205E6,1.8226122E6,4.396948E5,1.2726974E6,6.004884E5,-1.9515938E6,4.57266E6,5.9497644E5,3.4905775E6,-2.0495677E5,6.79597E5,2.7189528E5,1.5143461E5,5.615432E6,-3.005766E5,-9.0201836E4,-7.746256E4,-4.054033E5,3.590018E4,1.3395392E5,-2.2626095E5,-3.8390478E5,-1.2986627E5,-2.9647344E5,3.7738797E5,1.6575483E5,1.3601979E4,-3.807396E5,-7.1076695E4,-2.4678561E5,2.0715089E5,-1.00919266E5,-2.243605E5,5.561427E4,2.2695586E5,4.9877397E5,-8.246863E3,4.6295297E5,6.939845E4,3.6361544E5,2.8603522E5,-7.391896E4,2.947139E4,3.9667725E5,-2.614979E5,-1.0305669E5,5.356798E5,2.7129597E5,3.7821678E5,1.5827595E5,-1.1020937E5,1.3585903E5,4.7666272E5,6.075974E5],"categories":[],"categories_nodes":[],"categories_segments":[],"categories_sizes":[],"default_left":[0,0,0,0,0,0,0,0,0,0,0,0,0,0,0,0,0,0,0,0,0,0,0,0,0,0,0,0,0,0,0,0,0,0,0,0,0,0,0,0,0,0,0,0,0,0,0,0,0,0,0,0,0,0,0,0,0,0,0,0,0,0,0,0,0,0,0,0,0,0,0,0,0,0,0,0,0,0,0,0,0,0,0,0,0,0,0,0,0,0,0,0,0,0,0,0,0,0,0,0,0],"id":5,"left_children":[1,3,5,7,9,11,13,15,17,19,21,23,25,27,29,31,33,35,37,-1,39,41,43,45,47,49,51,53,55,57,59,61,-1,-1,63,65,-1,67,69,-1,71,73,75,77,79,81,-1,83,85,-1,87,89,91,93,-1,95,97,-1,-1,-1,99,-1,-1,-1,-1,-1,-1,-1,-1,-1,-1,-1,-1,-1,-1,-1,-1,-1,-1,-1,-1,-1,-1,-1,-1,-1,-1,-1,-1,-1,-1,-1,-1,-1,-1,-1,-1,-1,-1,-1,-1],"loss_changes":[1.5149583E16,1.4939448E15,1.0282495E15,2.9305152E14,3.122524E14,2.4852426E14,2.2208846E14,3.4929895E13,1.6150674E14,1.26822415E14,1.6843723E14,1.1089136E14,8.948175E13,1.7278224E14,2.2370337E13,8.780524E12,2.568429E13,1.3673276E13,6.1689823E13,0E0,2.085735E13,9.827996E13,8.562717E13,8.013335E12,1.20020915E14,1.801837E13,4.4732244E13,1.0069282E13,7.682556E13,3.302293E12,1.844769E13,3.1500146E12,0E0,0E0,1.4067461E13,1.9549011E12,0E0,2.1840982E13,8.178188E13,0E0,1.2421717E13,6.7214393E13,6.0523236E13,7.274812E13,9.719239E13,3.686961E12,0E0,4.2059944E13,1.4280031E14,0E0,1.8085252E13,4.9267796E13,2.1930527E12,3.942297E13,0E0,3.2954814E13,1.1316305E13,0E0,0E0,0E0,7.0018704E12,0E0,0E0,0E0,0E0,0E0,0E0,0E0,0E0,0E0,0E0,0E0,0E0,0E0,0E0,0E0,0E0,0E0,0E0,0E0,0E0,0E0,0E0,0E0,0E0,0E0,0E0,0E0,0E0,0E0,0E0,0E0,0E0,0E0,0E0,0E0,0E0,0E0,0E0,0E0,0E0],"parents":[2147483647,0,0,1,1,2,2,3,3,4,4,5,5,6,6,7,7,8,8,9,9,10,10,11,11,12,12,13,13,14,14,15,15,16,16,17,17,18,18,20,20,21,21,22,22,23,23,24,24,25,25,26,26,27,27,28,28,29,29,30,30,31,31,34,34,35,35,37,37,38,38,40,40,41,41,42,42,43,43,44,44,45,45,47,47,48,48,50,50,51,51,52,52,53,53,55,55,56,56,60,60],"right_children":[2,4,6,8,10,12,14,16,18,20,22,24,26,28,30,32,34,36,38,-1,40,42,44,46,48,50,52,54,56,58,60,62,-1,-1,64,66,-1,68,70,-1,72,74,76,78,80,82,-1,84,86,-1,88,90,92,94,-1,96,98,-1,-1,-1,100,-1,-1,-1,-1,-1,-1,-1,-1,-1,-1,-1,-1,-1,-1,-1,-1,-1,-1,-1,-1,-1,-1,-1,-1,-1,-1,-1,-1,-1,-1,-1,-1,-1,-1,-1,-1,-1,-1,-1,-1],"split_conditions":[1.5E0,7.6E-1,2.15E0,2.8E-1,4.8E0,2.21E1,2.7E0,3E-1,-1.2E0,2E1,1.18E0,8.9E0,1.7E0,-5E-1,1.84E1,4E-1,7.7E0,4.915E3,5.8E1,-2.0548378E5,7.7E-1,4.3E1,1.61E1,5.1E0,2.4E0,1.58E1,1.25E1,2.31E0,4.7E0,5.1E1,2.37E1,1.3E-1,-4.3576366E5,-1.6894302E5,1.336E3,5.1E-1,-1.1132989E5,4.5E0,1.15E1,-1.3359666E2,2.7E0,1.4E0,2.19E1,4.122E3,5.8E0,1.8E1,1.5583127E5,7.2E0,1.91E0,4.396948E5,2.66E1,6.1E1,2.2E0,1.17E1,5.9497644E5,3.13E1,2.21E1,6.79597E5,2.7189528E5,1.5143461E5,3.04E0,-3.005766E5,-9.0201836E4,-7.746256E4,-4.054033E5,3.590018E4,1.3395392E5,-2.2626095E5,-3.8390478E5,-1.2986627E5,-2.9647344E5,3.7738797E5,1.6575483E5,1.3601979E4,-3.807396E5,-7.1076695E4,-2.4678561E5,2.0715089E5,-1.00919266E5,-2.243605E5,5.561427E4,2.2695586E5,4.9877397E5,-8.246863E3,4.6295297E5,6.939845E4,3.6361544E5,2.8603522E5,-7.391896E4,2.947139E4,3.9667725E5,-2.614979E5,-1.0305669E5,5.356798E5,2.7129597E5,3.7821678E5,1.5827595E5,-1.1020937E5,1.3585903E5,4.7666272E5,6.075974E5],"split_indices":[7,7,7,7,8,8,7,6,8,3,7,8,0,2,1,0,1,5,3,0,7,3,8,0,0,4,2,7,0,3,8,7,0,0,5,7,0,1,8,0,8,0,8,5,2,3,0,1,7,0,8,3,0,1,0,8,1,0,0,0,7,0,0,0,0,0,0,0,0,0,0,0,0,0,0,0,0,0,0,0,0,0,0,0,0,0,0,0,0,0,0,0,0,0,0,0,0,0,0,0,0],"split_type":[0,0,0,0,0,0,0,0,0,0,0,0,0,0,0,0,0,0,0,0,0,0,0,0,0,0,0,0,0,0,0,0,0,0,0,0,0,0,0,0,0,0,0,0,0,0,0,0,0,0,0,0,0,0,0,0,0,0,0,0,0,0,0,0,0,0,0,0,0,0,0,0,0,0,0,0,0,0,0,0,0,0,0,0,0,0,0,0,0,0,0,0,0,0,0,0,0,0,0,0,0],"sum_hessian":[1.347E3,8.22E2,5.25E2,5.76E2,2.46E2,1.99E2,3.26E2,3.2E2,2.56E2,3.2E1,2.14E2,1.34E2,6.5E1,1.56E2,1.7E2,2.89E2,3.1E1,1.4E1,2.42E2,5E0,2.7E1,1.3E2,8.4E1,3.6E1,9.8E1,1E1,5.5E1,8.1E1,7.5E1,7.7E1,9.3E1,9E0,2.8E2,1.3E1,1.8E1,1.1E1,3E0,9.2E1,1.5E2,2E0,2.5E1,3.3E1,9.7E1,3.6E1,4.8E1,3.4E1,2E0,2.8E1,7E1,6E0,4E0,4.8E1,7E0,3.6E1,4.5E1,6.9E1,6E0,7.5E1,2E0,2E0,9.1E1,7E0,2E0,2E0,1.6E1,4E0,7E0,1.6E1,7.6E1,4.4E1,1.06E2,1.9E1,6E0,5E0,2.8E1,7E1,2.7E1,2.6E1,1E1,2.3E1,2.5E1,3E0,3.1E1,2E0,2.6E1,4.4E1,2.6E1,2E0,2E0,4.5E1,3E0,3E0,4E0,2.4E1,1.2E1,5.9E1,1E1,4E0,2E0,3.6E1,5.5E1],"tree_param":{"num_deleted":"0","num_feature":"9","num_nodes":"101","size_leaf_vector":"1"}},{"base_weights":[1.1656004E4,-2.2926448E6,3.987133E6,-3.1984332E6,-4.0439778E5,2.9213512E6,5.2530875E6,-3.6205528E6,-2.1665318E6,2.1659418E6,-7.957125E5,3.6569428E6,1.723588E6,5.727276E6,4.4200695E6,-3.95772E6,-3.2393345E6,6.839395E5,-2.4069145E6,-1.8836011E5,2.8575452E6,-1.5796299E6,1.28295484E5,2.8659728E6,4.7120585E6,9.947644E5,2.6367582E6,5.173314E6,6.400117E5,7.215626E5,4.6394645E6,-4.0937844E5,-3.226958E6,-1.4140074E6,-3.3396818E6,1.1466955E6,-1.3950642E5,-2.0814095E6,-3.5669508E6,1.2002641E6,3.5562975E6,-3.0720852E6,-1.1440879E6,1.4610466E6,-9.7006906E5,4.0428882E6,2.2062635E6,4.8560347E5,1.8691602E6,3.3392752E6,4.5907666E5,2.994121E6,-2.4467956E5,6.202487E5,4.764477E6,2.0044845E5,-1.2295206E5,2.827488E6,4.975885E6,-3.5923222E5,-2.0035806E5,-1.5993422E5,-3.248888E4,-2.0147525E5,-3.4525297E5,2.0770973E4,1.4366119E5,-1.049835E5,-2.6485472E5,-7.323788E4,-3.726201E5,2.1626066E5,-3.8706777E4,3.7404253E5,1.143347E5,-2.1133744E4,-3.5213516E5,-5.192301E4,-2.1561817E5,2.2877767E5,-6.756243E4,-2.3863655E5,3.4686918E4,4.172504E5,1.3126917E5,3.9748778E5,1.4443502E5,4.8171335E2,3.11045E5,4.7740496E4,4.352801E5,3.732651E5,2.449142E4,3.1553753E5,-1.0022764E4,5.6374875E4,-1.24102414E5,1.9180775E5,4.874829E5,2.528413E4,3.2041384E5,3.1049984E5,5.2126606E5],"categories":[],"categories_nodes":[],"categories_segments":[],"categories_sizes":[],"default_left":[0,0,0,0,0,0,0,0,0,0,0,0,0,0,0,0,0,0,0,0,0,0,0,0,0,0,0,0,0,0,0,0,0,0,0,0,0,0,0,0,0,0,0,0,0,0,0,0,0,0,0,0,0,0,0,0,0,0,0,0,0,0,0,0,0,0,0,0,0,0,0,0,0,0,0,0,0,0,0,0,0,0,0,0,0,0,0,0,0,0,0,0,0,0,0,0,0,0,0,0,0,0,0],"id":6,"left_children":[1,3,5,7,9,11,13,15,17,19,21,23,25,27,29,31,33,35,37,-1,39,41,43,45,47,49,51,53,-1,55,57,-1,59,61,63,65,-1,67,69,71,73,75,77,79,81,83,85,-1,87,89,91,93,95,-1,97,-1,-1,99,101,-1,-1,-1,-1,-1,-1,-1,-1,-1,-1,-1,-1,-1,-1,-1,-1,-1,-1,-1,-1,-1,-1,-1,-1,-1,-1,-1,-1,-1,-1,-1,-1,-1,-1,-1,-1,-1,-1,-1,-1,-1,-1,-1,-1],"loss_changes":[1.2357756E16,1.4593475E15,6.525231E14,2.4348868E14,2.8133911E14,2.3246537E14,6.3562295E13,3.962161E13,1.1813086E14,1.0900756E14,1.7549436E14,1.25867775E14,6.725875E13,1.907234E13,6.6435494E13,7.868917E12,3.1361449E13,1.5068713E13,5.185851E13,0E0,3.2788418E13,8.163887E13,1.6536812E14,6.7169665E13,1.9574985E13,7.382256E13,4.8099607E13,4.9508893E12,0E0,1.748308E13,3.530718E13,0E0,9.787626E12,1.9026076E12,2.0853811E13,2.968331E12,0E0,7.035009E13,1.2167441E13,1.7640198E13,5.4978266E12,3.6527673E13,6.4019155E13,9.1634646E13,1.1646861E14,6.5545563E12,8.184839E13,0E0,1.1555967E13,2.9828313E13,3.413966E13,2.077432E13,5.5324647E12,0E0,1.0438381E13,0E0,0E0,1.3735977E13,1.3494385E13,0E0,0E0,0E0,0E0,0E0,0E0,0E0,0E0,0E0,0E0,0E0,0E0,0E0,0E0,0E0,0E0,0E0,0E0,0E0,0E0,0E0,0E0,0E0,0E0,0E0,0E0,0E0,0E0,0E0,0E0,0E0,0E0,0E0,0E0,0E0,0E0,0E0,0E0,0E0,0E0,0E0,0E0,0E0,0E0],"parents":[2147483647,0,0,1,1,2,2,3,3,4,4,5,5,6,6,7,7,8,8,9,9,10,10,11,11,12,12,13,13,14,14,15,15,16,16,17,17,18,18,20,20,21,21,22,22,23,23,24,24,25,25,26,26,27,27,29,29,30,30,32,32,33,33,34,34,35,35,37,37,38,38,39,39,40,40,41,41,42,42,43,43,44,44,45,45,46,46,48,48,49,49,50,50,51,51,52,52,54,54,57,57,58,58],"right_children":[2,4,6,8,10,12,14,16,18,20,22,24,26,28,30,32,34,36,38,-1,40,42,44,46,48,50,52,54,-1,56,58,-1,60,62,64,66,-1,68,70,72,74,76,78,80,82,84,86,-1,88,90,92,94,96,-1,98,-1,-1,100,102,-1,-1,-1,-1,-1,-1,-1,-1,-1,-1,-1,-1,-1,-1,-1,-1,-1,-1,-1,-1,-1,-1,-1,-1,-1,-1,-1,-1,-1,-1,-1,-1,-1,-1,-1,-1,-1,-1,-1,-1,-1,-1,-1,-1],"split_conditions":[1.6E0,7.6E-1,2.51E0,4.2E-1,4.8E0,2.21E1,5.1E0,1.5E-1,-1.2E0,2E1,1.18E0,2.06E0,2.2E0,2.97E0,2.49E1,1E-1,2.7E0,4.6E0,4.915E3,-1.8836011E5,2.1E0,4E1,1.66E1,2.8E0,5.5E1,2E0,4.6E0,-9.1E0,6.400117E5,5.5E1,2.7E0,-4.0937844E5,6.6E1,1.9E0,7E-1,5.1E-1,-1.3950642E5,1.22E1,1.5E0,4.837E3,4.3E0,1.4E0,3E0,4.122E3,9.5E0,2.02E0,7.1E0,4.8560347E5,5.8E1,1.73E0,1.61E0,2.54E1,4.5E1,6.202487E5,-8.5E0,2.0044845E5,-1.2295206E5,6.1E0,5.8E0,-3.5923222E5,-2.0035806E5,-1.5993422E5,-3.248888E4,-2.0147525E5,-3.4525297E5,2.0770973E4,1.4366119E5,-1.049835E5,-2.6485472E5,-7.323788E4,-3.726201E5,2.1626066E5,-3.8706777E4,3.7404253E5,1.143347E5,-2.1133744E4,-3.5213516E5,-5.192301E4,-2.1561817E5,2.2877767E5,-6.756243E4,-2.3863655E5,3.4686918E4,4.172504E5,1.3126917E5,3.9748778E5,1.4443502E5,4.8171335E2,3.11045E5,4.7740496E4,4.352801E5,3.732651E5,2.449142E4,3.1553753E5,-1.0022764E4,5.6374875E4,-1.24102414E5,1.9180775E5,4.874829E5,2.528413E4,3.2041384E5,3.1049984E5,5.2126606E5],"split_indices":[7,7,7,7,8,8,2,7,8,3,7,7,7,7,8,6,1,0,5,0,0,3,8,0,3,0,0,2,0,3,7,0,3,1,0,7,0,8,0,5,8,0,0,5,4,7,8,0,3,7,7,1,3,0,2,0,0,2,2,0,0,0,0,0,0,0,0,0,0,0,0,0,0,0,0,0,0,0,0,0,0,0,0,0,0,0,0,0,0,0,0,0,0,0,0,0,0,0,0,0,0,0,0],"split_type":[0,0,0,0,0,0,0,0,0,0,0,0,0,0,0,0,0,0,0,0,0,0,0,0,0,0,0,0,0,0,0,0,0,0,0,0,0,0,0,0,0,0,0,0,0,0,0,0,0,0,0,0,0,0,0,0,0,0,0,0,0,0,0,0,0,0,0,0,0,0,0,0,0,0,0,0,0,0,0,0,0,0,0,0,0,0,0,0,0,0,0,0,0,0,0,0,0,0,0,0,0,0,0],"sum_hessian":[1.347E3,8.53E2,4.94E2,5.76E2,2.77E2,2.7E2,2.24E2,4.07E2,1.69E2,3.6E1,2.41E2,1.66E2,1.04E2,1.39E2,8.5E1,2.11E2,1.96E2,1.3E1,1.56E2,5E0,3.1E1,1.3E2,1.11E2,9.7E1,6.9E1,5.9E1,4.5E1,8.1E1,5.8E1,5E0,8E1,1.74E2,3.7E1,1.1E1,1.85E2,1.1E1,2E0,1.24E2,3.2E1,1E1,2.1E1,2.8E1,1.02E2,5E1,6.1E1,3.3E1,6.4E1,6.5E1,4E0,1E1,4.9E1,4E1,5E0,1.9E1,6.2E1,3E0,2E0,1.4E1,6.6E1,2.7E1,1E1,9E0,2E0,1.6E1,1.69E2,3E0,8E0,4.5E1,7.9E1,2E0,3E1,6E0,4E0,1.9E1,2E0,4E0,2.4E1,6.4E1,3.8E1,3.6E1,1.4E1,2.9E1,3.2E1,3.1E1,2E0,1.8E1,4.6E1,2E0,2E0,3E0,7E0,2E0,4.7E1,3.8E1,2E0,3E0,2E0,3E0,5.9E1,2E0,1.2E1,9E0,5.7E1],"tree_param":{"num_deleted":"0","num_feature":"9","num_nodes":"103","size_leaf_vector":"1"}},{"base_weights":[1.3083685E4,-2.1234335E6,3.5057632E6,-2.8829208E6,-4.362785E5,2.4901415E6,4.7017145E6,-3.4114395E6,-2.2115688E6,1.98563E6,-8.0777856E5,4.2187515E6,2.0849755E6,5.478326E6,4.1960975E6,-3.5113245E6,-2.3996258E6,4.35879E5,-2.3658902E6,-1.7266344E5,2.6618952E6,-1.5749735E6,-1.1057172E5,3.6638598E4,4.4471334E5,1.2654416E6,2.6201008E6,5.6746295E6,3.745827E6,3.6094658E6,5.283726E5,-2.145831E6,-3.5474228E6,-1.2957718E6,-3.0866958E6,8.034127E5,-1.30206E5,-2.9780685E6,-1.9731852E6,1.3126872E6,3.1776182E6,6.8824805E4,-1.8408422E6,9.4742906E5,-9.3356394E5,3.334474E6,8.1907844E5,3.4537148E6,1.7234378E6,5.1289822E5,6.465822E5,1.8594553E5,4.1680116E5,3.6942335E6,-3.0625213E4,-2.4169512E5,-7.075669E4,-2.8778494E5,-3.6072678E5,-5.936895E4,-1.433277E5,-4.928153E4,-3.362869E5,-2.6717078E4,1.3089133E5,-2.4859203E5,-3.5957628E5,-1.6530025E5,-3.3206662E5,1.9772398E5,-1.7845146E4,3.3436112E5,1.0671237E5,2.269923E5,-1.8953542E5,-1.03151164E5,-2.799041E5,-1.6493388E5,1.6668048E5,-2.2717992E5,1.8272182E4,3.9654856E5,-7.2173695E4,2.5632316E5,3.5576348E4,4.474266E5,2.6668172E5,2.5606317E5,9.527987E4,4.4643884E5,3.0389472E5],"categories":[],"categories_nodes":[],"categories_segments":[],"categories_sizes":[],"default_left":[0,0,0,0,0,0,0,0,0,0,0,0,0,0,0,0,0,0,0,0,0,0,0,0,0,0,0,0,0,0,0,0,0,0,0,0,0,0,0,0,0,0,0,0,0,0,0,0,0,0,0,0,0,0,0,0,0,0,0,0,0,0,0,0,0,0,0,0,0,0,0,0,0,0,0,0,0,0,0,0,0,0,0,0,0,0,0,0,0,0,0],"id":7,"left_children":[1,3,5,7,9,11,13,15,17,19,21,23,25,27,29,31,33,35,37,-1,39,41,43,-1,-1,45,47,49,51,53,-1,55,57,59,61,63,-1,65,67,69,71,73,75,77,79,81,83,85,87,-1,-1,-1,-1,89,-1,-1,-1,-1,-1,-1,-1,-1,-1,-1,-1,-1,-1,-1,-1,-1,-1,-1,-1,-1,-1,-1,-1,-1,-1,-1,-1,-1,-1,-1,-1,-1,-1,-1,-1,-1,-1],"loss_changes":[1.006645E16,1.071251E15,6.101849E14,1.9718732E14,2.3643589E14,1.8660828E14,6.8896644E13,2.4016115E13,1.0603066E14,9.246275E13,1.21246675E14,4.412079E13,9.667455E13,9.012452E12,7.408201E13,6.682432E12,2.026993E13,1.0627359E13,5.254235E13,0E0,1.6703312E13,4.732643E13,1.0537165E14,0E0,0E0,8.223446E13,9.645121E13,5.102958E11,1.806537E12,3.3660061E13,0E0,2.1892673E12,8.7858925E11,5.0063842E11,1.1953582E13,7.385049E12,0E0,1.9332923E13,5.965837E13,1.0262242E13,3.7888322E12,7.347593E13,6.923427E13,1.01755895E14,1.0199712E14,4.3814287E13,6.13112E13,4.428279E13,4.143209E13,0E0,0E0,0E0,0E0,3.4881443E13,0E0,0E0,0E0,0E0,0E0,0E0,0E0,0E0,0E0,0E0,0E0,0E0,0E0,0E0,0E0,0E0,0E0,0E0,0E0,0E0,0E0,0E0,0E0,0E0,0E0,0E0,0E0,0E0,0E0,0E0,0E0,0E0,0E0,0E0,0E0,0E0,0E0],"parents":[2147483647,0,0,1,1,2,2,3,3,4,4,5,5,6,6,7,7,8,8,9,9,10,10,11,11,12,12,13,13,14,14,15,15,16,16,17,17,18,18,20,20,21,21,22,22,25,25,26,26,27,27,28,28,29,29,31,31,32,32,33,33,34,34,35,35,37,37,38,38,39,39,40,40,41,41,42,42,43,43,44,44,45,45,46,46,47,47,48,48,53,53],"right_children":[2,4,6,8,10,12,14,16,18,20,22,24,26,28,30,32,34,36,38,-1,40,42,44,-1,-1,46,48,50,52,54,-1,56,58,60,62,64,-1,66,68,70,72,74,76,78,80,82,84,86,88,-1,-1,-1,-1,90,-1,-1,-1,-1,-1,-1,-1,-1,-1,-1,-1,-1,-1,-1,-1,-1,-1,-1,-1,-1,-1,-1,-1,-1,-1,-1,-1,-1,-1,-1,-1,-1,-1,-1,-1,-1,-1],"split_conditions":[1.56E0,7.6E-1,2.45E0,2.8E-1,4.8E0,8.2E0,-3E-1,3E-1,-1.2E0,2E1,1.09E0,1E0,1.91E0,1.97E1,3.13E0,4E-1,7.7E0,4.6E0,5.8E1,-1.7266344E5,2.1E0,1.4E0,1.65E1,3.6638598E4,4.4471334E5,1.7E0,2.27E1,2.93E0,2E1,5.3E0,5.283726E5,1.3E-1,2.9E0,1E0,1.336E3,5.1E-1,-1.30206E5,7E-1,1.86E1,4.837E3,4.3E0,1.54E1,5E-1,2.9E1,9.5E0,2.66E1,2.428E3,3E0,2.9E0,5.1289822E5,6.465822E5,1.8594553E5,4.1680116E5,3.514E3,-3.0625213E4,-2.4169512E5,-7.075669E4,-2.8778494E5,-3.6072678E5,-5.936895E4,-1.433277E5,-4.928153E4,-3.362869E5,-2.6717078E4,1.3089133E5,-2.4859203E5,-3.5957628E5,-1.6530025E5,-3.3206662E5,1.9772398E5,-1.7845146E4,3.3436112E5,1.0671237E5,2.269923E5,-1.8953542E5,-1.03151164E5,-2.799041E5,-1.6493388E5,1.6668048E5,-2.2717992E5,1.8272182E4,3.9654856E5,-7.2173695E4,2.5632316E5,3.5576348E4,4.474266E5,2.6668172E5,2.5606317E5,9.527987E4,4.4643884E5,3.0389472E5],"split_indices":[7,7,7,7,8,8,2,6,8,3,7,6,7,1,7,0,1,0,3,0,0,0,8,0,0,0,8,7,1,0,0,7,1,0,5,7,0,6,1,5,8,1,6,3,4,8,5,0,0,0,0,0,0,5,0,0,0,0,0,0,0,0,0,0,0,0,0,0,0,0,0,0,0,0,0,0,0,0,0,0,0,0,0,0,0,0,0,0,0,0,0],"split_type":[0,0,0,0,0,0,0,0,0,0,0,0,0,0,0,0,0,0,0,0,0,0,0,0,0,0,0,0,0,0,0,0,0,0,0,0,0,0,0,0,0,0,0,0,0,0,0,0,0,0,0,0,0,0,0,0,0,0,0,0,0,0,0,0,0,0,0,0,0,0,0,0,0,0,0,0,0,0,0,0,0,0,0,0,0,0,0,0,0,0,0],"sum_hessian":[1.347E3,8.36E2,5.11E2,5.76E2,2.6E2,2.78E2,2.33E2,3.2E2,2.56E2,3.4E1,2.26E2,5.1E1,2.27E2,8.8E1,1.45E2,2.89E2,3.1E1,1.4E1,2.42E2,5E0,2.9E1,1.07E2,1.19E2,3E0,4.8E1,9.1E1,1.36E2,7.7E1,1.1E1,9.7E1,4.8E1,9E0,2.8E2,1.3E1,1.8E1,1.2E1,2E0,9.2E1,1.5E2,9E0,2E1,1.5E1,9.2E1,5.2E1,6.7E1,1.5E1,7.6E1,6.9E1,6.7E1,5E1,2.7E1,3E0,8E0,9.5E1,2E0,7E0,2E0,2.7E1,2.53E2,3E0,1E1,2E0,1.6E1,4E0,8E0,5.4E1,3.8E1,1.23E2,2.7E1,6E0,3E0,1.8E1,2E0,7E0,8E0,5.1E1,4.1E1,1.1E1,4.1E1,3E1,3.7E1,1.3E1,2E0,1.5E1,6.1E1,2.8E1,4.1E1,3.1E1,3.6E1,4.1E1,5.4E1],"tree_param":{"num_deleted":"0","num_feature":"9","num_nodes":"91","size_leaf_vector":"1"}},{"base_weights":[1.3546943E4,-1.8640804E6,3.252901E6,-2.5992748E6,-3.314503E5,2.3846952E6,4.284149E6,-2.9506472E6,-1.7406905E6,4.4907906E5,-1.2107396E6,2.990147E6,1.3990274E6,4.959975E6,3.8463522E6,-3.2237848E6,-2.6417345E6,-9.7766175E5,-2.361933E6,-1.5365522E6,9.458846E5,-2.894899E5,-2.1136448E6,2.3290542E6,3.8729605E6,6.266438E5,2.038462E6,5.142435E6,3.4214732E6,3.3203762E6,4.766136E5,-3.336899E5,-2.618028E6,-1.1018166E6,-2.7268812E6,-3.808662E5,-6.88847E5,-3.0924125E6,-1.7522802E6,1.6225647E5,-2.0849765E6,-1.5259569E5,2.3641688E6,-1.2020864E6,1.5903432E6,-2.877158E6,2.5631416E5,3.3294945E6,1.7699152E6,3.9971472E6,1.4591035E6,2.589032E6,1.2038065E5,3.0731308E6,1.1340918E6,4.6160615E6,5.842332E5,1.7199958E5,3.797522E5,3.671926E6,2.0189232E6,-2.0578136E5,-3.431409E5,-1.3031265E5,-6.35118E3,-1.6014467E5,-2.8233844E5,9.7477305E4,-1.0378172E5,-3.7055848E4,-3.2975444E5,-2.1114698E5,3.38094E2,-1.8275559E4,-2.776176E5,-5.6060758E4,2.5844386E5,-7.8915984E4,2.506085E5,-3.114574E5,-7.043978E4,2.3935892E5,-2.622661E5,-1.3948814E4,-2.9883216E5,1.636481E5,-3.3833822E5,3.450692E5,9.268943E4,4.2272397E5,1.3508655E5,3.4454716E5,4.4756322E5,-2.3321115E4,2.6650503E5,3.7854973E4,3.482303E5,1.7167023E5,-4.6894996E4,4.0727153E5,1.0665237E5,7.7179526E3,1.9518469E5,4.9176166E5,3.1820997E5,4.4889472E5,2.8654994E5,2.9789872E5,-3.3561677E3],"categories":[],"categories_nodes":[],"categories_segments":[],"categories_sizes":[],"default_left":[0,0,0,0,0,0,0,0,0,0,0,0,0,0,0,0,0,0,0,0,0,0,0,0,0,0,0,0,0,0,0,0,0,0,0,0,0,0,0,0,0,0,0,0,0,0,0,0,0,0,0,0,0,0,0,0,0,0,0,0,0,0,0,0,0,0,0,0,0,0,0,0,0,0,0,0,0,0,0,0,0,0,0,0,0,0,0,0,0,0,0,0,0,0,0,0,0,0,0,0,0,0,0,0,0,0,0,0,0],"id":8,"left_children":[1,3,5,7,9,11,13,15,17,19,21,23,25,27,29,31,33,35,37,39,41,43,45,47,49,51,53,55,57,59,-1,-1,61,63,65,-1,67,69,71,-1,73,75,77,79,81,83,85,87,89,91,93,95,97,99,101,103,-1,-1,-1,105,107,-1,-1,-1,-1,-1,-1,-1,-1,-1,-1,-1,-1,-1,-1,-1,-1,-1,-1,-1,-1,-1,-1,-1,-1,-1,-1,-1,-1,-1,-1,-1,-1,-1,-1,-1,-1,-1,-1,-1,-1,-1,-1,-1,-1,-1,-1,-1,-1],"loss_changes":[8.2050035E15,9.614094E14,4.3297458E14,1.6893502E14,1.9133823E14,1.5754249E14,4.749375E13,2.5908853E13,7.8275175E13,1.4745134E14,1.08354056E14,8.844438E13,5.0580924E13,6.266089E12,5.2388266E13,5.7898844E12,2.2825872E13,6.1151912E13,3.599773E13,5.535911E13,1.8575767E14,1.1513665E14,1.20164125E14,4.892686E13,1.5151705E13,4.8369083E13,4.9851014E13,2.9353417E11,1.1463284E12,3.513659E13,0E0,0E0,1.0254201E13,2.4254874E12,1.5679583E13,0E0,4.281152E13,2.1669956E13,3.3429727E13,0E0,3.3677812E13,7.738734E13,2.5248133E13,4.063814E13,8.07273E13,1.4799618E13,9.093442E13,6.7019274E12,6.122273E13,2.0012534E12,1.0825727E13,1.8427385E13,3.8435495E13,4.780646E13,2.7506803E13,4.675273E12,0E0,0E0,0E0,3.457536E13,4.3451337E13,0E0,0E0,0E0,0E0,0E0,0E0,0E0,0E0,0E0,0E0,0E0,0E0,0E0,0E0,0E0,0E0,0E0,0E0,0E0,0E0,0E0,0E0,0E0,0E0,0E0,0E0,0E0,0E0,0E0,0E0,0E0,0E0,0E0,0E0,0E0,0E0,0E0,0E0,0E0,0E0,0E0,0E0,0E0,0E0,0E0,0E0,0E0,0E0],"parents":[2147483647,0,0,1,1,2,2,3,3,4,4,5,5,6,6,7,7,8,8,9,9,10,10,11,11,12,12,13,13,14,14,15,15,16,16,17,17,18,18,19,19,20,20,21,21,22,22,23,23,24,24,25,25,26,26,27,27,28,28,29,29,32,32,33,33,34,34,36,36,37,37,38,38,40,40,41,41,42,42,43,43,44,44,45,45,46,46,47,47,48,48,49,49,50,50,51,51,52,52,53,53,54,54,55,55,59,59,60,60],"right_children":[2,4,6,8,10,12,14,16,18,20,22,24,26,28,30,32,34,36,38,40,42,44,46,48,50,52,54,56,58,60,-1,-1,62,64,66,-1,68,70,72,-1,74,76,78,80,82,84,86,88,90,92,94,96,98,100,102,104,-1,-1,-1,106,108,-1,-1,-1,-1,-1,-1,-1,-1,-1,-1,-1,-1,-1,-1,-1,-1,-1,-1,-1,-1,-1,-1,-1,-1,-1,-1,-1,-1,-1,-1,-1,-1,-1,-1,-1,-1,-1,-1,-1,-1,-1,-1,-1,-1,-1,-1,-1,-1],"split_conditions":[1.6E0,7.6E-1,2.51E0,4.2E-1,1.65E1,2.21E1,-3E-1,1.5E-1,1.15E1,2.8E1,5E-1,2.06E0,2.11E0,1.97E1,3.13E0,1E-1,2.7E0,2.1E1,6.5E1,2E-1,1E0,4.432E3,5.8E1,2.8E0,5.5E1,2E0,2.9E0,2.93E0,2E1,4.2E0,4.766136E5,-3.336899E5,4.52E3,1.9E0,7E-1,-3.808662E5,-1.2E0,4E-1,1E-1,1.6225647E5,1.8E1,1.5E0,8.5E-1,2.234E3,1.27E1,-4.4E0,2.26E1,2.02E0,2.202E3,4.604E3,5.8E1,1.73E0,4E-1,2.93E1,1.89E1,3.9E0,5.842332E5,1.7199958E5,3.797522E5,3.562E3,4.8E1,-2.0578136E5,-3.431409E5,-1.3031265E5,-6.35118E3,-1.6014467E5,-2.8233844E5,9.7477305E4,-1.0378172E5,-3.7055848E4,-3.2975444E5,-2.1114698E5,3.38094E2,-1.8275559E4,-2.776176E5,-5.6060758E4,2.5844386E5,-7.8915984E4,2.506085E5,-3.114574E5,-7.043978E4,2.3935892E5,-2.622661E5,-1.3948814E4,-2.9883216E5,1.636481E5,-3.3833822E5,3.450692E5,9.268943E4,4.2272397E5,1.3508655E5,3.4454716E5,4.4756322E5,-2.3321115E4,2.6650503E5,3.7854973E4,3.482303E5,1.7167023E5,-4.6894996E4,4.0727153E5,1.0665237E5,7.7179526E3,1.9518469E5,4.9176166E5,3.1820997E5,4.4889472E5,2.8654994E5,2.9789872E5,-3.3561677E3],"split_indices":[7,7,7,7,8,8,2,7,8,3,6,7,7,1,7,6,1,3,3,8,6,5,3,0,3,0,0,7,1,0,0,0,5,1,0,0,8,2,6,0,3,7,7,5,2,2,8,7,5,5,3,7,6,8,1,0,0,0,0,5,3,0,0,0,0,0,0,0,0,0,0,0,0,0,0,0,0,0,0,0,0,0,0,0,0,0,0,0,0,0,0,0,0,0,0,0,0,0,0,0,0,0,0,0,0,0,0,0,0],"split_type":[0,0,0,0,0,0,0,0,0,0,0,0,0,0,0,0,0,0,0,0,0,0,0,0,0,0,0,0,0,0,0,0,0,0,0,0,0,0,0,0,0,0,0,0,0,0,0,0,0,0,0,0,0,0,0,0,0,0,0,0,0,0,0,0,0,0,0,0,0,0,0,0,0,0,0,0,0,0,0,0,0,0,0,0,0,0,0,0,0,0,0,0,0,0,0,0,0,0,0,0,0,0,0,0,0,0,0,0,0],"sum_hessian":[1.347E3,8.53E2,4.94E2,5.76E2,2.77E2,2.7E2,2.24E2,4.07E2,1.69E2,1.47E2,1.3E2,1.66E2,1.04E2,8.4E1,1.4E2,2.11E2,1.96E2,7.7E1,9.2E1,2.9E1,1.18E2,6.5E1,6.5E1,9.7E1,6.9E1,4.8E1,5.6E1,7.3E1,1.1E1,9.2E1,4.8E1,1.74E2,3.7E1,1.1E1,1.85E2,6E0,7.1E1,4E1,5.2E1,4E0,2.5E1,6.7E1,5.1E1,4.4E1,2.1E1,4.9E1,1.6E1,3.3E1,6.4E1,6.5E1,4E0,9E0,3.9E1,2.5E1,3.1E1,4.6E1,2.7E1,3E0,8E0,7.1E1,2.1E1,2.4E1,1.3E1,9E0,2E0,1.6E1,1.69E2,1.2E1,5.9E1,3E0,3.7E1,4.3E1,9E0,7E0,1.8E1,5.9E1,8E0,2E0,4.9E1,8E0,3.6E1,1.8E1,3E0,2E0,4.7E1,1.2E1,4E0,3.1E1,2E0,8E0,5.6E1,3.4E1,3.1E1,2E0,2E0,3E0,6E0,1E1,2.9E1,1.6E1,9E0,1.4E1,1.7E1,3.6E1,1E1,3.3E1,3.8E1,1.4E1,7E0],"tree_param":{"num_deleted":"0","num_feature":"9","num_nodes":"109","size_leaf_vector":"1"}},{"base_weights":[1.4887134E4,-2.0032066E6,2.481791E6,-2.636614E6,-1.1596612E6,1.1171208E6,3.447368E6,-2.6776192E6,-6.7533606E5,-4.458045E5,-1.6457431E6,1.5145596E6,1.1638691E5,2.8408282E6,4.0834058E6,-2.9055695E6,-2.4263725E6,-1.3163068E6,2.2889598E5,-2.9502058E6,-1.6846819E5,-1.2601451E6,-2.2887662E6,1.021064E6,2.468632E6,1.7431826E6,-5.303885E5,3.5972725E6,2.0370612E6,4.226245E6,2.718259E6,-2.2230585E6,-2.9931628E5,-1.5988305E6,-2.560635E6,4.4341104E3,-2.691735E5,3.288126E4,5.2680635E3,-3.4809184E5,-2.0857966E3,9.1657644E5,-5.954804E5,-1.8808432E6,-7.143991E5,-5.1700756E5,-2.762573E6,1.3907685E6,-4.5423216E5,3.367556E4,2.7336512E6,-1.3670698E5,2.5554225E6,-1.560095E6,8.805372E5,1.5289959E6,3.6722072E5,4.066087E6,1.6207479E6,1.1275946E5,4.259819E6,4.2691697E5,3.3008225E6,-1.6135094E5,-3.1588962E5,-6.4070074E4,-2.7165097E5,-1.0039764E4,-2.5888228E5,1.408619E5,-8.586393E4,-2.3944958E5,9.931091E3,-1.14862836E5,-2.7428447E5,-1.2215006E5,9.466368E4,-1.7488317E5,3.9697004E4,-3.0778903E5,-5.253474E4,-5.9473164E4,1.625823E5,1.3683123E5,-1.2390169E5,7.225992E4,-1.1257556E5,6.136947E4,2.9807134E5,3.061702E5,-8.2778086E4,-1.8440598E5,1.7049298E5,7.930311E3,3.1374834E5,2.7659903E5,-2.176638E4,4.5350922E5,6.783706E4,1.8794847E5,1.8248777E4,4.289735E5,1.3540427E5,-1.01415164E5,1.72568E5,1.6313988E5,3.5822284E5],"categories":[],"categories_nodes":[],"categories_segments":[],"categories_sizes":[],"default_left":[0,0,0,0,0,0,0,0,0,0,0,0,0,0,0,0,0,0,0,0,0,0,0,0,0,0,0,0,0,0,0,0,0,0,0,0,0,0,0,0,0,0,0,0,0,0,0,0,0,0,0,0,0,0,0,0,0,0,0,0,0,0,0,0,0,0,0,0,0,0,0,0,0,0,0,0,0,0,0,0,0,0,0,0,0,0,0,0,0,0,0,0,0,0,0,0,0,0,0,0,0,0,0,0,0,0,0],"id":9,"left_children":[1,3,5,7,9,11,13,15,17,19,21,23,25,27,29,31,33,35,37,39,41,43,45,47,49,51,53,55,57,59,61,63,-1,65,67,-1,-1,-1,-1,-1,-1,69,71,73,75,77,79,81,83,85,87,-1,89,91,93,95,-1,97,99,-1,101,103,105,-1,-1,-1,-1,-1,-1,-1,-1,-1,-1,-1,-1,-1,-1,-1,-1,-1,-1,-1,-1,-1,-1,-1,-1,-1,-1,-1,-1,-1,-1,-1,-1,-1,-1,-1,-1,-1,-1,-1,-1,-1,-1,-1,-1],"loss_changes":[6.7159137E15,3.9339887E14,7.9598924E14,3.2210376E13,1.1030402E14,1.00449554E14,1.2535238E14,1.6660447E13,6.097159E12,9.049053E13,4.4226084E13,8.26997E13,7.773308E13,1.0515315E14,2.1856283E13,6.020202E12,1.8460843E13,1.1348196E13,7.071215E10,2.0137734E13,5.5681755E13,3.964431E13,5.7334693E13,6.6627995E13,3.9271872E13,5.654514E13,7.83742E13,8.953799E12,7.112328E13,1.1113765E13,2.3953024E13,1.0875377E13,0E0,3.145686E13,1.173734E13,0E0,0E0,0E0,0E0,0E0,0E0,3.0907868E13,1.0773266E14,3.2195025E13,5.6749025E13,1.8707988E13,3.7182E13,4.6236883E13,3.7452987E13,6.4047866E12,2.6977596E13,0E0,3.1652793E13,3.1885711E13,4.134305E13,1.1405097E13,0E0,2.0756352E13,2.8683234E13,0E0,7.317819E12,1.1108135E13,1.202725E12,0E0,0E0,0E0,0E0,0E0,0E0,0E0,0E0,0E0,0E0,0E0,0E0,0E0,0E0,0E0,0E0,0E0,0E0,0E0,0E0,0E0,0E0,0E0,0E0,0E0,0E0,0E0,0E0,0E0,0E0,0E0,0E0,0E0,0E0,0E0,0E0,0E0,0E0,0E0,0E0,0E0,0E0,0E0,0E0],"parents":[2147483647,0,0,1,1,2,2,3,3,4,4,5,5,6,6,7,7,8,8,9,9,10,10,11,11,12,12,13,13,14,14,15,15,16,16,17,17,18,18,19,19,20,20,21,21,22,22,23,23,24,24,25,25,26,26,27,27,28,28,29,29,30,30,31,31,33,33,34,34,41,41,42,42,43,43,44,44,45,45,46,46,47,47,48,48,49,49,50,50,52,52,53,53,54,54,55,55,57,57,58,58,60,60,61,61,62,62],"right_children":[2,4,6,8,10,12,14,16,18,20,22,24,26,28,30,32,34,36,38,40,42,44,46,48,50,52,54,56,58,60,62,64,-1,66,68,-1,-1,-1,-1,-1,-1,70,72,74,76,78,80,82,84,86,88,-1,90,92,94,96,-1,98,100,-1,102,104,106,-1,-1,-1,-1,-1,-1,-1,-1,-1,-1,-1,-1,-1,-1,-1,-1,-1,-1,-1,-1,-1,-1,-1,-1,-1,-1,-1,-1,-1,-1,-1,-1,-1,-1,-1,-1,-1,-1,-1,-1,-1,-1,-1,-1],"split_conditions":[1.24E0,4.4E-1,2.06E0,8E-1,1.15E1,2.18E1,2.7E0,1.5E-1,1.8E0,2.2E1,5E-1,1.78E0,4E-1,2.27E1,3.53E1,2.9E0,6.3E0,2.7E0,4.9E0,1.12E1,1.7E0,7.4E-1,1.867E3,4.973E3,1.8E1,3.173E3,1.82E0,8E-1,2.7E1,7E-1,2.91E0,4.617E3,-2.9931628E5,4.525E3,-1.29E1,4.4341104E3,-2.691735E5,3.288126E4,5.2680635E3,-3.4809184E5,-2.0857966E3,4.979E3,4.3E1,2.496E3,4.805E3,5.4E1,1.16E0,3E-1,3E0,-1.56E1,8E-1,-1.3670698E5,7.4E1,2.99E1,5.4E1,3.1E0,3.6722072E5,4.5E0,4E0,1.1275946E5,5.3E0,2.9E0,3.18E0,-1.6135094E5,-3.1588962E5,-6.4070074E4,-2.7165097E5,-1.0039764E4,-2.5888228E5,1.408619E5,-8.586393E4,-2.3944958E5,9.931091E3,-1.14862836E5,-2.7428447E5,-1.2215006E5,9.466368E4,-1.7488317E5,3.9697004E4,-3.0778903E5,-5.253474E4,-5.9473164E4,1.625823E5,1.3683123E5,-1.2390169E5,7.225992E4,-1.1257556E5,6.136947E4,2.9807134E5,3.061702E5,-8.2778086E4,-1.8440598E5,1.7049298E5,7.930311E3,3.1374834E5,2.7659903E5,-2.176638E4,4.5350922E5,6.783706E4,1.8794847E5,1.8248777E4,4.289735E5,1.3540427E5,-1.01415164E5,1.72568E5,1.6313988E5,3.5822284E5],"split_indices":[7,7,7,6,8,8,7,7,2,3,6,7,6,8,8,1,1,1,2,1,8,7,5,5,3,5,7,6,3,6,7,5,0,5,2,0,0,0,0,0,0,5,3,5,5,3,7,6,0,2,6,0,3,8,3,2,0,0,0,0,0,0,7,0,0,0,0,0,0,0,0,0,0,0,0,0,0,0,0,0,0,0,0,0,0,0,0,0,0,0,0,0,0,0,0,0,0,0,0,0,0,0,0,0,0,0,0],"split_type":[0,0,0,0,0,0,0,0,0,0,0,0,0,0,0,0,0,0,0,0,0,0,0,0,0,0,0,0,0,0,0,0,0,0,0,0,0,0,0,0,0,0,0,0,0,0,0,0,0,0,0,0,0,0,0,0,0,0,0,0,0,0,0,0,0,0,0,0,0,0,0,0,0,0,0,0,0,0,0,0,0,0,0,0,0,0,0,0,0,0,0,0,0,0,0,0,0,0,0,0,0,0,0,0,0,0,0],"sum_hessian":[1.347E3,7.41E2,6.06E2,4.22E2,3.19E2,2.52E2,3.54E2,4.13E2,9E0,1.3E2,1.89E2,1.8E2,7.2E1,1.84E2,1.7E2,2.11E2,2.02E2,5E0,4E0,1.2E1,1.18E2,1.2E2,6.9E1,1.2E2,6E1,2E1,5.2E1,9.3E1,9.1E1,1.52E2,1.8E1,2.7E1,1.84E2,3E1,1.72E2,3E0,2E0,2E0,2E0,1E1,2E0,3.3E1,8.5E1,5.5E1,6.5E1,1.5E1,5.4E1,9.6E1,2.4E1,6E0,5.4E1,4E0,1.6E1,3E1,2.2E1,4E0,8.9E1,1.4E1,7.7E1,2E0,1.5E2,4E0,1.4E1,1.8E1,9E0,1.7E1,1.3E1,2E0,1.7E2,2.6E1,7E0,2.3E1,6.2E1,3.1E1,2.4E1,5E1,1.5E1,6E0,9E0,4.7E1,7E0,1E1,8.6E1,7E0,1.7E1,4E0,2E0,6E0,4.8E1,1.4E1,2E0,2.8E1,2E0,1.7E1,5E0,2E0,2E0,1.2E1,2E0,6.5E1,1.2E1,1.48E2,2E0,2E0,2E0,3E0,1.1E1],"tree_param":{"num_deleted":"0","num_feature":"9","num_nodes":"107","size_leaf_vector":"1"}},{"base_weights":[1.3698346E4,-1.5957012E6,2.5318012E6,-2.1345998E6,-3.937869E5,1.6602884E6,3.3709832E6,-2.5064888E6,-1.6446362E6,1.317451E6,-6.529273E5,3.1839372E6,1.254794E6,4.0058032E6,2.9347988E6,-2.580752E6,-1.75515E6,2.843745E5,-1.7612625E6,-1.8948552E6,2.0734758E6,-1.1842485E6,-7.6203305E4,1.3598271E6,3.3026695E6,2.8142055E6,1.00524775E6,2.0949201E6,4.0602012E6,1.9142438E6,3.386457E6,-1.7344106E6,-2.6271015E6,-1.2338588E6,-2.9502432E6,5.708282E5,-1.05171625E5,-1.2395294E6,-2.1763202E6,-2.8388425E5,-9.494919E4,3.0034647E5,1.389956E6,-6.200622E5,-1.8205354E6,5.8346075E5,-8.824E5,2.2064938E5,5.9884966E3,1.4152642E5,3.3930302E6,3.3237885E6,-1.9463319E5,2.2467514E5,1.5866012E6,2.6846628E5,8.068709E4,4.1689218E6,2.7817928E6,2.4523262E6,-5.9093556E5,2.9341415E6,3.898894E6,-2.031781E5,4.2970082E4,-2.5081023E5,-3.0340438E5,-1.4499666E5,-5.0188758E4,-1.22903016E5,-3.2664428E5,-2.8112229E4,9.807087E4,-4.9671227E4,-1.7386472E5,-2.2446216E5,5.192521E4,-9.052068E4,1.7334267E5,-1.1284825E5,6.1672613E4,2.7528635E4,-2.4917786E5,-9.244612E4,1.0202149E5,-1.62854E5,3.1868562E3,3.833181E5,2.5426411E5,3.5176438E5,1.8836097E5,1.10042E5,-1.4248086E5,1.5050062E5,-2.1314344E4,2.2503303E5,7.152345E4,4.220233E5,1.9850142E5,9.48539E4,3.0837894E5,2.9564075E5,1.3142808E5,-1.4773567E5,5.90957E4,3.7523147E5,2.0766416E5,3.106791E5,4.2969997E5],"categories":[],"categories_nodes":[],"categories_segments":[],"categories_sizes":[],"default_left":[0,0,0,0,0,0,0,0,0,0,0,0,0,0,0,0,0,0,0,0,0,0,0,0,0,0,0,0,0,0,0,0,0,0,0,0,0,0,0,0,0,0,0,0,0,0,0,0,0,0,0,0,0,0,0,0,0,0,0,0,0,0,0,0,0,0,0,0,0,0,0,0,0,0,0,0,0,0,0,0,0,0,0,0,0,0,0,0,0,0,0,0,0,0,0,0,0,0,0,0,0,0,0,0,0,0,0,0,0],"id":10,"left_children":[1,3,5,7,9,11,13,15,17,19,21,23,25,27,29,31,33,35,37,39,41,43,45,47,49,51,53,55,57,59,61,63,65,67,69,71,-1,73,75,-1,-1,-1,77,79,81,83,85,-1,-1,-1,87,89,91,93,95,-1,-1,97,99,101,103,105,107,-1,-1,-1,-1,-1,-1,-1,-1,-1,-1,-1,-1,-1,-1,-1,-1,-1,-1,-1,-1,-1,-1,-1,-1,-1,-1,-1,-1,-1,-1,-1,-1,-1,-1,-1,-1,-1,-1,-1,-1,-1,-1,-1,-1,-1,-1],"loss_changes":[5.4669903E15,5.3222497E14,3.7909744E14,9.9374E13,1.1438362E14,1.5664088E14,6.2175826E13,1.3381239E13,5.6294203E13,8.650076E13,6.8242677E13,7.2043043E12,7.772411E13,2.51269E12,6.819012E13,6.8193343E12,1.629555E13,6.341272E12,4.797492E13,3.55142E12,1.3623972E13,4.0513336E13,5.7951297E13,5.370952E12,3.7253473E12,4.3577996E13,8.132549E13,1.6319072E12,2.5800674E12,7.154481E13,1.4288148E13,1.2456819E13,5.6105695E12,3.0687122E12,8.8365597E11,4.8152707E12,0E0,3.8436216E13,2.491591E13,0E0,0E0,0E0,1.5758891E13,4.0310894E13,7.665349E13,4.0458617E13,3.3478343E13,0E0,0E0,0E0,7.8456973E12,7.45915E10,9.533601E12,4.4043896E13,5.7960684E13,0E0,0E0,1.9321984E12,3.1649044E12,2.0782156E13,1.13496E13,3.640753E13,2.1017825E12,0E0,0E0,0E0,0E0,0E0,0E0,0E0,0E0,0E0,0E0,0E0,0E0,0E0,0E0,0E0,0E0,0E0,0E0,0E0,0E0,0E0,0E0,0E0,0E0,0E0,0E0,0E0,0E0,0E0,0E0,0E0,0E0,0E0,0E0,0E0,0E0,0E0,0E0,0E0,0E0,0E0,0E0,0E0,0E0,0E0,0E0],"parents":[2147483647,0,0,1,1,2,2,3,3,4,4,5,5,6,6,7,7,8,8,9,9,10,10,11,11,12,12,13,13,14,14,15,15,16,16,17,17,18,18,19,19,20,20,21,21,22,22,23,23,24,24,25,25,26,26,27,27,28,28,29,29,30,30,31,31,32,32,33,33,34,34,35,35,37,37,38,38,42,42,43,43,44,44,45,45,46,46,50,50,51,51,52,52,53,53,54,54,57,57,58,58,59,59,60,60,61,61,62,62],"right_children":[2,4,6,8,10,12,14,16,18,20,22,24,26,28,30,32,34,36,38,40,42,44,46,48,50,52,54,56,58,60,62,64,66,68,70,72,-1,74,76,-1,-1,-1,78,80,82,84,86,-1,-1,-1,88,90,92,94,96,-1,-1,98,100,102,104,106,108,-1,-1,-1,-1,-1,-1,-1,-1,-1,-1,-1,-1,-1,-1,-1,-1,-1,-1,-1,-1,-1,-1,-1,-1,-1,-1,-1,-1,-1,-1,-1,-1,-1,-1,-1,-1,-1,-1,-1,-1,-1,-1,-1,-1,-1,-1],"split_conditions":[1.5E0,7.4E-1,2.31E0,2.8E-1,4.8E0,8.9E0,-3E-1,3E-1,-1.2E0,2E1,1.09E0,1.8E1,1.7E0,-1.83E1,2.7E0,5E-1,1.17E1,4.6E0,2.502E3,7.7E-1,2.3E0,5E-1,2.8E0,1.4E1,1.7E0,2.85E1,1.88E0,1.19E1,1.98E1,4E0,3.13E0,2.4E-1,4.654E3,6E-1,1.636E3,5.1E-1,-1.05171625E5,1.43E1,8.8E1,-2.8388425E5,-9.494919E4,3.0034647E5,3E-1,4.432E3,1.7E0,3.9E1,5.2E1,2.2064938E5,5.9884966E3,1.4152642E5,4.3E0,1.33E1,1.2E0,2.439E3,2.21E1,2.6846628E5,8.068709E4,3.4E1,2E1,4.525E3,2.6E0,3.96E3,2.6E0,-2.031781E5,4.2970082E4,-2.5081023E5,-3.0340438E5,-1.4499666E5,-5.0188758E4,-1.22903016E5,-3.2664428E5,-2.8112229E4,9.807087E4,-4.9671227E4,-1.7386472E5,-2.2446216E5,5.192521E4,-9.052068E4,1.7334267E5,-1.1284825E5,6.1672613E4,2.7528635E4,-2.4917786E5,-9.244612E4,1.0202149E5,-1.62854E5,3.1868562E3,3.833181E5,2.5426411E5,3.5176438E5,1.8836097E5,1.10042E5,-1.4248086E5,1.5050062E5,-2.1314344E4,2.2503303E5,7.152345E4,4.220233E5,1.9850142E5,9.48539E4,3.0837894E5,2.9564075E5,1.3142808E5,-1.4773567E5,5.90957E4,3.7523147E5,2.0766416E5,3.106791E5,4.2969997E5],"split_indices":[7,7,7,7,8,8,2,6,8,3,7,3,0,2,7,0,8,0,5,7,1,6,0,3,0,8,7,8,1,0,7,7,5,6,5,7,0,8,3,0,0,0,6,5,0,3,3,0,0,0,1,2,0,5,8,0,0,3,1,5,7,5,0,0,0,0,0,0,0,0,0,0,0,0,0,0,0,0,0,0,0,0,0,0,0,0,0,0,0,0,0,0,0,0,0,0,0,0,0,0,0,0,0,0,0,0,0,0,0],"split_type":[0,0,0,0,0,0,0,0,0,0,0,0,0,0,0,0,0,0,0,0,0,0,0,0,0,0,0,0,0,0,0,0,0,0,0,0,0,0,0,0,0,0,0,0,0,0,0,0,0,0,0,0,0,0,0,0,0,0,0,0,0,0,0,0,0,0,0,0,0,0,0,0,0,0,0,0,0,0,0,0,0,0,0,0,0,0,0,0,0,0,0,0,0,0,0,0,0,0,0,0,0,0,0,0,0,0,0,0,0],"sum_hessian":[1.347E3,8.22E2,5.25E2,5.67E2,2.55E2,2.59E2,2.66E2,3.2E2,2.47E2,3.3E1,2.22E2,5.3E1,2.06E2,1.05E2,1.61E2,2.89E2,3.1E1,1.4E1,2.33E2,6E0,2.7E1,1.15E2,1.07E2,4E0,4.9E1,2.7E1,1.79E2,4E0,1.01E2,5.1E1,1.1E2,1.7E1,2.72E2,2.3E1,8E0,1.2E1,2E0,1.05E2,1.28E2,2E0,4E0,1E1,1.7E1,6.2E1,5.3E1,5.9E1,4.8E1,2E0,2E0,3E0,4.6E1,2.3E1,4E0,7.7E1,1.02E2,2E0,2E0,9.1E1,1E1,4.2E1,9E0,6.2E1,4.8E1,1.5E1,2E0,2.16E2,5.6E1,1.7E1,6E0,2E0,6E0,4E0,8E0,4.3E1,6.2E1,1.25E2,3E0,2E0,1.5E1,4.4E1,1.8E1,1.3E1,4E1,1.3E1,4.6E1,2.6E1,2.2E1,2.8E1,1.8E1,1.9E1,4E0,2E0,2E0,1.9E1,5.8E1,5.7E1,4.5E1,8.8E1,3E0,2E0,8E0,2.8E1,1.4E1,5E0,4E0,3E1,3.2E1,1.9E1,2.9E1],"tree_param":{"num_deleted":"0","num_feature":"9","num_nodes":"109","size_leaf_vector":"1"}},{"base_weights":[1.4379561E4,-1.371073E6,2.404606E6,-1.9116232E6,-2.442076E5,1.713143E6,3.12042E6,-2.1661395E6,-1.2895394E6,4.0970812E5,-9.8111844E5,3.066825E6,1.3828344E6,3.1911562E6,-1.937354E5,-1.8852106E6,-2.3472342E6,-7.0464425E5,-1.7662305E6,-1.1679314E6,8.0398944E5,-2.2734547E5,-1.720026E6,2.253174E6,3.359519E5,2.3254625E6,1.12725E6,3.714398E6,2.8455362E6,-1.1628037E5,1.162934E5,-2.0698682E6,-8.647436E5,-2.895334E5,-2.2017722E6,-1.1043466E6,7.9454356E5,-2.3616902E6,-1.2722666E6,1.3911596E6,-1.6151438E6,-9.554265E4,1.9648392E6,-7.965286E5,1.7609791E6,-2.3565532E6,2.5329075E5,1.1256458E6,3.2399966E5,2.5775522E6,-7.768018E4,1.5028547E5,1.3722082E6,1.237629E5,3.7561498E6,2.4809318E6,3.5241142E6,-1.7889338E5,-2.6977378E5,-1.3688292E5,5.035631E4,-2.347204E5,-1.3139616E5,3.8938777E4,-1.5085903E5,1.34237E4,2.906981E5,-1.3461519E5,-2.957789E5,-1.5745055E5,1.8481145E4,1.678413E5,6.4018645E4,5.1898896E3,-2.232049E5,-4.2521484E4,2.112888E5,1.282287E5,2.5040883E5,-2.726501E5,-3.836587E4,2.6652094E5,-2.744344E5,-1.8699189E5,-3.273781E5,1.420574E5,-2.8323038E5,1.8156408E5,2.1052158E4,-1.55077295E4,2.725456E5,2.7366806E5,-3.90013E4,1.5345017E5,-3.650753E4,4.3734547E5,3.4319694E5,2.9574447E5,1.9130231E5,3.7706047E5,2.449885E5],"categories":[],"categories_nodes":[],"categories_segments":[],"categories_sizes":[],"default_left":[0,0,0,0,0,0,0,0,0,0,0,0,0,0,0,0,0,0,0,0,0,0,0,0,0,0,0,0,0,0,0,0,0,0,0,0,0,0,0,0,0,0,0,0,0,0,0,0,0,0,0,0,0,0,0,0,0,0,0,0,0,0,0,0,0,0,0,0,0,0,0,0,0,0,0,0,0,0,0,0,0,0,0,0,0,0,0,0,0,0,0,0,0,0,0,0,0,0,0,0,0],"id":11,"left_children":[1,3,5,7,9,11,13,15,17,19,21,23,25,27,29,31,33,35,37,39,41,43,45,47,-1,49,51,53,55,-1,-1,57,59,-1,61,63,65,67,69,71,73,75,77,79,81,83,85,87,-1,89,-1,91,93,-1,95,97,99,-1,-1,-1,-1,-1,-1,-1,-1,-1,-1,-1,-1,-1,-1,-1,-1,-1,-1,-1,-1,-1,-1,-1,-1,-1,-1,-1,-1,-1,-1,-1,-1,-1,-1,-1,-1,-1,-1,-1,-1,-1,-1,-1,-1],"loss_changes":[4.46726E15,5.1972795E14,2.396589E14,8.856343E13,1.3436395E14,1.09330876E14,5.73507E13,1.6331747E13,4.6153853E13,9.299999E13,7.257183E13,4.0997476E12,4.700835E13,3.229037E13,9.240495E12,2.9302213E13,1.3078847E13,4.7617313E13,2.4349914E13,3.6580643E13,1.2445011E14,7.609625E13,8.349752E13,1.4155642E13,0E0,3.5630394E13,3.904154E13,4.761508E12,2.7626572E13,0E0,0E0,1.9692157E13,1.9312367E13,0E0,2.2351614E13,3.802505E13,2.332233E13,2.0838141E13,2.363143E13,4.0999322E9,2.6854438E13,5.040639E13,1.592844E13,4.0388975E13,6.8421975E13,1.6195986E13,6.525346E13,5.300648E12,0E0,1.6589294E13,0E0,4.85798E13,3.74956E13,0E0,2.8009898E12,2.113332E13,3.7370242E12,0E0,0E0,0E0,0E0,0E0,0E0,0E0,0E0,0E0,0E0,0E0,0E0,0E0,0E0,0E0,0E0,0E0,0E0,0E0,0E0,0E0,0E0,0E0,0E0,0E0,0E0,0E0,0E0,0E0,0E0,0E0,0E0,0E0,0E0,0E0,0E0,0E0,0E0,0E0,0E0,0E0,0E0,0E0,0E0],"parents":[2147483647,0,0,1,1,2,2,3,3,4,4,5,5,6,6,7,7,8,8,9,9,10,10,11,11,12,12,13,13,14,14,15,15,16,16,17,17,18,18,19,19,20,20,21,21,22,22,23,23,25,25,26,26,27,27,28,28,31,31,32,32,34,34,35,35,36,36,37,37,38,38,39,39,40,40,41,41,42,42,43,43,44,44,45,45,46,46,47,47,49,49,51,51,52,52,54,54,55,55,56,56],"right_children":[2,4,6,8,10,12,14,16,18,20,22,24,26,28,30,32,34,36,38,40,42,44,46,48,-1,50,52,54,56,-1,-1,58,60,-1,62,64,66,68,70,72,74,76,78,80,82,84,86,88,-1,90,-1,92,94,-1,96,98,100,-1,-1,-1,-1,-1,-1,-1,-1,-1,-1,-1,-1,-1,-1,-1,-1,-1,-1,-1,-1,-1,-1,-1,-1,-1,-1,-1,-1,-1,-1,-1,-1,-1,-1,-1,-1,-1,-1,-1,-1,-1,-1,-1,-1],"split_conditions":[1.6E0,7.6E-1,2.42E0,4.2E-1,1.65E1,8.2E0,5.3E0,9.4E0,1.15E1,2.8E1,5E-1,2.1E1,2.311E3,-3E-1,2.6E0,4E-1,5.9E1,1.1E0,6.5E1,2E-1,1E0,4.936E3,5.8E1,1.96E0,3.359519E5,1.59E1,1.78E0,-1.83E1,3.13E0,-1.1628037E5,1.162934E5,4.617E3,5E-1,-2.895334E5,3.2E-1,-1.2E0,6.4E-1,1E-1,1E-1,5.1E0,1.8E1,1.5E0,1.18E0,2.234E3,1.27E1,4.7E1,2.26E1,4.2E0,3.2399966E5,7.2E0,-7.768018E4,1.61E0,2.99E1,1.237629E5,-1.02E1,3.96E3,2.44E1,-1.7889338E5,-2.6977378E5,-1.3688292E5,5.035631E4,-2.347204E5,-1.3139616E5,3.8938777E4,-1.5085903E5,1.34237E4,2.906981E5,-1.3461519E5,-2.957789E5,-1.5745055E5,1.8481145E4,1.678413E5,6.4018645E4,5.1898896E3,-2.232049E5,-4.2521484E4,2.112888E5,1.282287E5,2.5040883E5,-2.726501E5,-3.836587E4,2.6652094E5,-2.744344E5,-1.8699189E5,-3.273781E5,1.420574E5,-2.8323038E5,1.8156408E5,2.1052158E4,-1.55077295E4,2.725456E5,2.7366806E5,-3.90013E4,1.5345017E5,-3.650753E4,4.3734547E5,3.4319694E5,2.9574447E5,1.9130231E5,3.7706047E5,2.449885E5],"split_indices":[7,7,7,7,8,8,0,8,8,3,6,3,5,2,7,6,3,2,3,8,6,5,3,7,0,2,7,2,7,0,0,5,2,0,7,8,7,6,6,0,3,7,7,5,2,3,8,0,0,1,0,7,8,0,2,5,1,0,0,0,0,0,0,0,0,0,0,0,0,0,0,0,0,0,0,0,0,0,0,0,0,0,0,0,0,0,0,0,0,0,0,0,0,0,0,0,0,0,0,0,0],"split_type":[0,0,0,0,0,0,0,0,0,0,0,0,0,0,0,0,0,0,0,0,0,0,0,0,0,0,0,0,0,0,0,0,0,0,0,0,0,0,0,0,0,0,0,0,0,0,0,0,0,0,0,0,0,0,0,0,0,0,0,0,0,0,0,0,0,0,0,0,0,0,0,0,0,0,0,0,0,0,0,0,0,0,0,0,0,0,0,0,0,0,0,0,0,0,0,0,0,0,0,0,0],"sum_hessian":[1.347E3,8.53E2,4.94E2,5.76E2,2.77E2,2.53E2,2.41E2,4.07E2,1.69E2,1.47E2,1.3E2,4.8E1,2.05E2,2.36E2,5E0,1.64E2,2.43E2,7.7E1,9.2E1,2.9E1,1.18E2,6.5E1,6.5E1,1.5E1,3.3E1,4.2E1,1.63E2,9E1,1.46E2,3E0,2E0,1.38E2,2.6E1,4.7E1,1.96E2,6.1E1,1.6E1,4E1,5.2E1,4E0,2.5E1,6.7E1,5.1E1,5.1E1,1.4E1,4.9E1,1.6E1,8E0,7E0,3.9E1,3E0,3.3E1,1.3E2,2E0,8.8E1,9.8E1,4.8E1,9.8E1,4E1,1.9E1,7E0,1.67E2,2.9E1,1.3E1,4.8E1,1.3E1,3E0,1.6E1,2.4E1,4.3E1,9E0,2E0,2E0,7E0,1.8E1,5.9E1,8E0,2.4E1,2.7E1,8E0,4.3E1,1.2E1,2E0,3.4E1,1.5E1,1.2E1,4E0,4E0,4E0,2E0,3.7E1,5E0,2.8E1,1.19E2,1.1E1,2.6E1,6.2E1,5.1E1,4.7E1,3.7E1,1.1E1],"tree_param":{"num_deleted":"0","num_feature":"9","num_nodes":"101","size_leaf_vector":"1"}},{"base_weights":[1.3999311E4,-1.4749746E6,1.8341059E6,-1.9355385E6,-8.615574E5,8.2712E5,2.546594E6,-1.9687024E6,-3.690032E5,-2.7650888E5,-1.2501495E6,1.136079E6,4.974061E4,2.098334E6,3.0166612E6,-1.7346546E6,-2.1430712E6,-9.388235E5,3.8858178E5,1.21160805E5,-1.5928575E6,-2.0600111E6,-1.0435374E6,5.909454E5,1.6020612E6,1.4855008E6,-5.20084E5,2.6865935E6,1.4744784E6,3.4669482E6,2.670255E6,-1.0537615E6,-1.8839561E6,-2.6428247E5,-2.0225885E6,2.1898135E4,-2.1696223E5,1.0313447E4,5.4450184E4,-1.1764546E6,4.4006384E5,-1.9451475E6,1.1833143E5,9.574346E5,-2.4431645E6,-1.3348482E6,-4.3513895E4,1.2394364E6,-3.2615178E5,2.419973E6,1.1425134E6,-1.2795969E5,2.2113825E6,-1.3081205E6,5.646645E5,2.497451E6,3.770947E6,3.1509715E6,1.1331724E6,3.7014982E6,2.5041715E6,3.671853E4,2.7130725E6,-1.5879667E5,-2.3562355E4,-1.9239089E5,3.5322039E3,-2.5866061E5,-1.897923E5,-1.6817064E5,2.2472075E5,-2.298572E4,1.09925164E5,-2.1979586E5,8.0999195E4,-3.2260389E4,1.9183283E5,2.308168E4,-2.6175016E5,-1.01802055E5,-2.1743116E5,7.734323E4,-2.244917E5,-9.06019E4,1.5525898E5,-1.21520375E5,1.553219E5,1.3817152E5,2.7384772E5,3.2212322E5,7.880317E4,2.7915294E5,-3.7197684E4,-1.5564881E5,1.5288061E5,-1.3288339E4,2.5631975E5,2.8959922E5,1.5123412E5,1.341384E5,4.122721E5,3.5333984E5,4.434653E4,1.7049905E5,6.983208E4,2.6293247E5,3.9097847E5,1.0186397E4,3.0116756E5,1.7923098E5,2.8561575E5],"categories":[],"categories_nodes":[],"categories_segments":[],"categories_sizes":[],"default_left":[0,0,0,0,0,0,0,0,0,0,0,0,0,0,0,0,0,0,0,0,0,0,0,0,0,0,0,0,0,0,0,0,0,0,0,0,0,0,0,0,0,0,0,0,0,0,0,0,0,0,0,0,0,0,0,0,0,0,0,0,0,0,0,0,0,0,0,0,0,0,0,0,0,0,0,0,0,0,0,0,0,0,0,0,0,0,0,0,0,0,0,0,0,0,0,0,0,0,0,0,0,0,0,0,0,0,0,0,0,0,0],"id":12,"left_children":[1,3,5,7,9,11,13,15,17,19,21,23,25,27,29,31,33,35,37,39,41,43,45,47,49,51,53,55,57,59,61,63,65,-1,67,-1,-1,-1,-1,69,71,73,-1,75,77,79,81,83,85,87,89,-1,91,93,95,97,99,101,103,105,107,-1,109,-1,-1,-1,-1,-1,-1,-1,-1,-1,-1,-1,-1,-1,-1,-1,-1,-1,-1,-1,-1,-1,-1,-1,-1,-1,-1,-1,-1,-1,-1,-1,-1,-1,-1,-1,-1,-1,-1,-1,-1,-1,-1,-1,-1,-1,-1,-1,-1],"loss_changes":[3.6559078E15,2.079607E14,4.333951E14,2.124935E13,7.240483E13,6.0708608E13,6.8473053E13,1.3178168E13,4.6816826E12,6.772088E13,2.9977127E13,4.5031356E13,6.0496187E13,6.3931595E13,1.7415153E13,1.6516565E13,8.683954E12,9.025255E12,1.6637775E11,4.1899067E13,3.1642249E13,4.627267E13,4.5096167E13,5.095624E13,3.3694488E13,4.4979485E13,4.604419E13,9.861379E12,4.907153E13,6.7640366E12,8.963664E12,1.4922713E13,1.1416694E13,0E0,8.5910083E12,0E0,0E0,0E0,0E0,3.837537E13,3.602258E13,2.0586609E13,0E0,6.7687646E12,1.645407E13,2.9702333E13,6.647969E13,3.4999512E13,6.203837E13,7.4596536E12,4.4621095E13,0E0,2.651675E13,2.4222181E13,3.2404274E13,2.8206627E13,4.725756E12,1.3964415E13,1.8204546E13,2.0023943E12,2.0419298E13,0E0,7.923879E12,0E0,0E0,0E0,0E0,0E0,0E0,0E0,0E0,0E0,0E0,0E0,0E0,0E0,0E0,0E0,0E0,0E0,0E0,0E0,0E0,0E0,0E0,0E0,0E0,0E0,0E0,0E0,0E0,0E0,0E0,0E0,0E0,0E0,0E0,0E0,0E0,0E0,0E0,0E0,0E0,0E0,0E0,0E0,0E0,0E0,0E0,0E0,0E0],"parents":[2147483647,0,0,1,1,2,2,3,3,4,4,5,5,6,6,7,7,8,8,9,9,10,10,11,11,12,12,13,13,14,14,15,15,16,16,17,17,18,18,19,19,20,20,21,21,22,22,23,23,24,24,25,25,26,26,27,27,28,28,29,29,30,30,31,31,32,32,34,34,39,39,40,40,41,41,43,43,44,44,45,45,46,46,47,47,48,48,49,49,50,50,52,52,53,53,54,54,55,55,56,56,57,57,58,58,59,59,60,60,62,62],"right_children":[2,4,6,8,10,12,14,16,18,20,22,24,26,28,30,32,34,36,38,40,42,44,46,48,50,52,54,56,58,60,62,64,66,-1,68,-1,-1,-1,-1,70,72,74,-1,76,78,80,82,84,86,88,90,-1,92,94,96,98,100,102,104,106,108,-1,110,-1,-1,-1,-1,-1,-1,-1,-1,-1,-1,-1,-1,-1,-1,-1,-1,-1,-1,-1,-1,-1,-1,-1,-1,-1,-1,-1,-1,-1,-1,-1,-1,-1,-1,-1,-1,-1,-1,-1,-1,-1,-1,-1,-1,-1,-1,-1,-1],"split_conditions":[1.24E0,4.4E-1,2.06E0,8E-1,1.13E1,2.18E1,2.7E0,1.06E1,1.8E0,4.915E3,2.2E0,1.6E0,4E-1,2.27E1,1.82E1,1.96E3,5.9E1,2.7E0,1.06E1,3.1E1,9.2E-1,1.4E0,1.03E0,1.38E1,2.8E0,3.173E3,1.82E0,1.58E1,2.7E1,4.1E1,2.37E1,1E-1,4E-1,-2.6428247E5,4E-2,2.1898135E4,-2.1696223E5,1.0313447E4,5.4450184E4,1.25E1,6.9E-1,2.5E0,1.1833143E5,5E-1,1.783E3,1.9E1,3.8E0,5E-1,6.3E0,-9.6E0,2.202E3,-1.2795969E5,7.3E1,2.99E1,5.4E1,1.17E1,1.5E0,4.5E0,2.9E0,2.81E0,4.4E1,3.671853E4,1E0,-1.5879667E5,-2.3562355E4,-1.9239089E5,3.5322039E3,-2.5866061E5,-1.897923E5,-1.6817064E5,2.2472075E5,-2.298572E4,1.09925164E5,-2.1979586E5,8.0999195E4,-3.2260389E4,1.9183283E5,2.308168E4,-2.6175016E5,-1.01802055E5,-2.1743116E5,7.734323E4,-2.244917E5,-9.06019E4,1.5525898E5,-1.21520375E5,1.553219E5,1.3817152E5,2.7384772E5,3.2212322E5,7.880317E4,2.7915294E5,-3.7197684E4,-1.5564881E5,1.5288061E5,-1.3288339E4,2.5631975E5,2.8959922E5,1.5123412E5,1.341384E5,4.122721E5,3.5333984E5,4.434653E4,1.7049905E5,6.983208E4,2.6293247E5,3.9097847E5,1.0186397E4,3.0116756E5,1.7923098E5,2.8561575E5],"split_indices":[7,7,7,6,8,8,7,8,2,5,2,7,6,8,1,5,3,1,1,3,7,0,7,8,0,5,7,1,3,3,8,6,7,0,7,0,0,0,0,1,7,2,0,0,5,1,0,6,2,2,5,0,3,8,3,1,0,0,0,7,3,0,6,0,0,0,0,0,0,0,0,0,0,0,0,0,0,0,0,0,0,0,0,0,0,0,0,0,0,0,0,0,0,0,0,0,0,0,0,0,0,0,0,0,0,0,0,0,0,0,0],"split_type":[0,0,0,0,0,0,0,0,0,0,0,0,0,0,0,0,0,0,0,0,0,0,0,0,0,0,0,0,0,0,0,0,0,0,0,0,0,0,0,0,0,0,0,0,0,0,0,0,0,0,0,0,0,0,0,0,0,0,0,0,0,0,0,0,0,0,0,0,0,0,0,0,0,0,0,0,0,0,0,0,0,0,0,0,0,0,0,0,0,0,0,0,0,0,0,0,0,0,0,0,0,0,0,0,0,0,0,0,0,0,0],"sum_hessian":[1.347E3,7.41E2,6.06E2,4.22E2,3.19E2,2.52E2,3.54E2,4.13E2,9E0,1.28E2,1.91E2,1.8E2,7.2E1,1.84E2,1.7E2,1.81E2,2.32E2,5E0,4E0,9.9E1,2.9E1,3.7E1,1.54E2,8.4E1,9.6E1,2E1,5.2E1,9.3E1,9.1E1,7E1,1E2,3.4E1,1.47E2,4.1E1,1.91E2,3E0,2E0,2E0,2E0,1.9E1,8E1,2.6E1,3E0,4E0,3.3E1,1.19E2,3.5E1,4.9E1,3.5E1,3.3E1,6.3E1,4E0,1.6E1,3E1,2.2E1,8.2E1,1.1E1,1.4E1,7.7E1,5.4E1,1.6E1,2E0,9.8E1,2E1,1.4E1,1.44E2,3E0,3.1E1,1.6E2,1.7E1,2E0,4E1,4E1,2.4E1,2E0,2E0,2E0,2E0,3.1E1,8.8E1,3.1E1,2.6E1,9E0,6E0,4.3E1,2.4E1,1.1E1,9E0,2.4E1,8E0,5.5E1,1.3E1,3E0,2.8E1,2E0,1.7E1,5E0,5.7E1,2.5E1,2E0,9E0,1.2E1,2E0,3.2E1,4.5E1,1.1E1,4.3E1,3E0,1.3E1,1.5E1,8.3E1],"tree_param":{"num_deleted":"0","num_feature":"9","num_nodes":"111","size_leaf_vector":"1"}},{"base_weights":[1.4617982E4,-1.3296829E6,1.6578744E6,-1.7448552E6,-7.767218E5,7.494106E5,2.3006448E6,-1.7744502E6,-3.4513284E5,5.1831887E4,-1.00469806E6,1.7341638E6,5.2219897E5,2.0282271E6,2.9474508E6,-2.1395095E6,-1.676446E6,-8.7745175E5,3.6267638E5,-2.690521E5,4.4907934E5,-1.9031464E5,-1.1536161E6,2.3465381E5,2.3006042E6,1.4335901E6,2.3804575E5,2.4116642E6,1.5471315E6,3.7499022E5,2.656201E6,-2.2269278E6,-1.0306722E5,-1.5769532E6,-2.1917598E6,2.0255785E4,-2.0249806E5,5.167526E4,8.770797E3,8.55881E5,-1.0068037E6,2.3654072E5,-1.9273038E5,-8.5108275E5,-1.6135646E6,-8.6231766E4,1.1651721E6,-3.4521947E5,2.7686848E6,1.8809624E6,-2.8287466E5,4.905869E5,-6.384306E5,3.4232168E6,2.1921995E6,1.6647505E6,-2.3411773E5,-2.729263E4,2.7358268E6,-1.306171E5,-2.3003438E5,-7.777016E4,-1.6485655E5,-1.7689498E5,-2.5020742E5,-7.5688657E3,1.399234E5,-6.9212593E3,-2.680625E5,-1.9800798E5,5.2420543E4,-9.671686E4,1.7092183E5,-1.09584875E5,-2.2590312E5,-6.4180967E3,1.5856534E5,-1.0942568E5,7.685699E4,1.12765766E5,2.8484772E5,-1.0780173E5,2.070043E5,-1.8665773E5,1.3479739E5,1.9418002E4,1.8560108E5,1.7930588E5,-1.2871715E5,6.7413836E4,3.6529322E5,2.7286194E5,1.6890998E5,7.373493E4,1.9352045E5,-7.683278E4,9.1234164E4,2.979145E5,2.110559E5],"categories":[],"categories_nodes":[],"categories_segments":[],"categories_sizes":[],"default_left":[0,0,0,0,0,0,0,0,0,0,0,0,0,0,0,0,0,0,0,0,0,0,0,0,0,0,0,0,0,0,0,0,0,0,0,0,0,0,0,0,0,0,0,0,0,0,0,0,0,0,0,0,0,0,0,0,0,0,0,0,0,0,0,0,0,0,0,0,0,0,0,0,0,0,0,0,0,0,0,0,0,0,0,0,0,0,0,0,0,0,0,0,0,0,0,0,0,0,0],"id":13,"left_children":[1,3,5,7,9,11,13,15,17,19,21,23,25,27,29,31,33,35,37,-1,39,41,43,45,47,49,51,53,55,-1,57,59,-1,61,63,-1,-1,-1,-1,65,67,69,-1,71,73,-1,75,77,79,81,83,85,87,89,91,93,95,-1,97,-1,-1,-1,-1,-1,-1,-1,-1,-1,-1,-1,-1,-1,-1,-1,-1,-1,-1,-1,-1,-1,-1,-1,-1,-1,-1,-1,-1,-1,-1,-1,-1,-1,-1,-1,-1,-1,-1,-1,-1],"loss_changes":[2.9799785E15,1.6898884E14,3.5272365E14,1.6910226E13,6.049703E13,5.5702505E13,5.657331E13,1.1225165E13,4.086033E12,7.746573E13,3.0220866E13,3.938116E13,5.3266507E13,4.2939674E13,1.4111987E13,5.847128E12,1.3514047E13,7.8462284E12,1.6650705E11,0E0,3.758155E13,3.0113612E13,2.8126432E13,1.5295278E13,4.3063406E13,3.8159115E13,3.5507275E13,2.3353683E13,2.4483277E13,0E0,1.917223E13,2.2004325E12,0E0,1.480133E13,2.2653604E12,0E0,0E0,0E0,0E0,2.4908294E13,2.1785504E13,2.2080205E13,0E0,4.0291004E13,2.5260414E13,0E0,4.2371278E12,5.846631E12,5.852061E11,2.4051473E13,3.092667E13,4.982501E13,5.9094606E13,1.206203E13,2.6966187E13,2.5661557E13,5.6005786E12,0E0,5.4269596E12,0E0,0E0,0E0,0E0,0E0,0E0,0E0,0E0,0E0,0E0,0E0,0E0,0E0,0E0,0E0,0E0,0E0,0E0,0E0,0E0,0E0,0E0,0E0,0E0,0E0,0E0,0E0,0E0,0E0,0E0,0E0,0E0,0E0,0E0,0E0,0E0,0E0,0E0,0E0,0E0],"parents":[2147483647,0,0,1,1,2,2,3,3,4,4,5,5,6,6,7,7,8,8,9,9,10,10,11,11,12,12,13,13,14,14,15,15,16,16,17,17,18,18,20,20,21,21,22,22,23,23,24,24,25,25,26,26,27,27,28,28,30,30,31,31,33,33,34,34,39,39,40,40,41,41,43,43,44,44,46,46,47,47,48,48,49,49,50,50,51,51,52,52,53,53,54,54,55,55,56,56,58,58],"right_children":[2,4,6,8,10,12,14,16,18,20,22,24,26,28,30,32,34,36,38,-1,40,42,44,46,48,50,52,54,56,-1,58,60,-1,62,64,-1,-1,-1,-1,66,68,70,-1,72,74,-1,76,78,80,82,84,86,88,90,92,94,96,-1,98,-1,-1,-1,-1,-1,-1,-1,-1,-1,-1,-1,-1,-1,-1,-1,-1,-1,-1,-1,-1,-1,-1,-1,-1,-1,-1,-1,-1,-1,-1,-1,-1,-1,-1,-1,-1,-1,-1,-1,-1],"split_conditions":[1.24E0,4.4E-1,2.06E0,8E-1,6.9E0,8.2E0,2.97E0,4E-2,1.8E0,2.1E1,1.4E0,2.1E1,2.1E0,1.5E0,1.7E1,1E-1,1.88E1,2.7E0,4.9E0,-2.690521E5,4.979E3,2.11E1,5E-1,1.78E0,6E-1,2.12E1,4.969E3,2.3E0,4.7E0,3.7499022E5,1.74E1,-3E-1,-1.0306722E5,7E-1,1.227E3,2.0255785E4,-2.0249806E5,5.167526E4,8.770797E3,3.9E1,3.7E1,-3.1E0,-1.9273038E5,4E-1,1.57E1,-8.6231766E4,1.8E1,3.4E0,1E0,7.1E0,1.63E0,4E0,4E-1,1.709E3,-1E1,4.3E0,2.6E0,-2.729263E4,3.35E1,-1.306171E5,-2.3003438E5,-7.777016E4,-1.6485655E5,-1.7689498E5,-2.5020742E5,-7.5688657E3,1.399234E5,-6.9212593E3,-2.680625E5,-1.9800798E5,5.2420543E4,-9.671686E4,1.7092183E5,-1.09584875E5,-2.2590312E5,-6.4180967E3,1.5856534E5,-1.0942568E5,7.685699E4,1.12765766E5,2.8484772E5,-1.0780173E5,2.070043E5,-1.8665773E5,1.3479739E5,1.9418002E4,1.8560108E5,1.7930588E5,-1.2871715E5,6.7413836E4,3.6529322E5,2.7286194E5,1.6890998E5,7.373493E4,1.9352045E5,-7.683278E4,9.1234164E4,2.979145E5,2.110559E5],"split_indices":[7,7,7,6,8,8,7,7,2,3,0,3,0,2,1,6,8,1,2,0,5,8,6,7,6,1,5,0,0,0,1,8,0,0,5,0,0,0,0,3,3,2,0,6,8,0,3,1,6,1,7,0,6,5,2,2,7,0,8,0,0,0,0,0,0,0,0,0,0,0,0,0,0,0,0,0,0,0,0,0,0,0,0,0,0,0,0,0,0,0,0,0,0,0,0,0,0,0,0],"split_type":[0,0,0,0,0,0,0,0,0,0,0,0,0,0,0,0,0,0,0,0,0,0,0,0,0,0,0,0,0,0,0,0,0,0,0,0,0,0,0,0,0,0,0,0,0,0,0,0,0,0,0,0,0,0,0,0,0,0,0,0,0,0,0,0,0,0,0,0,0,0,0,0,0,0,0,0,0,0,0,0,0,0,0,0,0,0,0,0,0,0,0,0,0,0,0,0,0,0,0],"sum_hessian":[1.347E3,7.41E2,6.06E2,4.22E2,3.19E2,2.52E2,3.54E2,4.13E2,9E0,6.9E1,2.5E2,4.6E1,2.06E2,2.52E2,1.02E2,8.3E1,3.3E2,5E0,4E0,8E0,6.1E1,3.9E1,2.11E2,1.3E1,3.3E1,4.8E1,1.58E2,1.38E2,1.14E2,2.4E1,7.8E1,7.6E1,7E0,2.8E2,5E1,3E0,2E0,2E0,2E0,4.8E1,1.3E1,3.2E1,7E0,1.29E2,8.2E1,6E0,7E0,5E0,2.8E1,3.8E1,1E1,1.23E2,3.5E1,2.2E1,1.16E2,1.07E2,7E0,2E0,7.6E1,7E0,6.9E1,2.4E1,2.56E2,2.4E1,2.6E1,1.8E1,3E1,9E0,4E0,3E0,2.9E1,1.24E2,5E0,4.7E1,3.5E1,2E0,5E0,3E0,2E0,2E0,2.6E1,2E0,3.6E1,5E0,5E0,1.02E2,2.1E1,7E0,2.8E1,2E0,2E1,5.4E1,6.2E1,2.5E1,8.2E1,5E0,2E0,5.2E1,2.4E1],"tree_param":{"num_deleted":"0","num_feature":"9","num_nodes":"99","size_leaf_vector":"1"}},{"base_weights":[1.3512447E4,-1.0613981E6,1.6953335E6,-1.4268371E6,-2.6904728E5,1.0525815E6,2.2228418E6,-1.6611472E6,-1.1114446E6,8.6295075E5,-4.423992E5,2.2273725E6,7.378861E5,2.465042E6,1.6800562E6,-1.5206608E6,-1.9793501E6,-5.561141E5,-1.3960466E6,-1.7123109E6,1.5679201E6,-1.4672956E6,-2.7887538E5,2.3115698E6,1.3775497E4,2.263009E6,5.1428834E5,3.0117795E6,2.1665958E6,6.071041E4,1.8992179E6,-1.594785E6,-5.1119738E5,-9.721208E5,-2.0607952E5,-8.597439E5,6.049587E5,-2.1863878E6,-1.077414E6,-2.3008805E5,-8.9899305E4,2.3979186E5,9.7359225E5,6.504321E5,-1.8051232E6,2.7371903E5,-6.8360394E5,2.7127272E6,1.7575846E6,2.6491725E5,6.6298975E5,9.0120275E5,-9.146252E4,7.036543E4,3.1089782E6,2.3610052E6,-1.688719E5,1.4975006E6,-8.4487225E5,1.1808911E6,2.2986082E6,-1.44284E5,-2.0942777E5,-8.886203E4,1.5492398E4,1.9750191E4,-1.5898492E5,-1.5299784E4,-1.464081E5,1.1048473E5,-3.3841586E4,-1.3691847E5,-2.5493498E5,-9.280441E4,-2.5679311E5,-6.742638E4,1.2217158E5,1.9417475E5,-8.576939E4,-2.038896E5,-3.687441E4,-4.5884293E4,1.7552302E5,-1.0423347E4,-1.4500294E5,1.1468897E4,2.924452E5,9.796623E4,2.3890416E5,1.5589492E5,-7.5261945E4,-4.607727E4,1.4485734E5,7.71601E4,-7.887718E4,3.190558E5,3.866726E4,1.504416E5,2.5157317E5,-1.036381E5,1.6083642E5,6.7315195E4,1.8226823E5,5.8572574E4,-1.8203761E5,-1.3962692E5,1.5068823E5,2.5983655E5,1.6046995E5],"categories":[],"categories_nodes":[],"categories_segments":[],"categories_sizes":[],"default_left":[0,0,0,0,0,0,0,0,0,0,0,0,0,0,0,0,0,0,0,0,0,0,0,0,0,0,0,0,0,0,0,0,0,0,0,0,0,0,0,0,0,0,0,0,0,0,0,0,0,0,0,0,0,0,0,0,0,0,0,0,0,0,0,0,0,0,0,0,0,0,0,0,0,0,0,0,0,0,0,0,0,0,0,0,0,0,0,0,0,0,0,0,0,0,0,0,0,0,0,0,0,0,0,0,0,0,0,0,0],"id":14,"left_children":[1,3,5,7,9,11,13,15,17,19,21,23,25,27,29,31,33,35,37,39,41,43,45,47,-1,49,51,53,55,57,59,61,63,65,-1,67,69,71,73,-1,-1,-1,75,77,79,81,83,85,87,-1,89,91,93,-1,95,97,99,101,103,105,107,-1,-1,-1,-1,-1,-1,-1,-1,-1,-1,-1,-1,-1,-1,-1,-1,-1,-1,-1,-1,-1,-1,-1,-1,-1,-1,-1,-1,-1,-1,-1,-1,-1,-1,-1,-1,-1,-1,-1,-1,-1,-1,-1,-1,-1,-1,-1,-1],"loss_changes":[2.4387238E15,2.3792065E14,1.7600427E14,3.9759183E13,5.1598848E13,8.671505E13,3.3719788E13,1.1339855E13,3.762935E13,6.6226584E13,3.763486E13,8.478618E12,6.362886E13,2.5619346E13,3.253535E13,1.6170149E13,5.789851E12,3.0133157E13,3.793691E13,1.7610771E12,1.1477554E13,2.335235E13,4.4246313E13,5.899423E12,0E0,1.3072496E13,3.9222833E13,1.284363E13,5.9877615E13,1.6878783E13,2.0523904E13,1.2992243E13,4.41163E12,6.816581E12,0E0,2.8392552E13,8.862378E12,9.857067E12,2.3442913E13,0E0,0E0,0E0,8.183452E12,1.1402755E13,8.314394E12,9.197047E13,5.0469905E13,1.3966378E13,8.957708E12,0E0,8.783267E12,7.670901E13,4.0328883E13,0E0,1.2979727E13,1.22522E13,1.8626332E13,1.13374134E11,1.2230673E13,2.8148083E13,6.438609E12,0E0,0E0,0E0,0E0,0E0,0E0,0E0,0E0,0E0,0E0,0E0,0E0,0E0,0E0,0E0,0E0,0E0,0E0,0E0,0E0,0E0,0E0,0E0,0E0,0E0,0E0,0E0,0E0,0E0,0E0,0E0,0E0,0E0,0E0,0E0,0E0,0E0,0E0,0E0,0E0,0E0,0E0,0E0,0E0,0E0,0E0,0E0,0E0],"parents":[2147483647,0,0,1,1,2,2,3,3,4,4,5,5,6,6,7,7,8,8,9,9,10,10,11,11,12,12,13,13,14,14,15,15,16,16,17,17,18,18,19,19,20,20,21,21,22,22,23,23,25,25,26,26,27,27,28,28,29,29,30,30,31,31,32,32,33,33,35,35,36,36,37,37,38,38,42,42,43,43,44,44,45,45,46,46,47,47,48,48,50,50,51,51,52,52,54,54,55,55,56,56,57,57,58,58,59,59,60,60],"right_children":[2,4,6,8,10,12,14,16,18,20,22,24,26,28,30,32,34,36,38,40,42,44,46,48,-1,50,52,54,56,58,60,62,64,66,-1,68,70,72,74,-1,-1,-1,76,78,80,82,84,86,88,-1,90,92,94,-1,96,98,100,102,104,106,108,-1,-1,-1,-1,-1,-1,-1,-1,-1,-1,-1,-1,-1,-1,-1,-1,-1,-1,-1,-1,-1,-1,-1,-1,-1,-1,-1,-1,-1,-1,-1,-1,-1,-1,-1,-1,-1,-1,-1,-1,-1,-1,-1,-1,-1,-1,-1,-1],"split_conditions":[1.5E0,7.3E-1,2.26E0,2.8E-1,4.8E0,8.9E0,2.07E1,1.54E1,8.6E0,2E1,2.9E1,2.22E0,1.7E0,3E0,2.11E1,4E-1,1.52E1,5E-1,6E1,7.7E-1,2.3E0,1.7E1,1.61E1,4.3E0,1.3775497E4,1.33E1,2.21E1,1.867E3,5.2E1,1E0,2.77E0,4.654E3,5E1,9E-1,-2.0607952E5,1.7E0,8.1E0,1E-1,2.08E1,-2.3008805E5,-8.9899305E4,2.3979186E5,3E-1,1.9E0,1.42E0,1E0,5E-1,2.5E0,5.7E0,2.6491725E5,2.72E1,-7.1E0,1E0,7.036543E4,3.16E1,2.42E0,3.545E3,2.09E1,3.5E0,1.5E0,3.53E1,-1.44284E5,-2.0942777E5,-8.886203E4,1.5492398E4,1.9750191E4,-1.5898492E5,-1.5299784E4,-1.464081E5,1.1048473E5,-3.3841586E4,-1.3691847E5,-2.5493498E5,-9.280441E4,-2.5679311E5,-6.742638E4,1.2217158E5,1.9417475E5,-8.576939E4,-2.038896E5,-3.687441E4,-4.5884293E4,1.7552302E5,-1.0423347E4,-1.4500294E5,1.1468897E4,2.924452E5,9.796623E4,2.3890416E5,1.5589492E5,-7.5261945E4,-4.607727E4,1.4485734E5,7.71601E4,-7.887718E4,3.190558E5,3.866726E4,1.504416E5,2.5157317E5,-1.036381E5,1.6083642E5,6.7315195E4,1.8226823E5,5.8572574E4,-1.8203761E5,-1.3962692E5,1.5068823E5,2.5983655E5,1.6046995E5],"split_indices":[7,7,7,7,8,8,1,8,8,3,3,7,0,0,1,6,1,2,3,7,1,3,8,1,0,2,8,5,3,6,7,5,3,0,0,8,8,6,1,0,0,0,6,0,7,6,6,0,1,0,8,2,6,0,8,7,5,1,2,0,8,0,0,0,0,0,0,0,0,0,0,0,0,0,0,0,0,0,0,0,0,0,0,0,0,0,0,0,0,0,0,0,0,0,0,0,0,0,0,0,0,0,0,0,0,0,0,0,0],"split_type":[0,0,0,0,0,0,0,0,0,0,0,0,0,0,0,0,0,0,0,0,0,0,0,0,0,0,0,0,0,0,0,0,0,0,0,0,0,0,0,0,0,0,0,0,0,0,0,0,0,0,0,0,0,0,0,0,0,0,0,0,0,0,0,0,0,0,0,0,0,0,0,0,0,0,0,0,0,0,0,0,0,0,0,0,0,0,0,0,0,0,0,0,0,0,0,0,0,0,0,0,0,0,0,0,0,0,0,0,0],"sum_hessian":[1.347E3,8.22E2,5.25E2,5.62E2,2.6E2,2.38E2,2.87E2,3.2E2,2.42E2,3.4E1,2.26E2,4.9E1,1.89E2,1.96E2,9.1E1,2.26E2,9.4E1,8.3E1,1.59E2,7E0,2.7E1,3E1,1.96E2,4.7E1,2E0,2.3E1,1.66E2,6.6E1,1.3E2,1.1E1,8E1,2.1E2,1.6E1,8E0,8.6E1,6.6E1,1.7E1,4.4E1,1.15E2,3E0,4E0,1E1,1.7E1,4E0,2.6E1,8.3E1,1.13E2,2.5E1,2.2E1,1.8E1,5E0,1.01E2,6.5E1,3E0,6.3E1,1.2E2,1E1,4E0,7E0,3E1,5E1,1.64E2,4.6E1,1E1,6E0,3E0,5E0,3.1E1,3.5E1,1.1E1,6E0,1.5E1,2.9E1,1.06E2,9E0,2E0,1.5E1,2E0,2E0,2.2E1,4E0,5.6E1,2.7E1,6.5E1,4.8E1,2E0,2.3E1,1.1E1,1.1E1,3E0,2E0,2.9E1,7.2E1,2.9E1,3.6E1,6.1E1,2E0,2E1,1E2,7E0,3E0,2E0,2E0,3E0,4E0,3E0,2.7E1,3.3E1,1.7E1],"tree_param":{"num_deleted":"0","num_feature":"9","num_nodes":"109","size_leaf_vector":"1"}},{"base_weights":[1.2724602E4,-1.1105501E6,1.3334578E6,-1.422563E6,-6.770257E5,5.941596E5,1.8836544E6,-8.440037E5,-1.4841259E6,-2.2726562E5,-9.846781E5,6.593248E5,-1.911141E6,1.65569E6,2.4253178E6,-1.2453686E6,-1.5689445E5,-1.3107004E6,-1.7232126E6,-8.8027025E5,3.249305E5,-2.3408225E6,-8.837518E5,1.5640315E6,4.62693E5,-7.5182484E4,-2.2245025E5,1.9713248E6,1.2597864E6,3.434409E5,2.2279955E6,-6.2307156E5,-1.6342559E6,-4.2435194E5,7.276097E4,-1.4389591E6,-6.416649E5,-7.0578506E5,-1.7803144E6,6.154985E5,-1.2838511E6,1.1300671E6,-2.1956373E5,-5.9342414E4,-2.6309597E5,-7.3963875E5,-2.0676214E6,-5.1586216E5,1.8302591E6,1.2071928E6,2.3565877E5,2.8653695E6,1.7787235E6,1.362294E6,-2.8153975E5,-6.1276226E3,2.3085665E6,-7.943252E4,-2.2445139E4,-1.8410767E5,-5.5352414E4,-2.1746545E4,-5.7687207E4,-7.4771445E3,2.352477E4,-1.4788775E5,3.178303E4,-1.7252898E4,-2.3793586E5,-1.3756372E5,2.3919434E4,-2.069494E5,-1.5764383E5,9.521965E4,-8.242269E4,-1.7749258E5,-3.4614478E3,1.29842875E5,-7.057554E4,-1.4583116E5,1.0886274E5,-1.29447016E5,-4.6838918E4,-2.3904817E5,-1.218772E5,-7.8454305E4,1.4332968E3,-3.0783232E4,2.1357673E5,1.575062E5,-2.4025842E4,-2.5668553E4,5.7145426E4,5.8228562E4,3.0550784E5,2.2010467E5,1.2626308E5,5.4162887E4,1.6029567E5,-7.766515E4,8.025303E4,2.5459823E5,1.4524705E5],"categories":[],"categories_nodes":[],"categories_segments":[],"categories_sizes":[],"default_left":[0,0,0,0,0,0,0,0,0,0,0,0,0,0,0,0,0,0,0,0,0,0,0,0,0,0,0,0,0,0,0,0,0,0,0,0,0,0,0,0,0,0,0,0,0,0,0,0,0,0,0,0,0,0,0,0,0,0,0,0,0,0,0,0,0,0,0,0,0,0,0,0,0,0,0,0,0,0,0,0,0,0,0,0,0,0,0,0,0,0,0,0,0,0,0,0,0,0,0,0,0,0,0],"id":15,"left_children":[1,3,5,7,9,11,13,15,17,19,21,23,25,27,29,31,33,35,37,39,41,43,45,47,49,-1,-1,51,53,-1,55,57,59,61,63,65,67,69,71,73,75,77,79,-1,-1,81,83,85,87,89,91,93,95,97,99,-1,101,-1,-1,-1,-1,-1,-1,-1,-1,-1,-1,-1,-1,-1,-1,-1,-1,-1,-1,-1,-1,-1,-1,-1,-1,-1,-1,-1,-1,-1,-1,-1,-1,-1,-1,-1,-1,-1,-1,-1,-1,-1,-1,-1,-1,-1,-1],"loss_changes":[2.0013011E15,9.764514E13,2.5107144E14,1.3813756E13,4.225575E13,4.4686778E13,3.981985E13,1.1663219E13,1.3539079E13,4.571994E13,2.284176E13,4.552881E13,8.7055716E11,2.913169E13,1.2857119E13,5.5158285E12,1.0750683E12,1.838387E13,7.864689E12,3.5802713E13,3.0497191E13,4.522546E12,2.7645186E13,2.6415508E13,3.6056305E13,0E0,0E0,1.883833E13,1.8553269E13,0E0,1.6557401E13,6.408944E11,2.5572084E12,1.2698504E11,2.5731036E11,1.3654171E13,3.0567643E13,6.6590076E12,5.4631984E12,7.0866095E12,2.8158108E13,9.570668E12,6.964935E13,0E0,0E0,2.2570347E13,2.0196245E12,8.659645E11,2.7438826E13,2.7002065E13,2.7590962E13,8.182852E12,2.2721988E13,2.0462147E13,4.917173E12,0E0,1.3781577E13,0E0,0E0,0E0,0E0,0E0,0E0,0E0,0E0,0E0,0E0,0E0,0E0,0E0,0E0,0E0,0E0,0E0,0E0,0E0,0E0,0E0,0E0,0E0,0E0,0E0,0E0,0E0,0E0,0E0,0E0,0E0,0E0,0E0,0E0,0E0,0E0,0E0,0E0,0E0,0E0,0E0,0E0,0E0,0E0,0E0,0E0],"parents":[2147483647,0,0,1,1,2,2,3,3,4,4,5,5,6,6,7,7,8,8,9,9,10,10,11,11,12,12,13,13,14,14,15,15,16,16,17,17,18,18,19,19,20,20,21,21,22,22,23,23,24,24,27,27,28,28,30,30,31,31,32,32,33,33,34,34,35,35,36,36,37,37,38,38,39,39,40,40,41,41,42,42,45,45,46,46,47,47,48,48,49,49,50,50,51,51,52,52,53,53,54,54,56,56],"right_children":[2,4,6,8,10,12,14,16,18,20,22,24,26,28,30,32,34,36,38,40,42,44,46,48,50,-1,-1,52,54,-1,56,58,60,62,64,66,68,70,72,74,76,78,80,-1,-1,82,84,86,88,90,92,94,96,98,100,-1,102,-1,-1,-1,-1,-1,-1,-1,-1,-1,-1,-1,-1,-1,-1,-1,-1,-1,-1,-1,-1,-1,-1,-1,-1,-1,-1,-1,-1,-1,-1,-1,-1,-1,-1,-1,-1,-1,-1,-1,-1,-1,-1,-1,-1,-1,-1],"split_conditions":[1.21E0,4.4E-1,2.06E0,2.9E0,1.13E1,5.6E0,2.97E0,2E-1,2.893E3,4.3E1,1.02E1,8.2E0,-5.6E0,1.5E0,-6.1E0,3.7E3,-2.6E0,1E-1,6E-1,-1.2E0,6.9E0,1.1E0,2.08E1,1.8E1,2.1E0,-7.5182484E4,-2.2245025E5,2.3E0,4.7E0,3.434409E5,1.9E1,6E-2,1.6E-1,3.3E0,2.4E-1,2.811E3,1.69E1,2.2E-1,2.1E0,4.6E0,9.2E-1,4.36E3,9.4E0,-5.9342414E4,-2.6309597E5,5.2E1,2.64E1,4.6E0,6E-1,2.12E1,1.57E0,1.709E3,-8.8E0,4.3E0,2.71E1,-6.1276226E3,4E0,-7.943252E4,-2.2445139E4,-1.8410767E5,-5.5352414E4,-2.1746545E4,-5.7687207E4,-7.4771445E3,2.352477E4,-1.4788775E5,3.178303E4,-1.7252898E4,-2.3793586E5,-1.3756372E5,2.3919434E4,-2.069494E5,-1.5764383E5,9.521965E4,-8.242269E4,-1.7749258E5,-3.4614478E3,1.29842875E5,-7.057554E4,-1.4583116E5,1.0886274E5,-1.29447016E5,-4.6838918E4,-2.3904817E5,-1.218772E5,-7.8454305E4,1.4332968E3,-3.0783232E4,2.1357673E5,1.575062E5,-2.4025842E4,-2.5668553E4,5.7145426E4,5.8228562E4,3.0550784E5,2.2010467E5,1.2626308E5,5.4162887E4,1.6029567E5,-7.766515E4,8.025303E4,2.5459823E5,1.4524705E5],"split_indices":[7,7,7,1,8,0,7,6,5,3,1,8,1,2,2,5,8,6,0,8,8,0,1,3,0,0,0,0,0,0,3,7,7,0,7,5,1,7,0,0,7,5,1,0,0,3,8,1,6,1,7,5,2,2,8,0,0,0,0,0,0,0,0,0,0,0,0,0,0,0,0,0,0,0,0,0,0,0,0,0,0,0,0,0,0,0,0,0,0,0,0,0,0,0,0,0,0,0,0,0,0,0,0],"split_type":[0,0,0,0,0,0,0,0,0,0,0,0,0,0,0,0,0,0,0,0,0,0,0,0,0,0,0,0,0,0,0,0,0,0,0,0,0,0,0,0,0,0,0,0,0,0,0,0,0,0,0,0,0,0,0,0,0,0,0,0,0,0,0,0,0,0,0,0,0,0,0,0,0,0,0,0,0,0,0,0,0,0,0,0,0,0,0,0,0,0,0,0,0,0,0,0,0,0,0,0,0,0,0],"sum_hessian":[1.347E3,7.28E2,6.19E2,4.22E2,3.06E2,2.65E2,3.54E2,4.2E1,3.8E2,1.25E2,1.81E2,2.59E2,6E0,2.52E2,1.02E2,2.6E1,1.6E1,2.24E2,1.56E2,5.7E1,6.8E1,1.1E1,1.7E2,4.5E1,2.14E2,2E0,4E0,1.38E2,1.14E2,1.4E1,8.8E1,1.1E1,1.5E1,7E0,9E0,1.87E2,3.7E1,9E0,1.47E2,1.2E1,4.5E1,2.7E1,4.1E1,2E0,9E0,1.53E2,1.7E1,5E0,4E1,4.9E1,1.65E2,2.2E1,1.16E2,1.07E2,7E0,3E0,8.5E1,7E0,4E0,1.2E1,3E0,4E0,3E0,5E0,4E0,1.83E2,4E0,3E1,7E0,5E0,4E0,5.7E1,9E1,1E1,2E0,3.2E1,1.3E1,2.5E1,2E0,2.1E1,2E1,4.9E1,1.04E2,1.1E1,6E0,3E0,2E0,5E0,3.5E1,3.9E1,1E1,6.7E1,9.8E1,2E0,2E1,6.2E1,5.4E1,2.5E1,8.2E1,5E0,2E0,6.5E1,2E1],"tree_param":{"num_deleted":"0","num_feature":"9","num_nodes":"103","size_leaf_vector":"1"}},{"base_weights":[1.0990463E4,-8.267806E5,1.4563349E6,-1.1295196E6,-7.3956164E4,1.02489875E6,1.9031468E6,-1.3508215E6,-8.6811344E5,5.6457E5,-5.2261625E5,1.2599125E6,1.516687E5,1.9633688E6,-1.0376736E5,-1.3774689E6,-2.5326752E5,-2.350709E5,-7.877251E5,8.679714E5,-6.470245E5,-1.0010493E6,-9.882055E4,1.9415136E6,1.03189694E6,2.951248E5,-2.4332788E5,2.1819462E6,1.5734499E6,9.767433E4,-9.474224E5,-1.2924799E6,-1.7171355E6,-9.476542E4,8.050784E4,2.6380594E5,-9.409841E5,-4.1570756E5,1.1383716E6,-1.5855502E6,1.8899898E5,6.199598E5,-1.4327916E6,-5.245114E5,1.1619084E6,1.399883E6,2.1392952E6,6.9663144E5,2.0551104E6,-2.2714211E5,1.2416626E6,2.1097372E6,3.5392697E5,2.8700906E5,1.7534998E6,-1.8520373E5,2.7299998E4,-5.554435E4,-1.3755036E5,-4.001024E4,-1.7549992E5,-6.7293477E3,3.0000748E4,7.75324E4,-9.227175E4,-1.6173336E5,-8.064273E4,-1.3484922E5,1.71956E5,-1.779281E4,1.615798E5,-2.5347611E5,-5.302828E4,-8.981378E4,1.4258255E5,-2.8047451E4,2.4769236E5,-2.9122156E4,-1.7520208E5,1.1633474E5,-7.375396E4,2.1322855E5,-9.448329E4,1.9053581E5,2.3986482E4,1.5273925E5,2.4036336E5,2.0832731E5,4.3747812E4,1.4977442E5,2.6930447E5,1.3327688E5,-6.6471875E4,1.503243E5,-6.5451332E4,1.8230466E5,2.4984558E5,1.884128E5,-1.12295125E5,1.9589234E5,4.7754516E4],"categories":[],"categories_nodes":[],"categories_segments":[],"categories_sizes":[],"default_left":[0,0,0,0,0,0,0,0,0,0,0,0,0,0,0,0,0,0,0,0,0,0,0,0,0,0,0,0,0,0,0,0,0,0,0,0,0,0,0,0,0,0,0,0,0,0,0,0,0,0,0,0,0,0,0,0,0,0,0,0,0,0,0,0,0,0,0,0,0,0,0,0,0,0,0,0,0,0,0,0,0,0,0,0,0,0,0,0,0,0,0,0,0,0,0,0,0,0,0,0,0],"id":16,"left_children":[1,3,5,7,9,11,13,15,17,19,21,23,25,27,29,31,33,-1,35,37,39,41,43,45,47,49,-1,51,53,-1,55,57,59,-1,61,63,65,67,69,71,73,75,77,79,81,83,85,87,89,91,93,95,-1,97,99,-1,-1,-1,-1,-1,-1,-1,-1,-1,-1,-1,-1,-1,-1,-1,-1,-1,-1,-1,-1,-1,-1,-1,-1,-1,-1,-1,-1,-1,-1,-1,-1,-1,-1,-1,-1,-1,-1,-1,-1,-1,-1,-1,-1,-1,-1],"loss_changes":[1.6334538E15,1.9455101E14,9.347104E13,3.4057816E13,7.0769434E13,5.193508E13,2.9452E13,9.244112E12,3.1757978E13,3.805674E13,2.9300967E13,2.9079714E13,2.1113577E13,1.6595284E13,8.2180136E12,7.018379E12,2.162216E12,0E0,4.3599337E13,2.8936E13,1.6776887E13,4.8478642E13,4.247053E13,2.2543377E12,5.071165E13,2.6482338E13,0E0,7.038646E12,1.9879608E13,0E0,6.025667E12,1.51458E13,2.3397673E12,0E0,2.472849E11,2.195789E13,2.0082512E13,3.2194985E13,4.302117E13,8.672573E12,1.7415784E13,2.5775818E13,1.916859E13,2.2072152E13,4.2901325E13,8.924737E12,1.8281965E12,4.077354E13,9.122343E12,2.4776236E13,1.0407935E13,1.1381462E13,0E0,2.9138277E13,1.9247074E13,0E0,0E0,0E0,0E0,0E0,0E0,0E0,0E0,0E0,0E0,0E0,0E0,0E0,0E0,0E0,0E0,0E0,0E0,0E0,0E0,0E0,0E0,0E0,0E0,0E0,0E0,0E0,0E0,0E0,0E0,0E0,0E0,0E0,0E0,0E0,0E0,0E0,0E0,0E0,0E0,0E0,0E0,0E0,0E0,0E0,0E0],"parents":[2147483647,0,0,1,1,2,2,3,3,4,4,5,5,6,6,7,7,8,8,9,9,10,10,11,11,12,12,13,13,14,14,15,15,16,16,18,18,19,19,20,20,21,21,22,22,23,23,24,24,25,25,27,27,28,28,30,30,31,31,32,32,34,34,35,35,36,36,37,37,38,38,39,39,40,40,41,41,42,42,43,43,44,44,45,45,46,46,47,47,48,48,49,49,50,50,51,51,53,53,54,54],"right_children":[2,4,6,8,10,12,14,16,18,20,22,24,26,28,30,32,34,-1,36,38,40,42,44,46,48,50,-1,52,54,-1,56,58,60,-1,62,64,66,68,70,72,74,76,78,80,82,84,86,88,90,92,94,96,-1,98,100,-1,-1,-1,-1,-1,-1,-1,-1,-1,-1,-1,-1,-1,-1,-1,-1,-1,-1,-1,-1,-1,-1,-1,-1,-1,-1,-1,-1,-1,-1,-1,-1,-1,-1,-1,-1,-1,-1,-1,-1,-1,-1,-1,-1,-1,-1],"split_conditions":[1.6E0,8.5E-1,2.42E0,2.9E-1,1.35E1,2.49E1,5.2E0,6E-1,2.3E1,4.952E3,5.5E1,8.2E0,2.39E0,5.1E0,4.4E1,4.654E3,4E-1,-2.350709E5,2.9E0,4E-1,1E0,5E-1,4.402E3,2.1E1,4.3E0,2.24E0,-2.4332788E5,4.5E0,5.8E0,9.767433E4,2.6E0,3.8E0,5E-1,-9.476542E4,-7.3E0,4.979E3,4.4E1,4E-1,3E1,1.07E0,2.1E1,4.936E3,1.66E1,1.3E0,1.84E1,2E1,3.975E3,2.2E0,1.93E0,2E0,2.54E1,2.97E0,3.5392697E5,4.076E3,4.1E0,-1.8520373E5,2.7299998E4,-5.554435E4,-1.3755036E5,-4.001024E4,-1.7549992E5,-6.7293477E3,3.0000748E4,7.75324E4,-9.227175E4,-1.6173336E5,-8.064273E4,-1.3484922E5,1.71956E5,-1.779281E4,1.615798E5,-2.5347611E5,-5.302828E4,-8.981378E4,1.4258255E5,-2.8047451E4,2.4769236E5,-2.9122156E4,-1.7520208E5,1.1633474E5,-7.375396E4,2.1322855E5,-9.448329E4,1.9053581E5,2.3986482E4,1.5273925E5,2.4036336E5,2.0832731E5,4.3747812E4,1.4977442E5,2.6930447E5,1.3327688E5,-6.6471875E4,1.503243E5,-6.5451332E4,1.8230466E5,2.4984558E5,1.884128E5,-1.12295125E5,1.9589234E5,4.7754516E4],"split_indices":[7,7,7,7,8,8,0,6,3,5,3,8,7,2,3,5,0,0,8,6,6,6,5,3,2,7,0,2,2,0,7,1,0,0,2,5,3,2,3,7,3,5,8,0,1,3,5,0,7,0,1,7,0,5,0,0,0,0,0,0,0,0,0,0,0,0,0,0,0,0,0,0,0,0,0,0,0,0,0,0,0,0,0,0,0,0,0,0,0,0,0,0,0,0,0,0,0,0,0,0,0],"split_type":[0,0,0,0,0,0,0,0,0,0,0,0,0,0,0,0,0,0,0,0,0,0,0,0,0,0,0,0,0,0,0,0,0,0,0,0,0,0,0,0,0,0,0,0,0,0,0,0,0,0,0,0,0,0,0,0,0,0,0,0,0,0,0,0,0,0,0,0,0,0,0,0,0,0,0,0,0,0,0,0,0,0,0,0,0,0,0,0,0,0,0,0,0,0,0,0,0,0,0,0,0],"sum_hessian":[1.347E3,8.53E2,4.94E2,6.08E2,2.45E2,2.53E2,2.41E2,3.27E2,2.81E2,1.01E2,1.44E2,1.99E2,5.4E1,2.34E2,7E0,3.19E2,8E0,1.3E1,2.68E2,8.1E1,2E1,6.7E1,7.7E1,4.8E1,1.51E2,5.2E1,2E0,1.47E2,8.7E1,3E0,4E0,2.59E2,6E1,2E0,6E0,3.4E1,2.34E2,1.4E1,6.7E1,9E0,1.1E1,1.4E1,5.3E1,5.8E1,1.9E1,1.5E1,3.3E1,1.15E2,3.6E1,3.4E1,1.8E1,1.42E2,5E0,1.1E1,7.6E1,2E0,2E0,2.7E1,2.32E2,2E0,5.8E1,4E0,2E0,2.4E1,1E1,3.7E1,1.97E2,1E1,4E0,1.8E1,4.9E1,4E0,5E0,6E0,5E0,1E1,4E0,1.2E1,4.1E1,6E0,5.2E1,1.3E1,6E0,1E1,5E0,1.2E1,2.1E1,1.7E1,9.8E1,2.1E1,1.5E1,7E0,2.7E1,1.6E1,2E0,8.5E1,5.7E1,5E0,6E0,6.5E1,1.1E1],"tree_param":{"num_deleted":"0","num_feature":"9","num_nodes":"101","size_leaf_vector":"1"}},{"base_weights":[1.0903452E4,-9.0870725E5,1.09217E6,-1.1605451E6,-5.587523E5,3.9144184E5,1.4765919E6,-9.6010956E5,-1.2888318E6,-4.267323E5,-1.3381734E6,4.5939462E5,-1.7515988E6,1.1994631E6,1.8407031E6,-1.0484406E6,-1.0865329E5,-1.6786666E6,-1.1855614E6,3.2778994E5,-5.8744706E5,-9.4466294E5,-1.9677752E6,2.0453888E5,3.638489E5,-6.797606E4,-2.0443819E5,1.6004986E6,7.152283E5,1.9350821E6,9.838252E5,8.5826734E4,-1.1034111E6,-1.20856375E5,3.2274712E5,-1.813039E6,-1.0908695E6,-1.2780352E6,-7.455308E5,-4.4094883E4,1.3038036E6,-1.7030739E6,-4.9064953E5,-1.4597045E6,1.7988636E5,-7.594302E4,-2.1882066E5,1.0317893E6,1.5732033E5,1.3525378E6,2.4504105E6,2.2260848E6,4.417236E5,7.476689E5,1.9868919E6,-1.5647236E5,1.6620381E6,-3.2417094E4,5.768672E4,-1.1941179E5,-2.9178678E4,-8.94778E3,8.185892E4,-2.6310389E4,-1.8876908E5,-4.1940547E4,-1.6924328E5,-1.6225889E5,-1.17516336E5,5.6956605E4,-1.1152089E5,2.0738389E4,-9.187587E4,-1.31103545E4,1.5766144E5,1.4677597E4,-1.9595056E5,5.4089938E4,-6.737156E4,-1.7150638E5,-3.5061402E4,7.904246E4,-5.8873676E4,1.25673016E5,-1.15404766E5,6.31327E4,-1.1917676E4,1.5459773E5,-3.3552113E4,1.1930418E4,2.850633E5,9.5358664E4,2.7178034E5,9.484474E4,7.6960054E3,2.3776753E5,-1.9194582E4,1.5873597E4,2.0111806E5,-1.0553108E5,1.00619375E5,2.1191398E5,2.1804998E4],"categories":[],"categories_nodes":[],"categories_segments":[],"categories_sizes":[],"default_left":[0,0,0,0,0,0,0,0,0,0,0,0,0,0,0,0,0,0,0,0,0,0,0,0,0,0,0,0,0,0,0,0,0,0,0,0,0,0,0,0,0,0,0,0,0,0,0,0,0,0,0,0,0,0,0,0,0,0,0,0,0,0,0,0,0,0,0,0,0,0,0,0,0,0,0,0,0,0,0,0,0,0,0,0,0,0,0,0,0,0,0,0,0,0,0,0,0,0,0,0,0,0,0],"id":17,"left_children":[1,3,5,7,9,11,13,15,17,19,21,23,25,27,29,31,33,35,37,39,41,43,45,-1,47,-1,-1,49,51,53,55,57,59,-1,61,63,65,67,69,71,73,75,77,79,81,-1,-1,83,85,87,89,91,93,95,97,99,101,-1,-1,-1,-1,-1,-1,-1,-1,-1,-1,-1,-1,-1,-1,-1,-1,-1,-1,-1,-1,-1,-1,-1,-1,-1,-1,-1,-1,-1,-1,-1,-1,-1,-1,-1,-1,-1,-1,-1,-1,-1,-1,-1,-1,-1,-1],"loss_changes":[1.3413685E15,6.359974E13,1.6643461E14,9.639249E12,3.1019E13,3.2987914E13,3.8154543E13,1.2596569E13,8.275731E12,3.2205955E13,9.042332E12,3.18358E13,8.0702394E11,4.35202E13,1.1925178E13,9.634434E12,8.4565914E12,2.0503771E12,7.388887E12,1.7116831E13,2.2706192E13,1.7059075E13,2.599919E12,0E0,2.797923E13,0E0,0E0,2.302881E13,4.281869E13,7.926966E12,1.4953992E13,1.797607E12,1.0400045E13,0E0,2.7304253E12,4.1315404E12,4.1373202E12,4.0479396E12,1.910936E13,7.8891136E12,5.295655E12,8.3517275E12,3.8510417E13,5.0630073E12,5.1580895E12,0E0,0E0,2.5051152E13,2.065189E13,3.284588E13,2.4849875E13,7.419724E12,1.6746939E13,1.2709009E13,6.1635465E12,9.422239E12,7.4585106E12,0E0,0E0,0E0,0E0,0E0,0E0,0E0,0E0,0E0,0E0,0E0,0E0,0E0,0E0,0E0,0E0,0E0,0E0,0E0,0E0,0E0,0E0,0E0,0E0,0E0,0E0,0E0,0E0,0E0,0E0,0E0,0E0,0E0,0E0,0E0,0E0,0E0,0E0,0E0,0E0,0E0,0E0,0E0,0E0,0E0,0E0],"parents":[2147483647,0,0,1,1,2,2,3,3,4,4,5,5,6,6,7,7,8,8,9,9,10,10,11,11,12,12,13,13,14,14,15,15,16,16,17,17,18,18,19,19,20,20,21,21,22,22,24,24,27,27,28,28,29,29,30,30,31,31,32,32,34,34,35,35,36,36,37,37,38,38,39,39,40,40,41,41,42,42,43,43,44,44,47,47,48,48,49,49,50,50,51,51,52,52,53,53,54,54,55,55,56,56],"right_children":[2,4,6,8,10,12,14,16,18,20,22,24,26,28,30,32,34,36,38,40,42,44,46,-1,48,-1,-1,50,52,54,56,58,60,-1,62,64,66,68,70,72,74,76,78,80,82,-1,-1,84,86,88,90,92,94,96,98,100,102,-1,-1,-1,-1,-1,-1,-1,-1,-1,-1,-1,-1,-1,-1,-1,-1,-1,-1,-1,-1,-1,-1,-1,-1,-1,-1,-1,-1,-1,-1,-1,-1,-1,-1,-1,-1,-1,-1,-1,-1,-1,-1,-1,-1,-1,-1],"split_conditions":[1.21E0,4.4E-1,1.91E0,9.4E0,1.9E1,5.6E0,2.7E0,4.4E0,5.9E1,1.4E0,4.24E3,2E-1,-5.6E0,2.27E1,3.53E1,1.273E3,8E-2,3.2E0,3.2E-1,8.2E-1,2.2E1,9.5E-1,4.6E1,2.0453888E5,2E0,-6.797606E4,-2.0443819E5,1.43E1,2.7E1,1.553E3,3.18E0,5E0,6E-1,-1.20856375E5,9.2E0,1.336E3,1.29E1,4E-2,3.4E-1,1.2E0,3E1,2.994E3,4.8E0,3.6E0,2.2E0,-7.594302E4,-2.1882066E5,2.25E1,7E-1,7.3E0,-7.3E0,2.32E1,2.9E0,1E0,7E-1,2.9E0,3.44E0,-3.2417094E4,5.768672E4,-1.1941179E5,-2.9178678E4,-8.94778E3,8.185892E4,-2.6310389E4,-1.8876908E5,-4.1940547E4,-1.6924328E5,-1.6225889E5,-1.17516336E5,5.6956605E4,-1.1152089E5,2.0738389E4,-9.187587E4,-1.31103545E4,1.5766144E5,1.4677597E4,-1.9595056E5,5.4089938E4,-6.737156E4,-1.7150638E5,-3.5061402E4,7.904246E4,-5.8873676E4,1.25673016E5,-1.15404766E5,6.31327E4,-1.1917676E4,1.5459773E5,-3.3552113E4,1.1930418E4,2.850633E5,9.5358664E4,2.7178034E5,9.484474E4,7.6960054E3,2.3776753E5,-1.9194582E4,1.5873597E4,2.0111806E5,-1.0553108E5,1.00619375E5,2.1191398E5,2.1804998E4],"split_indices":[7,7,7,8,1,0,7,2,3,0,5,8,1,8,8,5,7,0,7,7,3,7,3,0,0,0,0,1,3,5,7,1,6,0,1,5,8,7,7,0,3,5,8,0,0,0,0,1,6,4,2,8,0,2,6,0,7,0,0,0,0,0,0,0,0,0,0,0,0,0,0,0,0,0,0,0,0,0,0,0,0,0,0,0,0,0,0,0,0,0,0,0,0,0,0,0,0,0,0,0,0,0,0],"split_type":[0,0,0,0,0,0,0,0,0,0,0,0,0,0,0,0,0,0,0,0,0,0,0,0,0,0,0,0,0,0,0,0,0,0,0,0,0,0,0,0,0,0,0,0,0,0,0,0,0,0,0,0,0,0,0,0,0,0,0,0,0,0,0,0,0,0,0,0,0,0,0,0,0,0,0,0,0,0,0,0,0,0,0,0,0,0,0,0,0,0,0,0,0,0,0,0,0,0,0,0,0,0,0],"sum_hessian":[1.347E3,7.28E2,6.19E2,4.22E2,3.06E2,2.2E2,3.99E2,1.68E2,2.54E2,2.63E2,4.3E1,2.14E2,6E0,2.29E2,1.7E2,1.52E2,1.6E1,5E1,2.04E2,4.6E1,2.17E2,2.8E1,1.5E1,1.1E1,2.03E2,